svm_type c_svc
kernel_type linear
nr_class 6
total_sv 1754
rho 1.228744272813379 1.0928108496523428 1.0959251512413624 0.4458560950299267 1.3502421614444915 0.1812791166477924 0.4875799431805377 0.08405667835486828 -0.04436387682213252 0.07858784224840747 -0.3770202199114677 -0.24909097915238695 0.16413187752719174 -0.18704467619757573 -0.46912557194599325
label 1 2 3 4 5 6
probA -1.551270064427043 -2.3453929825918802 -1.9813948539420552 -2.2442208259338825 -1.9428172366178411 -1.5943259612823812 -2.8292663903949014 -2.5949931741200385 -2.942483700802735 -1.9199005628679275 -2.3482472112725294 -2.5415546564176763 -2.5142179248072107 -2.489822289870092 -2.52208353297009
probB 1.0537595682426046 0.875965838899369 0.5883380107009435 0.5616971055903303 0.7000377796601177 0.33733253073843644 0.5438634885972816 0.6940538014974937 0.7205500158066126 0.08169724869265738 0.3794716537072725 0.4166715117379431 -0.29771820257056575 -0.5468389706945292 0.6927460841150731
nr_sv 34 357 589 321 273 180
SV
1.0 0.9030460590400408 1.0 1.0 1.0 1:1.0 2:1.0 3:2.0 4:4.0 5:9.0 6:4.0 7:3.0 
0.0 1.0 0.3049911071225536 1.0 0.0 2:1.0 3:2.0 4:1.0 5:13.0 6:9.0 7:3.0 8:1.0 9:2.0 
1.0 0.8352102448285643 0.5277257079859436 0.6328245807364967 0.6406708621051337 2:1.0 3:2.0 4:1.0 5:5.0 6:4.0 7:2.0 10:1.0 11:1.0 12:1.0 13:1.0 
1.0 0.0 0.0 0.0 0.0 1:1.0 2:1.0 3:2.0 4:2.0 5:10.0 6:7.0 7:2.0 9:1.0 
1.0 1.0 1.0 1.0 1.0 2:1.0 3:2.0 4:1.0 5:5.0 6:4.0 7:1.0 8:1.0 9:1.0 
1.0 0.05231210747045221 0.14754883033133567 0.0 0.0 1:1.0 2:1.0 3:2.0 4:1.0 5:11.0 6:8.0 7:3.0 14:1.0 
1.0 1.0 1.0 1.0 1.0 2:1.0 3:2.0 4:4.0 5:11.0 6:8.0 7:1.0 8:1.0 
1.0 0.0 0.0 0.0 0.0 1:1.0 2:1.0 3:2.0 4:1.0 5:6.0 6:5.0 7:1.0 9:1.0 
1.0 1.0 1.0 1.0 1.0 2:1.0 3:2.0 4:4.0 5:9.0 6:6.0 7:1.0 8:1.0 
1.0 0.0 0.0 0.0 0.0 1:1.0 2:1.0 3:2.0 4:1.0 5:8.0 6:7.0 7:1.0 9:1.0 
1.0 1.0 1.0 1.0 1.0 2:1.0 3:2.0 4:1.0 5:2.0 6:1.0 7:1.0 8:1.0 9:1.0 
1.0 1.0 1.0 1.0 1.0 2:1.0 3:2.0 4:1.0 5:2.0 6:1.0 7:1.0 8:1.0 9:1.0 
1.0 1.0 1.0 1.0 1.0 2:1.0 3:2.0 4:1.0 5:2.0 6:1.0 7:1.0 8:1.0 9:1.0 
0.3617610625112124 0.9945717936522372 0.23937078995386582 0.35948912382162 0.3444064203552831 3:2.0 5:5.0 6:5.0 7:1.0 9:1.0 10:1.0 13:1.0 15:1.0 16:1.0 
1.0 0.0 0.0 0.0 0.0 1:1.0 2:1.0 3:2.0 4:1.0 5:11.0 6:7.0 7:3.0 9:1.0 17:1.0 
0.9154506210275765 1.0 0.6143270017993294 0.7244292645927178 0.6883230551979465 3:2.0 4:1.0 5:7.0 6:5.0 7:2.0 9:1.0 10:1.0 13:1.0 18:1.0 
1.0 1.0 1.0 1.0 1.0 2:1.0 3:2.0 4:3.0 5:11.0 6:7.0 7:3.0 8:1.0 
1.0 1.0 0.3513171444706209 0.09487482902526347 0.6296371732999648 1:1.0 2:1.0 3:2.0 4:1.0 5:4.0 6:4.0 7:1.0 
0.19459308939776152 0.0 0.0 0.0 0.0 1:1.0 2:1.0 3:2.0 4:1.0 5:4.0 6:3.0 7:1.0 9:1.0 
1.0 1.0 1.0 1.0 1.0 2:1.0 3:2.0 4:1.0 5:2.0 6:1.0 7:1.0 8:1.0 9:1.0 
1.0 1.0 1.0 1.0 1.0 2:1.0 3:2.0 4:1.0 5:16.0 6:13.0 7:3.0 8:1.0 9:1.0 
1.0 0.0 0.0 0.0 0.0 1:1.0 2:1.0 3:2.0 4:1.0 5:4.0 6:3.0 7:1.0 9:1.0 
1.0 0.0 0.0 0.0 0.0025782545222287805 1:1.0 2:1.0 3:2.0 4:1.0 5:4.0 6:3.0 7:1.0 19:1.0 
1.0 0.0 0.0 0.0 0.0 1:1.0 2:1.0 3:2.0 4:1.0 5:5.0 6:4.0 7:1.0 9:1.0 
1.0 1.0 1.0 1.0 1.0 2:1.0 3:2.0 4:4.0 5:8.0 6:5.0 7:1.0 8:1.0 
1.0 0.0 0.48474850415160875 0.0 0.0 1:1.0 2:1.0 3:2.0 4:1.0 5:8.0 6:6.0 7:3.0 
0.38358447507913457 0.047545237251477135 0.07411288114045092 0.7474134525321129 0.4710314148063818 1:1.0 2:1.0 3:2.0 4:1.0 5:11.0 6:8.0 7:2.0 19:2.0 
1.0 0.0 0.0 0.0 0.0 1:1.0 2:1.0 3:2.0 4:1.0 5:4.0 6:3.0 7:1.0 9:1.0 
1.0 0.0 0.0 0.0 0.0 1:1.0 2:1.0 3:2.0 4:1.0 5:4.0 6:3.0 7:1.0 9:1.0 
1.0 1.0 1.0 1.0 1.0 2:1.0 3:2.0 4:1.0 5:10.0 6:8.0 7:2.0 8:1.0 17:1.0 
1.0 1.0 1.0 1.0 1.0 2:1.0 3:2.0 4:1.0 5:11.0 6:11.0 7:1.0 8:1.0 
1.0 1.0 1.0 0.554782306120559 1.0 3:2.0 4:1.0 5:11.0 6:8.0 7:3.0 9:1.0 20:1.0 21:1.0 
0.9917219431229153 0.0 0.0 0.0 0.0 1:1.0 2:1.0 3:2.0 4:1.0 5:4.0 6:3.0 7:1.0 9:1.0 
1.0 0.0 0.0 0.0 0.0 1:1.0 2:1.0 3:2.0 4:1.0 5:5.0 6:4.0 7:1.0 9:1.0 
-0.0 0.24212737788183292 0.15182269721648345 0.0 0.21915072094487295 2:1.0 3:2.0 4:1.0 5:5.0 6:5.0 7:1.0 10:1.0 24:1.0 
-0.0 0.6344186468579731 0.11431616729801532 0.056880565331777655 0.07301382466551329 2:1.0 3:2.0 4:3.0 5:8.0 6:5.0 7:2.0 10:1.0 26:1.0 27:1.0 28:1.0 
-0.0 1.0 0.0 0.0 0.0 2:1.0 3:2.0 4:1.0 5:4.0 6:4.0 7:1.0 8:1.0 
-0.0 1.0 1.0 0.0 1.0 2:1.0 3:2.0 4:4.0 5:13.0 6:8.0 7:3.0 8:1.0 
-0.0 0.0 0.0 1.0 0.0 3:2.0 4:1.0 5:4.0 6:4.0 7:1.0 8:1.0 31:1.0 
-0.0 0.0 0.0 0.0 1.0 2:1.0 3:2.0 4:2.0 5:2.0 6:1.0 7:1.0 8:1.0 
-0.0 1.0 0.0 0.0 0.0 2:1.0 3:2.0 4:1.0 5:7.0 6:7.0 7:1.0 8:1.0 
-0.0 1.0 0.0 0.0 0.0 2:1.0 3:2.0 4:1.0 5:6.0 6:6.0 7:1.0 8:1.0 
-0.0 0.0 0.0 1.0 0.004764778380400688 3:2.0 4:1.0 5:4.0 6:4.0 7:1.0 8:1.0 31:1.0 
-0.0 0.9491011221193086 0.3220532331743548 0.1759206080397758 0.27385332659237005 2:1.0 3:2.0 4:5.0 5:17.0 6:10.0 7:3.0 10:1.0 32:1.0 33:1.0 34:1.0 35:1.0 36:1.0 
-0.0 1.0 0.0 0.0 0.0 2:1.0 3:2.0 4:1.0 5:4.0 6:4.0 7:1.0 8:1.0 
-1.0 1.0 0.0 1.0 0.0 2:1.0 3:2.0 4:1.0 5:4.0 6:3.0 7:1.0 8:1.0 9:1.0 
-0.0 0.26926862435095 0.1476846033599117 0.0 0.04880533869886635 2:1.0 3:2.0 4:4.0 5:12.0 6:8.0 7:2.0 10:1.0 38:1.0 39:1.0 40:1.0 41:1.0 
-0.0 0.8111743594748337 0.2652525173512469 0.20763606949712127 0.21910278459262064 2:1.0 3:2.0 4:3.0 5:4.0 6:2.0 7:1.0 10:1.0 42:1.0 
-0.0 0.608116582190664 0.025868620695419918 0.0 0.0 3:2.0 4:2.0 5:19.0 6:17.0 7:2.0 13:1.0 23:1.0 43:1.0 44:1.0 45:1.0 
-0.0 1.0 1.0 1.0 1.0 2:1.0 3:2.0 4:1.0 5:11.0 6:11.0 7:1.0 8:1.0 
-0.0 0.8728334037501388 0.15453655066069705 0.16229778590642016 0.21941659931207577 2:1.0 3:2.0 4:1.0 5:3.0 6:3.0 7:1.0 10:1.0 46:1.0 
-0.0 0.0 0.0 0.023446237939568335 0.01097452712349887 2:1.0 3:2.0 4:1.0 5:9.0 6:8.0 7:2.0 10:1.0 39:1.0 47:1.0 48:2.0 
-0.0 0.0 0.0 0.0 1.0 3:2.0 4:2.0 5:11.0 6:10.0 7:1.0 23:1.0 49:1.0 
-0.0 1.0 1.0 1.0 0.9490627547495095 2:1.0 3:2.0 4:3.0 5:9.0 6:7.0 7:1.0 8:1.0 
-0.0 0.0 0.0 0.0 0.5283899584628957 3:2.0 4:1.0 5:5.0 6:5.0 7:1.0 23:1.0 50:1.0 
-0.0 1.0 1.0 0.43545975189059244 0.274643715788328 2:1.0 3:2.0 4:5.0 5:10.0 6:5.0 7:1.0 9:1.0 10:1.0 51:1.0 52:1.0 
-0.0 0.8728604983502456 0.15453939588405802 0.1623267411767865 0.21939945745727263 2:1.0 3:2.0 4:1.0 5:3.0 6:3.0 7:1.0 10:1.0 53:1.0 
-0.0 1.0 0.0 0.0 0.0 2:1.0 3:2.0 4:1.0 5:10.0 6:8.0 7:3.0 8:1.0 
-0.0 1.0 0.0 1.0 0.0 2:1.0 3:2.0 4:3.0 5:5.0 6:3.0 7:1.0 8:1.0 
-0.0 1.0 1.0 1.0 1.0 2:1.0 3:2.0 4:4.0 5:5.0 6:2.0 7:1.0 8:1.0 
-0.0 1.0 1.0 1.0 0.21137959010423968 2:1.0 3:2.0 4:3.0 5:8.0 6:6.0 7:1.0 8:1.0 
-0.0 1.0 0.0 0.0 0.0 3:2.0 4:3.0 5:13.0 6:10.0 7:1.0 20:1.0 25:1.0 54:1.0 
-0.0 0.3753652326710967 0.32312004633807795 0.05903680030227781 0.04125895081140439 2:1.0 3:2.0 4:3.0 5:13.0 6:6.0 7:5.0 10:1.0 55:1.0 56:1.0 57:1.0 58:1.0 
-1.0 1.0 0.0 0.6240403153272213 0.0 2:1.0 3:2.0 4:1.0 5:8.0 6:6.0 7:2.0 8:1.0 9:1.0 
-0.0 1.0 0.0 0.0 0.0 2:1.0 3:2.0 4:1.0 5:7.0 6:7.0 7:1.0 8:1.0 
-0.0 0.0 0.0 0.0 1.0 3:2.0 4:1.0 5:5.0 6:4.0 7:1.0 9:1.0 23:1.0 59:1.0 
-0.0 1.0 0.0 1.0 0.0 2:1.0 3:2.0 4:2.0 5:7.0 6:6.0 7:1.0 8:1.0 
-0.0 1.0 0.0 0.0 0.0 2:1.0 3:2.0 4:1.0 5:10.0 6:8.0 7:3.0 8:1.0 
-0.0 1.0 0.0 0.0 0.0 2:1.0 3:2.0 4:1.0 5:6.0 6:6.0 7:1.0 8:1.0 
-0.0590441074242709 0.0 0.0 0.2260330591142324 0.12336800758858968 2:1.0 3:2.0 4:1.0 5:6.0 6:4.0 7:2.0 9:1.0 10:1.0 47:1.0 60:1.0 61:1.0 
-0.0 0.872854516181471 0.15453642142759547 0.16228032067839507 0.21941557092369834 2:1.0 3:2.0 4:1.0 5:3.0 6:3.0 7:1.0 10:1.0 62:1.0 
-0.0 0.33724509365137856 0.0 0.053038576811914886 0.02529995691244057 2:1.0 3:2.0 4:1.0 5:2.0 6:1.0 7:1.0 10:1.0 58:1.0 63:1.0 
-0.0 1.0 0.0 0.0 0.0 2:1.0 3:2.0 4:1.0 5:5.0 6:5.0 7:1.0 8:1.0 
-0.0 0.872845683897911 0.15455399528188166 0.16232730568228135 0.21940470833481474 2:1.0 3:2.0 4:1.0 5:3.0 6:3.0 7:1.0 10:1.0 64:1.0 
-0.0 1.0 0.0 0.0 0.0 2:1.0 3:2.0 4:1.0 5:4.0 6:4.0 7:1.0 8:1.0 
-0.0 1.0 0.0 0.0 0.0 2:1.0 3:2.0 4:1.0 5:7.0 6:6.0 7:2.0 8:1.0 
-0.0 0.0 0.0 0.0 0.10229793868301786 3:2.0 4:1.0 5:8.0 6:8.0 7:1.0 23:1.0 65:1.0 
-0.0 1.0 0.0 0.0 0.0 2:1.0 3:2.0 4:1.0 5:8.0 6:6.0 7:3.0 8:1.0 
-0.0 0.0 0.0 1.0 0.0 2:1.0 3:2.0 4:3.0 5:4.0 6:2.0 7:1.0 8:1.0 
-0.049912698927285934 0.6736915309665891 0.0 0.0 0.0 2:1.0 3:2.0 4:2.0 5:11.0 6:9.0 7:1.0 10:1.0 19:1.0 66:1.0 67:1.0 
-0.0 1.0 0.37187162861358447 0.13378307717951968 0.31920556032172065 2:1.0 3:2.0 4:3.0 5:11.0 6:8.0 7:1.0 10:1.0 17:1.0 68:1.0 69:1.0 70:1.0 
-0.0 0.0 0.0 0.0 1.0 3:2.0 4:1.0 5:12.0 6:11.0 7:1.0 9:1.0 23:1.0 65:1.0 
-0.0 0.3865473661604051 0.010412024940475013 0.03834477620188829 0.0 2:1.0 3:2.0 4:2.0 5:9.0 6:8.0 7:1.0 10:1.0 48:1.0 59:1.0 71:1.0 72:1.0 
-0.0 1.0 0.0 0.0 0.0 2:1.0 3:2.0 4:2.0 5:4.0 6:3.0 7:1.0 8:1.0 
-0.0 1.0 0.0 0.0 0.0 2:1.0 3:2.0 4:1.0 5:4.0 6:4.0 7:1.0 8:1.0 
-0.0 0.0 0.0 1.0 0.03209686004001039 3:2.0 4:3.0 5:5.0 6:3.0 7:1.0 8:1.0 31:1.0 
-0.0 1.0 0.5336073738792342 0.4222552521119139 0.25326864113430975 2:1.0 3:2.0 4:1.0 5:7.0 6:7.0 7:1.0 73:1.0 74:1.0 75:1.0 
-0.0 0.4953912984865446 0.0 0.0 0.0 2:1.0 3:2.0 4:3.0 5:5.0 6:3.0 7:1.0 10:1.0 76:1.0 
-0.0 1.0 0.0 0.0 0.0 2:1.0 3:2.0 4:1.0 5:5.0 6:5.0 7:1.0 8:1.0 
-1.0 0.0 0.0 0.0 1.0 2:1.0 3:2.0 4:1.0 5:7.0 6:3.0 7:3.0 8:1.0 9:1.0 17:1.0 
-2.1004359446431147E-4 0.0 0.0 0.0 0.0 2:1.0 3:2.0 4:1.0 5:2.0 6:2.0 7:1.0 8:1.0 
-0.0 0.38158486966014116 0.039005828377964416 0.3356223230176741 0.05835820628020529 2:1.0 3:2.0 4:3.0 5:8.0 6:5.0 7:2.0 10:1.0 47:1.0 77:1.0 78:1.0 
-0.0 0.0 1.0 0.0 0.0 2:1.0 3:2.0 4:4.0 5:6.0 6:1.0 7:3.0 8:1.0 
-0.0 1.0 1.0 0.0 1.0 2:1.0 3:2.0 4:1.0 5:13.0 6:11.0 7:3.0 8:1.0 
-0.0 1.0 0.0 0.0 0.0 2:1.0 3:2.0 4:1.0 5:5.0 6:5.0 7:1.0 8:1.0 
-0.0 0.97459933977849 0.19138792922099593 0.1131444742029892 0.10954809446040673 2:1.0 3:2.0 4:1.0 5:5.0 6:4.0 7:1.0 10:1.0 36:1.0 79:1.0 80:1.0 
-0.13610097346323866 1.0 1.0 1.0 0.7595528637953567 2:1.0 3:2.0 4:7.0 5:15.0 6:6.0 7:3.0 9:1.0 81:1.0 
-0.0 1.0 0.0 0.0 0.0 2:1.0 3:2.0 4:1.0 5:6.0 6:6.0 7:1.0 8:1.0 
-0.0 1.0 0.0 1.0 1.0 2:1.0 3:2.0 4:1.0 5:9.0 6:9.0 7:1.0 8:1.0 
-0.0 0.0 0.0 0.0 1.0 3:2.0 4:1.0 5:23.0 6:19.0 7:5.0 23:1.0 29:1.0 
-0.0 1.0 0.0 0.0 0.0 2:1.0 3:2.0 4:1.0 5:7.0 6:7.0 7:1.0 8:1.0 
-0.0 0.0 0.0 0.0 0.004274833393358826 2:1.0 3:2.0 4:1.0 5:4.0 6:2.0 7:3.0 8:1.0 
-0.0 0.6047743615200794 0.2594108597697495 0.002225865635656796 0.09814703162421397 2:1.0 3:2.0 4:3.0 5:10.0 6:7.0 7:1.0 10:1.0 82:1.0 83:1.0 84:1.0 85:1.0 
-0.660236839524484 1.0 1.0 0.37961033182246184 0.487184780155114 2:1.0 3:2.0 4:4.0 5:14.0 6:6.0 7:2.0 9:2.0 10:1.0 17:1.0 52:1.0 54:1.0 86:1.0 87:1.0 
-0.0 1.0 0.0 0.0 0.0 2:1.0 3:2.0 4:1.0 5:5.0 6:5.0 7:1.0 8:1.0 
-0.0 1.0 1.0 1.0 1.0 2:1.0 3:2.0 4:1.0 5:17.0 6:16.0 7:2.0 8:1.0 
-0.0 0.2584161915522247 0.0 0.3173539461831502 0.058378929380243264 2:1.0 3:2.0 4:2.0 5:6.0 6:4.0 7:2.0 10:1.0 47:1.0 88:1.0 89:1.0 
-0.0 1.0 0.0 1.0 1.0 2:1.0 3:2.0 4:1.0 5:11.0 6:10.0 7:1.0 8:1.0 17:1.0 
-0.0 0.11297236083981482 0.11289903940183256 0.035211874805305104 0.10175962942614535 2:1.0 3:2.0 4:4.0 5:7.0 6:2.0 7:3.0 10:1.0 90:1.0 91:1.0 92:1.0 
-0.0 1.0 0.0 1.0 1.0 2:1.0 3:2.0 4:1.0 5:9.0 6:9.0 7:1.0 8:1.0 
-0.0 0.24956605744051097 0.33823930079058906 0.0 0.10337697907920676 3:2.0 4:5.0 5:16.0 6:12.0 7:1.0 23:1.0 29:1.0 
-0.0 1.0 0.0 0.0 0.0 2:1.0 3:2.0 4:1.0 5:4.0 6:4.0 7:1.0 8:1.0 
-0.0 0.7540306867543175 0.3679413251338239 0.4952905182857792 0.04230761747156929 2:1.0 3:2.0 4:1.0 5:8.0 6:8.0 7:1.0 10:1.0 93:1.0 94:1.0 95:1.0 
-0.0 1.0 0.0 1.0 0.0 2:1.0 3:2.0 4:3.0 5:5.0 6:3.0 7:1.0 8:1.0 
-0.0 0.6881683739050971 0.1295256680904522 0.15311645095501847 0.2194341851611187 2:1.0 3:2.0 4:1.0 5:2.0 6:2.0 7:1.0 10:1.0 96:1.0 
-0.054142832366877613 0.6402523528012896 0.1303244128703286 0.0 0.30311444900333145 3:2.0 4:4.0 5:23.0 6:15.0 7:5.0 9:1.0 10:1.0 13:1.0 97:1.0 98:1.0 99:1.0 100:1.0 101:1.0 102:1.0 103:1.0 
-0.0 1.0 0.0 1.0 1.0 1:1.0 2:1.0 3:2.0 4:3.0 5:11.0 6:8.0 7:1.0 17:1.0 
-0.0 1.0 0.0 1.0 0.0 2:1.0 3:2.0 4:2.0 5:7.0 6:6.0 7:1.0 8:1.0 
-0.17369428565465853 0.0 0.0 0.0 0.0 2:1.0 3:2.0 4:1.0 5:2.0 6:2.0 7:1.0 8:1.0 
-0.0 1.0 0.1599007224684964 0.03280973212197856 0.2190847617573102 2:1.0 3:2.0 4:1.0 5:5.0 6:3.0 7:3.0 10:1.0 104:1.0 
-1.0 0.0 0.0 0.0 0.0 1:1.0 2:1.0 3:2.0 4:1.0 5:4.0 6:4.0 7:1.0 
-0.13138253361117974 0.8419241489840568 0.4053293678432544 0.05271849373386429 0.06954866581258495 2:1.0 3:2.0 4:1.0 5:6.0 6:3.0 7:3.0 8:1.0 105:1.0 
-0.0 1.0 0.4872911609992073 0.5749865933930054 0.15227971924012437 2:1.0 3:2.0 4:5.0 5:19.0 6:15.0 7:1.0 106:1.0 107:1.0 108:1.0 109:1.0 110:1.0 
-0.0 0.2773257876339594 0.31019149001377716 0.11402195555750005 0.2242997435105831 3:2.0 4:4.0 5:10.0 6:7.0 7:1.0 13:1.0 111:1.0 112:1.0 113:1.0 
-0.9079761153860332 0.42092195049565173 0.0 0.1494236831797715 0.014459471544341476 2:1.0 3:2.0 4:2.0 5:16.0 6:11.0 7:2.0 9:3.0 10:1.0 39:1.0 47:1.0 114:1.0 115:1.0 116:1.0 
-0.0 1.0 0.20973780909308792 0.27516434673516743 0.07914271807592206 2:1.0 3:2.0 4:1.0 5:2.0 6:1.0 7:1.0 8:1.0 36:1.0 
-0.0 0.0 0.7395620890482927 0.0 0.0 1:1.0 2:1.0 3:2.0 4:3.0 5:10.0 6:7.0 7:2.0 
-1.0 0.0 0.0 0.0 0.0 2:1.0 3:2.0 4:1.0 5:8.0 6:5.0 7:3.0 8:1.0 9:1.0 
-0.0 1.0 0.640251138181341 0.6104047326309738 0.0 3:2.0 4:2.0 5:17.0 6:14.0 7:1.0 19:1.0 22:1.0 23:1.0 58:1.0 
-0.0 1.0 0.0 1.0 0.0 2:1.0 3:2.0 4:2.0 5:6.0 6:5.0 7:1.0 8:1.0 
-0.0 1.0 0.0 0.0 0.0 2:1.0 3:2.0 4:1.0 5:8.0 6:6.0 7:3.0 8:1.0 
-0.0 1.0 0.0 0.15473320558548778 1.0 2:1.0 3:2.0 4:1.0 5:6.0 6:5.0 7:1.0 8:1.0 17:1.0 
-0.0 1.0 1.0 0.9922811792329226 1.0 2:1.0 3:2.0 4:3.0 5:11.0 6:8.0 7:2.0 8:1.0 
-0.0 0.0 0.31061569425576485 1.0 0.911042368130574 2:1.0 3:2.0 4:4.0 5:4.0 6:1.0 7:1.0 8:1.0 
-0.0 1.0 1.0 0.0 1.0 2:1.0 3:2.0 4:1.0 5:13.0 6:12.0 7:2.0 8:1.0 
-0.0 1.0 0.8444056918341475 0.8828466186093913 0.524785386300746 2:1.0 3:2.0 4:2.0 5:13.0 6:10.0 7:2.0 19:1.0 67:1.0 117:1.0 
-0.0 1.0 0.0 1.0 1.0 2:1.0 3:2.0 4:1.0 5:9.0 6:9.0 7:1.0 8:1.0 
-0.0 1.0 0.0 1.0 1.0 2:1.0 3:2.0 4:1.0 5:8.0 6:8.0 7:1.0 8:1.0 
-1.0 1.0 1.0 0.9992690023631782 0.14000230175704678 2:1.0 3:2.0 4:5.0 5:16.0 6:8.0 7:4.0 8:1.0 9:1.0 
-0.0 0.9296113876643955 0.32927157105424076 0.17308545636466796 0.10961740618270639 2:1.0 3:2.0 4:1.0 5:7.0 6:7.0 7:1.0 10:1.0 118:1.0 119:1.0 
-0.0 1.0 0.0 1.0 0.0 2:1.0 3:2.0 4:2.0 5:7.0 6:6.0 7:1.0 8:1.0 
-0.0 1.0 1.0 1.0 0.0 2:1.0 3:2.0 4:3.0 5:6.0 6:4.0 7:1.0 8:1.0 
-1.0 1.0 0.0 0.0 0.5734996790116943 2:1.0 3:2.0 4:1.0 5:14.0 6:11.0 7:3.0 8:1.0 9:1.0 
-0.0 0.0 0.0 0.0 1.0 2:1.0 3:2.0 4:2.0 5:2.0 6:1.0 7:1.0 8:1.0 
-0.0 1.0 1.0 1.0 0.04223140364673998 2:1.0 3:2.0 4:2.0 5:5.0 6:3.0 7:1.0 8:1.0 36:1.0 
-0.0 0.47729228224595577 0.0 0.04448846761559546 0.0 2:1.0 3:2.0 4:1.0 5:11.0 6:11.0 7:1.0 10:1.0 59:2.0 120:1.0 121:1.0 
-0.0 1.0 0.0 0.0 0.0 3:2.0 4:1.0 5:35.0 6:32.0 7:4.0 20:1.0 25:1.0 
-0.0 0.0 0.07828201152206098 0.0 0.6209971395654017 3:2.0 4:2.0 5:7.0 6:5.0 7:1.0 22:1.0 23:1.0 54:1.0 
-0.0 1.0 0.0 1.0 0.0 2:1.0 3:2.0 4:1.0 5:7.0 6:7.0 7:1.0 8:1.0 
-0.10871512446158921 0.0 0.0 0.0 0.0 2:1.0 3:2.0 4:1.0 5:2.0 6:2.0 7:1.0 8:1.0 
-0.0 0.0 0.14266869328239273 0.0 0.0 3:2.0 4:1.0 5:9.0 6:8.0 7:1.0 23:1.0 36:1.0 43:1.0 
-0.0 1.0 1.0 0.0 1.0 2:1.0 3:2.0 4:2.0 5:14.0 6:11.0 7:3.0 8:1.0 
-0.0 0.7296191801322467 0.14015446265576162 0.3360150113013787 0.552653728777442 2:1.0 3:2.0 4:4.0 5:12.0 6:6.0 7:3.0 9:1.0 10:1.0 47:1.0 98:1.0 122:1.0 123:1.0 124:1.0 
-0.0 0.5676232414036342 0.20864966141510566 0.38655335495671245 0.740284565595405 3:2.0 4:3.0 5:13.0 6:9.0 7:2.0 13:1.0 19:1.0 84:1.0 113:1.0 125:1.0 
-0.0 1.0 0.17581418467387036 0.5636439638398306 0.09235954309731051 2:1.0 3:2.0 4:1.0 5:11.0 6:11.0 7:1.0 10:1.0 60:1.0 94:1.0 126:1.0 
-0.0 1.0 0.0 0.0 0.0 2:1.0 3:2.0 4:1.0 5:4.0 6:4.0 7:1.0 8:1.0 
-0.0 1.0 1.0 0.18064723816868294 0.21914752702962326 2:1.0 3:2.0 4:1.0 5:5.0 6:5.0 7:1.0 10:1.0 127:1.0 
-0.41693668483852553 0.0 0.0 0.2567145997218925 0.0 1:1.0 2:1.0 3:2.0 4:1.0 5:4.0 6:3.0 7:1.0 36:1.0 
-0.0 1.0 0.0 1.0 0.0 2:1.0 3:2.0 4:2.0 5:7.0 6:6.0 7:1.0 8:1.0 
-0.0 0.0 0.0 0.0 1.0 2:1.0 3:2.0 4:3.0 5:3.0 6:1.0 7:1.0 8:1.0 
-0.0 1.0 0.5375069777909464 1.0 0.6215918769836518 2:1.0 3:2.0 4:3.0 5:4.0 6:2.0 7:1.0 10:1.0 128:1.0 
-0.0 1.0 0.0 0.0 0.0 2:1.0 3:2.0 4:1.0 5:6.0 6:6.0 7:1.0 8:1.0 
-0.0 1.0 0.0 0.0 0.7688279853081523 2:1.0 3:2.0 4:1.0 5:2.0 6:1.0 7:1.0 8:1.0 36:1.0 
-0.0 0.0 0.0 0.0 0.20258512066965859 2:1.0 3:2.0 4:1.0 5:2.0 6:2.0 7:1.0 8:1.0 
-0.0 1.0 1.0 0.0 0.0 2:1.0 3:2.0 4:3.0 5:9.0 6:6.0 7:2.0 8:1.0 
-0.0 1.0 1.0 1.0 1.0 2:1.0 3:2.0 4:1.0 5:11.0 6:11.0 7:1.0 8:1.0 
-0.0 0.0 0.0 0.0 1.0 2:1.0 3:2.0 4:2.0 5:2.0 6:1.0 7:1.0 8:1.0 
-0.0 0.8111571393064846 0.4001290612012415 0.20764063662243484 0.21910522153092465 2:1.0 3:2.0 4:3.0 5:4.0 6:2.0 7:1.0 10:1.0 129:1.0 
-0.0 0.8941110337560759 0.23809862000883222 0.14505596626478787 0.10956801376561433 2:1.0 3:2.0 4:5.0 5:9.0 6:5.0 7:1.0 10:1.0 130:1.0 131:1.0 
-0.0 1.0 0.0 0.0 0.0 2:1.0 3:2.0 4:1.0 5:4.0 6:4.0 7:1.0 8:1.0 
-0.0 1.0 0.0 1.0 1.0 2:1.0 3:2.0 4:1.0 5:9.0 6:9.0 7:1.0 8:1.0 
-0.0 0.6827426496415363 0.2596561719940709 0.15413220844827538 0.10960202417907118 2:1.0 3:2.0 4:6.0 5:9.0 6:4.0 7:1.0 10:1.0 132:1.0 133:1.0 
-0.0 1.0 0.0 0.0 0.0 2:1.0 3:2.0 4:1.0 5:9.0 6:7.0 7:3.0 8:1.0 
-0.0 1.0 0.0 1.0 1.0 2:1.0 3:2.0 4:1.0 5:8.0 6:8.0 7:1.0 8:1.0 
-0.0 1.0 0.0 0.0 0.0 2:1.0 3:2.0 4:1.0 5:9.0 6:7.0 7:3.0 8:1.0 
-1.0 0.0 0.0 0.0 0.0 1:1.0 2:1.0 3:2.0 4:1.0 5:4.0 6:4.0 7:1.0 
-0.0 0.5409681018534358 0.0 0.1880806093748196 0.0 2:1.0 3:2.0 4:3.0 5:12.0 6:10.0 7:1.0 10:1.0 113:1.0 134:1.0 135:1.0 
-0.0 1.0 1.0 1.0 1.0 2:1.0 3:2.0 4:2.0 5:9.0 6:8.0 7:1.0 8:1.0 
-0.0 1.0 0.25449162186106683 0.19904959445872375 0.219295395307885 2:1.0 3:2.0 4:1.0 5:7.0 6:7.0 7:1.0 10:1.0 137:1.0 
-0.0 1.0 0.0 0.0 0.0 2:1.0 3:2.0 4:1.0 5:5.0 6:5.0 7:1.0 8:1.0 
-0.0 0.02164683186339804 0.0 0.0 0.0 2:1.0 3:2.0 4:1.0 5:3.0 6:3.0 7:1.0 8:1.0 
-0.0 0.0 0.0 0.0 1.0 2:1.0 3:2.0 4:1.0 5:2.0 6:2.0 7:1.0 8:1.0 
-0.0 0.6881650292251543 0.12952894135142756 0.15312188841573318 0.21943064707472887 2:1.0 3:2.0 4:1.0 5:2.0 6:2.0 7:1.0 10:1.0 37:1.0 
-0.0 0.0 0.0 0.0 0.9811044646775475 2:1.0 3:2.0 4:1.0 5:2.0 6:2.0 7:1.0 8:1.0 
-0.06280312621046247 0.0 0.0 0.0 0.0 2:1.0 3:2.0 4:1.0 5:2.0 6:2.0 7:1.0 8:1.0 
-0.0 0.0 1.0 0.0 0.0 2:1.0 3:2.0 4:3.0 5:8.0 6:4.0 7:3.0 8:1.0 
-1.0 1.0 0.0 0.10840070102049079 0.13940792329271823 2:1.0 3:2.0 4:1.0 5:3.0 6:2.0 7:2.0 8:1.0 13:1.0 
-0.0 1.0 0.0 0.0 0.0 2:1.0 3:2.0 4:1.0 5:4.0 6:4.0 7:1.0 8:1.0 
-0.0 0.20869703078024018 0.07923476387400788 0.0 0.07301934427603336 2:1.0 3:2.0 4:1.0 5:9.0 6:6.0 7:4.0 10:1.0 138:1.0 139:1.0 140:1.0 
-0.0 1.0 0.0 0.0 0.10382989891337822 3:2.0 4:1.0 5:16.0 6:16.0 7:1.0 23:1.0 43:1.0 
-0.0 1.0 0.0 0.0 0.0 2:1.0 3:2.0 4:1.0 5:4.0 6:4.0 7:1.0 8:1.0 
-0.0 1.0 0.0 1.0 1.0 2:1.0 3:2.0 4:1.0 5:8.0 6:8.0 7:1.0 8:1.0 
-0.0 1.0 0.0 1.0 1.0 2:1.0 3:2.0 4:1.0 5:9.0 6:9.0 7:1.0 8:1.0 
-0.8767728754325247 0.0 0.0 0.0 0.0 3:2.0 4:1.0 5:9.0 6:7.0 7:1.0 9:2.0 23:1.0 30:1.0 
-0.0 1.0 0.0 0.0 0.0 2:1.0 3:2.0 4:1.0 5:3.0 6:3.0 7:1.0 8:1.0 
-0.0 0.3070454376177284 0.11061874669086413 0.02042246554914076 0.3516656441884471 2:1.0 3:2.0 4:1.0 5:6.0 6:5.0 7:2.0 10:1.0 141:1.0 142:1.0 
-0.0 1.0 0.0 1.0 0.0 2:1.0 3:2.0 4:2.0 5:7.0 6:6.0 7:1.0 8:1.0 
-0.0 1.0 0.0 0.0 0.0 2:1.0 3:2.0 4:1.0 5:3.0 6:3.0 7:1.0 8:1.0 
-0.0 0.0 0.0 0.0 0.7504955979809088 2:1.0 3:2.0 4:2.0 5:2.0 6:1.0 7:1.0 8:1.0 
-0.0 1.0 0.0 0.0 0.0 2:1.0 3:2.0 4:1.0 5:3.0 6:3.0 7:1.0 8:1.0 
-0.0 0.5594594246137689 0.12361585830176422 0.09939641373777422 0.48765632756742844 2:1.0 3:2.0 4:2.0 5:5.0 6:4.0 7:1.0 10:1.0 143:1.0 144:1.0 
-0.0 1.0 1.0 1.0 1.0 2:1.0 3:2.0 4:1.0 5:29.0 6:27.0 7:3.0 8:1.0 
-0.0 1.0 0.0 0.0 0.0 2:1.0 3:2.0 4:1.0 5:3.0 6:3.0 7:1.0 8:1.0 
-0.0 1.0 0.0 0.0 0.0 2:1.0 3:2.0 4:1.0 5:3.0 6:3.0 7:1.0 8:1.0 
-0.0 0.6414055340279975 0.0 0.07198539794059547 0.010065013829174078 2:1.0 3:2.0 4:1.0 5:9.0 6:9.0 7:1.0 10:1.0 59:1.0 145:1.0 146:1.0 
-1.0 0.0 0.0 0.0 0.0 1:1.0 2:1.0 3:2.0 4:1.0 5:3.0 6:3.0 7:1.0 
-0.0 1.0 0.0 0.0 0.0 2:1.0 3:2.0 4:1.0 5:3.0 6:3.0 7:1.0 8:1.0 
-1.0 1.0 0.7285883178527023 0.0 0.012758253849545001 2:1.0 3:2.0 4:1.0 5:7.0 6:5.0 7:3.0 8:1.0 13:1.0 
-0.0 0.9099158118211522 0.0 0.0 0.0 2:1.0 3:2.0 4:1.0 5:3.0 6:3.0 7:1.0 8:1.0 
-0.0 1.0 1.0 1.0 0.8165899012008669 3:2.0 4:3.0 5:3.0 6:1.0 7:1.0 13:1.0 147:1.0 
-0.0 1.0 1.0 0.0 0.0 2:1.0 3:2.0 4:2.0 5:10.0 6:7.0 7:3.0 8:1.0 
-0.0 0.0 0.0 1.0 0.0 2:1.0 3:2.0 4:3.0 5:4.0 6:2.0 7:1.0 8:1.0 
-0.0 0.0 0.0 0.0 1.0 3:2.0 4:1.0 5:3.0 6:3.0 7:1.0 23:1.0 148:1.0 
-1.0 0.3223880640242806 0.0 0.0 0.0 1:1.0 2:1.0 3:2.0 4:1.0 5:8.0 6:8.0 7:1.0 
-0.0 0.0 0.0 0.37162036652422276 0.3914903817082706 3:2.0 4:3.0 5:9.0 6:6.0 7:1.0 19:1.0 23:1.0 30:1.0 
-0.0 0.5747097943999042 0.13696721835203657 0.16109717614364238 0.7787609198183512 2:1.0 3:2.0 4:3.0 5:13.0 6:9.0 7:3.0 10:1.0 47:1.0 149:1.0 150:1.0 151:1.0 152:1.0 
-0.0 1.0 0.0 0.0 0.0 2:1.0 3:2.0 4:1.0 5:6.0 6:6.0 7:1.0 8:1.0 
-0.0 1.0 0.18731470254197138 0.703091129876226 0.5407167912005372 2:1.0 3:2.0 4:2.0 5:9.0 6:8.0 7:1.0 10:1.0 153:1.0 154:1.0 
-0.0 0.8778957844834233 0.4557639645107087 0.39598220383143495 0.2542438873931357 2:1.0 3:2.0 4:3.0 5:11.0 6:8.0 7:2.0 10:1.0 155:1.0 156:1.0 157:1.0 158:1.0 
-0.7069635311402853 0.0 0.0 0.0 0.0 1:1.0 2:1.0 3:2.0 4:2.0 5:5.0 6:4.0 7:1.0 
-1.0 0.0 0.0 0.0 0.0 1:1.0 2:1.0 3:2.0 4:1.0 5:3.0 6:3.0 7:1.0 
-0.0 0.16957006147606107 0.0 0.0 0.0 2:1.0 3:2.0 4:1.0 5:3.0 6:3.0 7:1.0 8:1.0 
-0.0 1.0 1.0 1.0 0.0 2:1.0 3:2.0 4:3.0 5:6.0 6:4.0 7:1.0 8:1.0 
-1.0 0.0 0.0 0.0 0.0 1:1.0 2:1.0 3:2.0 4:1.0 5:5.0 6:5.0 7:1.0 
-1.0 0.0 0.0 0.0 0.0 1:1.0 2:1.0 3:2.0 4:1.0 5:5.0 6:5.0 7:1.0 
-0.0 1.0 0.0 0.0 0.0 2:1.0 3:2.0 4:1.0 5:9.0 6:7.0 7:3.0 8:1.0 
-0.0 1.0 0.0 0.0 0.0 2:1.0 3:2.0 4:1.0 5:4.0 6:4.0 7:1.0 8:1.0 
-1.0 1.0 0.0 1.0 0.0 2:1.0 3:2.0 4:1.0 5:5.0 6:4.0 7:1.0 8:1.0 9:1.0 
-0.0 0.031688152811989015 0.0 1.0 0.002857901020863209 3:2.0 4:1.0 5:6.0 6:6.0 7:1.0 8:1.0 31:1.0 
-0.0 0.43068666272633155 0.0 0.0 1.0 3:2.0 4:1.0 5:13.0 6:11.0 7:1.0 17:2.0 23:1.0 43:1.0 
-0.0 1.0 0.0 0.0 0.0 2:1.0 3:2.0 4:1.0 5:6.0 6:6.0 7:1.0 8:1.0 
-0.20389841349488544 0.0 0.7675377106232 0.0 0.0 3:2.0 4:5.0 5:25.0 6:14.0 7:5.0 9:2.0 20:1.0 25:1.0 54:1.0 
-0.0 1.0 0.0 0.0 0.4222560768717818 2:1.0 3:2.0 4:1.0 5:10.0 6:8.0 7:3.0 8:1.0 
-0.0 1.0 0.0 0.0 0.0 2:1.0 3:2.0 4:1.0 5:3.0 6:3.0 7:1.0 8:1.0 
-0.0 0.3952531046087336 0.18047730166524398 0.08975612845351055 0.1094856998794105 2:1.0 3:2.0 4:4.0 5:7.0 6:3.0 7:2.0 10:1.0 159:1.0 160:1.0 
-0.0 0.749734401173526 0.19741759809513681 0.18033544707705948 0.2192836751821697 2:1.0 3:2.0 4:2.0 5:3.0 6:2.0 7:1.0 10:1.0 161:1.0 
-0.0 1.0 0.0 0.33241061783602893 0.0 2:1.0 3:2.0 4:2.0 5:5.0 6:4.0 7:1.0 8:1.0 
-0.0 0.0 0.0 0.0 0.2128671584046557 3:2.0 4:3.0 5:11.0 6:7.0 7:2.0 17:1.0 20:1.0 25:1.0 
-0.6076852359271041 1.0 0.0 0.0 1.0 2:1.0 3:2.0 4:1.0 5:4.0 6:3.0 7:1.0 8:1.0 17:1.0 
-0.0 0.0 0.0 1.0 0.029347894630579026 3:2.0 4:1.0 5:9.0 6:7.0 7:3.0 8:1.0 31:1.0 
-0.2079798408039275 0.0 0.0 0.0 0.0 1:1.0 2:1.0 3:2.0 4:1.0 5:5.0 6:3.0 7:3.0 
-0.0 1.0 0.0 0.0 0.0 2:1.0 3:2.0 4:1.0 5:8.0 6:6.0 7:3.0 8:1.0 
-0.0 1.0 0.0 0.0 0.0 2:1.0 3:2.0 4:1.0 5:3.0 6:3.0 7:1.0 8:1.0 
-0.0 0.0 0.0 0.0 0.0062026686674920275 3:2.0 4:1.0 5:3.0 6:3.0 7:1.0 23:1.0 49:1.0 
-0.0 1.0 0.0 0.0 0.0 2:1.0 3:2.0 4:1.0 5:6.0 6:6.0 7:1.0 8:1.0 
-0.0 1.0 0.0 0.0 0.0 2:1.0 3:2.0 4:1.0 5:5.0 6:5.0 7:1.0 8:1.0 
-0.0 0.2603348117210104 0.0 0.0 0.0 3:2.0 4:2.0 5:6.0 6:5.0 7:1.0 10:1.0 13:1.0 162:1.0 
-1.0 0.0 0.0 0.0 0.0 1:1.0 2:1.0 3:2.0 4:1.0 5:4.0 6:4.0 7:1.0 
-0.0 0.6881659188651446 0.12952485537370956 0.15312620157212878 0.21943664877776867 2:1.0 3:2.0 4:1.0 5:2.0 6:2.0 7:1.0 10:1.0 163:1.0 
-0.0 0.0903153280145859 0.14095186375777718 0.051840281805264656 0.0962666205326488 2:1.0 3:2.0 4:2.0 5:10.0 6:5.0 7:4.0 10:1.0 44:1.0 164:1.0 165:1.0 
-0.0 0.33888561393536143 0.5608841826816169 0.10498720353496031 0.0 3:2.0 4:3.0 5:10.0 6:8.0 7:1.0 13:1.0 113:1.0 166:1.0 167:1.0 
-0.0 0.8111625424943179 0.265250895051486 0.20763889631923865 0.2191067339782969 2:1.0 3:2.0 4:3.0 5:4.0 6:2.0 7:1.0 10:1.0 168:1.0 
-0.0 1.0 1.0 1.0 1.0 2:1.0 3:2.0 4:1.0 5:12.0 6:12.0 7:1.0 8:1.0 
-0.0 1.0 0.0 1.0 1.0 2:1.0 3:2.0 4:1.0 5:9.0 6:9.0 7:1.0 8:1.0 
-0.0 0.43582620522216103 0.2561333058439735 0.11519610370612011 0.13952813257768204 3:2.0 4:5.0 5:21.0 6:14.0 7:4.0 13:1.0 169:1.0 170:2.0 171:1.0 172:1.0 173:1.0 
-0.0 1.0 0.0 0.0 0.0 2:1.0 3:2.0 4:1.0 5:3.0 6:3.0 7:1.0 8:1.0 
-0.0 1.0 0.0 1.0 0.0 2:1.0 3:2.0 4:3.0 5:5.0 6:3.0 7:1.0 8:1.0 
-0.0 0.8905822688229542 0.0 0.09145851659537259 0.0 2:1.0 3:2.0 4:1.0 5:10.0 6:10.0 7:1.0 10:1.0 174:1.0 175:1.0 176:1.0 
-0.0 0.0 0.0 1.0 0.0 2:1.0 3:2.0 4:3.0 5:4.0 6:2.0 7:1.0 8:1.0 
-0.0 1.0 0.0 0.0 0.0 2:1.0 3:2.0 4:1.0 5:3.0 6:3.0 7:1.0 8:1.0 
-0.9989291024724356 0.0 0.0 0.0 0.0 1:1.0 2:1.0 3:2.0 4:2.0 5:5.0 6:4.0 7:1.0 
-0.0 1.0 0.0 1.0 0.0 2:1.0 3:2.0 4:2.0 5:7.0 6:6.0 7:1.0 8:1.0 
-0.0 0.0 0.0 0.0 1.0 3:2.0 4:1.0 5:7.0 6:6.0 7:1.0 9:1.0 23:1.0 178:1.0 
-0.0 0.0 0.0 0.028022418407773867 0.0 1:1.0 2:1.0 3:2.0 4:3.0 5:5.0 6:3.0 7:1.0 
-0.0 1.0 0.0 0.0 0.0 2:1.0 3:2.0 4:1.0 5:5.0 6:5.0 7:1.0 8:1.0 
-1.0 0.0 0.0 0.0 0.0 1:1.0 2:1.0 3:2.0 4:1.0 5:3.0 6:3.0 7:1.0 
-0.0 0.0 0.0 1.0 0.0 2:1.0 3:2.0 4:3.0 5:4.0 6:2.0 7:1.0 8:1.0 
-0.00497042529593411 0.0 0.0 0.0 0.007780231836658897 2:1.0 3:2.0 4:1.0 5:2.0 6:2.0 7:1.0 8:1.0 
-0.0 1.0 0.0 0.0 0.0 2:1.0 3:2.0 4:1.0 5:5.0 6:5.0 7:1.0 8:1.0 
-0.0 1.0 1.0 0.7568743458974819 0.5975026938543967 3:2.0 4:2.0 5:7.0 6:6.0 7:1.0 13:1.0 128:1.0 162:1.0 
-0.0 1.0 1.0 1.0 1.0 2:1.0 3:2.0 4:3.0 5:12.0 6:9.0 7:2.0 8:1.0 
-0.9022785386582125 0.0 0.0 0.0 0.0 3:2.0 4:1.0 5:7.0 6:5.0 7:1.0 9:2.0 23:1.0 43:1.0 
-0.0 0.7604023213633827 0.5976259949049186 0.38627038187706875 0.06191503014635232 2:1.0 3:2.0 4:2.0 5:8.0 6:6.0 7:2.0 10:1.0 47:1.0 60:1.0 179:1.0 180:1.0 
-0.0 0.0 1.0 0.22680791157938748 1.0 3:2.0 4:2.0 5:7.0 6:3.0 7:2.0 20:1.0 25:1.0 54:2.0 
-0.0 0.9225366190071574 0.419099649151187 0.32750888403961986 0.43029634055850935 2:1.0 3:2.0 4:1.0 5:10.0 6:10.0 7:1.0 181:1.0 182:1.0 183:1.0 184:1.0 
-0.0 0.0 0.0 0.0 1.0 3:2.0 4:1.0 5:5.0 6:4.0 7:1.0 9:1.0 23:1.0 185:1.0 
-0.0 1.0 0.0 0.0 0.0 2:1.0 3:2.0 4:1.0 5:5.0 6:5.0 7:1.0 8:1.0 
-0.0 1.0 1.0 1.0 1.0 2:1.0 3:2.0 4:1.0 5:17.0 6:17.0 7:1.0 8:1.0 
-0.0 0.38160081160862247 0.03899739152772849 0.3356262483296973 0.05838513052219583 2:1.0 3:2.0 4:3.0 5:8.0 6:5.0 7:2.0 10:1.0 47:1.0 186:1.0 187:1.0 
-0.0 1.0 1.0 1.0 1.0 2:1.0 3:2.0 4:4.0 5:15.0 6:11.0 7:2.0 8:1.0 
-0.0 1.0 1.0 0.4961288010214051 0.9301816866262757 2:1.0 3:2.0 4:3.0 5:11.0 6:8.0 7:2.0 8:1.0 
-1.0 0.0 0.0 0.0 0.0 1:1.0 2:1.0 3:2.0 4:2.0 5:3.0 6:2.0 7:1.0 
-0.0 0.5755749608903665 0.24095859908333428 0.7185324441762595 0.09474087842161122 2:1.0 3:2.0 4:7.0 5:15.0 6:9.0 7:1.0 10:1.0 188:1.0 189:2.0 190:1.0 
-0.0 0.6881657081196715 0.1295238861401029 0.1531259549178674 0.21943770348139763 2:1.0 3:2.0 4:1.0 5:2.0 6:2.0 7:1.0 10:1.0 191:1.0 
-0.0 0.0 1.0 0.0 0.0 2:1.0 3:2.0 4:4.0 5:7.0 6:2.0 7:3.0 8:1.0 
-0.0 0.6881624497825753 0.12952241455728697 0.1531155836291532 0.21943577507539708 2:1.0 3:2.0 4:1.0 5:2.0 6:2.0 7:1.0 10:1.0 192:1.0 
-0.0 0.7499537813407784 0.4882813412351297 0.25332007868684087 0.2191454869943394 2:1.0 3:2.0 4:5.0 5:5.0 6:1.0 7:1.0 10:1.0 193:1.0 
-0.4511970528219224 0.0 0.0 0.0 0.0 3:2.0 4:2.0 5:14.0 6:10.0 7:2.0 9:2.0 20:2.0 25:2.0 
-0.0 1.0 0.1295182057820336 0.15311704581874264 0.21943221658897272 2:1.0 3:2.0 4:1.0 5:2.0 6:2.0 7:1.0 10:1.0 194:1.0 
-1.0 1.0 0.0 0.0 0.0 1:1.0 2:1.0 3:2.0 4:1.0 5:8.0 6:8.0 7:1.0 
-0.0 1.0 0.0 0.0 0.0 2:1.0 3:2.0 4:1.0 5:6.0 6:6.0 7:1.0 8:1.0 
-0.0 0.8094402812075955 0.6969210463873411 0.28151179668457094 0.09863693978565673 2:1.0 3:2.0 4:1.0 5:2.0 6:1.0 7:1.0 10:1.0 58:1.0 63:1.0 
-0.0 1.0 1.0 0.0 0.0 2:1.0 3:2.0 4:2.0 5:10.0 6:7.0 7:3.0 8:1.0 
-0.0 1.0 0.0 1.0 0.7432549485195428 2:1.0 3:2.0 4:1.0 5:8.0 6:8.0 7:1.0 8:1.0 
-0.0 1.0 1.0 1.0 0.7600058306654731 2:1.0 3:2.0 4:1.0 5:3.0 6:3.0 7:1.0 195:1.0 
-0.0 0.0 0.0 1.0 0.0 2:1.0 3:2.0 4:3.0 5:4.0 6:2.0 7:1.0 8:1.0 
-0.0 1.0 0.0 0.23695925716498845 0.0 2:1.0 3:2.0 4:1.0 5:7.0 6:7.0 7:1.0 8:1.0 
-0.0 0.0 0.0 0.0 0.8565614735233716 2:1.0 3:2.0 4:3.0 5:3.0 6:1.0 7:1.0 8:1.0 
-0.0 1.0 0.17934949170917705 0.17148422383478465 0.21931964863741005 2:1.0 3:2.0 4:1.0 5:4.0 6:4.0 7:1.0 10:1.0 196:1.0 
-0.0 1.0 1.0 1.0 0.0 2:1.0 3:2.0 4:1.0 5:3.0 6:2.0 7:1.0 8:1.0 36:1.0 
-0.0 0.775013822232483 0.18265368554144343 0.12228127411947609 0.10955626015772821 2:1.0 3:2.0 4:3.0 5:8.0 6:6.0 7:1.0 10:1.0 197:1.0 198:1.0 
-0.0 0.9949990790711241 0.2859712356650894 0.16439057776343552 0.07336552626229154 2:1.0 3:2.0 4:1.0 5:12.0 6:12.0 7:1.0 10:1.0 199:1.0 200:1.0 201:1.0 
-0.0 1.0 1.0 1.0 0.0 2:1.0 3:2.0 4:3.0 5:7.0 6:5.0 7:1.0 8:1.0 
-0.0 0.0 0.0 1.0 0.0 2:1.0 3:2.0 4:3.0 5:4.0 6:2.0 7:1.0 8:1.0 
-0.0 1.0 0.0 0.9944973176960457 0.0 2:1.0 3:2.0 4:1.0 5:7.0 6:7.0 7:1.0 8:1.0 
-0.0 0.15080558995176938 0.0 0.0 0.0 3:2.0 4:1.0 5:14.0 6:13.0 7:1.0 9:1.0 23:1.0 43:1.0 
-0.0 1.0 0.0 1.0 0.0 2:1.0 3:2.0 4:1.0 5:7.0 6:7.0 7:1.0 8:1.0 
-0.0 0.10267776906606323 0.0 0.16099667916984178 0.0437527740603899 2:1.0 3:2.0 4:1.0 5:8.0 6:7.0 7:2.0 10:1.0 39:1.0 47:1.0 202:1.0 
-0.4338120152877032 1.0 1.0 0.6479623088322454 0.2845425750030407 2:1.0 3:2.0 4:3.0 5:10.0 6:7.0 7:1.0 9:1.0 10:1.0 203:1.0 204:1.0 
-0.0 0.0 0.0 0.0 1.0 3:2.0 4:3.0 5:16.0 6:11.0 7:3.0 19:1.0 23:1.0 30:1.0 
-0.0 1.0 0.0 0.0 0.0 2:1.0 3:2.0 4:1.0 5:3.0 6:3.0 7:1.0 8:1.0 
-0.0 1.0 0.0 1.0 0.0 2:1.0 3:2.0 4:3.0 5:5.0 6:3.0 7:1.0 8:1.0 
-0.0 1.0 0.052549984053052244 0.64346522808026 0.0 2:1.0 3:2.0 4:1.0 5:10.0 6:10.0 7:1.0 10:1.0 24:1.0 109:1.0 
-0.0 1.0 0.0 1.0 0.0 2:1.0 3:2.0 4:1.0 5:7.0 6:7.0 7:1.0 8:1.0 
-0.0 1.0 1.0 1.0 1.0 2:1.0 3:2.0 4:1.0 5:12.0 6:12.0 7:1.0 8:1.0 
-0.0 1.0 1.0 0.9022936501177595 0.8167330681230267 3:2.0 4:2.0 5:1.0 7:1.0 13:1.0 205:1.0 
-0.0 1.0 0.0 0.0 0.0 2:1.0 3:2.0 4:1.0 5:4.0 6:4.0 7:1.0 8:1.0 
-0.0 1.0 0.0 0.0 0.0 2:1.0 3:2.0 4:1.0 5:4.0 6:4.0 7:1.0 8:1.0 
-0.0 0.12839775034300474 0.2861670952635681 0.9824124978727856 0.5080040155154496 2:1.0 3:2.0 4:4.0 5:9.0 6:3.0 7:4.0 10:1.0 206:1.0 207:1.0 
-0.0 0.7066852600776211 0.0 1.0 0.3360774016946479 3:2.0 4:1.0 5:6.0 6:6.0 7:1.0 8:1.0 31:1.0 
-0.0 1.0 0.0 0.0 0.0 2:1.0 3:2.0 4:1.0 5:5.0 6:5.0 7:1.0 8:1.0 
-0.0 0.21568212681709223 0.20282590729068353 0.05083641133203217 0.21896490231267585 2:1.0 3:2.0 4:2.0 5:5.0 6:2.0 7:3.0 10:1.0 208:1.0 
-0.0 1.0 0.0 0.0 0.0 2:1.0 3:2.0 4:1.0 5:3.0 6:3.0 7:1.0 8:1.0 
-0.0 0.0 0.0 0.0 0.5737835807378988 3:2.0 4:2.0 5:5.0 6:4.0 7:1.0 23:1.0 50:1.0 
-0.0 1.0 0.0 0.0 0.0 2:1.0 3:2.0 4:1.0 5:3.0 6:3.0 7:1.0 8:1.0 
-0.0 0.35409142423360945 0.10490228649752542 0.02561209694431343 0.1094857555633683 2:1.0 3:2.0 4:1.0 5:7.0 6:5.0 7:3.0 10:1.0 209:1.0 210:1.0 
-0.0 1.0 0.0 0.0 0.0 2:1.0 3:2.0 4:1.0 5:4.0 6:4.0 7:1.0 8:1.0 
-0.0 1.0 0.0 0.0 0.0 2:1.0 3:2.0 4:1.0 5:3.0 6:3.0 7:1.0 8:1.0 
-0.29314672069061193 0.0 1.0 0.0 0.0 1:1.0 2:1.0 3:2.0 4:1.0 5:5.0 6:2.0 7:3.0 58:1.0 
-0.0 0.008740072629034487 0.0 0.0 0.0 3:2.0 4:1.0 5:20.0 6:18.0 7:3.0 20:1.0 25:1.0 
-0.0 0.4061113532582077 0.013841157149870746 0.14028892422006764 0.02162927430098564 2:1.0 3:2.0 4:1.0 5:9.0 6:6.0 7:2.0 9:1.0 10:1.0 36:1.0 39:1.0 47:1.0 211:1.0 212:1.0 
-0.0 1.0 1.0 1.0 0.9737984766827081 2:1.0 3:2.0 4:4.0 5:9.0 6:6.0 7:1.0 8:1.0 
-0.0 0.39791732882348785 0.1301426191635479 0.021947020480653185 0.07305496006241302 2:1.0 3:2.0 4:3.0 5:9.0 6:7.0 7:1.0 10:1.0 135:1.0 213:1.0 214:1.0 
-0.0 0.0 0.0 0.0 0.7703856316379804 3:2.0 4:3.0 5:7.0 6:5.0 19:1.0 22:1.0 23:1.0 
-1.0 1.0 0.0 1.0 1.0 2:1.0 3:2.0 4:2.0 5:10.0 6:7.0 7:2.0 8:1.0 19:1.0 
-0.0 0.6881684648623919 0.12952031826311822 0.15312188658642303 0.21943783565773517 2:1.0 3:2.0 4:1.0 5:2.0 6:2.0 7:1.0 10:1.0 215:1.0 
-0.0 1.0 0.0 0.0 0.0 3:2.0 4:1.0 5:19.0 6:18.0 7:1.0 9:1.0 23:1.0 30:1.0 
-0.0 1.0 1.0 1.0 0.9974800987036626 2:1.0 3:2.0 4:5.0 5:9.0 6:5.0 7:1.0 8:1.0 
-0.0 1.0 0.0 0.0 0.0 2:1.0 3:2.0 4:1.0 5:3.0 6:3.0 7:1.0 8:1.0 
-0.0 1.0 0.0 0.0 0.0 2:1.0 3:2.0 4:4.0 5:6.0 6:3.0 7:1.0 10:1.0 76:1.0 216:1.0 
-0.0 1.0 0.0 0.0 0.0 2:1.0 3:2.0 4:1.0 5:3.0 6:3.0 7:1.0 8:1.0 
-0.0 1.0 0.0 0.0 0.0 2:1.0 3:2.0 4:1.0 5:3.0 6:3.0 7:1.0 8:1.0 
-0.0 1.0 1.0 1.0 0.9822939174532009 2:1.0 3:2.0 4:3.0 5:8.0 6:6.0 7:1.0 8:1.0 
-0.0 0.9249767481100124 1.0 1.0 0.8166421066893502 3:2.0 4:3.0 5:2.0 7:1.0 13:1.0 217:1.0 
-0.0 1.0 0.0 0.0 0.0 2:1.0 3:2.0 4:1.0 5:3.0 6:3.0 7:1.0 8:1.0 
-0.0 1.0 0.0 1.0 0.0 2:1.0 3:2.0 4:1.0 5:7.0 6:7.0 7:1.0 8:1.0 
-0.0 0.0 0.0 0.0 0.03851724866434593 2:1.0 3:2.0 4:1.0 5:2.0 6:2.0 7:1.0 8:1.0 
-0.0 0.11391461321645707 0.7490597301390567 0.620726424697669 0.40831049643574024 3:2.0 4:3.0 5:3.0 6:1.0 7:1.0 13:1.0 76:1.0 218:1.0 
-0.0 0.5398152254266803 0.08715875919606432 0.11043126964366776 0.23329453282444507 2:1.0 3:2.0 4:1.0 5:6.0 6:4.0 7:1.0 10:1.0 17:1.0 219:1.0 220:1.0 221:1.0 
-0.0 0.6881720560960418 0.12952091465561047 0.1531240265096775 0.21943480090635362 2:1.0 3:2.0 4:1.0 5:2.0 6:2.0 7:1.0 10:1.0 222:1.0 
-0.0 1.0 1.0 1.0 0.9961531525733593 2:1.0 3:2.0 4:2.0 5:9.0 6:8.0 7:1.0 8:1.0 
-0.0 0.578629858011263 0.08739464348411222 0.07496456735494554 0.012351484440856578 2:1.0 3:2.0 4:2.0 5:10.0 6:9.0 7:1.0 10:1.0 142:1.0 223:1.0 224:1.0 
-0.0 1.0 0.0 0.0 0.0 2:1.0 3:2.0 4:1.0 5:3.0 6:3.0 7:1.0 8:1.0 
-0.0 1.0 0.0 0.0 0.0 2:1.0 3:2.0 4:1.0 5:5.0 6:5.0 7:1.0 8:1.0 
-0.0 0.8135290067701442 0.22309922251880826 0.06289091562753125 0.3803682148284026 2:1.0 3:2.0 4:2.0 5:6.0 6:4.0 7:2.0 10:1.0 98:1.0 225:1.0 226:1.0 
-0.0 1.0 0.0 0.0 0.0 2:1.0 3:2.0 4:2.0 5:4.0 6:3.0 7:1.0 8:1.0 
-0.0 1.0 0.0 0.0 0.0 2:1.0 3:2.0 4:2.0 5:4.0 6:3.0 7:1.0 8:1.0 
-0.11369811709462452 0.0 0.0 0.0 0.13552611746577528 2:1.0 3:2.0 4:1.0 5:2.0 6:2.0 7:1.0 8:1.0 
-0.0 0.0 0.0 1.0 0.20309819440990987 2:1.0 3:2.0 4:3.0 5:4.0 6:2.0 7:1.0 8:1.0 
-0.0 1.0 0.832891921454526 1.0 0.21928017335381011 2:1.0 3:2.0 4:1.0 5:4.0 6:4.0 7:1.0 10:1.0 227:1.0 
-0.0 1.0 0.0 0.0 0.0 2:1.0 3:2.0 4:1.0 5:3.0 6:3.0 7:1.0 8:1.0 
-0.0 1.0 0.0 0.0 0.0 2:1.0 3:2.0 4:1.0 5:8.0 6:7.0 7:2.0 8:1.0 
-1.0 0.0 0.0 0.0 0.0 1:1.0 2:1.0 3:2.0 4:2.0 5:5.0 6:4.0 7:1.0 
-0.0 1.0 0.0 0.0 0.0 2:1.0 3:2.0 4:1.0 5:3.0 6:3.0 7:1.0 8:1.0 
-0.0 1.0 1.0 1.0 1.0 2:1.0 3:2.0 4:1.0 5:15.0 6:15.0 7:1.0 8:1.0 
-0.0 1.0 0.20436336296765562 0.1806507296007931 0.21914997236963019 2:1.0 3:2.0 4:1.0 5:5.0 6:5.0 7:1.0 10:1.0 228:1.0 
-0.0 0.6881628935992496 0.12952545912649996 0.15312198223802678 0.21934099834914986 2:1.0 3:2.0 4:1.0 5:2.0 6:2.0 7:1.0 10:1.0 229:1.0 
-0.0 0.0 0.0 0.0 0.09606975862380344 3:2.0 4:1.0 5:9.0 6:9.0 7:1.0 23:1.0 49:1.0 
-0.0 1.0 0.744896487240501 0.6379407185851184 0.5853533016564544 2:1.0 3:2.0 4:1.0 5:7.0 6:6.0 7:1.0 17:1.0 230:1.0 231:1.0 
-0.0 1.0 0.0 0.0 0.0 2:1.0 3:2.0 4:1.0 5:5.0 6:5.0 7:1.0 8:1.0 
-0.0 0.0 0.08604070045371921 0.028540791941936965 1.2318136736828278E-4 3:2.0 4:3.0 5:5.0 6:3.0 7:1.0 13:2.0 23:1.0 49:1.0 232:1.0 
-0.0 0.0 0.0 0.46437982038882425 0.0 3:2.0 4:3.0 5:9.0 6:6.0 7:1.0 19:1.0 20:1.0 25:1.0 
-0.0 1.0 0.0 0.0 0.0 2:1.0 3:2.0 4:1.0 5:7.0 6:7.0 7:1.0 8:1.0 
-0.0 0.0 0.0 0.0 1.0 2:1.0 3:2.0 4:2.0 5:2.0 6:1.0 7:1.0 8:1.0 
-0.0 1.0 0.0 0.0 0.0 2:1.0 3:2.0 4:1.0 5:4.0 6:4.0 7:1.0 8:1.0 
-0.0 0.0 0.0 0.0 0.8817094651743524 2:1.0 3:2.0 4:2.0 5:2.0 6:1.0 7:1.0 8:1.0 
-0.0 0.4138025159644125 0.0 0.25301089641934166 0.05842521571222784 2:1.0 3:2.0 4:1.0 5:10.0 6:7.0 7:4.0 10:1.0 47:1.0 233:1.0 234:1.0 
-0.0 0.0 0.14664651654866315 0.0 0.0 3:2.0 4:4.0 5:11.0 6:7.0 7:2.0 23:1.0 30:1.0 
-0.0 0.10951850919286402 1.0 1.0 0.9743046045154936 2:1.0 3:2.0 4:4.0 5:5.0 6:2.0 7:1.0 8:1.0 
-0.0 1.0 0.0 0.0 0.0 2:1.0 3:2.0 4:1.0 5:7.0 6:7.0 7:1.0 8:1.0 
-0.0 1.0 0.0 1.0 0.0 2:1.0 3:2.0 4:2.0 5:6.0 6:5.0 7:1.0 8:1.0 
-0.0 0.8727748972257298 0.1545401825625712 0.16230582077770866 0.21939810427514458 2:1.0 3:2.0 4:1.0 5:3.0 6:3.0 7:1.0 10:1.0 235:1.0 
-0.0 0.8808320727432071 0.3059770973170296 0.8013020565996014 0.1892769364136749 2:1.0 3:2.0 4:5.0 5:10.0 6:7.0 59:1.0 60:1.0 236:1.0 237:1.0 238:1.0 
-0.0 1.0 0.12953138600859251 0.15312719789219104 0.21936617589202448 2:1.0 3:2.0 4:1.0 5:2.0 6:2.0 7:1.0 10:1.0 239:1.0 
-0.2846239565553604 1.0 0.5398711046687082 0.6713180558777815 0.25321591547160244 2:1.0 3:2.0 4:2.0 5:11.0 6:9.0 7:1.0 9:1.0 174:1.0 240:1.0 241:1.0 
-0.0 0.0 0.0 0.0 1.0 2:1.0 3:2.0 4:3.0 5:3.0 6:1.0 7:1.0 8:1.0 
-0.0 0.8112538414531337 0.2652328719830253 0.20763698320333115 0.21906498389271745 2:1.0 3:2.0 4:3.0 5:4.0 6:2.0 7:1.0 10:1.0 242:1.0 
-0.0 1.0 0.0 0.0 0.0 2:1.0 3:2.0 4:2.0 5:5.0 6:4.0 7:1.0 8:1.0 
-0.0 1.0 0.0 0.0 0.0 2:1.0 3:2.0 4:1.0 5:6.0 6:6.0 7:1.0 8:1.0 
-0.0 1.0 0.0 0.0 0.0 2:1.0 3:2.0 4:1.0 5:6.0 6:6.0 7:1.0 8:1.0 
-0.0 1.0 1.0 1.0 0.37644523356587895 2:1.0 3:2.0 4:5.0 5:9.0 6:4.0 7:2.0 8:1.0 
-0.03282437023239661 -0.18622720224764475 0.22732169477807881 0.004264830212810713 0.0 2:1.0 3:2.0 4:4.0 5:23.0 6:14.0 7:6.0 9:1.0 10:1.0 13:1.0 69:1.0 173:1.0 203:1.0 243:1.0 244:1.0 245:1.0 246:1.0 
-0.0 -0.0 0.48822697986162034 0.0 0.0 2:1.0 3:2.0 4:1.0 5:10.0 6:7.0 7:2.0 17:1.0 52:1.0 54:1.0 247:1.0 248:1.0 
-0.012646877675429342 -0.6560900178379231 0.15446047749732994 0.006511137049526346 0.0319594914196562 2:1.0 3:2.0 4:2.0 5:10.0 6:6.0 7:4.0 10:1.0 249:1.0 250:1.0 
-0.05527960990103699 -0.6374488061295539 1.0 0.46268895913543917 0.0 2:1.0 3:2.0 4:4.0 5:6.0 6:2.0 7:1.0 9:1.0 87:1.0 251:1.0 
-0.0 -1.0 0.0 1.0 1.0 2:1.0 3:2.0 4:2.0 5:10.0 6:8.0 7:1.0 8:1.0 19:1.0 
-0.0 -0.24569033722861425 0.15942394880647798 0.029401051046505408 0.021385712616639036 2:1.0 3:2.0 4:4.0 5:12.0 6:7.0 7:3.0 10:1.0 252:1.0 253:1.0 254:1.0 
-0.0 -1.0 0.0 0.0 0.0 2:1.0 3:2.0 4:1.0 5:6.0 6:6.0 7:1.0 8:1.0 
-0.0 -0.0 0.057205431903211444 0.0 0.0 2:1.0 3:2.0 4:3.0 5:17.0 6:13.0 7:2.0 36:1.0 119:1.0 255:1.0 256:1.0 257:1.0 258:1.0 
-1.0 -1.0 0.0 0.0 1.0 2:1.0 3:2.0 4:2.0 5:6.0 6:4.0 7:2.0 8:1.0 
-0.0 -0.0 0.6403436868015262 0.0 0.0 3:2.0 4:5.0 5:10.0 6:6.0 7:1.0 13:1.0 166:1.0 247:1.0 259:1.0 260:1.0 
-0.0 -0.0 0.0 0.22426072672194428 0.02079853670046527 2:1.0 3:2.0 4:7.0 5:13.0 6:6.0 7:2.0 10:1.0 98:1.0 266:1.0 267:1.0 268:1.0 
-0.0 -0.0 0.11729148772606621 0.011577398457927124 0.0014131789630856524 2:1.0 3:2.0 4:7.0 5:17.0 6:8.0 7:3.0 54:1.0 269:1.0 270:1.0 271:1.0 272:1.0 273:1.0 
-0.0 -1.0 0.0 0.0 0.0 2:1.0 3:2.0 4:1.0 5:5.0 6:5.0 7:1.0 8:1.0 
-0.0 -1.0 0.0 0.0 0.0 2:1.0 3:2.0 4:1.0 5:5.0 6:5.0 7:1.0 8:1.0 
-0.0 -0.0 0.0 0.20557321881123186 0.0022778877050962493 2:1.0 3:2.0 4:2.0 5:11.0 6:8.0 7:3.0 10:1.0 155:1.0 274:1.0 275:1.0 276:1.0 
-0.0 -0.0 0.4085977340052224 0.09940489406883413 0.0 3:2.0 4:1.0 5:7.0 6:6.0 7:1.0 9:1.0 270:1.0 277:1.0 278:1.0 
-0.0 -1.0 0.0 0.0 0.0 2:1.0 3:2.0 4:1.0 5:5.0 6:5.0 7:1.0 8:1.0 
-0.0 -0.07867540119371794 0.1162333110380424 0.11151438265708924 0.0 2:1.0 3:2.0 4:4.0 5:14.0 6:11.0 7:1.0 128:2.0 172:1.0 284:1.0 
-0.0 -1.0 0.0 0.0 0.0 2:1.0 3:2.0 4:1.0 5:5.0 6:5.0 7:1.0 8:1.0 
-0.0 -0.0 0.6329713353866464 0.21388215482702486 0.0 2:1.0 3:2.0 4:3.0 5:8.0 6:6.0 7:1.0 285:1.0 286:1.0 
-0.0 -0.0 0.31210022810392496 0.14870547790716682 0.09572989307517557 3:2.0 4:3.0 5:12.0 6:10.0 7:1.0 13:1.0 287:1.0 288:1.0 289:1.0 
-0.16520136223619142 -0.7674183976702043 1.0 1.0 0.4104890346517477 3:2.0 4:2.0 5:3.0 6:2.0 7:1.0 13:1.0 263:1.0 
-0.0 -1.0 1.0 1.0 1.0 2:1.0 3:2.0 4:2.0 5:14.0 6:13.0 7:1.0 8:1.0 
-0.0 -0.0 0.004143989329177628 0.0 0.21185941873812278 2:1.0 3:2.0 4:1.0 5:8.0 6:7.0 7:2.0 10:1.0 155:1.0 179:1.0 290:1.0 
-0.004266880851822602 -1.0 0.0 0.0016276841754938535 0.0 2:1.0 3:2.0 4:2.0 5:7.0 6:4.0 7:2.0 8:1.0 136:1.0 
-0.0 -0.36453530251629584 0.0 0.3027052934933014 0.2226316311325111 2:1.0 3:2.0 4:1.0 5:11.0 6:10.0 7:2.0 10:1.0 109:1.0 291:1.0 
-0.0 -1.0 1.0 0.5168086989220696 0.06417867778869303 2:1.0 3:2.0 4:5.0 5:6.0 6:2.0 7:1.0 10:1.0 204:1.0 
-0.0 -0.0 0.5986628384576325 0.0 0.09576221449895332 3:2.0 4:1.0 5:8.0 6:8.0 7:1.0 33:1.0 278:1.0 292:1.0 293:1.0 
-0.0 -1.0 0.0 0.0 0.0 2:1.0 3:2.0 4:1.0 5:8.0 6:8.0 7:1.0 8:1.0 
-0.0 -0.0 0.1548417169500722 0.09024844620501322 0.0 2:1.0 3:2.0 4:5.0 5:8.0 6:4.0 7:1.0 261:1.0 294:1.0 295:1.0 
-0.0 -0.07153636803809073 0.39756460606560845 0.08557468505891362 0.14283187895656196 2:1.0 3:2.0 4:1.0 5:8.0 6:6.0 7:2.0 10:1.0 36:1.0 47:1.0 107:1.0 296:1.0 
-0.00920882119772825 -0.5311003839050924 0.09334605422149794 0.048951517256874126 0.157062266508857 3:2.0 4:1.0 5:9.0 6:9.0 7:1.0 10:1.0 13:1.0 22:1.0 300:1.0 
-0.0 -1.0 0.0 0.0 1.0 2:1.0 3:2.0 4:1.0 5:13.0 6:13.0 7:1.0 8:1.0 
-0.1344871530026016 -0.4596161849241158 1.0 0.4451515392669112 0.41002543461789076 3:2.0 4:1.0 5:4.0 6:4.0 7:1.0 13:1.0 301:1.0 
-0.0 -0.3410011970982335 0.0 0.0 0.0 2:1.0 3:2.0 4:1.0 5:9.0 6:7.0 7:3.0 10:1.0 302:1.0 303:1.0 
-0.0 -0.13793732149085697 0.0 0.11244519912646346 0.0 2:1.0 3:2.0 4:2.0 5:5.0 6:4.0 7:1.0 261:1.0 304:1.0 
-0.0 -1.0 0.0 0.0 0.0 2:1.0 3:2.0 4:1.0 5:7.0 6:7.0 7:1.0 8:1.0 
-0.0 -0.8374040057828541 0.0803751387831812 1.0 0.42967642400469286 2:1.0 3:2.0 4:1.0 5:5.0 6:3.0 7:2.0 10:1.0 36:1.0 47:1.0 305:1.0 
-0.0 -1.0 0.0 0.0 0.0 2:1.0 3:2.0 4:1.0 5:6.0 6:6.0 7:1.0 8:1.0 
-0.0 -0.3092744198657374 0.004224137364630655 0.0 0.0 2:1.0 3:2.0 4:4.0 5:7.0 6:4.0 7:1.0 52:1.0 306:1.0 
-0.0 -0.0 0.3042913471086045 0.18812609349006829 0.0 2:1.0 3:2.0 4:1.0 5:8.0 6:6.0 7:1.0 54:2.0 128:1.0 307:1.0 
-0.0 -0.0 1.0 0.26798730567132406 1.0 2:1.0 3:2.0 4:3.0 5:13.0 6:7.0 7:2.0 9:1.0 17:2.0 52:1.0 98:1.0 128:1.0 203:1.0 
-0.0 -1.0 1.0 0.0 0.0 2:1.0 3:2.0 4:2.0 5:11.0 6:9.0 7:2.0 8:1.0 
-0.0 -0.0 0.0 0.0013332259872143014 0.0 2:1.0 3:2.0 4:3.0 5:11.0 6:7.0 7:3.0 10:1.0 155:1.0 283:1.0 308:1.0 309:1.0 
-0.0 -0.0 0.3424929013118651 0.030433356523143076 5.643033039944714E-4 2:1.0 3:2.0 4:7.0 5:14.0 6:7.0 7:2.0 310:1.0 311:1.0 312:1.0 313:1.0 
-0.0 -0.0 0.12899886972802035 0.0 0.0 2:1.0 3:2.0 4:3.0 5:8.0 6:6.0 7:1.0 314:1.0 316:1.0 317:1.0 
-0.0 -1.0 0.0 1.0 0.0 2:1.0 3:2.0 4:2.0 5:7.0 6:6.0 7:1.0 8:1.0 
-0.0 -0.1530518663628417 0.08468249412559874 0.03955328847375941 0.0 2:1.0 3:2.0 4:5.0 5:11.0 6:6.0 7:2.0 128:1.0 318:1.0 319:1.0 320:1.0 
-0.0 -1.0 1.0 1.0 1.0 2:1.0 3:2.0 4:6.0 5:12.0 6:6.0 7:2.0 8:1.0 
-0.0 -0.4541002685205061 0.0 0.0 0.28584125969955143 2:1.0 3:2.0 4:1.0 5:6.0 6:5.0 7:2.0 10:1.0 98:1.0 321:1.0 
-0.0 -0.24025612598449142 0.9656363506388763 0.0 0.0 2:1.0 3:2.0 4:3.0 5:10.0 6:6.0 7:3.0 10:1.0 179:1.0 303:1.0 
-0.0 -0.0 0.0 0.0 0.1430079514738731 2:1.0 3:2.0 4:1.0 5:9.0 6:7.0 7:2.0 10:1.0 54:1.0 98:1.0 322:1.0 323:1.0 
-0.5935118738681632 -0.8185022163554165 0.0 0.030889759303994083 0.0 2:1.0 3:2.0 4:1.0 5:11.0 6:1.0 7:2.0 9:8.0 10:1.0 17:1.0 52:1.0 324:1.0 325:1.0 
-0.0 -0.0 0.0 0.0768960300527756 0.018304954914834082 2:1.0 3:2.0 4:1.0 5:9.0 6:8.0 7:2.0 10:1.0 155:1.0 326:1.0 327:1.0 
-0.0 -0.025257083970317264 0.36691100043739555 0.1553595151335005 0.0453555113248919 2:1.0 3:2.0 4:6.0 5:13.0 6:8.0 7:1.0 119:1.0 328:1.0 329:1.0 
-0.0 -0.0 0.0 0.006928344193229925 0.13017183109866162 2:1.0 3:2.0 4:1.0 5:11.0 6:9.0 7:2.0 9:1.0 10:1.0 155:1.0 308:1.0 330:1.0 331:1.0 
-0.0 -0.5020986714015261 0.8181512086545895 0.0 0.03186045747354942 2:1.0 3:2.0 4:1.0 5:11.0 6:8.0 7:4.0 10:1.0 332:1.0 333:1.0 
-1.0 -1.0 0.0 1.0 1.0 2:1.0 3:2.0 4:1.0 5:3.0 6:3.0 7:1.0 8:1.0 
-0.0 -0.15788163033445055 0.49926329758218446 0.09717670261044875 0.0 3:2.0 4:1.0 5:4.0 6:4.0 7:1.0 278:1.0 334:1.0 335:1.0 
-0.0 -0.0 0.3666769660025032 0.1653782917708683 0.0 2:1.0 3:2.0 4:5.0 5:18.0 6:10.0 7:2.0 17:1.0 19:1.0 54:1.0 70:1.0 131:1.0 314:1.0 336:1.0 337:1.0 
-0.005111706877494101 -0.0 0.429986082651865 0.1411180946005077 0.13656663379919098 3:2.0 4:2.0 5:9.0 6:8.0 7:1.0 13:1.0 338:1.0 339:1.0 340:1.0 
-0.0 -0.0 1.0 0.4683719383046835 0.0 2:1.0 3:2.0 4:3.0 5:10.0 6:8.0 7:1.0 179:1.0 341:1.0 342:1.0 
-0.0 -0.0 1.0 0.3492477933747815 0.0 2:1.0 3:2.0 4:5.0 5:8.0 6:4.0 7:1.0 52:1.0 306:1.0 
-0.0 -1.0 0.0 0.4884510616675973 0.0 2:1.0 3:2.0 4:1.0 5:5.0 6:5.0 7:1.0 8:1.0 
-0.0 -1.0 1.0 1.0 0.0 2:1.0 3:2.0 4:3.0 5:10.0 6:7.0 7:2.0 8:1.0 
-0.0 -0.02320989456392684 0.0 0.0293725451973027 0.0 2:1.0 3:2.0 4:3.0 5:5.0 6:3.0 7:1.0 343:1.0 344:1.0 
-0.0 -0.9426420527729015 0.0 0.0801171964512795 0.06331562360849058 2:1.0 3:2.0 4:1.0 5:4.0 6:4.0 7:1.0 10:1.0 345:1.0 
-0.0 -0.0 0.4324498802270041 0.5369147266072392 0.008659242741673009 2:1.0 3:2.0 4:1.0 5:8.0 6:8.0 7:1.0 94:1.0 346:1.0 347:1.0 
-0.0 -1.0 1.0 0.0 0.8042069525699219 2:1.0 3:2.0 4:2.0 5:10.0 6:7.0 7:3.0 8:1.0 
-0.0 -1.0 0.0 0.3028898570499502 0.0 2:1.0 3:2.0 4:1.0 5:7.0 6:6.0 7:2.0 10:1.0 109:1.0 348:1.0 
-0.0 -0.1382057014678879 0.03970689399579703 0.0 0.26116186506785505 2:1.0 3:2.0 4:4.0 5:9.0 6:5.0 7:2.0 10:1.0 349:1.0 350:1.0 351:1.0 
-0.0 -0.14665758292330147 0.5965140509381441 0.21409928480811258 0.4610576587140922 2:1.0 3:2.0 4:3.0 5:6.0 6:4.0 7:1.0 352:1.0 353:1.0 
-0.0 -0.9427261678973289 0.0 0.08013833851327708 0.06329212437138589 2:1.0 3:2.0 4:1.0 5:4.0 6:4.0 7:1.0 10:1.0 354:1.0 
-0.0 -0.18632752726949894 0.0 0.0 0.0 2:1.0 3:2.0 4:3.0 5:9.0 6:6.0 7:1.0 9:1.0 10:1.0 52:1.0 259:1.0 355:1.0 
-0.0 -0.0 0.5188433612599403 0.3720741857053763 0.0 2:1.0 3:2.0 4:2.0 5:7.0 6:5.0 7:1.0 17:1.0 70:1.0 322:1.0 
-0.0 -0.0 0.27627506293958753 0.19546516447585918 0.0030219042023008815 2:1.0 3:2.0 4:5.0 5:17.0 6:13.0 7:1.0 356:1.0 357:1.0 358:1.0 359:1.0 360:1.0 
-0.0 -1.0 0.0 0.0 0.0 2:1.0 3:2.0 4:1.0 5:8.0 6:8.0 7:1.0 8:1.0 
-0.0 -0.0 0.0 0.08257511306653471 0.0 2:1.0 3:2.0 4:2.0 5:7.0 6:4.0 7:2.0 10:1.0 36:1.0 155:1.0 343:1.0 361:1.0 
-0.0 -0.0 0.16158785072708 0.0 0.0 2:1.0 3:2.0 4:3.0 5:9.0 6:7.0 7:1.0 314:1.0 362:1.0 363:1.0 
-0.0 -1.0 0.0 1.0 0.0 2:1.0 3:2.0 4:1.0 5:5.0 6:5.0 7:1.0 8:1.0 
-0.0 -1.0 0.0 0.0 0.0 2:1.0 3:2.0 4:1.0 5:7.0 6:7.0 7:1.0 8:1.0 
-0.12742433957550645 -0.29966431835262336 0.5503355106265664 0.06451168993548795 0.03906384986340294 3:2.0 4:6.0 5:14.0 6:6.0 7:4.0 13:2.0 131:1.0 364:1.0 365:1.0 
-0.0 -0.8195392064704932 0.1498464716556213 0.12553194604247228 0.06346198844263098 2:1.0 3:2.0 4:3.0 5:6.0 6:4.0 7:1.0 10:1.0 366:1.0 
-0.0 -0.009223613920997792 0.23998915479979777 0.07386711560425174 0.03179593421039445 2:1.0 3:2.0 4:4.0 5:11.0 6:8.0 7:1.0 10:1.0 367:1.0 368:1.0 
-0.0 -1.0 0.0 1.0 0.0 2:1.0 3:2.0 4:1.0 5:5.0 6:5.0 7:1.0 8:1.0 
-0.0 -0.0 0.0 0.0 0.03578610720569145 2:1.0 3:2.0 4:3.0 5:6.0 6:4.0 7:1.0 314:1.0 369:1.0 370:1.0 
-0.0 -0.0 0.07095563751320094 0.0452010044901078 0.024948425629700028 2:1.0 3:2.0 4:4.0 5:16.0 6:13.0 7:1.0 243:1.0 371:1.0 372:1.0 373:1.0 374:1.0 375:1.0 
-0.0 -0.0 0.5053987872272585 0.231346062347805 0.0 2:1.0 3:2.0 4:8.0 5:13.0 6:6.0 7:1.0 94:1.0 376:1.0 377:1.0 
-0.0 -0.001451787356068403 0.22317778014136977 0.09948545542627013 0.039742620780030845 2:1.0 3:2.0 4:3.0 5:10.0 6:7.0 7:2.0 378:1.0 379:1.0 380:1.0 381:1.0 
-0.0 -0.03403069800235182 0.14223822432714192 0.0 0.0 2:1.0 3:2.0 4:3.0 5:6.0 6:4.0 7:1.0 297:1.0 382:1.0 383:1.0 
-0.0 -0.0 0.11265608237367955 0.24494091967182496 0.018864069153895265 2:1.0 3:2.0 4:3.0 5:12.0 6:7.0 7:2.0 17:1.0 54:1.0 70:1.0 384:1.0 385:1.0 386:1.0 
-0.16847834574900455 -1.0 0.08725035083874065 0.09890773083757537 1.0 3:2.0 4:1.0 5:3.0 6:3.0 7:1.0 10:1.0 13:1.0 387:1.0 
-0.0 -0.0 0.632745987295322 0.052479825065611975 0.0 2:1.0 3:2.0 4:2.0 5:14.0 6:12.0 7:1.0 10:1.0 105:1.0 120:1.0 388:1.0 389:1.0 
-0.0490294070255472 -0.0 0.3009131471479021 0.22922606517553146 0.38263259837323543 3:2.0 4:3.0 5:8.0 6:5.0 7:1.0 13:1.0 19:1.0 376:1.0 391:1.0 
-0.0 -1.0 0.0 1.0 0.0 2:1.0 3:2.0 4:1.0 5:5.0 6:5.0 7:1.0 8:1.0 
-0.15975484934394113 -0.13447997807677864 0.0 0.0 0.09203549340384096 3:2.0 5:6.0 6:6.0 7:1.0 9:1.0 10:1.0 13:1.0 314:1.0 392:1.0 
-0.0 -0.0 0.20506519895259306 0.0 0.0 2:1.0 3:2.0 4:3.0 5:11.0 6:9.0 7:1.0 10:1.0 128:1.0 179:1.0 393:1.0 
-0.0 -0.8195436947038688 0.1498554243433012 0.1255537197811818 0.06341985749754196 2:1.0 3:2.0 4:3.0 5:6.0 6:4.0 7:1.0 10:1.0 394:1.0 
-0.0 -1.0 0.0 0.0 0.0 2:1.0 3:2.0 4:1.0 5:6.0 6:6.0 7:1.0 8:1.0 
-0.0 -0.0 0.5998136209141851 0.012982032816019272 0.07061446572202312 3:2.0 4:3.0 5:18.0 6:16.0 7:1.0 13:1.0 52:1.0 141:1.0 259:1.0 311:1.0 395:1.0 396:1.0 
-0.0 -0.0 0.0 0.18747101472225955 0.0 2:1.0 3:2.0 4:1.0 5:10.0 6:8.0 7:2.0 10:1.0 36:1.0 94:1.0 155:1.0 397:1.0 
-0.0 -0.0 0.06119331131231631 0.0 0.0 2:1.0 3:2.0 4:4.0 5:13.0 6:8.0 7:3.0 98:1.0 109:1.0 127:1.0 329:1.0 398:1.0 
-0.8743396583207631 -1.0 1.0 0.20388293299112262 1.0 3:2.0 4:1.0 5:12.0 6:10.0 7:3.0 20:1.0 21:1.0 
-0.0 -0.37176373140718977 0.905602458088692 0.7496117405992756 0.0 2:1.0 3:2.0 4:6.0 5:9.0 6:4.0 7:1.0 109:1.0 399:1.0 
-0.0 -0.0 0.039976188832053894 0.0 0.0 2:1.0 3:2.0 4:1.0 5:9.0 6:8.0 7:1.0 54:1.0 314:1.0 400:1.0 401:1.0 402:1.0 
-0.0 -0.0 0.0 0.0 0.22144098865504683 3:2.0 4:3.0 5:16.0 6:12.0 7:3.0 13:1.0 98:1.0 247:1.0 369:2.0 403:1.0 404:1.0 
-0.0 -0.9427046142090515 0.0 0.08014362883133466 0.06332058191430306 2:1.0 3:2.0 4:1.0 5:4.0 6:4.0 7:1.0 10:1.0 405:1.0 
-0.0 -0.0 1.0 0.0 0.0 3:2.0 4:1.0 5:6.0 6:6.0 7:1.0 13:1.0 179:1.0 406:1.0 
-0.0 -0.0 0.15640263460421547 0.0 0.05283975270649192 2:1.0 3:2.0 4:2.0 5:7.0 6:6.0 7:1.0 407:1.0 408:1.0 
-0.0 -1.0 1.0 1.0 0.8887439375820158 2:1.0 3:2.0 4:1.0 5:3.0 6:3.0 7:1.0 10:1.0 33:1.0 
-0.0 -0.2595867167460318 0.3185656625076495 0.2458969239492718 0.15263976496509904 2:1.0 3:2.0 4:3.0 5:11.0 6:8.0 7:2.0 59:1.0 409:1.0 410:1.0 
-0.01588205569170279 -0.0 1.0 0.17819064347305547 0.03190965585594991 2:1.0 3:2.0 4:1.0 5:9.0 6:8.0 7:1.0 9:1.0 33:1.0 411:1.0 412:1.0 
-0.0 -0.0 0.4740480284475977 0.21129445156609758 0.03869602755898919 2:1.0 3:2.0 4:3.0 5:13.0 6:11.0 7:1.0 320:1.0 384:1.0 413:1.0 414:1.0 
-0.0 -0.19802208821511488 0.37002757670360426 0.16133961173937994 0.07938923436400701 2:1.0 3:2.0 4:1.0 5:9.0 6:7.0 7:3.0 415:1.0 416:1.0 
-0.2744777418712925 -1.0 0.0 1.0 1.0 2:1.0 3:2.0 4:1.0 5:4.0 6:4.0 7:1.0 8:1.0 
-0.0 -1.0 1.0 1.0 1.0 2:1.0 3:2.0 4:4.0 5:6.0 6:3.0 7:1.0 8:1.0 
-0.0 -0.019040092653677718 0.0 0.0 0.0 2:1.0 3:2.0 4:3.0 5:9.0 6:6.0 7:2.0 10:1.0 179:1.0 417:1.0 418:1.0 
-0.0 -0.34608889268339804 0.0 0.009618332343880992 0.0 2:1.0 3:2.0 4:3.0 5:9.0 6:4.0 7:4.0 255:1.0 403:1.0 419:1.0 
-0.0 -0.0 0.3456153366314859 0.12740510261657156 0.05277719362828212 2:1.0 3:2.0 4:1.0 5:7.0 6:7.0 7:1.0 420:1.0 421:1.0 422:1.0 
-0.0 -0.0 0.0 0.02368290814871182 0.013227341900518799 2:1.0 3:2.0 4:3.0 5:10.0 6:8.0 7:1.0 10:1.0 423:1.0 424:1.0 425:1.0 
-0.0 -1.0 0.0 0.0 0.0 2:1.0 3:2.0 4:1.0 5:7.0 6:7.0 7:1.0 8:1.0 
-0.0 -1.0 0.07147117930230883 1.0 0.023192726190427185 2:1.0 3:2.0 4:2.0 5:8.0 6:6.0 7:1.0 8:1.0 428:1.0 
-0.0 -0.8890560690029761 0.5424278250799653 0.07387460811349317 0.5317524366318288 2:1.0 3:2.0 4:4.0 5:10.0 6:7.0 7:1.0 10:1.0 51:1.0 152:1.0 
-0.0 -0.055631349915172816 0.0 0.0 0.0 2:1.0 3:2.0 4:1.0 5:17.0 6:13.0 7:5.0 94:1.0 176:1.0 255:1.0 429:1.0 430:1.0 431:1.0 
-0.0 -0.0 0.28915117996634765 0.19109599489395296 0.0791679611115894 2:1.0 3:2.0 4:1.0 5:7.0 6:7.0 7:1.0 432:1.0 433:1.0 
-0.0 -1.0 0.0 0.0 0.0 2:1.0 3:2.0 4:1.0 5:10.0 6:10.0 7:1.0 8:1.0 
-0.0 -0.4611346756275972 0.0 0.0 0.006227637148743133 2:1.0 3:2.0 4:1.0 5:9.0 6:7.0 7:3.0 10:1.0 434:1.0 435:1.0 
-0.0 -0.0 0.31837127263766707 0.0 0.0 2:1.0 3:2.0 4:3.0 5:19.0 6:15.0 7:2.0 10:1.0 58:1.0 128:1.0 179:1.0 418:1.0 436:1.0 437:1.0 
-0.024914255551005494 -0.0 0.7089727175353907 0.22376934520737737 0.07960225028947397 2:1.0 3:2.0 4:4.0 5:9.0 6:3.0 7:2.0 9:1.0 36:1.0 438:1.0 439:1.0 
-0.0 -0.0 0.2303194898877535 0.003919574312456864 0.0 2:1.0 3:2.0 4:5.0 5:29.0 6:21.0 7:5.0 13:1.0 69:1.0 101:1.0 440:1.0 441:1.0 442:1.0 443:1.0 444:1.0 445:1.0 
-0.0 -0.0 1.0 1.0 1.0 2:1.0 3:2.0 4:2.0 5:17.0 6:15.0 7:1.0 8:1.0 9:1.0 
-0.0 -0.0 0.356409476768935 0.0 0.02519150074351381 2:1.0 3:2.0 4:3.0 5:13.0 6:9.0 7:1.0 17:1.0 58:1.0 127:1.0 446:1.0 447:1.0 448:1.0 
-0.0 -0.1158026021410399 0.2726388308875695 0.1912744638121609 0.07930977883401487 2:1.0 3:2.0 4:1.0 5:5.0 6:5.0 7:1.0 451:1.0 452:1.0 
-0.0 -0.0 0.435948379125802 0.09494594414840249 0.06707936819796423 2:1.0 3:2.0 4:4.0 5:11.0 6:5.0 7:1.0 17:1.0 54:1.0 58:1.0 453:1.0 454:1.0 455:1.0 
-0.0 -1.0 0.0 0.0 0.0 2:1.0 3:2.0 4:1.0 5:10.0 6:10.0 7:1.0 8:1.0 
-0.0 -1.0 0.0 0.0 0.0 2:1.0 3:2.0 4:1.0 5:6.0 6:6.0 7:1.0 8:1.0 
-0.0 -0.9427286345279889 0.0 0.08013108927617127 0.0633390547204915 2:1.0 3:2.0 4:1.0 5:4.0 6:4.0 7:1.0 10:1.0 456:1.0 
-0.0 -0.0 0.0 0.30384507680808837 0.0 2:1.0 3:2.0 4:1.0 5:9.0 6:8.0 7:2.0 10:1.0 94:1.0 155:1.0 457:1.0 
-0.0 -0.9674830475217465 1.0 0.26800431182501727 0.03806812486638873 2:1.0 3:2.0 4:6.0 5:10.0 6:4.0 7:2.0 10:1.0 75:1.0 155:1.0 
-0.0 -0.0 0.2517170778411383 0.0 0.19049640091897135 3:2.0 4:3.0 5:11.0 6:9.0 7:1.0 13:1.0 122:1.0 259:1.0 458:1.0 
-0.0 -0.9427175659778185 0.0 0.08011641819621568 0.06330117925844235 2:1.0 3:2.0 4:1.0 5:4.0 6:4.0 7:1.0 10:1.0 459:1.0 
-0.0 -1.0 0.0 0.0 0.0 2:1.0 3:2.0 4:1.0 5:12.0 6:12.0 7:1.0 8:1.0 
-0.0 -0.380242672322823 0.31296711409766587 0.0235373802226041 0.0 2:1.0 3:2.0 4:2.0 5:8.0 6:7.0 7:1.0 10:1.0 69:1.0 460:1.0 461:1.0 
-0.0 -0.2081813637892811 0.26441668259497475 0.19139162879807514 0.07939805142814196 2:1.0 3:2.0 4:1.0 5:4.0 6:4.0 7:1.0 462:1.0 463:1.0 
-0.0 -0.0 0.0 0.02909033149042559 0.0 2:1.0 3:2.0 4:3.0 5:6.0 6:4.0 7:1.0 343:1.0 464:1.0 
-0.0 -0.37895089868453313 0.0 0.0 0.2492648302528636 2:1.0 3:2.0 4:1.0 5:5.0 6:5.0 7:1.0 10:1.0 292:1.0 465:1.0 
-0.07484451718648168 -0.0 1.0 0.0 0.19329863559922925 3:2.0 4:3.0 5:10.0 6:6.0 7:2.0 9:1.0 13:1.0 87:1.0 255:1.0 414:1.0 
-0.0 -1.0 0.0 1.0 0.0 2:1.0 3:2.0 4:1.0 5:5.0 6:5.0 7:1.0 8:1.0 
-0.0 -0.0 0.04696565452705187 0.0 0.0 2:1.0 3:2.0 4:1.0 5:10.0 6:10.0 7:1.0 466:2.0 467:1.0 
-0.007701904681665103 -0.3004560793849705 0.47286609949127456 0.129108188609901 0.05320829019243463 2:1.0 3:2.0 4:1.0 5:3.0 6:3.0 7:1.0 468:1.0 469:1.0 
-0.0 -0.0 0.2680034895196226 0.08312470637154763 0.0 2:1.0 3:2.0 4:3.0 5:9.0 6:6.0 7:1.0 19:1.0 343:1.0 404:1.0 470:1.0 
-0.0 -1.0 0.0 1.0 0.0 2:1.0 3:2.0 4:1.0 5:5.0 6:5.0 7:1.0 8:1.0 
-0.0 -1.0 0.0 0.0 0.0 2:1.0 3:2.0 4:1.0 5:7.0 6:7.0 7:1.0 8:1.0 
-0.0 -0.0976366412816764 0.19850578935840948 0.0 0.0 2:1.0 3:2.0 4:3.0 5:9.0 6:5.0 7:3.0 10:1.0 98:1.0 179:1.0 474:1.0 475:1.0 
-0.0 -1.0 1.0 1.0 0.0 2:1.0 3:2.0 4:3.0 5:10.0 6:7.0 7:2.0 8:1.0 
-0.0 -0.0 0.0 0.0 0.03972136435221986 2:1.0 3:2.0 4:4.0 5:18.0 6:13.0 7:3.0 10:1.0 98:1.0 149:1.0 476:1.0 477:1.0 478:1.0 479:1.0 
-0.0 -0.0 0.17111718315256272 0.0 0.0 2:1.0 3:2.0 4:2.0 5:11.0 6:9.0 7:2.0 149:1.0 279:1.0 408:1.0 480:1.0 
-0.0 -0.2021224443699225 0.5251899469912928 0.29500799231145763 0.019450991216087125 3:2.0 4:1.0 5:7.0 6:7.0 7:1.0 174:1.0 278:1.0 481:1.0 
-0.0 -1.0 0.7303150257138812 0.22684346905513203 0.7834903085815715 3:2.0 4:3.0 5:8.0 6:4.0 7:3.0 23:1.0 43:1.0 
-0.0 -0.0 0.2353155468010697 0.2056865960777573 0.031948053545429796 2:1.0 3:2.0 4:5.0 5:15.0 6:10.0 7:2.0 482:1.0 483:1.0 484:1.0 485:1.0 486:1.0 
-0.0 -0.0 0.2129026838677755 0.5497908405859917 0.17139417360482187 2:1.0 3:2.0 4:2.0 5:8.0 6:5.0 7:1.0 19:1.0 54:1.0 487:1.0 488:1.0 489:1.0 
-0.0 -1.0 0.0 0.0 0.0 2:1.0 3:2.0 4:1.0 5:8.0 6:8.0 7:1.0 8:1.0 
-0.0 -1.0 0.0 1.0 0.0 2:1.0 3:2.0 4:1.0 5:5.0 6:5.0 7:1.0 8:1.0 
-0.0 -0.07550624649208287 0.6457117482809225 0.9759804528186726 0.0 2:1.0 3:2.0 4:1.0 5:12.0 6:10.0 7:2.0 10:1.0 19:1.0 119:1.0 179:1.0 337:1.0 
-0.8595370691346849 -1.0 0.0 1.0 1.0 2:1.0 3:2.0 4:1.0 5:4.0 6:4.0 7:1.0 8:1.0 
-0.0 -0.45518015203194406 1.0 0.0 0.7633791379311684 2:1.0 3:2.0 4:2.0 5:11.0 6:9.0 7:1.0 8:1.0 54:1.0 
-0.0 -1.0 0.0 0.00253616961238727 0.14994214953608667 2:1.0 3:2.0 4:1.0 5:11.0 6:11.0 7:1.0 10:1.0 59:1.0 60:1.0 216:1.0 
-0.0 -0.0 0.38262166952548826 0.11987558851294834 0.022427715037098606 2:1.0 3:2.0 4:2.0 5:9.0 6:7.0 7:1.0 58:1.0 490:1.0 491:1.0 492:1.0 
-0.0 -0.0 0.35584778184488636 0.2024434599415129 0.07921945266673895 2:1.0 3:2.0 4:2.0 5:9.0 6:8.0 7:1.0 493:1.0 494:1.0 
-0.02623829988817386 -0.31313436341587264 0.0 0.03614360415965492 0.003052089424501902 3:2.0 4:2.0 5:9.0 6:7.0 7:1.0 9:1.0 13:1.0 60:1.0 203:1.0 343:1.0 495:1.0 
-0.0 -0.0 0.709633506240792 0.0 0.0 2:1.0 3:2.0 4:2.0 5:8.0 6:3.0 7:2.0 9:1.0 17:1.0 54:1.0 70:1.0 376:1.0 
-0.0 -0.05549078172961255 0.40173876063837655 0.09076833070958629 0.0 2:1.0 3:2.0 4:1.0 5:10.0 6:9.0 7:1.0 9:1.0 10:1.0 87:1.0 496:1.0 
-0.0 -0.6942217036118176 0.393638328333642 0.09989379101548851 0.005977874869267514 2:1.0 3:2.0 4:1.0 5:7.0 6:7.0 7:1.0 10:1.0 194:1.0 497:1.0 
-0.0 -0.0 0.11635799799280166 0.029929670606238287 0.30430914555833377 2:1.0 3:2.0 4:7.0 5:13.0 6:7.0 7:1.0 150:1.0 343:1.0 498:1.0 499:1.0 500:1.0 
-0.0 -0.0 0.49269241271643965 0.19782659412614734 0.13987337206056846 2:1.0 3:2.0 4:1.0 5:11.0 6:8.0 7:3.0 36:1.0 173:1.0 356:1.0 501:1.0 
-0.12759285867545261 -0.6442361828004199 1.0 1.0 1.0 3:2.0 4:4.0 5:5.0 6:2.0 7:1.0 13:1.0 502:1.0 
-0.0 -1.0 0.0 1.0 0.0 2:1.0 3:2.0 4:1.0 5:5.0 6:5.0 7:1.0 8:1.0 
-0.11438120435467797 -0.0 1.0 0.1694995235568028 0.012011095817845712 3:2.0 4:1.0 5:5.0 6:4.0 7:1.0 18:1.0 36:1.0 259:1.0 278:1.0 
-0.0 -0.0 0.17772928477444447 0.0 0.0 2:1.0 3:2.0 4:5.0 5:13.0 6:9.0 7:1.0 247:1.0 503:1.0 504:1.0 505:1.0 506:1.0 
-0.0 -0.0 0.4591104080437444 0.0 0.0 2:1.0 3:2.0 4:4.0 5:8.0 6:5.0 7:1.0 477:1.0 507:1.0 
-0.0 -0.0 0.5611420437652493 0.17695681963129467 0.006482633361283692 3:2.0 4:4.0 5:7.0 6:4.0 7:1.0 259:1.0 278:1.0 508:1.0 509:1.0 
-0.0 -0.0 0.01631617591934543 0.0 0.0 2:1.0 3:2.0 4:1.0 5:5.0 6:5.0 7:1.0 510:1.0 511:1.0 
-0.0 -0.0 0.13485665334801916 0.0 0.0 2:1.0 3:2.0 4:2.0 5:18.0 6:16.0 7:1.0 10:1.0 54:1.0 142:1.0 179:1.0 216:1.0 259:1.0 512:1.0 513:1.0 
-0.0 -1.0 0.0 0.0 0.0 2:1.0 3:2.0 4:1.0 5:8.0 6:8.0 7:1.0 8:1.0 
-0.1324241953225682 -0.020707241383076953 0.18586150784589434 0.058909015709703076 0.07472081702868459 3:2.0 4:1.0 5:12.0 6:5.0 7:3.0 9:5.0 98:1.0 278:1.0 514:1.0 515:1.0 516:1.0 517:1.0 
-0.0075638750631353766 -0.0 0.20105696598526646 0.0 0.0 2:1.0 3:2.0 4:4.0 5:26.0 6:18.0 7:6.0 13:1.0 476:1.0 518:1.0 519:1.0 520:1.0 521:1.0 
-0.0 -0.0 0.29935529374959513 0.0 0.0 2:1.0 3:2.0 4:4.0 5:13.0 6:9.0 7:1.0 17:1.0 52:1.0 261:1.0 522:1.0 
-0.0 -1.0 0.0 0.0 1.0 2:1.0 3:2.0 4:1.0 5:10.0 6:8.0 7:2.0 8:1.0 17:1.0 
-0.0 -1.0 0.0 1.0 1.0 2:1.0 3:2.0 4:2.0 5:5.0 6:4.0 7:1.0 8:1.0 
-0.0 -1.0 0.7370725193262457 1.0 1.0 2:1.0 3:2.0 4:3.0 5:5.0 6:3.0 7:1.0 8:1.0 
-0.0 -0.018717625241655246 0.0 0.0 0.0 2:1.0 3:2.0 4:5.0 5:13.0 6:6.0 7:4.0 122:1.0 247:1.0 523:1.0 524:1.0 
-0.0 -0.0 0.0 0.07699100501812056 0.018372534922775744 2:1.0 3:2.0 4:1.0 5:7.0 6:6.0 7:2.0 10:1.0 155:1.0 525:1.0 526:1.0 
-0.0 -0.0 0.38260356215818836 0.17517877519420721 0.009807095639008416 3:2.0 4:1.0 5:14.0 6:13.0 7:1.0 36:1.0 278:1.0 374:1.0 527:1.0 528:1.0 529:1.0 530:1.0 
-0.0 -1.0 0.0 1.0 0.0 2:1.0 3:2.0 4:1.0 5:5.0 6:5.0 7:1.0 8:1.0 
-0.0 -1.0 1.0 1.0 1.0 2:1.0 3:2.0 4:4.0 5:7.0 6:4.0 7:1.0 8:1.0 
-0.0 -0.0 0.1999212428625831 0.1582741779177105 0.0 2:1.0 3:2.0 4:1.0 5:17.0 6:16.0 7:2.0 10:1.0 200:1.0 527:1.0 531:1.0 532:1.0 533:1.0 
-0.0 -1.0 0.0 0.0 0.0 2:1.0 3:2.0 4:1.0 5:6.0 6:6.0 7:1.0 8:1.0 
-0.0 -1.0 1.0 1.0 0.8999522388175172 2:1.0 3:2.0 4:3.0 5:6.0 6:4.0 7:1.0 8:1.0 
-0.0 -1.0 0.0 0.0 0.27474156824890794 2:1.0 3:2.0 4:1.0 5:13.0 6:13.0 7:1.0 8:1.0 
-0.0 -1.0 0.0 0.0 0.0 2:1.0 3:2.0 4:1.0 5:10.0 6:10.0 7:1.0 8:1.0 
-0.0 -1.0 0.0 1.0 1.0 2:1.0 3:2.0 4:2.0 5:5.0 6:4.0 7:1.0 8:1.0 
-0.0 -0.018990326220854923 0.0 0.0 0.0 2:1.0 3:2.0 4:3.0 5:9.0 6:6.0 7:2.0 10:1.0 179:1.0 418:1.0 534:1.0 
-0.0 -0.0 0.19901864428772081 0.23292990213195436 0.06728870601253341 2:1.0 3:2.0 4:2.0 5:7.0 6:5.0 7:1.0 17:1.0 535:1.0 536:1.0 
-0.0 -1.0 0.0 0.0 0.0 2:1.0 3:2.0 4:1.0 5:7.0 6:7.0 7:1.0 8:1.0 
-0.0 -0.1018843073338257 0.0 0.03972931692628767 0.03138143412629218 2:1.0 3:2.0 4:1.0 5:8.0 6:8.0 7:1.0 10:1.0 537:1.0 538:1.0 
-0.0 -0.0 0.23577988240870282 0.0 0.0 3:2.0 4:1.0 5:10.0 6:10.0 7:1.0 278:1.0 343:1.0 539:1.0 
-0.0 -1.0 0.0 0.0 1.0 2:1.0 3:2.0 4:3.0 5:7.0 6:4.0 7:1.0 8:1.0 17:1.0 
-0.0 -0.430244594147148 0.21971156324854726 1.0 0.22159534826883037 3:2.0 4:1.0 5:6.0 6:6.0 7:1.0 28:1.0 31:1.0 540:1.0 
-0.0 -0.0 0.17431229395006811 0.12493789175344017 0.05261012114872407 2:1.0 3:2.0 4:2.0 5:8.0 6:7.0 7:1.0 468:1.0 541:1.0 
-0.0 -0.0 1.0 0.47740647866957425 0.15947397661555285 2:1.0 3:2.0 4:4.0 5:14.0 6:10.0 7:1.0 9:1.0 81:1.0 
-0.0 -0.0 0.19274240898008602 0.12740408577156292 0.05278676367687613 2:1.0 3:2.0 4:1.0 5:7.0 6:7.0 7:1.0 542:1.0 543:1.0 544:1.0 
-0.0 -0.21621194957055545 0.0 0.0 0.0 2:1.0 3:2.0 4:2.0 5:7.0 6:6.0 7:1.0 10:1.0 418:1.0 545:1.0 
-0.0 -0.23117474996879747 0.0 0.6512250337991737 0.03670755453851089 2:1.0 3:2.0 4:4.0 5:11.0 6:6.0 7:3.0 10:1.0 47:1.0 349:1.0 548:1.0 549:1.0 550:1.0 
-0.0 -0.0 0.0 0.33396146864239973 0.0 2:1.0 3:2.0 4:1.0 5:16.0 6:14.0 7:3.0 10:1.0 134:1.0 551:1.0 552:1.0 553:1.0 554:1.0 
-0.024694757356347144 -1.0 0.0 0.0804450406894357 0.06352311283199837 2:1.0 3:2.0 4:1.0 5:3.0 6:3.0 7:1.0 10:1.0 555:1.0 
-0.0 -1.0 0.0 0.0 0.0 2:1.0 3:2.0 4:1.0 5:8.0 6:7.0 7:1.0 8:1.0 36:1.0 
-0.0 -0.3885027005692338 0.0 0.07947187331394158 0.06284309493523299 2:1.0 3:2.0 4:1.0 5:7.0 6:7.0 7:1.0 10:1.0 556:1.0 
-0.0 -0.0 0.18494525980331367 0.0 0.0 2:1.0 3:2.0 4:5.0 5:24.0 6:14.0 7:5.0 9:2.0 52:1.0 101:1.0 538:1.0 557:1.0 558:1.0 559:1.0 560:1.0 
-0.0 -0.0 0.35898164902171914 0.0 0.0 2:1.0 3:2.0 4:2.0 5:12.0 6:11.0 7:1.0 107:1.0 179:1.0 561:1.0 
-0.0 -1.0 0.0 0.0 0.0 2:1.0 3:2.0 4:1.0 5:7.0 6:7.0 7:1.0 8:1.0 
-0.0 -1.0 0.0 0.0 0.0 2:1.0 3:2.0 4:1.0 5:7.0 6:7.0 7:1.0 8:1.0 
-0.0 -0.0 0.0 0.0 0.06740225344666106 2:1.0 3:2.0 4:1.0 5:8.0 6:8.0 7:1.0 125:1.0 563:1.0 564:1.0 
-0.0 -0.0 0.0 0.022434435106168528 0.042319708228857465 2:1.0 3:2.0 4:3.0 5:12.0 6:9.0 7:1.0 17:1.0 565:1.0 566:1.0 567:1.0 568:1.0 
-0.0 -1.0 0.0 1.0 0.0 2:1.0 3:2.0 4:2.0 5:8.0 6:7.0 7:1.0 8:1.0 
-0.0 -0.0 0.0 0.0 1.0 2:1.0 3:2.0 4:2.0 5:8.0 6:3.0 7:3.0 10:1.0 17:2.0 70:2.0 98:1.0 155:1.0 
-0.0 -0.7113485828591978 0.1892478710521233 0.21813000293734244 0.0 2:1.0 3:2.0 4:2.0 5:8.0 6:6.0 7:2.0 10:1.0 47:1.0 179:1.0 569:1.0 
-0.0 -1.0 0.0 1.0 0.0 2:1.0 3:2.0 4:2.0 5:8.0 6:7.0 7:1.0 8:1.0 
-0.0 -0.0 0.12233877098463125 0.0 0.11799648267986053 2:1.0 3:2.0 4:5.0 5:10.0 6:5.0 7:2.0 98:1.0 261:1.0 570:1.0 
-0.0 -0.12514847764195053 0.28648094229066484 0.132710417478824 0.05303041149953219 2:1.0 3:2.0 4:3.0 5:8.0 6:5.0 7:2.0 571:1.0 572:1.0 573:1.0 
-0.0 -0.0 0.0 0.5829702654892122 1.0 2:1.0 3:2.0 4:1.0 5:14.0 6:14.0 7:1.0 8:1.0 
-0.0 -0.6964018239005171 1.0 0.0 0.0 2:1.0 3:2.0 4:2.0 5:6.0 6:5.0 7:1.0 10:1.0 574:1.0 
-0.0 -1.0 0.0 0.0 0.0 2:1.0 3:2.0 4:1.0 5:9.0 6:9.0 7:1.0 8:1.0 
-0.0 -0.0 0.4487858065838037 0.1337693762164085 0.0 2:1.0 3:2.0 4:3.0 5:13.0 6:10.0 7:2.0 10:1.0 33:1.0 47:1.0 179:1.0 575:1.0 576:1.0 
-0.0 -0.0 0.3124313857624577 0.0 0.0 2:1.0 3:2.0 4:1.0 5:10.0 6:4.0 7:2.0 10:1.0 36:2.0 54:3.0 109:1.0 577:1.0 
-0.09826933756930635 -0.08033915751424686 0.10928259452654708 0.17201555274959332 0.0 2:1.0 3:2.0 4:3.0 5:14.0 6:8.0 7:4.0 9:1.0 13:1.0 169:1.0 203:1.0 257:1.0 578:1.0 
-0.0 -1.0 0.0 0.0 0.0 2:1.0 3:2.0 4:1.0 5:10.0 6:10.0 7:1.0 8:1.0 
-0.0 -0.9366567355364247 1.0 0.0 0.0 2:1.0 3:2.0 4:1.0 5:10.0 6:9.0 7:1.0 8:1.0 36:1.0 
-0.026939233166335754 -0.23416793220238452 1.0 0.0 0.2526855034307294 3:2.0 4:3.0 5:6.0 6:4.0 7:1.0 13:1.0 122:1.0 579:1.0 
-0.0 -0.40974535401685946 0.29039895470979554 0.06274148582088467 0.03170841242941909 2:1.0 3:2.0 4:3.0 5:6.0 6:4.0 7:1.0 10:1.0 580:1.0 581:1.0 
-0.0 -0.9426662706861115 0.0 0.08012223586327229 0.06334105524406348 2:1.0 3:2.0 4:1.0 5:4.0 6:4.0 7:1.0 10:1.0 582:1.0 
-0.0 -0.0 0.0 0.0 0.25542119227004906 2:1.0 3:2.0 4:2.0 5:9.0 6:8.0 7:1.0 10:1.0 141:1.0 574:1.0 
-0.0 -0.317397078736548 0.0831827718537692 0.06266548520283811 0.03169821742695838 2:1.0 3:2.0 4:3.0 5:7.0 6:5.0 7:1.0 10:1.0 583:1.0 584:1.0 
-0.0 -0.0 0.6086374619928442 0.0 0.0 2:1.0 3:2.0 4:3.0 5:13.0 6:9.0 7:2.0 17:1.0 179:1.0 343:1.0 585:1.0 586:1.0 
-0.0 -0.05733554363556189 0.0 0.0 0.0 2:1.0 3:2.0 4:1.0 5:6.0 6:5.0 7:1.0 10:1.0 58:1.0 287:1.0 588:1.0 
-0.01151696369128877 -0.224815413985874 0.02557669055007226 0.0 0.0 2:1.0 3:2.0 4:3.0 5:9.0 6:6.0 7:1.0 9:1.0 60:1.0 376:1.0 589:1.0 
-0.0 -0.0 0.0 0.005327342408093017 0.0 2:1.0 3:2.0 4:2.0 5:15.0 6:13.0 7:1.0 10:1.0 105:1.0 410:1.0 590:1.0 591:1.0 592:1.0 
-0.0 -0.942689306827307 0.0 0.08012080448971877 0.06329066470131603 2:1.0 3:2.0 4:1.0 5:4.0 6:4.0 7:1.0 10:1.0 593:1.0 
-0.0 -0.023488602107006974 0.28085036702660243 0.1911615060596697 0.0792357600862392 2:1.0 3:2.0 4:1.0 5:6.0 6:6.0 7:1.0 594:1.0 595:1.0 
-0.0 -0.0 0.08999351447823993 0.0 0.0 2:1.0 3:2.0 4:1.0 5:10.0 6:7.0 7:4.0 266:1.0 596:1.0 597:1.0 
-0.029531961124551462 -0.17588276371999023 0.10245689034569241 0.08182831110877122 0.031794335568326004 2:1.0 3:2.0 4:1.0 5:7.0 6:6.0 7:1.0 9:1.0 115:1.0 234:1.0 598:1.0 
-0.06154613888535643 -1.0 0.0 1.0 1.0 2:1.0 3:2.0 4:1.0 5:4.0 6:4.0 7:1.0 8:1.0 
-0.0 -0.0 0.0 0.0 0.28540397358557895 2:1.0 3:2.0 4:1.0 5:9.0 6:9.0 7:1.0 10:1.0 98:1.0 600:1.0 
-0.0 -1.0 1.0 1.0 1.0 2:1.0 3:2.0 4:5.0 5:11.0 6:7.0 7:1.0 8:1.0 
-0.0 -0.0 0.17474726593036638 0.11394967908134719 0.03159423223436475 2:1.0 3:2.0 4:1.0 5:9.0 6:8.0 7:1.0 54:1.0 601:1.0 602:1.0 603:1.0 
-0.0 -0.0 0.2595427097278833 0.13497439006975903 0.050902398585407314 2:1.0 3:2.0 4:2.0 5:13.0 6:12.0 7:1.0 434:1.0 604:1.0 605:1.0 
-0.0 -0.0 0.5213300409618844 0.039883155683398286 0.03200251058236673 2:1.0 3:2.0 4:3.0 5:18.0 6:14.0 7:2.0 54:1.0 531:1.0 606:1.0 607:1.0 608:1.0 609:1.0 
-1.0 -1.0 0.0 1.0 0.005414540975865432 2:1.0 3:2.0 4:1.0 5:12.0 6:11.0 7:1.0 8:1.0 9:1.0 
-0.0 -1.0 0.0 0.0 0.0 2:1.0 3:2.0 4:1.0 5:11.0 6:11.0 7:1.0 8:1.0 
-0.0 -1.0 1.0 0.0 1.0 2:1.0 3:2.0 4:2.0 5:11.0 6:8.0 7:3.0 8:1.0 
-0.0 -0.0 0.08985662340105449 0.013741249544778811 0.015992928488384656 2:1.0 3:2.0 4:3.0 5:12.0 6:8.0 7:2.0 10:1.0 54:1.0 610:1.0 611:1.0 612:1.0 613:1.0 
-0.0 -0.2789090540125369 0.35572843309094143 0.0 0.0 2:1.0 3:2.0 4:5.0 5:13.0 6:4.0 7:4.0 10:1.0 17:1.0 52:1.0 54:1.0 614:1.0 615:1.0 
-0.0 -0.0 0.22195835631161753 0.0 0.0 2:1.0 3:2.0 4:6.0 5:19.0 6:11.0 7:4.0 98:1.0 279:1.0 616:1.0 617:1.0 618:1.0 619:1.0 620:1.0 
-0.0 -0.046871328749855314 0.15965216734167292 0.7770170902850301 0.0 2:1.0 3:2.0 4:3.0 5:9.0 6:7.0 7:1.0 190:1.0 621:1.0 622:1.0 
-0.0 -0.4539791299914926 0.0 0.0 0.28588606518278553 2:1.0 3:2.0 4:1.0 5:6.0 6:5.0 7:2.0 10:1.0 98:1.0 623:1.0 
-0.0 -0.881115536866389 0.033280145095051214 0.10277346958177014 0.06337425924832588 2:1.0 3:2.0 4:2.0 5:5.0 6:4.0 7:1.0 10:1.0 624:1.0 
-0.0 -0.3789096159088296 0.0 0.0 0.0 2:1.0 3:2.0 4:1.0 5:5.0 6:5.0 7:1.0 10:1.0 407:1.0 625:1.0 
-0.0 -0.0 0.4301545576378685 0.0 0.013055118919614337 2:1.0 3:2.0 4:3.0 5:13.0 6:10.0 7:2.0 10:1.0 256:1.0 362:1.0 626:1.0 627:1.0 
-0.0 -0.16449070292226983 0.27718120457301554 0.11443502920893722 0.04959025386934385 2:1.0 3:2.0 4:2.0 5:8.0 6:7.0 7:1.0 60:1.0 628:1.0 629:1.0 
-0.0 -0.0 0.012362524514848115 0.0 0.0 2:1.0 3:2.0 4:1.0 5:6.0 6:6.0 7:1.0 314:1.0 630:1.0 631:1.0 
-0.0 -0.07106313922028462 0.39741002927502056 0.0 1.0 2:1.0 3:2.0 4:2.0 5:9.0 6:8.0 7:1.0 10:1.0 632:1.0 633:1.0 
-0.0 -1.0 0.0 1.0 0.0 2:1.0 3:2.0 4:2.0 5:10.0 6:9.0 7:1.0 8:1.0 
-0.0 -1.0 0.0 1.0 0.0 2:1.0 3:2.0 4:1.0 5:5.0 6:5.0 7:1.0 8:1.0 
-0.0 -0.0 0.1505721659027954 0.0018319139606164261 0.0 2:1.0 3:2.0 4:6.0 5:12.0 6:7.0 7:1.0 247:1.0 634:1.0 635:1.0 
-0.0 -0.0 0.13761954214990776 0.0 0.0 2:1.0 3:2.0 4:2.0 5:10.0 6:8.0 7:2.0 10:1.0 155:1.0 179:1.0 636:1.0 
-0.0 -0.13669034845227704 0.35894448267234597 0.3117694724939663 0.00913092012646296 2:1.0 3:2.0 4:5.0 5:9.0 6:5.0 7:1.0 94:1.0 637:1.0 638:1.0 
-0.0 -1.0 0.0 0.0 0.0 2:1.0 3:2.0 4:1.0 5:9.0 6:9.0 7:1.0 8:1.0 
-0.0 -1.0 0.0 1.0 0.0 2:1.0 3:2.0 4:1.0 5:5.0 6:4.0 7:1.0 8:1.0 105:1.0 
-1.0 -1.0 0.0 0.0 1.0 2:1.0 3:2.0 4:2.0 5:5.0 6:3.0 7:2.0 8:1.0 
-0.0 -0.0 0.5495444730442374 0.030257772553913383 0.012822066822206149 2:1.0 3:2.0 4:4.0 5:18.0 6:15.0 7:1.0 10:1.0 641:1.0 642:1.0 643:1.0 644:1.0 645:1.0 
-0.14402875069280432 -0.30162400334669437 0.587473537127265 0.9281951897131304 0.13683055690000817 3:2.0 4:3.0 5:8.0 6:5.0 7:1.0 9:1.0 10:1.0 13:1.0 134:1.0 646:1.0 
-0.0 -0.0 0.19752718961549834 1.0 0.22481134814936501 2:1.0 3:2.0 4:1.0 5:8.0 6:7.0 7:1.0 19:1.0 248:1.0 266:1.0 337:1.0 
-0.0 -0.10191541991666779 0.0 0.0 0.031392844618665545 2:1.0 3:2.0 4:1.0 5:8.0 6:8.0 7:1.0 10:1.0 647:1.0 648:1.0 
-0.048424227262273856 -0.07886058773224168 0.10931022687631407 0.09039864017416643 0.1461062931288874 3:2.0 4:3.0 5:6.0 6:4.0 7:1.0 13:1.0 261:1.0 649:1.0 
-0.0 -1.0 1.0 1.0 0.002273839910750136 2:1.0 3:2.0 4:3.0 5:9.0 6:6.0 7:2.0 8:1.0 
-0.0 -1.0 1.0 0.9241691043434747 0.0 2:1.0 3:2.0 4:3.0 5:9.0 6:6.0 7:1.0 8:1.0 58:1.0 
-0.0 -1.0 0.0 1.0 0.6515732464929987 2:1.0 3:2.0 4:1.0 5:5.0 6:5.0 7:1.0 8:1.0 
-0.0 -0.0 0.3334713601023593 0.07366285012288855 0.04856823899719529 3:2.0 4:3.0 5:9.0 6:5.0 7:2.0 17:1.0 259:1.0 278:1.0 650:1.0 651:1.0 652:1.0 
-0.0 -0.0 0.20297858366066082 0.08091247089585098 0.021167409619329378 2:1.0 3:2.0 4:4.0 5:13.0 6:7.0 7:2.0 10:1.0 54:1.0 105:1.0 653:1.0 654:1.0 655:1.0 
-0.0 -0.0 0.6082730841697701 0.07686364935465684 0.09654610027035786 3:2.0 4:4.0 5:17.0 6:14.0 7:1.0 13:1.0 60:1.0 259:1.0 656:1.0 657:1.0 658:1.0 
-0.0 -1.0 0.0 1.0 1.0 2:1.0 3:2.0 4:1.0 5:5.0 6:5.0 7:1.0 8:1.0 
-0.0 -1.0 0.0 0.0 0.0 2:1.0 3:2.0 4:1.0 5:8.0 6:8.0 7:1.0 8:1.0 
-0.0 -0.0 0.19851109029607236 0.05105549002040374 0.021507870457714035 2:1.0 3:2.0 4:6.0 5:12.0 6:6.0 7:1.0 10:1.0 54:1.0 659:1.0 660:1.0 661:1.0 
-0.0 -0.0 0.0 0.04993601774282718 0.006557148559140354 2:1.0 3:2.0 4:1.0 5:8.0 6:7.0 7:2.0 10:1.0 155:1.0 662:1.0 663:1.0 
-0.0 -0.0 0.5013612989440525 0.0 0.0 2:1.0 3:2.0 4:3.0 5:12.0 6:10.0 7:1.0 39:1.0 179:1.0 457:1.0 551:1.0 
-0.0 -0.4644520306179908 0.0 0.38431921914651135 0.23340745613810912 2:1.0 3:2.0 4:2.0 5:9.0 6:7.0 7:2.0 10:1.0 47:1.0 293:1.0 466:1.0 
-0.0 -0.0 0.1566267229485505 0.0 1.0 2:1.0 3:2.0 4:3.0 5:15.0 6:13.0 7:1.0 10:1.0 98:1.0 633:1.0 664:1.0 665:1.0 
-0.0 -1.0 1.0 1.0 0.0 2:1.0 3:2.0 4:3.0 5:10.0 6:7.0 7:2.0 8:1.0 
-0.0 -0.13485547458161737 0.0 0.19151563672434166 0.012179158393910938 2:1.0 3:2.0 4:1.0 5:7.0 6:3.0 7:2.0 10:1.0 17:2.0 52:1.0 54:1.0 666:1.0 667:1.0 
-0.0 -1.0 1.0 0.0 1.0 2:1.0 3:2.0 4:1.0 5:18.0 6:16.0 7:3.0 8:1.0 
-0.011850153442849265 -1.0 0.11693309778881714 0.12597625717225489 0.06391272630568068 2:1.0 3:2.0 4:3.0 5:4.0 6:2.0 7:1.0 10:1.0 668:1.0 
-0.0 -0.0 0.0 0.9568285861952884 0.0 2:1.0 3:2.0 4:3.0 5:9.0 6:6.0 7:2.0 10:1.0 134:1.0 155:1.0 669:1.0 
-0.0 -0.27355165921704044 0.38417874441585304 1.0 0.017537945271804783 2:1.0 3:2.0 4:2.0 5:7.0 6:6.0 7:1.0 94:1.0 670:1.0 
-0.0 -1.0 1.0 0.0 1.0 2:1.0 3:2.0 4:3.0 5:13.0 6:9.0 7:3.0 8:1.0 
-0.05778676282571489 -0.3951498456181538 0.0 0.0 0.46391244549227256 3:2.0 4:2.0 5:5.0 6:4.0 7:1.0 13:1.0 125:1.0 247:1.0 
-0.1905365090336474 -1.0 1.0 1.0 1.0 2:1.0 3:2.0 4:3.0 5:16.0 6:12.0 7:2.0 8:1.0 9:1.0 
-0.0 -0.023522925207901692 0.2808975297931025 0.19117936688198672 0.09254601916870893 2:1.0 3:2.0 4:1.0 5:6.0 6:6.0 7:1.0 671:1.0 672:1.0 
-0.0 -1.0 0.0 0.0 0.0 2:1.0 3:2.0 4:1.0 5:7.0 6:7.0 7:1.0 8:1.0 
-0.0 -0.09093854589698533 0.0 0.1540947524440074 0.037068410601604304 2:1.0 3:2.0 4:1.0 5:6.0 6:5.0 7:2.0 10:1.0 155:1.0 673:1.0 
-0.0 -0.0 0.14340917871535 0.6961117202107538 0.0 2:1.0 3:2.0 4:1.0 5:10.0 6:9.0 7:1.0 36:1.0 108:1.0 190:1.0 674:1.0 
-0.0 -1.0 0.1335002741830569 0.1258056185849057 0.06366998967702746 2:1.0 3:2.0 4:3.0 5:5.0 6:3.0 7:1.0 10:1.0 675:1.0 
-0.0 -1.0 0.0 0.0 0.0 2:1.0 3:2.0 4:1.0 5:8.0 6:8.0 7:1.0 8:1.0 
-0.0 -0.02335586829959955 0.2729487987626428 0.10613003659378012 0.0 2:1.0 3:2.0 4:4.0 5:8.0 6:5.0 7:1.0 267:1.0 676:1.0 
-0.0 -0.0 0.8402191747654654 0.9774816090488567 1.0 2:1.0 3:2.0 4:1.0 5:17.0 6:17.0 7:1.0 8:1.0 
-1.1181717080818374E-4 -0.5429649272356358 0.16169767235824786 0.0 0.032105913159527794 2:1.0 3:2.0 4:1.0 5:13.0 6:9.0 7:5.0 10:1.0 677:1.0 678:1.0 
-0.07995478106466126 -0.3579694933390897 1.0 0.0 0.03424440137417434 2:1.0 3:2.0 4:3.0 5:7.0 6:4.0 7:1.0 9:1.0 127:1.0 679:1.0 
-0.0 -0.0 0.41884419782394156 0.12248756019141957 0.4664457810112843 2:1.0 3:2.0 4:3.0 5:14.0 6:11.0 7:1.0 136:1.0 633:1.0 680:1.0 681:1.0 682:1.0 
-0.0 -0.0 0.0 0.08321318799644922 0.0 2:1.0 3:2.0 4:1.0 5:11.0 6:10.0 7:2.0 109:1.0 269:1.0 501:1.0 
-0.0011421783123975507 -0.26871971405296347 0.378558050801444 0.10292290197346109 0.05335338388133654 2:1.0 3:2.0 4:3.0 5:13.0 6:7.0 7:5.0 683:1.0 684:1.0 685:1.0 
-0.14360070234241842 -0.9859476196881378 0.0 0.15580800674002282 0.3146312225880414 3:2.0 4:1.0 5:4.0 6:4.0 7:1.0 10:1.0 13:1.0 406:1.0 
-0.0 -0.0 0.7198785938884076 0.18129926464746746 0.03848671425567671 2:1.0 3:2.0 4:2.0 5:7.0 6:6.0 7:1.0 686:1.0 687:1.0 
-0.0 -0.0 0.02053978999334203 0.0 0.0 2:1.0 3:2.0 4:1.0 5:7.0 6:7.0 7:1.0 314:1.0 688:1.0 689:1.0 
-0.0 -0.0 0.32470537551049783 0.13675592075879422 0.053106162534834175 2:1.0 3:2.0 4:4.0 5:10.0 6:6.0 7:1.0 54:1.0 690:1.0 691:1.0 692:1.0 
-0.0 -0.0 0.04789579547905606 0.0 0.0614730069675038 3:2.0 4:2.0 5:11.0 6:10.0 7:1.0 10:1.0 13:1.0 288:1.0 289:1.0 
-0.0 -1.0 0.0 0.0 0.0 2:1.0 3:2.0 4:1.0 5:8.0 6:7.0 7:1.0 8:1.0 36:1.0 
-0.7368752825296158 -1.0 0.0 1.0 1.0 2:1.0 3:2.0 4:1.0 5:4.0 6:4.0 7:1.0 8:1.0 
-0.0 -0.2921687309044961 0.19095160823038582 0.11590290167113354 0.055357444134003876 2:1.0 3:2.0 4:1.0 5:8.0 6:8.0 7:1.0 39:1.0 693:1.0 694:1.0 
-0.0 -1.0 0.0 1.0 0.0 2:1.0 3:2.0 4:2.0 5:9.0 6:8.0 7:1.0 8:1.0 
-0.0 -0.0 0.4354964337531159 0.07047886326079211 0.4608719690688207 2:1.0 3:2.0 4:7.0 5:19.0 6:12.0 7:2.0 633:1.0 695:1.0 696:1.0 697:1.0 698:1.0 
-0.0 -1.0 0.0 0.0 0.0 2:1.0 3:2.0 4:1.0 5:7.0 6:7.0 7:1.0 8:1.0 
-0.0 -0.0 1.0 0.0 0.21062528084340076 3:2.0 4:3.0 5:6.0 6:3.0 7:2.0 13:1.0 98:1.0 179:1.0 699:1.0 
-0.0 -1.0 1.0 1.0 0.0 2:1.0 3:2.0 4:3.0 5:7.0 6:5.0 7:1.0 8:1.0 
-0.0 -0.0 0.21590035249268097 0.0 0.0 2:1.0 3:2.0 4:2.0 5:8.0 6:6.0 7:2.0 10:1.0 98:1.0 179:1.0 700:1.0 
-0.0 -0.0 0.0 0.37184778013056313 0.0 2:1.0 3:2.0 4:2.0 5:9.0 6:7.0 7:2.0 134:1.0 279:1.0 408:1.0 701:1.0 
-0.0 -0.0 0.0 0.0 0.011568801359099419 2:1.0 3:2.0 4:1.0 5:10.0 6:8.0 7:2.0 10:1.0 36:1.0 155:1.0 362:1.0 702:1.0 
-0.0 -0.0 0.5463249864280084 0.2793276641955448 0.004748181921602774 2:1.0 3:2.0 4:11.0 5:19.0 6:6.0 7:3.0 54:1.0 356:1.0 703:1.0 704:1.0 705:1.0 
-0.0 -1.0 0.1528752837407597 1.0 1.0 2:1.0 3:2.0 4:3.0 5:5.0 6:3.0 7:1.0 8:1.0 
-0.0 -0.0 0.2571483906801814 0.0 0.01714621717562472 2:1.0 3:2.0 4:4.0 5:14.0 6:9.0 7:1.0 17:1.0 69:1.0 85:1.0 343:1.0 707:1.0 708:1.0 709:1.0 
-0.032783729985568305 -0.0 0.395277175860891 0.1548723976110679 0.2048959995507253 3:2.0 4:2.0 5:7.0 6:6.0 7:1.0 13:1.0 710:1.0 711:1.0 
-0.0 -0.9427211110432064 0.0 0.0 0.01570873214027844 2:1.0 3:2.0 4:1.0 5:4.0 6:4.0 7:1.0 10:1.0 467:1.0 
-0.0 -1.0 0.0 0.0 0.0 2:1.0 3:2.0 4:1.0 5:6.0 6:6.0 7:1.0 8:1.0 
-0.0 -1.0 1.0 1.0 1.0 2:1.0 3:2.0 4:3.0 5:7.0 6:4.0 7:2.0 8:1.0 
-0.0 -0.2249747764453018 0.09145808494764401 0.06251911820567173 0.03163260984437743 2:1.0 3:2.0 4:3.0 5:8.0 6:6.0 7:1.0 10:1.0 712:1.0 713:1.0 
-0.005435202054437995 -0.2682482888810826 1.0 0.4621539508797117 0.0 2:1.0 3:2.0 4:4.0 5:8.0 6:4.0 7:1.0 9:1.0 87:1.0 362:1.0 
-0.0 -1.0 0.0 0.0 0.0 2:1.0 3:2.0 4:1.0 5:7.0 6:7.0 7:1.0 8:1.0 
-0.0 -0.0 0.6754755050175879 0.16233012075575445 0.026665683439878275 2:1.0 3:2.0 4:3.0 5:7.0 6:5.0 7:1.0 596:1.0 715:1.0 
-0.0 -1.0 0.0 1.0 1.0 2:1.0 3:2.0 4:1.0 5:5.0 6:5.0 7:1.0 8:1.0 
-0.0 -0.0 0.8664815556852523 0.0 0.0 2:1.0 3:2.0 4:2.0 5:12.0 6:9.0 7:3.0 314:1.0 404:1.0 716:1.0 717:1.0 
-1.0 -1.0 1.0 1.0 1.0 2:1.0 3:2.0 4:5.0 5:14.0 6:8.0 7:2.0 8:1.0 9:1.0 
-0.0033033127513881493 -0.0 0.0 0.019899692905642346 0.008539975792841815 2:1.0 3:2.0 4:3.0 5:15.0 6:10.0 7:2.0 9:1.0 82:1.0 85:1.0 412:1.0 718:1.0 719:1.0 
-0.0 -0.0 0.0877774936483296 0.0 0.0 2:1.0 3:2.0 4:2.0 5:7.0 6:5.0 7:2.0 10:1.0 155:1.0 179:1.0 720:1.0 
-0.0 -1.0 0.0 0.8125384787343901 1.0 2:1.0 3:2.0 4:1.0 5:5.0 6:5.0 7:1.0 8:1.0 
-0.0 -0.23893717559115887 1.0 0.1772915158029354 0.0436488194066067 2:1.0 3:2.0 4:3.0 5:5.0 6:3.0 7:1.0 310:1.0 311:1.0 
-0.0 -1.0 0.0 0.0 0.0 2:1.0 3:2.0 4:1.0 5:10.0 6:10.0 7:1.0 8:1.0 
-0.0 -0.0 0.0 0.12949128525980744 0.0 2:1.0 3:2.0 4:1.0 5:8.0 6:7.0 7:2.0 255:1.0 721:1.0 722:1.0 
-0.0 -0.0 0.0 0.0 1.0 2:1.0 3:2.0 4:1.0 5:9.0 6:7.0 7:1.0 8:1.0 54:2.0 
-0.0 -0.0 0.41083611197876835 0.1426227749985315 0.031232444343541547 3:2.0 4:1.0 5:7.0 6:7.0 7:1.0 259:1.0 278:1.0 723:1.0 724:1.0 
-0.0 -0.0 0.37575913772691105 0.0 0.0 2:1.0 3:2.0 4:4.0 5:11.0 6:7.0 7:1.0 54:1.0 157:1.0 247:1.0 725:1.0 
-0.0 -0.7866395889349799 0.0 0.03986737857556735 0.031485993884796885 2:1.0 3:2.0 4:1.0 5:6.0 6:6.0 7:1.0 10:1.0 104:1.0 726:1.0 
-0.7177378507906927 -1.0 0.0 1.0 1.0 2:1.0 3:2.0 4:1.0 5:4.0 6:4.0 7:1.0 10:1.0 
-0.020483870293868025 -0.5058926470376754 0.8043611830608468 0.1032465479775879 0.027492875366916036 2:1.0 3:2.0 4:3.0 5:7.0 6:3.0 7:3.0 596:1.0 727:1.0 
-0.010699145208830634 -0.3224199863252186 0.0 0.017064924185402907 0.0 2:1.0 3:2.0 4:2.0 5:3.0 6:2.0 7:1.0 279:1.0 728:1.0 
-0.0 -0.11842414379415894 0.0 0.0 0.0 2:1.0 3:2.0 4:1.0 5:6.0 6:6.0 7:1.0 10:1.0 343:1.0 729:1.0 
-0.0 -0.0 0.0 0.025953262601029498 0.0 2:1.0 3:2.0 4:2.0 5:8.0 6:6.0 7:2.0 10:1.0 155:1.0 541:1.0 730:1.0 
-0.0 -0.0 0.13280723088914914 0.0 0.06388176024794132 2:1.0 3:2.0 4:4.0 5:16.0 6:11.0 7:2.0 54:1.0 128:1.0 314:1.0 601:1.0 733:1.0 734:1.0 
-0.0 -0.0 0.6519546837877238 0.11652613401307418 0.047146326681859474 2:1.0 3:2.0 4:1.0 5:10.0 6:9.0 7:1.0 33:1.0 36:1.0 735:1.0 736:1.0 
-0.0 -0.14665701579841606 0.4880936244627247 0.21411130867538938 0.07948808521747705 2:1.0 3:2.0 4:3.0 5:6.0 6:4.0 7:1.0 737:1.0 738:1.0 
-0.0 -0.3884517494887556 0.9660127721515898 0.07951000879041818 0.06284526337949897 2:1.0 3:2.0 4:1.0 5:7.0 6:7.0 7:1.0 10:1.0 739:1.0 
-0.0 -0.19122209507218965 0.051227060353392716 0.0 0.0 2:1.0 3:2.0 4:1.0 5:4.0 6:4.0 7:1.0 297:1.0 740:1.0 
-0.0 -0.3173936958859567 0.3668157126892736 0.0 0.0 2:1.0 3:2.0 4:3.0 5:7.0 6:5.0 7:1.0 10:1.0 741:1.0 742:1.0 
-0.0 -1.0 0.0 0.0 0.0 2:1.0 3:2.0 4:1.0 5:5.0 6:4.0 7:1.0 8:1.0 36:1.0 
-0.0 -1.0 0.3598591764214567 0.0 0.0 2:1.0 3:2.0 4:1.0 5:8.0 6:7.0 7:1.0 8:1.0 36:1.0 
-0.0029194411871495377 -0.5329053674526765 0.008381104182879602 0.05153836302001884 0.03181849684042572 2:1.0 3:2.0 4:2.0 5:4.0 6:3.0 7:1.0 10:1.0 743:1.0 744:1.0 
-0.0 -0.19452198597566397 0.16611209836165491 0.8542012466057494 0.417985225428294 2:1.0 3:2.0 4:1.0 5:7.0 6:4.0 7:2.0 17:2.0 52:1.0 476:1.0 745:1.0 
-0.0 -0.18744132926422305 0.4628528330384639 0.2980282623922438 0.00247323565743897 3:2.0 4:1.0 5:10.0 6:7.0 7:4.0 278:1.0 564:1.0 746:1.0 747:1.0 
-0.0 -0.0 0.1271317593357325 0.09246628716312695 0.0 2:1.0 3:2.0 4:4.0 5:15.0 6:10.0 7:1.0 136:2.0 427:1.0 648:1.0 748:1.0 749:1.0 750:1.0 
-0.0 -0.0 0.15562322480259777 0.0 0.2387965508770268 2:1.0 3:2.0 4:3.0 5:13.0 6:11.0 7:1.0 10:1.0 45:1.0 282:1.0 751:1.0 752:1.0 
-0.0 -1.0 1.0 0.0 0.0 2:1.0 3:2.0 4:3.0 5:9.0 6:6.0 7:1.0 8:1.0 36:1.0 
-0.0 -0.0 0.3440269673088718 0.22367148081251925 0.04210732316239155 2:1.0 3:2.0 4:4.0 5:9.0 6:6.0 17:1.0 70:1.0 753:1.0 754:1.0 
-0.19471096657434978 -0.38160357510415593 0.4137515752083999 0.5881164227118707 0.0 2:1.0 3:2.0 4:2.0 5:7.0 6:3.0 7:4.0 13:1.0 361:1.0 755:1.0 
-0.0 -0.9426658988040496 0.0 0.0801719030297848 0.06329525907513502 2:1.0 3:2.0 4:1.0 5:4.0 6:4.0 7:1.0 10:1.0 756:1.0 
-0.0 -1.0 0.0 0.0 0.0 2:1.0 3:2.0 4:1.0 5:8.0 6:8.0 7:1.0 8:1.0 
-0.0 -0.0 0.28568599030242536 0.0 0.690557810743277 2:1.0 3:2.0 4:1.0 5:8.0 6:7.0 7:2.0 98:1.0 279:1.0 757:1.0 
-0.0 -0.0 0.26147723801997114 0.0 0.0 2:1.0 3:2.0 4:4.0 5:13.0 6:9.0 7:2.0 10:1.0 179:1.0 758:1.0 759:1.0 760:1.0 
-0.0 -1.0 1.0 0.0 1.0 2:1.0 3:2.0 4:1.0 5:16.0 6:14.0 7:3.0 8:1.0 
-0.0 -0.0 0.3010091065471182 0.0 0.0 2:1.0 3:2.0 4:4.0 5:11.0 6:6.0 7:2.0 36:1.0 476:1.0 761:1.0 762:1.0 763:1.0 
-0.0 -0.16434040490527496 0.36345764749810866 0.7381219808352152 0.5004978362149122 2:1.0 3:2.0 4:2.0 5:10.0 6:9.0 7:1.0 122:1.0 154:1.0 764:1.0 
-0.0 -0.0 0.0 0.4358719533768907 0.030649695860457026 3:2.0 4:5.0 5:20.0 6:12.0 7:5.0 13:1.0 98:1.0 190:1.0 257:2.0 314:1.0 507:1.0 630:1.0 
-0.37929818882911953 -1.0 0.0 0.0 1.0 2:1.0 3:2.0 4:2.0 5:6.0 6:4.0 7:1.0 8:1.0 17:1.0 
-8.957452397293525E-4 -0.1240305698420661 0.031800992347189486 0.0 0.0 2:1.0 3:2.0 4:1.0 5:8.0 6:6.0 7:3.0 266:1.0 765:1.0 766:1.0 767:1.0 
-0.0 -0.0 0.44775252624890216 0.1349773137298085 0.38614325946561373 2:1.0 3:2.0 4:2.0 5:8.0 6:7.0 7:1.0 742:1.0 768:1.0 769:1.0 
-0.0 -0.0 0.48191835565123 0.10987612010020806 0.04738033491230733 2:1.0 3:2.0 4:1.0 5:10.0 6:10.0 7:1.0 388:1.0 770:1.0 771:1.0 
-0.0 -0.0 0.8962741015736592 0.08128811362688004 0.019154594816463956 2:1.0 3:2.0 4:4.0 5:10.0 6:5.0 7:1.0 10:1.0 36:1.0 85:1.0 248:1.0 773:1.0 
-0.0 -0.3067094222108094 0.4098042366581291 0.1586530328070461 0.0 2:1.0 3:2.0 4:2.0 5:9.0 6:7.0 7:2.0 200:1.0 308:1.0 774:1.0 
-0.0 -0.0 1.0 0.0 0.0 2:1.0 3:2.0 4:2.0 5:6.0 6:5.0 7:1.0 179:1.0 775:1.0 
-0.0 -0.14700753174013587 0.31413716072350717 0.053937418100160936 0.02352884774744763 2:1.0 3:2.0 4:4.0 5:12.0 6:8.0 7:2.0 119:1.0 425:1.0 662:1.0 776:1.0 
-0.0 -0.4500751721263181 0.18289402076017033 0.1250375873452709 0.0631973650346779 2:1.0 3:2.0 4:3.0 5:8.0 6:6.0 7:1.0 10:1.0 777:1.0 
-0.0 -0.07926458828778045 0.0 0.0 0.0 2:1.0 3:2.0 4:3.0 5:7.0 6:4.0 7:2.0 279:1.0 432:1.0 507:1.0 
-0.0 -0.11582438892694258 0.0750041481074051 0.11381874843309917 0.0 2:1.0 3:2.0 4:1.0 5:5.0 6:5.0 7:1.0 710:1.0 778:1.0 
-0.0 -1.0 0.0 0.0 1.0 3:2.0 4:2.0 5:6.0 6:4.0 7:1.0 17:1.0 23:1.0 43:1.0 
-0.0 -0.0 1.0 0.0 1.0 2:1.0 3:2.0 4:1.0 5:25.0 6:23.0 7:3.0 8:1.0 
-1.0 -1.0 0.0 0.0 0.37818778007873494 2:1.0 3:2.0 4:1.0 5:8.0 6:6.0 7:3.0 8:1.0 
-0.0 -0.07889295371895745 0.15866996075557802 0.04209036128430173 0.031046770824725213 2:1.0 3:2.0 4:3.0 5:7.0 6:5.0 7:1.0 169:1.0 779:1.0 780:1.0 
-0.05469445726843143 -0.13752433816860665 0.3662591403949231 0.20054609489615538 0.20497578151665743 3:2.0 4:1.0 5:5.0 6:5.0 7:1.0 13:1.0 781:1.0 782:1.0 
-0.03672143252836257 -1.0 0.10036054013652546 0.12612681037339485 0.06400158379013113 2:1.0 3:2.0 4:3.0 5:3.0 6:1.0 7:1.0 10:1.0 783:1.0 
-0.0 -0.10970897488588108 0.6835677190100488 0.1911721965076702 0.13757504714069765 2:1.0 3:2.0 4:1.0 5:6.0 6:6.0 7:1.0 125:1.0 784:1.0 
-0.0 -0.0 0.0 0.1537800938980678 0.036632180186557804 2:1.0 3:2.0 4:1.0 5:9.0 6:8.0 7:2.0 10:1.0 155:1.0 785:1.0 
-0.0 -0.0 0.23419009570291074 0.10056365064901165 0.05301199401329844 2:1.0 3:2.0 4:1.0 5:9.0 6:7.0 7:1.0 54:2.0 786:1.0 787:1.0 788:1.0 
-0.0 -1.0 1.0 1.0 0.0 2:1.0 3:2.0 4:3.0 5:9.0 6:7.0 7:1.0 8:1.0 
-0.0 -0.19415198307904985 0.24486154794344947 0.0 0.0 2:1.0 3:2.0 4:4.0 5:7.0 6:4.0 7:1.0 10:1.0 349:1.0 789:1.0 
-0.0 -0.757873462476838 0.0 0.07994029109109038 0.06312323681128726 2:1.0 3:2.0 4:1.0 5:5.0 6:5.0 7:1.0 10:1.0 426:1.0 
-0.0 -1.0 1.0 0.0 0.0 2:1.0 3:2.0 4:1.0 5:10.0 6:8.0 7:3.0 8:1.0 
-0.0 -0.0 0.6194775126512883 0.5301624105160064 0.05700136996745514 2:1.0 3:2.0 4:1.0 5:8.0 6:7.0 7:1.0 36:1.0 127:1.0 274:1.0 
-0.0 -1.0 0.0 0.9332300849439431 0.2348570031900466 2:1.0 3:2.0 4:1.0 5:7.0 6:6.0 7:1.0 10:1.0 19:1.0 101:1.0 128:1.0 
-0.0 -0.4404511633004506 0.4901880532713068 0.7667217292838969 0.04622695187902428 2:1.0 3:2.0 4:2.0 5:6.0 6:5.0 7:1.0 189:1.0 790:1.0 791:1.0 
-0.0 -1.0 0.0 0.0 0.237163540440022 2:1.0 3:2.0 4:1.0 5:5.0 6:5.0 7:1.0 8:1.0 
-0.0 -0.0 0.1086629492111373 0.0 0.031346954410044384 2:1.0 3:2.0 4:2.0 5:7.0 6:5.0 7:1.0 10:1.0 36:1.0 792:1.0 793:1.0 
-0.0 -1.0 0.0 0.0 1.0 2:1.0 3:2.0 4:2.0 5:8.0 6:6.0 7:1.0 8:1.0 17:1.0 
-0.021867348947006832 -0.4406712835261593 0.3240134881602364 0.152295145592085 0.3281536717059568 3:2.0 4:4.0 5:10.0 6:5.0 7:3.0 13:1.0 59:1.0 369:1.0 794:1.0 795:1.0 
-0.0 -0.0 0.1893726560024011 0.07956129478319593 0.1177295425031699 2:1.0 3:2.0 4:6.0 5:21.0 6:12.0 7:3.0 9:1.0 54:1.0 98:1.0 299:1.0 796:1.0 797:1.0 798:1.0 799:1.0 800:1.0 
-0.0 -0.1928406617136002 0.443490274712958 0.0 0.0031438814785303484 2:1.0 3:2.0 4:5.0 5:11.0 6:7.0 7:1.0 60:1.0 169:1.0 801:1.0 
-0.0 -1.0 1.0 1.0 1.0 2:1.0 3:2.0 4:5.0 5:10.0 6:6.0 7:1.0 8:1.0 
-0.0 -0.2250212443418353 0.0 0.0 0.08239860298027432 2:1.0 3:2.0 4:3.0 5:8.0 6:6.0 7:1.0 10:1.0 723:1.0 805:1.0 
-0.0 -0.0 0.08998936565898921 0.0 0.0 2:1.0 3:2.0 4:1.0 5:8.0 6:8.0 7:1.0 266:1.0 806:1.0 807:1.0 
-0.0 -0.36151980594446204 0.0 0.0 0.0 2:1.0 3:2.0 4:1.0 5:6.0 6:6.0 7:1.0 10:1.0 107:1.0 808:1.0 
-0.2130789324788208 -0.0 0.2511614337970702 0.0 0.0 2:1.0 3:2.0 4:3.0 5:14.0 6:7.0 7:4.0 9:1.0 10:1.0 18:1.0 54:1.0 179:1.0 809:1.0 810:1.0 
-0.0 -0.8811008142798513 0.033295698293305864 0.10280136913688213 0.06337497086393137 2:1.0 3:2.0 4:2.0 5:5.0 6:4.0 7:1.0 10:1.0 811:1.0 
-0.0 -1.0 0.0 0.0 0.0 2:1.0 3:2.0 4:1.0 5:7.0 6:7.0 7:1.0 8:1.0 
-0.0 -0.0 0.31651751023621855 0.018750382657304006 0.5180469671799384 2:1.0 3:2.0 4:1.0 5:10.0 6:8.0 7:2.0 10:1.0 36:1.0 155:1.0 812:1.0 813:1.0 
-0.0 -0.0 0.8052615066329577 0.28538133921744385 0.012170706285760127 3:2.0 4:1.0 5:6.0 6:6.0 7:1.0 259:1.0 278:1.0 814:1.0 
-0.0 -1.0 0.0 0.0 0.0 2:1.0 3:2.0 4:1.0 5:11.0 6:11.0 7:1.0 8:1.0 
-0.12489509627116506 -0.9243458320168358 0.22042737096777093 0.12119849670195411 0.3147367185019555 3:2.0 4:2.0 5:5.0 6:4.0 7:1.0 10:1.0 13:1.0 815:1.0 
-0.02953153046211395 -0.17589199685453882 0.1025116239434323 0.08188246127769168 0.03173171265678513 2:1.0 3:2.0 4:1.0 5:7.0 6:6.0 7:1.0 9:1.0 115:1.0 234:1.0 816:1.0 
-0.0 -0.0 0.0 0.18503009036756793 0.0 3:2.0 4:1.0 5:8.0 6:7.0 7:2.0 94:1.0 98:1.0 278:1.0 565:1.0 
-0.0 -0.0 0.14493019928196002 0.0 0.0 2:1.0 3:2.0 4:3.0 5:8.0 6:6.0 7:1.0 314:1.0 362:1.0 817:1.0 
-0.0 -0.0 0.0 0.6685843604104943 0.06611979933128669 2:1.0 3:2.0 4:2.0 5:9.0 6:6.0 7:1.0 10:1.0 17:2.0 535:1.0 686:1.0 
-0.3336785403462107 -0.04547824907556992 0.0 0.07704737622200176 0.018521502216828484 2:1.0 3:2.0 4:1.0 5:6.0 6:5.0 7:2.0 10:1.0 16:1.0 155:1.0 819:1.0 
-0.0 -0.5731902970392071 0.39112186220663975 0.07963686988174604 1.0 2:1.0 3:2.0 4:1.0 5:6.0 6:6.0 7:1.0 10:1.0 820:1.0 
-0.0 -0.17402248539891244 0.7938471056419393 0.5010536141107649 0.19619717457437966 3:2.0 4:1.0 5:11.0 6:10.0 7:2.0 13:1.0 149:1.0 190:1.0 282:1.0 821:1.0 
-0.0 -0.3746500600714154 0.2197115632485482 0.6686137662097206 0.2216850040425185 3:2.0 4:1.0 5:6.0 6:6.0 7:1.0 28:1.0 31:1.0 429:1.0 
-0.0 -0.0 0.1793433316055117 0.15468751067753334 0.03168888968785301 2:1.0 3:2.0 4:2.0 5:9.0 6:8.0 7:1.0 822:1.0 823:1.0 824:1.0 
-0.0 -0.5731648664750286 0.0 0.0796267970137472 0.06299017429509177 2:1.0 3:2.0 4:1.0 5:6.0 6:6.0 7:1.0 10:1.0 825:1.0 
-0.0 -0.0 0.23384541935395287 0.2128420628036962 0.3107694705362645 3:2.0 4:1.0 5:9.0 6:9.0 7:1.0 278:1.0 297:1.0 829:1.0 830:1.0 831:1.0 
-0.0 -0.21409218127901222 0.0 0.04746622406292256 0.1521613729492997 2:1.0 3:2.0 4:3.0 5:9.0 6:5.0 7:3.0 269:1.0 832:1.0 833:1.0 
-0.0 -0.0 0.20233671074062018 0.0030384459228519796 0.0 2:1.0 3:2.0 4:4.0 5:10.0 6:6.0 7:1.0 58:1.0 343:1.0 834:1.0 835:1.0 
-0.0012014644153877491 -0.7319042320702371 0.28200306507740736 0.0 0.0 2:1.0 3:2.0 4:1.0 5:9.0 6:6.0 7:3.0 10:1.0 58:1.0 117:1.0 836:1.0 
-0.0 -0.0 0.489787360923761 0.19110914439396715 0.34426820483072107 2:1.0 3:2.0 4:1.0 5:7.0 6:7.0 7:1.0 292:1.0 837:1.0 
-0.0 -0.0 0.0 0.37329226257060716 0.0 2:1.0 3:2.0 4:2.0 5:11.0 6:9.0 7:1.0 10:1.0 54:1.0 282:1.0 502:1.0 838:1.0 839:1.0 840:1.0 
-0.0 -0.0 0.0 0.0 0.018193687865957996 2:1.0 3:2.0 4:2.0 5:8.0 6:5.0 7:2.0 10:1.0 36:1.0 155:1.0 480:1.0 841:1.0 
-0.0 -1.0 0.0 0.015309797046883858 0.5542448142686729 2:1.0 3:2.0 4:1.0 5:5.0 6:5.0 7:1.0 8:1.0 
-0.0 -0.088415327627977 0.06652538358133511 0.04168698018027732 0.02105064534716904 2:1.0 3:2.0 4:3.0 5:9.0 6:7.0 7:1.0 10:1.0 842:1.0 843:1.0 844:1.0 
-0.0 -0.0 1.0 0.18692527866411912 0.11901574174959609 2:1.0 3:2.0 4:5.0 5:11.0 6:6.0 7:1.0 19:1.0 122:1.0 845:1.0 846:1.0 847:1.0 
-0.0 -0.2176754539059502 0.05344342957030061 0.0 0.09482303208203371 2:1.0 3:2.0 4:3.0 5:22.0 6:14.0 7:7.0 60:1.0 98:1.0 122:1.0 141:1.0 236:1.0 848:1.0 849:1.0 850:1.0 
-0.0 -0.6135270810279249 0.0 0.7650604819563398 0.041376514709293495 2:1.0 3:2.0 4:5.0 5:11.0 6:4.0 7:4.0 10:1.0 76:1.0 98:1.0 134:1.0 155:1.0 619:1.0 
-0.0 -0.0 0.3618548988971522 0.19109884505319727 0.07916310595827249 2:1.0 3:2.0 4:1.0 5:7.0 6:7.0 7:1.0 851:1.0 852:1.0 
-0.0 -0.0 0.48125844725764066 0.0 0.0 2:1.0 3:2.0 4:3.0 5:11.0 6:8.0 7:2.0 127:1.0 179:1.0 541:1.0 853:1.0 
-0.0 -1.0 0.0 0.0 0.0 2:1.0 3:2.0 4:1.0 5:6.0 6:6.0 7:1.0 8:1.0 
-0.0 -0.040857053280342344 0.1541847177138637 0.06315268526673465 0.0 2:1.0 3:2.0 4:6.0 5:12.0 6:7.0 7:1.0 124:1.0 477:1.0 649:1.0 854:1.0 855:1.0 
-0.0 -0.0 0.0 0.7952390664189434 0.0 2:1.0 3:2.0 4:1.0 5:7.0 6:5.0 7:2.0 10:1.0 36:1.0 134:1.0 155:1.0 400:1.0 
-0.0 -0.0 0.08476353984950358 0.0 0.0 2:1.0 3:2.0 4:1.0 5:6.0 6:5.0 7:1.0 36:1.0 266:1.0 856:1.0 
-0.028286059059497583 -0.0 0.0 0.05958573484242484 0.07054990879309968 2:1.0 3:2.0 4:1.0 5:12.0 6:9.0 7:3.0 9:1.0 59:1.0 303:1.0 569:1.0 857:1.0 
-1.0 -1.0 0.0 1.0 0.9993030569976856 2:1.0 3:2.0 4:1.0 5:4.0 6:4.0 7:1.0 8:1.0 
-0.0 -0.5021106091528376 0.0667292474926617 0.06290777456380785 0.03184666573392351 2:1.0 3:2.0 4:3.0 5:5.0 6:3.0 7:1.0 10:1.0 858:1.0 859:1.0 
-0.0 -1.0 0.0 1.0 1.0 2:1.0 3:2.0 4:2.0 5:5.0 6:4.0 7:1.0 8:1.0 
-0.48426369593019236 -1.0 1.0 0.0 1.0 2:1.0 3:2.0 4:1.0 5:13.0 6:9.0 7:5.0 8:1.0 
-0.0 -0.0 0.43831412230621025 0.49055274606111743 0.0 2:1.0 3:2.0 4:5.0 5:9.0 6:5.0 7:1.0 247:1.0 860:1.0 861:1.0 
-0.0 -1.0 0.0 0.0 0.8677094959053332 2:1.0 3:2.0 4:1.0 5:5.0 6:5.0 7:1.0 8:1.0 
-0.0 -0.0 0.0 0.9070624204594638 0.0 2:1.0 3:2.0 4:4.0 5:8.0 6:5.0 7:1.0 134:1.0 297:1.0 862:1.0 
-0.0 -0.0 0.18706025840073134 0.03454984561491615 0.018781901698859307 2:1.0 3:2.0 4:3.0 5:21.0 6:17.0 7:2.0 39:1.0 54:1.0 762:1.0 863:1.0 864:1.0 865:1.0 866:1.0 867:1.0 
-0.0 -0.0 0.2386351024288468 0.37396899786079674 0.015452950944603893 2:1.0 3:2.0 4:6.0 5:13.0 6:8.0 7:1.0 60:1.0 687:1.0 868:1.0 869:1.0 870:1.0 
-0.14576709629565868 -0.04396022575940218 0.14554386494676663 0.1642297280805836 0.204986347703412 3:2.0 4:1.0 5:7.0 6:6.0 7:1.0 9:1.0 13:1.0 277:1.0 871:1.0 
-0.0 -1.0 0.0 1.0 0.0 2:1.0 3:2.0 4:2.0 5:10.0 6:9.0 7:1.0 8:1.0 
-0.0 -0.8811425074626058 0.03329850305367451 0.1028265048829109 0.0633432717031211 2:1.0 3:2.0 4:2.0 5:5.0 6:4.0 7:1.0 10:1.0 872:1.0 
-0.0 -1.0 0.0 0.0 0.0 2:1.0 3:2.0 4:1.0 5:6.0 6:6.0 7:1.0 8:1.0 
-0.0 -0.0 0.0 0.07157571445169346 0.12248676351357646 3:2.0 4:2.0 5:10.0 6:9.0 7:1.0 13:1.0 565:1.0 873:1.0 874:1.0 
-0.0 -0.0 0.09784433535221822 0.15386823241282746 0.4607691082776964 2:1.0 3:2.0 4:2.0 5:8.0 6:7.0 7:1.0 334:1.0 875:1.0 
-0.0 -0.04704019553793431 0.3136763811508678 0.0 0.0 2:1.0 3:2.0 4:4.0 5:10.0 6:7.0 7:1.0 157:1.0 247:1.0 876:1.0 
-0.042959534404858606 -0.19706618164295325 0.0 0.0 0.0 2:1.0 3:2.0 4:3.0 5:18.0 6:11.0 7:6.0 10:1.0 13:1.0 45:1.0 122:1.0 877:1.0 878:1.0 879:1.0 
-0.0 -0.0 0.14061346260129381 0.0 0.07794962198617507 2:1.0 3:2.0 4:1.0 5:20.0 6:14.0 7:7.0 98:1.0 173:1.0 596:1.0 880:1.0 881:1.0 882:1.0 883:1.0 884:1.0 
-0.0 -1.0 0.0 0.0 0.0 2:1.0 3:2.0 4:1.0 5:6.0 6:6.0 7:1.0 8:1.0 
-0.0 -1.0 1.0 1.0 0.9585013186459815 2:1.0 3:2.0 4:3.0 5:6.0 6:4.0 7:1.0 8:1.0 
-0.0 -0.19427113861265172 0.0 0.03980583078039637 0.031430969396072664 2:1.0 3:2.0 4:1.0 5:7.0 6:7.0 7:1.0 10:1.0 885:1.0 886:1.0 
-1.0 -1.0 0.5842502325498636 1.0 0.979975126397154 2:1.0 3:2.0 4:3.0 5:9.0 6:6.0 7:1.0 8:1.0 9:1.0 
-0.0 -0.0 0.17367604557499136 0.9408149401081859 0.06337004837056152 2:1.0 3:2.0 4:2.0 5:9.0 6:8.0 7:1.0 559:1.0 822:1.0 
-0.0 -0.0 0.044372299470825126 0.0 0.022653879275279957 2:1.0 3:2.0 4:3.0 5:13.0 6:10.0 7:1.0 9:1.0 411:1.0 549:1.0 887:1.0 888:1.0 
-0.0 -0.450988616515783 1.0 0.0 0.0 2:1.0 3:2.0 4:3.0 5:13.0 6:10.0 7:2.0 81:1.0 
-0.0 -1.0 1.0 1.0 0.0 2:1.0 3:2.0 4:2.0 5:12.0 6:11.0 7:1.0 8:1.0 
-0.0 -0.1708129098966507 0.9222519269105753 0.0011608234505652265 0.0 2:1.0 3:2.0 4:4.0 5:7.0 6:3.0 7:2.0 565:1.0 749:1.0 750:1.0 889:1.0 
-0.0 -1.0 0.0 1.0 0.554813504336359 2:1.0 3:2.0 4:1.0 5:5.0 6:5.0 7:1.0 8:1.0 
-0.0 -0.0 0.28480356040694466 0.204471257581108 0.15840266588094612 2:1.0 3:2.0 4:5.0 5:12.0 6:6.0 7:1.0 19:1.0 54:1.0 477:1.0 890:1.0 891:1.0 
-0.0 -0.14238836777673067 0.42776836119794504 0.18896934224426318 0.05286949658801984 2:1.0 3:2.0 4:3.0 5:9.0 6:7.0 7:1.0 200:1.0 892:1.0 893:1.0 
-0.02967347090979361 -0.29760362384978606 0.3838018556550458 0.287114506202284 0.22608763302564838 3:2.0 4:1.0 5:7.0 6:7.0 7:1.0 13:1.0 128:1.0 894:1.0 
-0.048437239733046714 -0.04114508546553534 0.31543918968293755 0.2233829676976809 0.20511814287680344 3:2.0 4:3.0 5:6.0 6:4.0 7:1.0 13:1.0 418:1.0 895:1.0 
-0.0 -0.0 0.0 0.18031545668355034 0.0 2:1.0 3:2.0 4:5.0 5:10.0 6:5.0 7:2.0 255:1.0 257:1.0 475:1.0 
-0.0 -0.0 0.0 0.0342148680392713 0.0017040132379092033 2:1.0 3:2.0 4:1.0 5:9.0 6:8.0 7:1.0 54:1.0 269:1.0 896:1.0 897:1.0 
-0.0 -1.0 0.0 0.0 0.0 2:1.0 3:2.0 4:1.0 5:6.0 6:6.0 7:1.0 8:1.0 
-0.0 -0.03448895274155877 1.0 0.12963864352214965 0.06256546097416296 2:1.0 3:2.0 4:5.0 5:9.0 6:5.0 7:1.0 169:1.0 258:1.0 
-0.0 -0.0 0.2118490828383031 0.0 0.0 2:1.0 3:2.0 4:3.0 5:15.0 6:12.0 7:2.0 10:1.0 94:1.0 179:1.0 898:1.0 899:1.0 
-0.0 -0.0 0.1944464634757421 0.19125272567705415 0.052916831648445295 2:1.0 3:2.0 4:1.0 5:5.0 6:5.0 7:1.0 407:1.0 900:1.0 
-0.0 -1.0 0.0 1.0 0.0 2:1.0 3:2.0 4:2.0 5:7.0 6:6.0 7:1.0 8:1.0 
-0.0 -0.0 0.09387531046115895 0.12546689067132677 0.0 2:1.0 3:2.0 4:2.0 5:8.0 6:6.0 7:1.0 54:1.0 128:1.0 480:1.0 901:1.0 
-0.0 -0.17979722979474275 0.0 0.1580224426668083 0.05323128292198944 2:1.0 3:2.0 4:3.0 5:5.0 6:3.0 7:1.0 716:1.0 903:1.0 
-0.0 -1.0 1.0 0.0 0.0 2:1.0 3:2.0 4:1.0 5:5.0 6:4.0 7:1.0 8:1.0 58:1.0 
-0.0 -0.0943000253175445 0.913489087879905 0.4205997942729565 0.3926651986661193 2:1.0 3:2.0 4:2.0 5:6.0 6:3.0 7:2.0 10:1.0 19:1.0 155:1.0 904:1.0 
-0.0 -0.46493004148620726 0.13643797923682102 0.07745356772519452 0.15250407409781466 2:1.0 3:2.0 4:1.0 5:5.0 6:5.0 7:1.0 59:1.0 552:1.0 905:1.0 
-0.0 -0.0 0.0 0.043298465686397065 0.0 2:1.0 3:2.0 4:1.0 5:8.0 6:7.0 7:1.0 10:1.0 136:1.0 906:1.0 907:1.0 
-0.0 -0.0 0.10791194981733077 0.0 0.06263430383401158 2:1.0 3:2.0 4:1.0 5:6.0 6:5.0 7:1.0 10:1.0 36:1.0 908:1.0 
-0.0 -0.0 0.22061783083743697 0.10381142599862715 0.05274964803516047 2:1.0 3:2.0 4:3.0 5:9.0 6:6.0 7:1.0 36:1.0 714:1.0 763:1.0 909:1.0 
-0.0 -0.0 1.0 0.0 0.0 2:1.0 3:2.0 4:1.0 5:11.0 6:10.0 7:1.0 8:1.0 36:1.0 
-0.0 -0.5413465526927461 0.8727730077561863 0.2432826237543237 0.07530218844922615 2:1.0 3:2.0 4:3.0 5:5.0 6:3.0 7:1.0 82:1.0 910:1.0 
-0.029910824592729677 -0.9979295258901427 0.6287484489086247 0.17306651125903477 0.5797548504590917 2:1.0 3:2.0 4:2.0 5:6.0 6:3.0 7:3.0 183:1.0 911:1.0 
-0.0 -1.0 0.0 0.0 0.0 2:1.0 3:2.0 4:1.0 5:6.0 6:6.0 7:1.0 8:1.0 
-0.0 -0.06169011723060622 0.0 0.13545021905869054 7.351177472475189E-4 2:1.0 3:2.0 4:1.0 5:8.0 6:8.0 7:1.0 10:1.0 257:1.0 912:1.0 
-0.0 -1.0 0.0 0.0 0.0 2:1.0 3:2.0 4:1.0 5:10.0 6:10.0 7:1.0 8:1.0 
-0.0 -0.0 0.08028733109617381 0.0 0.13974299973712598 2:1.0 3:2.0 4:3.0 5:11.0 6:6.0 7:2.0 10:1.0 19:1.0 54:1.0 840:1.0 913:1.0 914:1.0 
-0.0 -1.0 0.0 1.0 0.0 2:1.0 3:2.0 4:2.0 5:7.0 6:6.0 7:1.0 8:1.0 
-0.0 -0.0 0.4338210487412963 0.0673495881650136 0.07317550708737014 2:1.0 3:2.0 4:8.0 5:15.0 6:7.0 7:2.0 69:1.0 98:1.0 915:1.0 916:1.0 917:1.0 918:1.0 
-0.0 -1.0 1.0 1.0 0.15988562836631348 2:1.0 3:2.0 4:4.0 5:12.0 6:9.0 7:1.0 8:1.0 
-0.0 -1.0 0.9090613978720778 0.3844047150130804 0.37183597020290926 2:1.0 3:2.0 4:2.0 5:6.0 6:2.0 7:2.0 10:1.0 17:1.0 54:1.0 70:1.0 
-0.012612686359723024 -1.0 1.0 0.0 0.016233259515972456 2:1.0 3:2.0 4:2.0 5:6.0 6:4.0 7:2.0 10:1.0 388:1.0 
-0.0 -0.20814388311570803 0.9111206511714735 0.22555997150350668 0.07963143977530295 2:1.0 3:2.0 4:4.0 5:6.0 6:3.0 7:1.0 919:1.0 920:1.0 
-0.0 -1.0 0.0 1.0 0.2889346226416715 2:1.0 3:2.0 4:1.0 5:9.0 6:7.0 7:3.0 10:1.0 47:1.0 94:1.0 237:1.0 
-1.0 -1.0 0.0 1.0 0.04436423615661869 2:1.0 3:2.0 4:1.0 5:12.0 6:11.0 7:1.0 8:1.0 9:1.0 
-0.0013102295502605101 -0.33131917205879874 0.3645893138465595 0.21434790334646958 0.07968660755795438 2:1.0 3:2.0 4:3.0 5:4.0 6:2.0 7:1.0 921:1.0 922:1.0 
-0.0 -0.0 0.012783929618066769 0.10518245915520587 0.019989935311265063 2:1.0 3:2.0 4:2.0 5:12.0 6:10.0 7:2.0 98:1.0 574:1.0 790:1.0 923:1.0 924:1.0 
-0.0 -0.15263016709308144 0.5810986520514767 0.08312810352263372 0.00669037520069111 3:2.0 4:1.0 5:12.0 6:8.0 7:5.0 259:1.0 278:1.0 925:1.0 926:1.0 
-0.0 -0.5261918183527587 0.0 0.0 0.0 2:1.0 3:2.0 4:1.0 5:9.0 6:9.0 7:1.0 10:1.0 127:1.0 174:1.0 927:1.0 
-0.0 -1.0 0.0 0.07944314952377794 0.0627909686125423 2:1.0 3:2.0 4:1.0 5:8.0 6:8.0 7:1.0 10:1.0 239:1.0 
-0.0 -1.0 0.0 0.0 0.0 2:1.0 3:2.0 4:1.0 5:5.0 6:5.0 7:1.0 8:1.0 
-0.0 -0.0 0.5291834919481558 0.0 0.24336748196942276 2:1.0 3:2.0 4:5.0 5:14.0 6:9.0 7:1.0 10:1.0 36:1.0 285:1.0 928:1.0 929:1.0 930:1.0 
-0.0 -0.0846414833599441 0.13398734647840407 0.010854072414063068 0.0 2:1.0 3:2.0 4:3.0 5:6.0 6:4.0 7:1.0 266:1.0 931:1.0 
-0.0 -0.41644073525131425 0.633190278093594 0.36014057092905316 0.7300324990635277 2:1.0 3:2.0 4:1.0 5:4.0 6:4.0 7:1.0 510:1.0 
-0.0 -0.10316339550202727 0.21782235457642937 0.025550380025676726 0.2657849329092265 2:1.0 3:2.0 4:2.0 5:11.0 6:10.0 7:1.0 10:1.0 99:1.0 932:1.0 933:1.0 934:1.0 
-0.0 -0.0 0.11649527399016273 0.022643051221315824 0.0 2:1.0 3:2.0 4:2.0 5:5.0 6:4.0 7:1.0 510:1.0 935:1.0 
-0.0 -0.0 1.0 0.2565906001730572 0.0 2:1.0 3:2.0 4:6.0 5:16.0 6:7.0 7:4.0 36:1.0 107:1.0 109:1.0 
-0.0 -0.0 0.8554762099333847 0.21271668023792709 0.04759295531657586 2:1.0 3:2.0 4:5.0 5:12.0 6:7.0 7:1.0 105:1.0 467:1.0 504:1.0 936:1.0 
-0.0 -0.0 0.18204834075011153 0.0 1.0 2:1.0 3:2.0 4:3.0 5:10.0 6:7.0 7:2.0 10:1.0 155:1.0 633:1.0 937:1.0 
-0.0 -0.0 0.10596497492721102 0.04254374155086394 0.03188984567424851 2:1.0 3:2.0 4:3.0 5:7.0 6:4.0 7:1.0 10:1.0 54:1.0 938:1.0 939:1.0 
-0.0 -0.7787730384802831 0.0 0.20179804565054651 0.1434689804737869 2:1.0 3:2.0 4:1.0 5:8.0 6:7.0 7:2.0 10:1.0 47:1.0 107:1.0 280:1.0 
-0.0 -0.0 0.008710611153703817 0.0 0.0 2:1.0 3:2.0 4:2.0 5:10.0 6:9.0 7:1.0 10:1.0 169:1.0 179:1.0 940:1.0 
-0.0 -1.0 0.0 1.0 0.0 2:1.0 3:2.0 4:2.0 5:9.0 6:8.0 7:1.0 8:1.0 
-0.0 -0.5040825166076656 0.0990539071872437 0.0 0.14339896318406647 2:1.0 3:2.0 4:2.0 5:11.0 6:6.0 7:5.0 10:1.0 98:1.0 941:1.0 942:1.0 
-0.0 -1.0 0.0 1.0 0.0 2:1.0 3:2.0 4:2.0 5:8.0 6:7.0 7:1.0 8:1.0 
-8.341982098272823E-4 -0.0 0.41712453745360134 0.0 0.0 3:2.0 4:1.0 5:8.0 6:7.0 7:1.0 13:1.0 58:1.0 282:1.0 287:1.0 588:1.0 
-0.0 -1.0 0.0 0.0 0.0 2:1.0 3:2.0 4:1.0 5:6.0 6:6.0 7:1.0 8:1.0 
-0.0 -1.0 0.0 0.6037423897790118 0.0 2:1.0 3:2.0 4:1.0 5:5.0 6:5.0 7:1.0 8:1.0 
-0.0 -0.02234591638242581 0.0 0.13365478134655426 0.020124243017004613 2:1.0 3:2.0 4:1.0 5:12.0 6:11.0 7:1.0 9:1.0 10:1.0 203:1.0 944:1.0 945:1.0 
-0.0 -0.40681250413535636 0.1471785666358984 0.0 0.0 2:1.0 3:2.0 4:2.0 5:5.0 6:4.0 7:1.0 205:1.0 314:1.0 946:1.0 
-0.0 -1.0 0.0 0.0 0.0 2:1.0 3:2.0 4:1.0 5:9.0 6:9.0 7:1.0 8:1.0 
-0.04644273023177515 -0.025037326474414468 1.0 0.0 0.0 3:2.0 4:1.0 5:5.0 6:5.0 7:1.0 13:1.0 33:1.0 282:1.0 
-0.0 -1.0 0.0 0.0 0.0 2:1.0 3:2.0 4:1.0 5:7.0 6:7.0 7:1.0 8:1.0 
-0.0 -0.0 0.09214886784569819 0.0 0.0 2:1.0 3:2.0 4:5.0 5:11.0 6:7.0 7:1.0 247:1.0 947:1.0 948:1.0 
-0.03406408599017383 -0.3697289402815424 0.2102073865232168 0.09749904174956193 0.09093982911118335 3:2.0 4:5.0 5:8.0 6:4.0 7:1.0 10:1.0 13:1.0 535:1.0 949:1.0 
-0.0 -0.2042856783963942 0.19195095254457906 0.8911930395002569 0.23175346598872085 2:1.0 3:2.0 4:2.0 5:8.0 6:6.0 7:1.0 17:1.0 226:1.0 950:1.0 951:1.0 
-0.0 -1.0 0.0 0.0 0.0 2:1.0 3:2.0 4:1.0 5:6.0 6:6.0 7:1.0 8:1.0 
-0.0 -0.0 1.0 0.965683106428776 1.0 2:1.0 3:2.0 4:1.0 5:27.0 6:27.0 7:1.0 8:1.0 
-0.0 -1.0 0.0 0.0 0.0 2:1.0 3:2.0 4:1.0 5:9.0 6:9.0 7:1.0 8:1.0 
-0.0 -1.0 0.0 0.0 0.0 2:1.0 3:2.0 4:1.0 5:5.0 6:5.0 7:1.0 8:1.0 
-0.0 -1.0 0.0 0.0 0.0 2:1.0 3:2.0 4:1.0 5:7.0 6:7.0 7:1.0 8:1.0 
-0.0 -0.5395010374057566 1.0 1.0 0.0 2:1.0 3:2.0 4:2.0 5:4.0 6:3.0 7:1.0 682:1.0 
-0.0 -0.3925083824348712 0.0 0.0 0.2859564806899913 2:1.0 3:2.0 4:2.0 5:7.0 6:5.0 7:2.0 10:1.0 98:1.0 953:1.0 
-0.0 -1.0 0.0 1.0 1.0 2:1.0 3:2.0 4:1.0 5:11.0 6:10.0 7:1.0 8:1.0 19:1.0 
-0.0 -0.1019168188678177 0.0 0.0 0.010354061414286369 2:1.0 3:2.0 4:1.0 5:8.0 6:8.0 7:1.0 10:1.0 753:1.0 954:1.0 
-0.0 -0.0 0.0 0.06658615725866622 0.0 2:1.0 3:2.0 4:2.0 5:6.0 6:5.0 7:1.0 263:1.0 955:1.0 
-0.0 -0.0 0.050298678212762196 0.0 0.0 2:1.0 3:2.0 4:1.0 5:7.0 6:7.0 7:1.0 297:1.0 956:1.0 957:1.0 
-0.0 -1.0 0.0 0.0 0.0 2:1.0 3:2.0 4:2.0 5:7.0 6:5.0 7:2.0 8:1.0 
-0.0 -0.10864407228263545 0.25015249027361164 0.1040758073402343 0.02156595187368057 2:1.0 3:2.0 4:8.0 5:12.0 6:5.0 7:1.0 10:1.0 958:1.0 959:1.0 960:1.0 
