svm_type c_svc
kernel_type linear
nr_class 6
total_sv 3292
rho 1.77340090565622 1.2125823868727705 1.3835294212008538 0.7230368927973757 1.0701267902868299 0.06708687630631632 0.5886724176921683 0.09490707070098633 0.11266104966036188 0.25042377771273094 -0.3331186433401181 -0.3657340713181452 -0.1488580348774716 -0.005685223339283904 -0.4827971766002981
label 1 2 3 4 5 6
probA -1.7445080650461735 -2.1468495360766093 -1.9155101277238602 -1.7075177508431705 -1.6942316995660478 -1.544633514170745 -2.7910311606716802 -2.6054259874981835 -2.9236289487664564 -1.9438701658225852 -2.2722764487588725 -2.3874750980621093 -2.30531279790379 -2.432493981584778 -2.2045737182095855
probB 0.8248120282710737 0.7116136070732696 0.37996105412560294 0.6396948735286293 0.3095638687921645 0.38237200470574767 0.40399943548024514 0.5525444790295386 0.7586159377083677 0.12969255964481224 0.271022461486148 0.43205996029871285 -0.32950497938942785 -0.6515023482537903 -0.012248134666736736
nr_sv 73 687 1109 592 491 340
SV
1.0 1.0 1.0 1.0 1.0 1:1.0 2:1.0 3:2.0 4:4.0 5:9.0 6:4.0 7:3.0 
1.0 0.0 0.0 0.0 0.0 1:1.0 2:1.0 3:2.0 4:1.0 5:5.0 6:4.0 7:2.0 8:1.0 
0.0 1.0 0.8207911015726043 0.8458081313189899 0.5302692431362553 2:1.0 3:2.0 4:1.0 5:13.0 6:9.0 7:3.0 9:1.0 10:2.0 
1.0 1.0 1.0 1.0 1.0 2:1.0 3:2.0 4:2.0 5:10.0 6:6.0 7:2.0 9:1.0 11:2.0 
0.9766981756757572 0.7974572208493819 0.46326561748636885 0.5533482764623773 0.5359836530121311 2:1.0 3:2.0 4:1.0 5:5.0 6:4.0 7:2.0 8:1.0 12:1.0 13:1.0 14:1.0 
1.0 0.0 0.0 0.0 0.0 1:1.0 2:1.0 3:2.0 4:2.0 5:10.0 6:7.0 7:2.0 10:1.0 
1.0 0.0 0.0 0.0 0.0 1:1.0 2:1.0 3:2.0 4:1.0 5:4.0 6:3.0 7:1.0 11:1.0 
1.0 1.0 1.0 1.0 1.0 2:1.0 3:2.0 4:3.0 5:6.0 6:4.0 7:1.0 9:1.0 
0.9648376552811727 0.5411657483805888 0.26451738258137336 0.4552016040868957 0.39986134980075927 2:1.0 3:2.0 4:1.0 5:6.0 6:5.0 7:2.0 12:1.0 15:1.0 16:1.0 17:1.0 
1.0 1.0 1.0 1.0 1.0 2:1.0 3:2.0 4:1.0 5:5.0 6:4.0 7:1.0 9:1.0 10:1.0 
1.0 1.0 1.0 1.0 1.0 2:1.0 3:2.0 4:4.0 5:10.0 6:7.0 7:1.0 9:1.0 
1.0 0.21489365949904923 0.39666015880462524 0.011849291020680181 0.22459719343229337 1:1.0 2:1.0 3:2.0 4:1.0 5:11.0 6:8.0 7:3.0 18:1.0 
1.0 1.0 1.0 1.0 1.0 2:1.0 3:2.0 4:1.0 5:9.0 6:6.0 7:3.0 9:1.0 10:1.0 
1.0 0.0 0.0 0.0 0.0 1:1.0 2:1.0 3:2.0 4:1.0 5:4.0 6:3.0 7:1.0 11:1.0 
1.0 1.0 1.0 1.0 1.0 2:1.0 3:2.0 4:4.0 5:9.0 6:6.0 7:1.0 9:1.0 
1.0 1.0 1.0 1.0 1.0 2:1.0 3:2.0 4:4.0 5:11.0 6:8.0 7:1.0 9:1.0 
1.0 1.0 0.44420298622316134 1.0 0.0 2:1.0 3:2.0 4:1.0 5:2.0 6:1.0 7:1.0 9:1.0 10:1.0 
1.0 0.6281060945328051 0.5477370918930299 0.5733740430063896 0.5537651117616259 2:1.0 3:2.0 4:1.0 5:7.0 6:6.0 7:2.0 12:1.0 15:1.0 16:1.0 19:1.0 
1.0 0.0 0.0 0.0 0.0 1:1.0 2:1.0 3:2.0 4:1.0 5:6.0 6:5.0 7:1.0 10:1.0 
1.0 1.0 1.0 1.0 1.0 2:1.0 3:2.0 4:4.0 5:9.0 6:6.0 7:1.0 9:1.0 
1.0 1.0 1.0 1.0 0.033776787817871766 2:1.0 3:2.0 4:1.0 5:2.0 6:1.0 7:1.0 9:1.0 10:1.0 
1.0 0.0 0.0 0.0 0.0 1:1.0 2:1.0 3:2.0 4:1.0 5:8.0 6:7.0 7:1.0 10:1.0 
1.0 0.0 0.0 0.0 0.0 1:1.0 2:1.0 3:2.0 4:1.0 5:6.0 6:3.0 7:3.0 10:1.0 
1.0 1.0 1.0 1.0 1.0 2:1.0 3:2.0 4:1.0 5:2.0 6:1.0 7:1.0 9:1.0 10:1.0 
1.0 1.0 1.0 1.0 1.0 2:1.0 3:2.0 4:1.0 5:5.0 6:5.0 7:1.0 9:1.0 
1.0 1.0 1.0 1.0 1.0 2:1.0 3:2.0 4:1.0 5:2.0 6:1.0 7:1.0 9:1.0 10:1.0 
1.0 1.0 1.0 1.0 1.0 2:1.0 3:2.0 4:1.0 5:2.0 6:1.0 7:1.0 9:1.0 10:1.0 
1.0 0.0 0.0 0.0 0.0 1:1.0 2:1.0 3:2.0 4:1.0 5:6.0 6:5.0 7:1.0 10:1.0 
1.0 1.0 1.0 1.0 1.0 2:1.0 3:2.0 4:1.0 5:2.0 6:1.0 7:1.0 9:1.0 10:1.0 
0.1470226278749421 0.0 0.0 0.0 0.0 1:1.0 2:1.0 3:2.0 4:1.0 5:9.0 6:7.0 7:1.0 10:1.0 18:1.0 
1.0 0.0 0.0 0.0 0.0 1:1.0 2:1.0 3:2.0 4:1.0 5:6.0 6:5.0 7:1.0 10:1.0 
0.0 0.19834768426240457 0.1225393186200521 0.0 0.06681452665423454 3:2.0 5:5.0 6:5.0 7:1.0 8:1.0 10:1.0 12:1.0 16:1.0 20:1.0 
0.23956379067145353 0.0 0.0 0.0 0.0 1:1.0 2:1.0 3:2.0 4:1.0 5:4.0 6:3.0 7:1.0 10:1.0 
1.0 0.0 0.0 0.0 0.0 1:1.0 2:1.0 3:2.0 4:1.0 5:11.0 6:7.0 7:3.0 10:1.0 21:1.0 
1.0 1.0 0.7492357768061275 0.404317910118434 0.8987845844057372 3:2.0 4:1.0 5:7.0 6:5.0 7:2.0 8:1.0 10:1.0 12:1.0 22:1.0 
1.0 0.0 0.0 0.0 0.0 1:1.0 2:1.0 3:2.0 4:1.0 5:6.0 6:5.0 7:1.0 10:1.0 
1.0 0.0 0.0 0.0 0.0 1:1.0 2:1.0 3:2.0 4:1.0 5:4.0 6:3.0 7:1.0 10:1.0 
1.0 1.0 0.9997219162779997 1.0 1.0 2:1.0 3:2.0 4:1.0 5:2.0 6:1.0 7:1.0 9:1.0 10:1.0 
1.0 1.0 1.0 1.0 1.0 2:1.0 3:2.0 4:3.0 5:11.0 6:7.0 7:3.0 9:1.0 
1.0 1.0 1.0 1.0 1.0 2:1.0 3:2.0 4:4.0 5:7.0 6:4.0 7:1.0 9:1.0 
1.0 1.0 0.0 0.23356952989230517 0.0 1:1.0 2:1.0 3:2.0 4:1.0 5:4.0 6:4.0 7:1.0 
0.5515822538716024 0.0 0.12843642390904542 0.9238720531179383 0.0522330230785854 1:1.0 2:1.0 3:2.0 4:2.0 5:11.0 6:7.0 7:2.0 11:2.0 
1.0 0.0 0.0 0.0 0.0 1:1.0 2:1.0 3:2.0 4:1.0 5:4.0 6:3.0 7:1.0 10:1.0 
1.0 1.0 1.0 1.0 1.0 2:1.0 3:2.0 4:1.0 5:5.0 6:4.0 7:1.0 9:1.0 10:1.0 
1.0 1.0 0.9857177464350617 1.0 1.0 2:1.0 3:2.0 4:1.0 5:2.0 6:1.0 7:1.0 9:1.0 10:1.0 
1.0 1.0 1.0 1.0 1.0 2:1.0 3:2.0 4:1.0 5:2.0 6:1.0 7:1.0 9:1.0 10:1.0 
1.0 1.0 1.0 1.0 1.0 2:1.0 3:2.0 4:1.0 5:16.0 6:13.0 7:3.0 9:1.0 10:1.0 
1.0 1.0 1.0 1.0 1.0 2:1.0 3:2.0 4:1.0 5:14.0 6:14.0 7:1.0 9:1.0 
1.0 0.0 0.0 0.0 0.0 1:1.0 2:1.0 3:2.0 4:1.0 5:4.0 6:3.0 7:1.0 10:1.0 
1.0 1.0 1.0 1.0 0.9966461022141736 2:1.0 3:2.0 4:1.0 5:2.0 6:1.0 7:1.0 9:1.0 10:1.0 
1.0 0.0 0.0 0.0 0.0 1:1.0 2:1.0 3:2.0 4:1.0 5:4.0 6:3.0 7:1.0 11:1.0 
1.0 0.0 0.0 0.0 0.0 1:1.0 2:1.0 3:2.0 4:1.0 5:5.0 6:2.0 7:3.0 11:1.0 
1.0 0.0 0.0 0.0 0.0 1:1.0 2:1.0 3:2.0 4:1.0 5:5.0 6:4.0 7:1.0 10:1.0 
1.0 0.0 0.0 0.0 0.0 1:1.0 2:1.0 3:2.0 4:1.0 5:4.0 6:3.0 7:1.0 10:1.0 
1.0 1.0 1.0 1.0 1.0 2:1.0 3:2.0 4:4.0 5:8.0 6:5.0 7:1.0 9:1.0 
1.0 1.0 1.0 1.0 1.0 2:1.0 3:2.0 4:3.0 5:7.0 6:4.0 7:2.0 9:1.0 
1.0 1.0 1.0 0.0 0.11329943844800429 1:1.0 2:1.0 3:2.0 4:1.0 5:8.0 6:6.0 7:3.0 
1.0 1.0 1.0 1.0 1.0 2:1.0 3:2.0 4:1.0 5:6.0 6:6.0 7:1.0 8:1.0 9:1.0 
0.0 0.0 0.0 0.0 0.9806018668247779 1:1.0 2:1.0 3:2.0 4:1.0 5:11.0 6:8.0 7:2.0 11:2.0 
1.0 0.0 0.0 0.0 0.0 1:1.0 2:1.0 3:2.0 4:1.0 5:4.0 6:3.0 7:1.0 23:1.0 
1.0 0.0 0.0 0.0 0.0 1:1.0 2:1.0 3:2.0 4:1.0 5:4.0 6:3.0 7:1.0 10:1.0 
0.0 0.19834981054864387 0.0 0.0 0.0 3:2.0 5:5.0 6:5.0 7:1.0 8:1.0 10:1.0 12:1.0 16:1.0 24:1.0 
1.0 0.0 0.0 0.0 0.0 1:1.0 2:1.0 3:2.0 4:1.0 5:4.0 6:3.0 7:1.0 10:1.0 
1.0 0.0 0.0 0.0 0.0 1:1.0 2:1.0 3:2.0 4:1.0 5:4.0 6:3.0 7:1.0 10:1.0 
1.0 1.0 1.0 1.0 1.0 2:1.0 3:2.0 4:1.0 5:10.0 6:8.0 7:2.0 9:1.0 21:1.0 
1.0 0.0 0.0 0.0 0.0 1:1.0 2:1.0 3:2.0 4:1.0 5:4.0 6:3.0 7:1.0 10:1.0 
1.0 1.0 1.0 1.0 1.0 2:1.0 3:2.0 4:1.0 5:11.0 6:11.0 7:1.0 9:1.0 
1.0 1.0 0.8977618989764774 1.0 0.9382534427564482 2:1.0 3:2.0 4:1.0 5:2.0 6:1.0 7:1.0 9:1.0 10:1.0 
1.0 1.0 1.0 1.0 1.0 3:2.0 4:1.0 5:11.0 6:8.0 7:3.0 10:1.0 25:1.0 26:1.0 
1.0 1.0 1.0 1.0 1.0 2:1.0 3:2.0 4:4.0 5:10.0 6:7.0 7:1.0 9:1.0 
0.6230705864599688 0.0 0.0 0.0 0.0 1:1.0 2:1.0 3:2.0 4:1.0 5:4.0 6:3.0 7:1.0 10:1.0 
1.0 1.0 1.0 1.0 1.0 2:1.0 3:2.0 4:1.0 5:7.0 6:6.0 7:1.0 9:1.0 10:1.0 
1.0 0.0 0.0 0.0 0.0 1:1.0 2:1.0 3:2.0 4:1.0 5:5.0 6:4.0 7:1.0 10:1.0 
-0.0 0.0 0.0 1.0 0.0 3:2.0 4:1.0 5:8.0 6:5.0 7:3.0 9:1.0 21:1.0 29:1.0 
-0.0 1.0 0.0 0.0 0.11309940798854284 2:1.0 3:2.0 4:1.0 5:5.0 6:5.0 7:1.0 12:1.0 30:1.0 
-0.0 1.0 0.0 0.0 0.0 2:1.0 3:2.0 4:1.0 5:9.0 6:7.0 7:3.0 9:1.0 
-0.0 0.6211477925210962 0.07756954468614417 0.043877906438596855 0.037623166277589465 2:1.0 3:2.0 4:3.0 5:8.0 6:5.0 7:2.0 12:1.0 32:1.0 33:1.0 34:1.0 
-0.0 1.0 0.0 0.0 0.0 2:1.0 3:2.0 4:1.0 5:4.0 6:4.0 7:1.0 9:1.0 
-0.0 1.0 1.0 0.0 0.18333830757023586 2:1.0 3:2.0 4:4.0 5:13.0 6:8.0 7:3.0 9:1.0 
-0.0 0.0 0.34421942467337113 0.0 1.0 3:2.0 4:3.0 5:19.0 6:15.0 7:1.0 10:1.0 28:1.0 36:1.0 37:1.0 
-0.0 0.0 0.0 0.0 1.0 2:1.0 3:2.0 4:2.0 5:2.0 6:1.0 7:1.0 9:1.0 
-0.0 0.0 0.0 1.0 0.0 3:2.0 4:1.0 5:4.0 6:4.0 7:1.0 9:1.0 29:1.0 
-1.0 0.0 0.0 0.0 0.0 1:1.0 2:1.0 3:2.0 4:2.0 5:3.0 6:2.0 7:1.0 
-0.0 0.0 0.0 0.0 1.0 2:1.0 3:2.0 4:2.0 5:2.0 6:1.0 7:1.0 9:1.0 
-0.0 1.0 0.0 0.0 0.0 2:1.0 3:2.0 4:1.0 5:7.0 6:7.0 7:1.0 9:1.0 
-0.0 1.0 0.0 0.0 0.0 2:1.0 3:2.0 4:1.0 5:6.0 6:6.0 7:1.0 9:1.0 
-0.0 1.0 0.0 0.0 0.0 2:1.0 3:2.0 4:1.0 5:7.0 6:6.0 7:2.0 9:1.0 
-0.0 0.0 0.0 1.0 0.0 3:2.0 4:1.0 5:4.0 6:4.0 7:1.0 9:1.0 29:1.0 
-0.0 1.0 0.0 0.0 0.0 2:1.0 3:2.0 4:1.0 5:7.0 6:7.0 7:1.0 9:1.0 
-0.0 0.7240371313399094 0.21187400309083923 0.1258925727676612 0.07999675051907956 2:1.0 3:2.0 4:5.0 5:17.0 6:10.0 7:3.0 12:1.0 39:1.0 40:1.0 41:1.0 42:1.0 43:1.0 
-0.0 1.0 0.0 0.0 0.0 2:1.0 3:2.0 4:1.0 5:8.0 6:6.0 7:3.0 9:1.0 
-0.0 1.0 0.0 0.0 0.0 2:1.0 3:2.0 4:1.0 5:4.0 6:4.0 7:1.0 9:1.0 
-0.0 0.0 1.0 0.0 0.0 2:1.0 3:2.0 4:4.0 5:10.0 6:5.0 7:3.0 9:1.0 
-0.08115018679864085 0.020282790454857993 0.17135905048571767 0.19744091655609408 0.0 2:1.0 3:2.0 4:4.0 5:12.0 6:5.0 7:4.0 10:1.0 12:1.0 45:1.0 46:1.0 47:1.0 48:1.0 
-1.0 0.0 0.0 0.0 0.0 2:1.0 3:2.0 4:1.0 5:4.0 6:3.0 7:1.0 9:1.0 10:1.0 
-0.0 0.5637588369284905 0.1490283328004676 0.08805997547565696 0.05676037947448062 2:1.0 3:2.0 4:5.0 5:8.0 6:4.0 7:1.0 12:1.0 49:1.0 50:1.0 
-0.0 0.2259226758895772 0.0 0.0 0.0 2:1.0 3:2.0 4:4.0 5:12.0 6:8.0 7:2.0 12:1.0 51:1.0 52:1.0 53:1.0 54:1.0 
-0.0 1.0 0.0 0.0 0.0 2:1.0 3:2.0 4:1.0 5:9.0 6:7.0 7:3.0 9:1.0 
-0.0 0.7248383397596504 0.21665995220313497 0.1462304077588929 0.11306877831297835 2:1.0 3:2.0 4:3.0 5:4.0 6:2.0 7:1.0 12:1.0 55:1.0 
-0.0 0.5973898025151314 0.0 0.0 0.0 3:2.0 4:2.0 5:19.0 6:17.0 7:2.0 8:1.0 28:1.0 35:1.0 56:1.0 57:1.0 
-0.0 1.0 0.0 0.0 0.0 3:2.0 4:2.0 5:17.0 6:16.0 7:1.0 28:1.0 35:1.0 
-0.0 1.0 0.9755997429507417 1.0 1.0 2:1.0 3:2.0 4:1.0 5:11.0 6:11.0 7:1.0 9:1.0 
-0.0 1.0 0.0 1.0 0.0 2:1.0 3:2.0 4:3.0 5:5.0 6:3.0 7:1.0 9:1.0 
-0.0 0.839798282472509 0.15932589621264678 0.12914072896133738 0.11324094981555866 2:1.0 3:2.0 4:1.0 5:3.0 6:3.0 7:1.0 12:1.0 58:1.0 
-0.0 1.0 0.08939121222930185 0.07542970184915787 0.4950513791175391 2:1.0 3:2.0 4:1.0 5:8.0 6:8.0 7:1.0 12:1.0 59:1.0 60:1.0 
-0.0 1.0 0.0 0.0 0.0 2:1.0 3:2.0 4:2.0 5:5.0 6:4.0 7:1.0 9:1.0 
-0.0 0.0 0.0 0.0 0.014887032505257239 2:1.0 3:2.0 4:1.0 5:9.0 6:8.0 7:2.0 12:1.0 15:1.0 52:1.0 61:2.0 
-0.0 0.0 0.0 0.2128607799548827 0.2777331942535131 3:2.0 4:3.0 5:9.0 6:5.0 7:1.0 28:1.0 62:1.0 63:2.0 
-0.0 0.0 0.0 0.0 0.3235964166817429 3:2.0 4:2.0 5:11.0 6:10.0 7:1.0 28:1.0 62:1.0 
-0.0 1.0 1.0 1.0 1.0 2:1.0 3:2.0 4:3.0 5:10.0 6:8.0 7:1.0 9:1.0 
-0.0 1.0 1.0 0.22774994160294398 0.003093736983126028 2:1.0 3:2.0 4:2.0 5:9.0 6:6.0 7:1.0 9:1.0 64:2.0 
-0.0 1.0 1.0 1.0 1.0 2:1.0 3:2.0 4:3.0 5:9.0 6:7.0 7:1.0 9:1.0 
-0.0 0.3655435666102688 0.2609011416169307 0.17065873704879986 0.07642825262502735 3:2.0 4:3.0 5:10.0 6:8.0 7:1.0 8:1.0 65:1.0 66:1.0 67:1.0 
-0.0 1.0 1.0 0.0 0.0 2:1.0 3:2.0 4:5.0 5:12.0 6:6.0 7:3.0 9:1.0 
-0.0 0.2788073918802411 0.0 0.401193383887225 0.15319174365730215 2:1.0 3:2.0 4:6.0 5:11.0 6:4.0 7:2.0 11:1.0 12:1.0 15:1.0 69:1.0 70:1.0 
-0.02943219538671327 1.0 1.0 0.2778648395382643 0.0 2:1.0 3:2.0 4:5.0 5:10.0 6:5.0 7:1.0 10:1.0 12:1.0 71:1.0 72:1.0 
-0.0 1.0 1.0 1.0 0.8876260409580122 3:2.0 4:1.0 5:1.0 6:1.0 7:1.0 8:1.0 73:1.0 
-0.0 1.0 0.15932508931559422 0.12913343413463993 0.11304599009325056 2:1.0 3:2.0 4:1.0 5:3.0 6:3.0 7:1.0 12:1.0 74:1.0 
-0.0 1.0 1.0 0.5461489795129543 0.7062467041963101 3:2.0 4:3.0 5:8.0 6:5.0 7:2.0 8:1.0 52:1.0 75:1.0 
-0.0 1.0 0.0 0.0 0.0 2:1.0 3:2.0 4:1.0 5:10.0 6:8.0 7:3.0 9:1.0 
-0.0 1.0 0.0 1.0 0.0 2:1.0 3:2.0 4:3.0 5:5.0 6:3.0 7:1.0 9:1.0 
-0.0 1.0 0.0 1.0 1.0 2:1.0 3:2.0 4:1.0 5:9.0 6:9.0 7:1.0 9:1.0 
-0.0 0.0 1.0 1.0 1.0 2:1.0 3:2.0 4:4.0 5:5.0 6:2.0 7:1.0 9:1.0 
-0.0 0.5234304479553463 0.1759636541979907 0.1311272964062915 0.11322556825577623 2:1.0 3:2.0 4:2.0 5:2.0 6:1.0 7:1.0 12:1.0 77:1.0 
-0.0 1.0 1.0 1.0 1.0 2:1.0 3:2.0 4:3.0 5:8.0 6:6.0 7:1.0 9:1.0 
-0.0 0.8397945819796506 0.15932594204133324 0.1291519437652804 0.11304608176252079 2:1.0 3:2.0 4:1.0 5:3.0 6:3.0 7:1.0 12:1.0 78:1.0 
-0.0 0.0 0.0 0.0 0.16032869773755476 3:2.0 4:3.0 5:13.0 6:10.0 7:1.0 25:1.0 31:1.0 37:1.0 
-0.12745801227474682 0.2674025158928757 0.016646655869301946 0.1537512876472497 0.31859627981141975 2:1.0 3:2.0 4:3.0 5:9.0 6:5.0 7:2.0 11:1.0 12:1.0 79:1.0 80:1.0 
-1.0 0.0 0.0 0.0 0.0 1:1.0 2:1.0 3:2.0 4:2.0 5:5.0 6:4.0 7:1.0 
-0.0 0.24027060640051093 0.14857728715000032 0.01714018570230473 0.03736850267750627 2:1.0 3:2.0 4:3.0 5:13.0 6:6.0 7:5.0 12:1.0 64:1.0 81:1.0 82:1.0 83:1.0 
-0.0 0.0 0.0 0.0 0.05152728208278052 2:1.0 3:2.0 4:2.0 5:2.0 6:1.0 7:1.0 9:1.0 
-1.0 1.0 0.0 0.0 0.0 2:1.0 3:2.0 4:1.0 5:8.0 6:6.0 7:2.0 9:1.0 10:1.0 
-0.0 1.0 0.0 0.0 0.0 2:1.0 3:2.0 4:1.0 5:15.0 6:11.0 7:5.0 9:1.0 
-0.0 1.0 0.0 0.0 0.0 2:1.0 3:2.0 4:1.0 5:7.0 6:7.0 7:1.0 9:1.0 
-1.0 0.10802766225337843 0.0 0.0 0.0 2:1.0 3:2.0 4:1.0 5:5.0 6:4.0 7:1.0 9:1.0 10:1.0 
-0.0 1.0 0.0 0.0 0.0 2:1.0 3:2.0 4:1.0 5:6.0 6:6.0 7:1.0 9:1.0 
-0.0 0.0 0.0 0.0 1.0 3:2.0 4:1.0 5:5.0 6:4.0 7:1.0 10:1.0 28:1.0 84:1.0 
-0.0 1.0 0.0 1.0 0.0 2:1.0 3:2.0 4:2.0 5:7.0 6:6.0 7:1.0 9:1.0 
-0.0 0.7279096113262237 0.0 0.012133446777372965 0.0 2:1.0 3:2.0 4:1.0 5:11.0 6:11.0 7:1.0 12:1.0 84:2.0 85:1.0 86:1.0 
-1.0 0.0 0.0 0.0 0.0 2:1.0 3:2.0 4:1.0 5:4.0 6:3.0 7:1.0 9:1.0 10:1.0 
-0.0 1.0 0.0 0.0 0.0 2:1.0 3:2.0 4:1.0 5:10.0 6:8.0 7:3.0 9:1.0 
-0.0 0.4640161367861571 0.15920011257377614 0.17783683354982327 0.11704426710400706 2:1.0 3:2.0 4:5.0 5:14.0 6:8.0 7:3.0 12:1.0 87:1.0 88:1.0 89:1.0 90:1.0 91:1.0 
-0.0 1.0 0.0 0.0 0.0 2:1.0 3:2.0 4:1.0 5:4.0 6:4.0 7:1.0 9:1.0 
-0.0 1.0 0.0 0.0 0.0 2:1.0 3:2.0 4:1.0 5:6.0 6:6.0 7:1.0 9:1.0 
-0.0 1.0 0.0 1.0 0.12335827734956888 2:1.0 3:2.0 4:1.0 5:8.0 6:8.0 7:1.0 12:1.0 92:1.0 93:1.0 
-0.6134738421615179 0.2608310641308313 0.0 0.1513313531505069 0.19825805708664992 2:1.0 3:2.0 4:1.0 5:6.0 6:4.0 7:2.0 10:1.0 12:1.0 15:1.0 94:1.0 95:1.0 
-0.0 1.0 0.0 0.0 0.0 2:1.0 3:2.0 4:1.0 5:4.0 6:4.0 7:1.0 9:1.0 
-0.0 0.8398067306203125 0.15932698551763932 0.12914031194288952 0.11304599148440156 2:1.0 3:2.0 4:1.0 5:3.0 6:3.0 7:1.0 12:1.0 96:1.0 
-0.0 1.0 0.0 0.0 0.0 2:1.0 3:2.0 4:1.0 5:9.0 6:7.0 7:3.0 9:1.0 
-0.0 1.0 0.02395850520019101 0.05797859239924625 0.06960071675943823 2:1.0 3:2.0 4:3.0 5:7.0 6:5.0 7:1.0 12:1.0 97:1.0 98:1.0 
-0.0 1.0 0.0 0.0 0.0 2:1.0 3:2.0 4:1.0 5:5.0 6:5.0 7:1.0 9:1.0 
-0.0 1.0 1.0 1.0 0.0 2:1.0 3:2.0 4:3.0 5:7.0 6:5.0 7:1.0 9:1.0 
-0.0 0.8397985036171947 0.15931890673955107 0.12914593353771 0.11304618893936191 2:1.0 3:2.0 4:1.0 5:3.0 6:3.0 7:1.0 12:1.0 100:1.0 
-0.0 1.0 0.0 0.0 0.0 2:1.0 3:2.0 4:1.0 5:6.0 6:6.0 7:1.0 9:1.0 
-0.0 1.0 0.0 0.0 0.0 2:1.0 3:2.0 4:1.0 5:4.0 6:4.0 7:1.0 9:1.0 
-0.0 1.0 1.0 0.29179580282397616 1.0 2:1.0 3:2.0 4:9.0 5:17.0 6:6.0 7:4.0 9:1.0 
-0.0 1.0 0.15142947701079193 0.12484562354132697 0.11324017471271888 2:1.0 3:2.0 4:1.0 5:2.0 6:2.0 7:1.0 12:1.0 101:1.0 
-0.0 1.0 0.0 0.0 0.0 2:1.0 3:2.0 4:1.0 5:7.0 6:6.0 7:2.0 9:1.0 
-0.0 0.0 0.0 0.0 1.0 2:1.0 3:2.0 4:3.0 5:3.0 6:1.0 7:1.0 9:1.0 
-0.0 0.8398124873894253 0.15931884373653687 0.1291416754781049 0.1132239522650732 2:1.0 3:2.0 4:1.0 5:3.0 6:3.0 7:1.0 12:1.0 102:1.0 
-0.4466283842383379 0.0 0.0 0.23980929699356945 0.19067680319732977 2:1.0 3:2.0 4:1.0 5:8.0 6:5.0 7:2.0 11:2.0 12:1.0 15:1.0 52:1.0 103:1.0 
-0.0 0.8802740833440182 0.7596284089128632 0.08626838411852089 0.05701029069606144 2:1.0 3:2.0 4:3.0 5:10.0 6:8.0 7:1.0 12:1.0 105:1.0 106:1.0 
-0.0 1.0 0.0 0.0 0.0 2:1.0 3:2.0 4:1.0 5:8.0 6:6.0 7:3.0 9:1.0 
-0.0 1.0 0.0 0.0 0.0 2:1.0 3:2.0 4:1.0 5:6.0 6:6.0 7:1.0 9:1.0 
-0.0 0.0 0.0 1.0 0.0 2:1.0 3:2.0 4:3.0 5:4.0 6:2.0 7:1.0 9:1.0 
-0.0 1.0 0.0 0.0 0.9455538416598184 2:1.0 3:2.0 4:1.0 5:10.0 6:9.0 7:1.0 12:1.0 37:1.0 107:1.0 108:1.0 109:1.0 
-0.0 1.0 0.0 0.0 0.0 2:1.0 3:2.0 4:1.0 5:6.0 6:6.0 7:1.0 9:1.0 
-0.16157523649900588 0.398675151556198 0.0 0.0 0.0 2:1.0 3:2.0 4:2.0 5:11.0 6:9.0 7:1.0 11:1.0 12:1.0 110:1.0 111:1.0 
-0.0 1.0 0.6295205609168946 0.1680176630263189 0.2631343154767287 2:1.0 3:2.0 4:3.0 5:11.0 6:8.0 7:1.0 12:1.0 21:1.0 112:1.0 113:1.0 114:1.0 
-0.0 0.0 0.07793987825700956 0.01734743052352834 0.999466094138385 3:2.0 4:1.0 5:12.0 6:11.0 7:1.0 10:1.0 28:1.0 104:1.0 
-0.0 0.49478842047003263 0.06087184269988637 0.014232953032396892 0.0 2:1.0 3:2.0 4:2.0 5:9.0 6:8.0 7:1.0 12:1.0 61:1.0 84:1.0 115:1.0 116:1.0 
-0.0 1.0 0.2814763187785553 0.17416132105777904 0.11371969996458822 2:1.0 3:2.0 4:4.0 5:9.0 6:6.0 7:1.0 12:1.0 117:1.0 
-0.0 1.0 0.0 0.0 0.0 2:1.0 3:2.0 4:2.0 5:4.0 6:3.0 7:1.0 9:1.0 
-0.0 1.0 0.0 0.0 0.0 2:1.0 3:2.0 4:1.0 5:4.0 6:4.0 7:1.0 9:1.0 
-0.0 1.0 0.0 0.0 0.0 2:1.0 3:2.0 4:1.0 5:7.0 6:7.0 7:1.0 9:1.0 
-0.0 0.0 0.0 1.0 0.0 3:2.0 4:3.0 5:5.0 6:3.0 7:1.0 9:1.0 29:1.0 
-0.0 1.0 0.0 1.0 1.0 2:1.0 3:2.0 4:1.0 5:10.0 6:10.0 7:1.0 9:1.0 
-0.0 1.0 0.5552923837894741 0.4746222022003158 0.2501533782785238 2:1.0 3:2.0 4:1.0 5:7.0 6:7.0 7:1.0 118:1.0 119:1.0 120:1.0 
-0.0 0.4884977891683504 0.5710052228087297 0.0 0.0 2:1.0 3:2.0 4:3.0 5:5.0 6:3.0 7:1.0 12:1.0 121:1.0 
-0.0 1.0 0.0 0.0 0.0 2:1.0 3:2.0 4:1.0 5:5.0 6:5.0 7:1.0 9:1.0 
-0.0 0.5772182888571118 0.07749396268813163 0.05388347868768836 0.03791085323162649 2:1.0 3:2.0 4:2.0 5:9.0 6:8.0 7:1.0 12:1.0 122:1.0 123:1.0 124:1.0 
-1.0 0.0 0.0 0.0 0.0 2:1.0 3:2.0 4:1.0 5:7.0 6:3.0 7:3.0 9:1.0 10:1.0 21:1.0 
-0.0 1.0 1.0 1.0 0.027325319684032227 2:1.0 3:2.0 4:1.0 5:5.0 6:4.0 7:1.0 9:1.0 43:1.0 
-0.0 0.3751868364991548 0.0 0.25079685656182726 0.12008447850805869 2:1.0 3:2.0 4:3.0 5:8.0 6:5.0 7:2.0 12:1.0 15:1.0 126:1.0 127:1.0 
-1.0 0.0 0.0 0.0 0.0 1:1.0 2:1.0 3:2.0 4:1.0 5:3.0 6:3.0 7:1.0 
-0.0 0.8398157925908348 0.15932505878404024 0.12915350511277726 0.11305172227571571 2:1.0 3:2.0 4:1.0 5:3.0 6:3.0 7:1.0 12:1.0 128:1.0 
-0.0 0.0 0.05429535611417972 0.0 0.0 2:1.0 3:2.0 4:4.0 5:6.0 6:1.0 7:3.0 9:1.0 
-0.0 1.0 0.0 0.0 1.0 2:1.0 3:2.0 4:1.0 5:13.0 6:11.0 7:3.0 9:1.0 
-0.0 1.0 0.0 0.0 0.9194618746913451 2:1.0 3:2.0 4:1.0 5:7.0 6:7.0 7:1.0 9:1.0 
-0.0 1.0 0.0 0.0 0.0 2:1.0 3:2.0 4:1.0 5:5.0 6:5.0 7:1.0 9:1.0 
-0.0 1.0 0.18347489082536758 0.1419119832285811 0.11328964593000361 2:1.0 3:2.0 4:1.0 5:6.0 6:6.0 7:1.0 12:1.0 129:1.0 
-0.0 0.6922425389221265 0.12033761299337044 0.0773499090692692 0.05666562433941922 2:1.0 3:2.0 4:1.0 5:5.0 6:4.0 7:1.0 12:1.0 43:1.0 130:1.0 131:1.0 
-0.0 1.0 0.0 1.0 0.0 2:1.0 3:2.0 4:2.0 5:7.0 6:6.0 7:1.0 9:1.0 
-0.0 1.0 0.0 0.0 0.0 2:1.0 3:2.0 4:1.0 5:5.0 6:3.0 7:3.0 12:1.0 132:1.0 
-0.0 1.0 1.0 1.0 1.0 2:1.0 3:2.0 4:7.0 5:15.0 6:6.0 7:3.0 10:1.0 133:1.0 
-0.0 0.18482489058565502 0.0 0.0 0.0 2:1.0 3:2.0 4:1.0 5:5.0 6:5.0 7:1.0 12:1.0 134:1.0 
-0.0 1.0 0.0 0.0 0.0 2:1.0 3:2.0 4:1.0 5:6.0 6:6.0 7:1.0 9:1.0 
-0.0 1.0 0.20370729150015426 0.0 0.038561440279871365 2:1.0 3:2.0 4:5.0 5:14.0 6:9.0 7:1.0 12:1.0 135:1.0 136:1.0 137:1.0 138:1.0 
-0.0 1.0 1.0 1.0 0.4333734653432954 2:1.0 3:2.0 4:3.0 5:5.0 6:2.0 7:2.0 12:1.0 139:1.0 140:1.0 
-0.0 1.0 0.0 1.0 1.0 2:1.0 3:2.0 4:1.0 5:9.0 6:9.0 7:1.0 9:1.0 
-0.0 0.0 0.0 0.0 0.10888975043600307 3:2.0 4:1.0 5:23.0 6:19.0 7:5.0 28:1.0 38:1.0 
-0.0 0.0 0.0 1.0 0.0 2:1.0 3:2.0 4:3.0 5:4.0 6:2.0 7:1.0 9:1.0 
-0.0 1.0 0.0 0.0 1.0 2:1.0 3:2.0 4:1.0 5:7.0 6:7.0 7:1.0 9:1.0 
-0.0 1.0 0.0 0.0 1.0 2:1.0 3:2.0 4:3.0 5:8.0 6:4.0 7:1.0 9:1.0 21:2.0 
-0.0 0.8998223030907435 0.20418349325551743 0.15784352674578386 0.2984025519571788 2:1.0 3:2.0 4:3.0 5:8.0 6:5.0 7:1.0 12:1.0 37:1.0 141:1.0 142:1.0 
-0.0 1.0 0.1005589162629828 0.0709491450960081 0.05662203917239653 2:1.0 3:2.0 4:1.0 5:6.0 6:6.0 7:1.0 12:1.0 143:1.0 144:1.0 
-0.0 1.0 0.07201537521921579 0.0 0.3217600624369136 2:1.0 3:2.0 4:3.0 5:10.0 6:7.0 7:1.0 12:1.0 80:1.0 145:1.0 146:1.0 147:1.0 
-0.0 0.5505384153510636 0.46127462089145466 0.06600591162165545 0.0 2:1.0 3:2.0 4:4.0 5:16.0 6:12.0 7:2.0 12:1.0 139:1.0 148:1.0 149:1.0 150:1.0 151:1.0 152:1.0 
-0.47228241392383197 1.0 0.9334504223672221 0.19805851642874825 0.23547937226340626 2:1.0 3:2.0 4:4.0 5:14.0 6:6.0 7:2.0 10:2.0 12:1.0 21:1.0 37:1.0 72:1.0 153:1.0 154:1.0 
-0.0 1.0 0.0 0.0 0.0 2:1.0 3:2.0 4:1.0 5:4.0 6:4.0 7:1.0 9:1.0 
-1.0 0.0 0.0 0.0 0.0 1:1.0 2:1.0 3:2.0 4:2.0 5:3.0 6:2.0 7:1.0 
-0.0 1.0 0.0 0.0 0.0 2:1.0 3:2.0 4:1.0 5:5.0 6:5.0 7:1.0 9:1.0 
-0.0 1.0 0.0 0.0 0.0 2:1.0 3:2.0 4:2.0 5:7.0 6:5.0 7:2.0 9:1.0 
-0.0 1.0 0.0 0.0 0.0 2:1.0 3:2.0 4:1.0 5:9.0 6:7.0 7:3.0 8:1.0 9:1.0 
-0.0 1.0 1.0 1.0 1.0 2:1.0 3:2.0 4:1.0 5:17.0 6:16.0 7:2.0 9:1.0 
-0.0 1.0 0.0 0.0 0.0 2:1.0 3:2.0 4:1.0 5:4.0 6:4.0 7:1.0 9:1.0 
-0.0 0.27453375678915726 0.0 0.2432536880338003 0.11998848785951971 2:1.0 3:2.0 4:2.0 5:6.0 6:4.0 7:2.0 12:1.0 15:1.0 155:1.0 156:1.0 
-0.0 1.0 0.6055253527247061 0.47134647924693324 0.18791393857376118 2:1.0 3:2.0 4:3.0 5:12.0 6:10.0 7:1.0 48:1.0 157:1.0 158:1.0 159:1.0 
-0.0 1.0 0.0 0.06976675022440616 1.0 2:1.0 3:2.0 4:1.0 5:11.0 6:10.0 7:1.0 9:1.0 21:1.0 
-0.0 0.09123326679769724 0.07765843040202945 0.03406490610577117 0.0374224042101343 2:1.0 3:2.0 4:4.0 5:7.0 6:2.0 7:3.0 12:1.0 160:1.0 161:1.0 162:1.0 
-0.0 1.0 0.0 1.0 0.0 2:1.0 3:2.0 4:3.0 5:5.0 6:3.0 7:1.0 9:1.0 
-0.0 0.5924451543465533 0.08772082051884046 0.0687870532169778 0.05660991843268722 2:1.0 3:2.0 4:1.0 5:5.0 6:5.0 7:1.0 12:1.0 163:1.0 164:1.0 
-0.0 0.5090613669938413 0.0 0.0 0.0 3:2.0 4:1.0 5:12.0 6:12.0 7:1.0 28:1.0 35:1.0 
-0.0 1.0 0.0 0.0 0.0 2:1.0 3:2.0 4:1.0 5:4.0 6:4.0 7:1.0 9:1.0 
-0.0 1.0 0.0 1.0 1.0 2:1.0 3:2.0 4:1.0 5:9.0 6:9.0 7:1.0 9:1.0 
-0.0 0.0 0.20069873012116027 0.05619474603730226 2.5644564513204046E-4 3:2.0 4:5.0 5:16.0 6:12.0 7:1.0 28:1.0 38:1.0 
-0.0 1.0 0.5679502218865066 0.143945929905518 0.11306312169578632 2:1.0 3:2.0 4:2.0 5:5.0 6:4.0 7:1.0 12:1.0 165:1.0 
-0.0 1.0 0.0 0.0 0.0 2:1.0 3:2.0 4:1.0 5:4.0 6:4.0 7:1.0 9:1.0 
-0.0 0.288466801051982 0.3409348130000869 0.4299879552077711 0.015991420999096725 2:1.0 3:2.0 4:1.0 5:8.0 6:8.0 7:1.0 12:1.0 93:1.0 166:1.0 167:1.0 
-0.4728650279942472 0.0 0.0 0.0 0.03877692127416357 1:1.0 2:1.0 3:2.0 4:1.0 5:3.0 6:2.0 7:1.0 138:1.0 
-0.0 1.0 0.0 1.0 0.0 2:1.0 3:2.0 4:3.0 5:5.0 6:3.0 7:1.0 9:1.0 
-0.0 0.667213965377777 0.15143215269751387 0.12484382218332746 0.1132354205901936 2:1.0 3:2.0 4:1.0 5:2.0 6:2.0 7:1.0 12:1.0 125:1.0 
-0.0 1.0 0.0 0.0 1.0 2:1.0 3:2.0 4:3.0 5:14.0 6:7.0 7:3.0 9:1.0 21:3.0 
-0.0 0.5816539176690603 0.0 0.0 0.0 2:1.0 3:2.0 4:1.0 5:3.0 6:3.0 7:1.0 9:1.0 
-0.0 0.7776247218045598 0.20349978803760593 0.0 0.43440727919479055 3:2.0 4:4.0 5:23.0 6:15.0 7:5.0 8:1.0 10:1.0 12:1.0 88:1.0 168:1.0 169:1.0 170:1.0 171:1.0 172:1.0 173:1.0 
-0.0 0.7536605448843804 0.24924965426719514 0.15688037045211906 0.11309311330870035 2:1.0 3:2.0 4:4.0 5:5.0 6:2.0 7:1.0 12:1.0 174:1.0 
-0.0 1.0 0.0 0.0 0.0 2:1.0 3:2.0 4:2.0 5:4.0 6:3.0 7:1.0 9:1.0 
-0.0 1.0 0.3365183392163721 0.0 0.41454398450977076 1:1.0 2:1.0 3:2.0 4:3.0 5:11.0 6:8.0 7:1.0 21:1.0 
-0.0 1.0 1.0 0.0 0.0 2:1.0 3:2.0 4:3.0 5:10.0 6:6.0 7:3.0 9:1.0 
-0.0 1.0 0.0 1.0 0.0 2:1.0 3:2.0 4:2.0 5:7.0 6:6.0 7:1.0 9:1.0 
-0.0 0.0 0.0 1.0 0.0 3:2.0 4:1.0 5:6.0 6:4.0 7:3.0 9:1.0 29:1.0 
-0.0 1.0 0.0 0.0 0.0 2:1.0 3:2.0 4:1.0 5:3.0 6:3.0 7:1.0 9:1.0 
-0.0 1.0 1.0 1.0 1.0 2:1.0 3:2.0 4:2.0 5:9.0 6:8.0 7:1.0 9:1.0 
-0.0 1.0 0.14326429816169134 0.07434442072330878 0.11222425837073967 2:1.0 3:2.0 4:1.0 5:5.0 6:3.0 7:3.0 12:1.0 175:1.0 
-0.0 1.0 0.0 1.0 1.0 2:1.0 3:2.0 4:1.0 5:10.0 6:10.0 7:1.0 9:1.0 
-1.0 0.0 0.0 0.0 0.0 1:1.0 2:1.0 3:2.0 4:1.0 5:4.0 6:4.0 7:1.0 
-0.0 1.0 0.9918119590594273 1.0 1.0 2:1.0 3:2.0 4:1.0 5:11.0 6:11.0 7:1.0 9:1.0 
-0.0 1.0 0.0 0.0 1.0 2:1.0 3:2.0 4:1.0 5:7.0 6:7.0 7:1.0 9:1.0 
-0.0 1.0 0.0 0.0 0.0 2:1.0 3:2.0 4:1.0 5:4.0 6:4.0 7:1.0 9:1.0 
-1.0 0.0 0.0 0.0 0.0 1:1.0 2:1.0 3:2.0 4:1.0 5:3.0 6:3.0 7:1.0 
-0.0 1.0 0.5883554033046705 0.5952240038612586 0.1385755360725262 2:1.0 3:2.0 4:5.0 5:19.0 6:15.0 7:1.0 134:1.0 177:1.0 178:1.0 179:1.0 180:1.0 
-0.0 1.0 0.0 0.0 0.0 2:1.0 3:2.0 4:2.0 5:4.0 6:3.0 7:1.0 9:1.0 
-1.0 1.0 0.0 1.0 1.0 2:1.0 3:2.0 4:1.0 5:9.0 6:8.0 7:1.0 9:1.0 10:1.0 
-0.0 0.15999671560381928 0.24052038898434355 0.09693989536231973 0.2767787266832541 3:2.0 4:4.0 5:10.0 6:7.0 7:1.0 8:1.0 65:1.0 79:1.0 181:1.0 
-0.8847819066196461 0.4415032051338708 0.0 0.0 0.02030708576039696 2:1.0 3:2.0 4:2.0 5:16.0 6:11.0 7:2.0 10:3.0 12:1.0 15:1.0 52:1.0 182:1.0 183:1.0 184:1.0 
-0.0 1.0 0.0 0.0 0.0 2:1.0 3:2.0 4:1.0 5:4.0 6:4.0 7:1.0 9:1.0 
-0.0 0.5498827908555507 0.06685155988602812 0.030511136562316774 0.3904623236285948 2:1.0 3:2.0 4:3.0 5:6.0 6:3.0 7:2.0 12:1.0 185:1.0 186:1.0 
-0.0 0.0 0.0 0.12041675880497317 0.0 3:2.0 4:2.0 5:8.0 6:6.0 7:1.0 11:1.0 25:1.0 31:1.0 
-0.0 1.0 0.0 0.0 0.060157161424616336 2:1.0 3:2.0 4:1.0 5:9.0 6:8.0 7:2.0 12:1.0 15:1.0 94:1.0 177:1.0 
-0.0 1.0 0.0 0.0 1.0 2:1.0 3:2.0 4:1.0 5:2.0 6:1.0 7:1.0 9:1.0 43:1.0 
-0.0 0.3289228959806603 0.026133344624281737 0.0012251663471240432 0.0 2:1.0 3:2.0 4:3.0 5:9.0 6:7.0 7:1.0 12:1.0 187:1.0 188:1.0 189:1.0 
-0.0 0.0 0.3359718145301266 0.0 0.0 1:1.0 2:1.0 3:2.0 4:3.0 5:10.0 6:7.0 7:2.0 
-0.0 1.0 0.20267183405677758 0.22839859937905096 0.24221324953969048 2:1.0 3:2.0 4:2.0 5:5.0 6:3.0 7:2.0 12:1.0 139:1.0 190:1.0 
-1.0 0.0 0.0 0.0 0.0 2:1.0 3:2.0 4:1.0 5:8.0 6:5.0 7:3.0 9:1.0 10:1.0 
-0.0 1.0 0.38057085115300243 0.28680649189468105 0.06570703639541994 3:2.0 4:2.0 5:17.0 6:14.0 7:1.0 11:1.0 27:1.0 28:1.0 64:1.0 
-0.0 1.0 0.0 1.0 0.0 2:1.0 3:2.0 4:2.0 5:6.0 6:5.0 7:1.0 9:1.0 
-0.0 1.0 0.0 0.0 0.0 2:1.0 3:2.0 4:1.0 5:3.0 6:3.0 7:1.0 9:1.0 
-0.12119252924942925 0.0 0.0 0.0 0.0 2:1.0 3:2.0 4:1.0 5:2.0 6:2.0 7:1.0 9:1.0 
-0.0 1.0 0.0 0.0 0.0 2:1.0 3:2.0 4:1.0 5:8.0 6:6.0 7:3.0 9:1.0 
-0.0 1.0 0.0 0.0 1.0 2:1.0 3:2.0 4:1.0 5:6.0 6:5.0 7:1.0 9:1.0 21:1.0 
-0.0 1.0 1.0 0.0 1.0 2:1.0 3:2.0 4:3.0 5:13.0 6:9.0 7:3.0 9:1.0 
-0.0 1.0 0.0 0.0 0.0 2:1.0 3:2.0 4:1.0 5:6.0 6:6.0 7:1.0 9:1.0 
-0.0 1.0 0.0 0.0 1.0 2:1.0 3:2.0 4:1.0 5:7.0 6:7.0 7:1.0 9:1.0 
-1.0 0.0 0.0 0.0 0.0 2:1.0 3:2.0 4:1.0 5:2.0 6:2.0 7:1.0 9:1.0 
-0.0 0.4233985913856474 0.07968778897872948 0.03746621512330509 0.02849010226527271 2:1.0 3:2.0 4:3.0 5:12.0 6:9.0 7:2.0 12:1.0 191:1.0 192:1.0 193:1.0 194:1.0 
-0.0 1.0 1.0 0.0 1.0 2:1.0 3:2.0 4:3.0 5:11.0 6:8.0 7:2.0 9:1.0 
-0.0 1.0 0.0 0.0 0.0 2:1.0 3:2.0 4:1.0 5:5.0 6:5.0 7:1.0 9:1.0 
-1.0 0.0 0.0 0.0 0.0 2:1.0 3:2.0 4:1.0 5:2.0 6:2.0 7:1.0 9:1.0 
-0.0 1.0 0.0 0.0 0.0 2:1.0 3:2.0 4:2.0 5:9.0 6:6.0 7:3.0 9:1.0 
-0.0 0.0 1.0 1.0 0.999768168317939 2:1.0 3:2.0 4:4.0 5:4.0 6:1.0 7:1.0 9:1.0 
-0.0 1.0 0.9989498189192385 0.0 1.0 2:1.0 3:2.0 4:1.0 5:13.0 6:12.0 7:2.0 9:1.0 
-0.0 1.0 0.0 1.0 1.0 2:1.0 3:2.0 4:1.0 5:8.0 6:8.0 7:1.0 9:1.0 
-0.0 1.0 0.8609730494086065 0.8469353771570052 0.4085603535179199 2:1.0 3:2.0 4:2.0 5:13.0 6:10.0 7:2.0 11:1.0 111:1.0 195:1.0 
-0.0 1.0 1.0 1.0 0.809998991601674 2:1.0 3:2.0 4:1.0 5:9.0 6:7.0 7:2.0 12:1.0 37:1.0 139:1.0 167:1.0 196:1.0 
-0.0 1.0 0.0 1.0 1.0 2:1.0 3:2.0 4:1.0 5:9.0 6:9.0 7:1.0 9:1.0 
-0.0 1.0 0.0 1.0 1.0 2:1.0 3:2.0 4:1.0 5:8.0 6:8.0 7:1.0 9:1.0 
-1.0 0.0 0.0 0.0 0.0 3:2.0 4:2.0 5:15.0 6:11.0 7:1.0 10:3.0 28:1.0 35:1.0 
-1.0 1.0 1.0 0.0 0.08742617112575925 2:1.0 3:2.0 4:5.0 5:16.0 6:8.0 7:4.0 9:1.0 10:1.0 
-0.0 1.0 1.0 1.0 1.0 2:1.0 3:2.0 4:4.0 5:8.0 6:5.0 7:1.0 9:1.0 
-0.0 0.9124039049941143 0.0 0.0 0.0 2:1.0 3:2.0 4:1.0 5:7.0 6:7.0 7:1.0 12:1.0 75:1.0 197:1.0 
-0.0 1.0 0.0 1.0 0.0 2:1.0 3:2.0 4:2.0 5:7.0 6:6.0 7:1.0 9:1.0 
-0.0 1.0 0.0 0.0 0.0 2:1.0 3:2.0 4:1.0 5:4.0 6:4.0 7:1.0 9:1.0 
-0.0 1.0 0.0 0.0 0.0 2:1.0 3:2.0 4:1.0 5:3.0 6:3.0 7:1.0 9:1.0 
-0.0 1.0 0.0 1.0 0.0 2:1.0 3:2.0 4:3.0 5:5.0 6:3.0 7:1.0 9:1.0 
-0.0 1.0 1.0 1.0 0.0 2:1.0 3:2.0 4:3.0 5:6.0 6:4.0 7:1.0 9:1.0 
-0.0 1.0 0.6821329323741423 1.0 0.1134164573603877 2:1.0 3:2.0 4:1.0 5:7.0 6:7.0 7:1.0 12:1.0 198:1.0 
-1.0 1.0 0.35908979822519677 0.0 1.0 2:1.0 3:2.0 4:1.0 5:14.0 6:11.0 7:3.0 9:1.0 10:1.0 
-0.0 0.24333557532423428 0.0 0.008846517217511373 0.038810948892109384 2:1.0 3:2.0 4:3.0 5:15.0 6:10.0 7:4.0 12:1.0 15:1.0 94:1.0 98:1.0 199:2.0 
-0.0 0.9618636750943563 0.4811391851996323 0.20091939125987324 0.4672296265518568 2:1.0 3:2.0 4:1.0 5:5.0 6:4.0 7:2.0 12:1.0 88:1.0 200:1.0 
-0.0 1.0 0.0 0.0 0.0 2:1.0 3:2.0 4:1.0 5:11.0 6:9.0 7:3.0 9:1.0 
-0.0 1.0 1.0 1.0 0.054992949647055464 2:1.0 3:2.0 4:2.0 5:5.0 6:3.0 7:1.0 9:1.0 43:1.0 
-0.0 0.22791601182912422 0.0 0.0 0.0 2:1.0 3:2.0 4:1.0 5:11.0 6:11.0 7:1.0 12:1.0 84:2.0 201:1.0 202:1.0 
-0.0 1.0 0.8158498534264992 0.7097066531410957 0.37516546266995354 2:1.0 3:2.0 4:1.0 5:6.0 6:6.0 7:1.0 203:1.0 204:1.0 
-0.0 1.0 0.0 0.0 0.0 3:2.0 4:1.0 5:35.0 6:32.0 7:4.0 25:1.0 31:1.0 
-0.0 1.0 0.0 0.0 1.0 2:1.0 3:2.0 4:1.0 5:14.0 6:12.0 7:3.0 9:1.0 
-0.0 0.0 0.0 0.0 1.0 3:2.0 4:2.0 5:7.0 6:5.0 7:1.0 27:1.0 28:1.0 37:1.0 
-0.0 1.0 0.0 0.0 1.0 2:1.0 3:2.0 4:1.0 5:7.0 6:7.0 7:1.0 9:1.0 
-0.0 0.0 0.07796213744695553 0.0030439533623754867 0.0 3:2.0 4:3.0 5:6.0 6:3.0 7:1.0 10:1.0 28:1.0 68:1.0 
-0.0 0.9618693149340242 0.4811591524390074 0.20091189720560237 0.46720531453866204 2:1.0 3:2.0 4:1.0 5:5.0 6:4.0 7:2.0 12:1.0 88:1.0 205:1.0 
-0.0 1.0 1.0 0.13327875334976905 0.11304685157879218 2:1.0 3:2.0 4:1.0 5:4.0 6:4.0 7:1.0 12:1.0 206:1.0 
-0.0 0.5561431267171899 0.5526123126529824 0.14421657019610168 0.2982486067568274 2:1.0 3:2.0 4:3.0 5:9.0 6:5.0 7:2.0 12:1.0 37:1.0 207:1.0 208:1.0 
-0.0 1.0 1.0 1.0 1.0 2:1.0 3:2.0 4:5.0 5:10.0 6:6.0 7:1.0 9:1.0 
-0.0 1.0 0.0 0.0 0.0 2:1.0 3:2.0 4:2.0 5:10.0 6:7.0 7:3.0 9:1.0 
-0.0 1.0 1.0 0.0 1.0 2:1.0 3:2.0 4:2.0 5:14.0 6:11.0 7:3.0 9:1.0 
-0.0 1.0 0.0 0.0 1.0 2:1.0 3:2.0 4:2.0 5:7.0 6:5.0 7:1.0 9:1.0 21:1.0 
-0.08265924324633525 0.5934945071748697 0.15509903176175882 0.27149830956663545 0.5317133806992682 2:1.0 3:2.0 4:4.0 5:12.0 6:6.0 7:3.0 10:1.0 12:1.0 15:1.0 88:1.0 209:1.0 210:1.0 211:1.0 
-0.0 0.0 0.0 0.0 0.3060737812302983 3:2.0 4:3.0 5:13.0 6:9.0 7:2.0 8:1.0 11:1.0 65:1.0 80:1.0 213:1.0 
-0.0 1.0 0.0 1.0 1.0 2:1.0 3:2.0 4:1.0 5:9.0 6:9.0 7:1.0 9:1.0 
-0.0 1.0 0.30989191422705664 0.5402957417203563 0.0 2:1.0 3:2.0 4:1.0 5:11.0 6:11.0 7:1.0 12:1.0 94:1.0 167:1.0 214:1.0 
-0.0 1.0 0.0 0.0 0.0 2:1.0 3:2.0 4:1.0 5:4.0 6:4.0 7:1.0 9:1.0 
-0.0 1.0 1.0 0.0 0.0 2:1.0 3:2.0 4:1.0 5:5.0 6:5.0 7:1.0 12:1.0 215:1.0 
-0.0 1.0 0.0 0.0 0.0 2:1.0 3:2.0 4:1.0 5:8.0 6:6.0 7:3.0 9:1.0 
-0.0 1.0 0.0 0.0 0.0 2:1.0 3:2.0 4:1.0 5:4.0 6:4.0 7:1.0 9:1.0 
-0.0 0.7536659269602701 0.2492277202938346 0.156881673261695 0.11309363616581157 2:1.0 3:2.0 4:4.0 5:5.0 6:2.0 7:1.0 12:1.0 216:1.0 
-0.0 1.0 0.0 1.0 0.0 2:1.0 3:2.0 4:2.0 5:7.0 6:6.0 7:1.0 9:1.0 
-0.0 0.6157759756739508 0.2513199322082894 0.2233077012628294 0.5400695502608903 2:1.0 3:2.0 4:1.0 5:6.0 6:4.0 7:1.0 12:1.0 37:2.0 217:1.0 218:1.0 
-0.0 0.2798958721175404 1.0 0.7829425441871439 0.3170286073502723 2:1.0 3:2.0 4:3.0 5:5.0 6:3.0 7:1.0 190:1.0 219:1.0 
-0.0 0.0 0.0 0.0 1.0 2:1.0 3:2.0 4:3.0 5:3.0 6:1.0 7:1.0 9:1.0 
-1.0 0.9409411498180965 0.0 0.0 0.0 2:1.0 3:2.0 4:1.0 5:5.0 6:4.0 7:1.0 9:1.0 10:1.0 
-0.0 0.6250032799524322 0.0 0.0 0.8907162204634217 3:2.0 4:1.0 5:15.0 6:15.0 7:1.0 28:1.0 38:1.0 
-0.0 1.0 0.9737445769933534 1.0 1.0 2:1.0 3:2.0 4:3.0 5:4.0 6:2.0 7:1.0 12:1.0 98:1.0 
-0.0 0.0 0.0 0.0 1.0 2:1.0 3:2.0 4:3.0 5:3.0 6:1.0 7:1.0 9:1.0 
-1.0 1.0 0.0 1.0 0.0 2:1.0 3:2.0 4:1.0 5:6.0 6:5.0 7:1.0 9:1.0 10:1.0 
-0.0 1.0 1.0 0.0 0.0 2:1.0 3:2.0 4:2.0 5:7.0 6:5.0 7:1.0 9:1.0 64:1.0 
-0.0 1.0 0.0 0.0 0.0 2:1.0 3:2.0 4:1.0 5:6.0 6:6.0 7:1.0 9:1.0 
-1.0 0.0 0.0 0.0 0.0 1:1.0 2:1.0 3:2.0 4:2.0 5:3.0 6:2.0 7:1.0 
-0.0 1.0 0.0 0.0 0.0 2:1.0 3:2.0 4:1.0 5:3.0 6:3.0 7:1.0 9:1.0 
-0.0 1.0 0.0 1.0 1.0 2:1.0 3:2.0 4:1.0 5:8.0 6:8.0 7:1.0 9:1.0 
-0.0 1.0 0.0 0.0 0.29238309042818145 2:1.0 3:2.0 4:1.0 5:2.0 6:1.0 7:1.0 9:1.0 43:1.0 
-0.0 0.07565109195124656 0.06641535082375633 0.028232253576135867 0.02809637441417293 2:1.0 3:2.0 4:5.0 5:8.0 6:2.0 7:3.0 12:1.0 220:1.0 221:1.0 222:1.0 223:1.0 
-0.0 0.0 0.16786068724638742 0.0 0.3976725362591843 3:2.0 4:5.0 5:12.0 6:8.0 7:1.0 28:1.0 62:1.0 
-0.0 1.0 1.0 0.0 0.0 2:1.0 3:2.0 4:3.0 5:9.0 6:6.0 7:2.0 9:1.0 
-0.0 0.6250841620338845 0.6121455085979723 0.037167317449138766 0.0 2:1.0 3:2.0 4:3.0 5:10.0 6:8.0 7:1.0 12:1.0 113:1.0 224:1.0 225:1.0 
-0.0 1.0 0.0 0.0 0.0 2:1.0 3:2.0 4:1.0 5:9.0 6:7.0 7:3.0 9:1.0 
-0.0 1.0 0.98937246729927 1.0 1.0 2:1.0 3:2.0 4:1.0 5:11.0 6:11.0 7:1.0 9:1.0 
-1.0 0.0 0.0 1.0 0.0 2:1.0 3:2.0 4:2.0 5:5.0 6:3.0 7:1.0 9:1.0 10:1.0 
-0.0 1.0 0.0 0.0 0.0 2:1.0 3:2.0 4:1.0 5:4.0 6:4.0 7:1.0 9:1.0 
-0.0 0.7248408237007673 0.3423071355126173 0.14623216144644954 0.11307181438657726 2:1.0 3:2.0 4:3.0 5:4.0 6:2.0 7:1.0 12:1.0 226:1.0 
-0.0 1.0 0.17537651589186518 0.13756946439773735 0.11313467522201144 2:1.0 3:2.0 4:1.0 5:5.0 6:5.0 7:1.0 12:1.0 227:1.0 
-0.0 1.0 0.29048283787151397 1.0 0.05683146834505087 2:1.0 3:2.0 4:5.0 5:9.0 6:5.0 7:1.0 12:1.0 228:1.0 229:1.0 
-0.0 0.8128201404619951 0.5492817257506895 0.2843220858864382 0.22108299829899491 2:1.0 3:2.0 4:1.0 5:7.0 6:7.0 7:1.0 230:1.0 231:1.0 232:1.0 
-0.0 1.0 0.0 0.0 0.0 2:1.0 3:2.0 4:1.0 5:4.0 6:4.0 7:1.0 9:1.0 
-0.0 0.0 0.0 1.0 0.0 3:2.0 4:1.0 5:8.0 6:5.0 7:3.0 9:1.0 21:1.0 29:1.0 
-0.0 1.0 0.0 1.0 1.0 2:1.0 3:2.0 4:1.0 5:9.0 6:9.0 7:1.0 9:1.0 
-0.0 1.0 0.0 0.0 0.0 2:1.0 3:2.0 4:1.0 5:3.0 6:3.0 7:1.0 9:1.0 
-0.0 0.4744104126754138 0.0 0.0 0.0 1:1.0 2:1.0 3:2.0 4:1.0 5:9.0 6:8.0 7:1.0 21:1.0 
-0.0 0.5782548448479966 0.2541119692742764 0.09343566427303644 0.05685109456018933 2:1.0 3:2.0 4:6.0 5:9.0 6:4.0 7:1.0 12:1.0 233:1.0 234:1.0 
-0.0 1.0 1.0 1.0 1.0 2:1.0 3:2.0 4:8.0 5:15.0 6:7.0 7:2.0 9:1.0 
-0.0 1.0 0.0 0.0 0.0 2:1.0 3:2.0 4:1.0 5:9.0 6:7.0 7:3.0 9:1.0 
-0.0 1.0 0.0 0.0 0.0 2:1.0 3:2.0 4:1.0 5:3.0 6:3.0 7:1.0 9:1.0 
-0.0 0.0 0.0 1.0 0.0 2:1.0 3:2.0 4:3.0 5:4.0 6:2.0 7:1.0 9:1.0 
-0.0 1.0 0.0 1.0 1.0 2:1.0 3:2.0 4:1.0 5:8.0 6:8.0 7:1.0 9:1.0 
-0.0 1.0 0.0 0.0 0.0 2:1.0 3:2.0 4:1.0 5:3.0 6:3.0 7:1.0 9:1.0 
-0.0 0.6786638765343405 0.09173907944080954 0.0950537489966591 0.056644741625334866 2:1.0 3:2.0 4:1.0 5:6.0 6:6.0 7:1.0 12:1.0 235:1.0 236:1.0 
-0.0 1.0 0.0 0.0 0.0 2:1.0 3:2.0 4:1.0 5:9.0 6:7.0 7:3.0 9:1.0 
-0.0 1.0 0.0 1.0 0.0 2:1.0 3:2.0 4:3.0 5:5.0 6:3.0 7:1.0 9:1.0 
-1.0 0.0 0.0 0.0 0.0 1:1.0 2:1.0 3:2.0 4:1.0 5:4.0 6:4.0 7:1.0 
-0.0 0.7373508183157358 0.0 0.0 0.0 2:1.0 3:2.0 4:3.0 5:12.0 6:10.0 7:1.0 12:1.0 65:1.0 237:1.0 238:1.0 
-0.0 1.0 0.0 0.0 1.0 2:1.0 3:2.0 4:3.0 5:6.0 6:2.0 7:1.0 9:1.0 21:2.0 
-0.0 1.0 1.0 1.0 1.0 2:1.0 3:2.0 4:2.0 5:9.0 6:8.0 7:1.0 9:1.0 
-0.0 1.0 0.17541753071657964 1.0 0.11310234887659089 2:1.0 3:2.0 4:1.0 5:5.0 6:5.0 7:1.0 12:1.0 239:1.0 
-0.0 0.5202583470465744 0.20872772365248468 0.08854443729314444 0.19878686481508565 2:1.0 3:2.0 4:3.0 5:11.0 6:6.0 7:3.0 12:1.0 37:1.0 240:1.0 241:1.0 242:1.0 
-0.0 0.0 0.0 0.0 1.0 2:1.0 3:2.0 4:3.0 5:3.0 6:1.0 7:1.0 9:1.0 
-1.0 0.0 0.0 0.0 0.0 1:1.0 2:1.0 3:2.0 4:2.0 5:3.0 6:2.0 7:1.0 
-0.0 1.0 0.19159668125754442 0.1463238474535166 0.11337110454565034 2:1.0 3:2.0 4:1.0 5:7.0 6:7.0 7:1.0 12:1.0 243:1.0 
-0.0 1.0 0.10814499841734145 0.22135665836964566 0.05711270308014234 2:1.0 3:2.0 4:1.0 5:10.0 6:10.0 7:1.0 12:1.0 244:1.0 245:1.0 
-0.0 0.0 0.0 1.0 0.0 3:2.0 4:1.0 5:10.0 6:8.0 7:3.0 9:1.0 29:1.0 
-0.0 1.0 0.0 1.0 0.15550294191767305 1:1.0 2:1.0 3:2.0 4:1.0 5:10.0 6:10.0 7:1.0 
-0.0 1.0 0.0 0.0 0.0 2:1.0 3:2.0 4:1.0 5:5.0 6:5.0 7:1.0 9:1.0 
-0.0 1.0 0.0 1.0 1.0 2:1.0 3:2.0 4:1.0 5:10.0 6:10.0 7:1.0 9:1.0 
-0.0 0.6672125390647506 0.15142854697228902 0.12484412914093322 0.11324787160147845 2:1.0 3:2.0 4:1.0 5:2.0 6:2.0 7:1.0 12:1.0 44:1.0 
-0.0 0.5658186771056269 0.15427557537951353 0.0 0.3631062119777969 2:1.0 3:2.0 4:4.0 5:16.0 6:12.0 7:2.0 12:1.0 246:1.0 247:1.0 248:1.0 249:1.0 
-0.0 1.0 0.0 0.0 0.0 2:1.0 3:2.0 4:1.0 5:5.0 6:5.0 7:1.0 9:1.0 
-0.0 1.0 0.0 0.0 0.0 2:1.0 3:2.0 4:1.0 5:5.0 6:5.0 7:1.0 9:1.0 
-0.0 1.0 1.0 1.0 1.0 2:1.0 3:2.0 4:2.0 5:9.0 6:8.0 7:1.0 9:1.0 
-1.0 0.0 0.0 0.0 0.0 2:1.0 3:2.0 4:1.0 5:3.0 6:2.0 7:2.0 8:1.0 9:1.0 
-0.0 0.0 0.0 0.0 0.8007438213570138 2:1.0 3:2.0 4:3.0 5:3.0 6:1.0 7:1.0 9:1.0 
-0.0 0.0 0.005890407022370615 0.0 0.9316485134327662 3:2.0 4:4.0 5:9.0 6:5.0 7:1.0 28:1.0 147:1.0 250:1.0 
-0.0 1.0 0.05008754931029065 0.0 0.0 3:2.0 4:1.0 5:3.0 6:3.0 7:1.0 8:1.0 12:1.0 59:1.0 
-0.0 1.0 0.0 0.0 0.0 2:1.0 3:2.0 4:1.0 5:4.0 6:4.0 7:1.0 9:1.0 
-0.0 0.21263804524538013 0.053165301956828975 0.020064608268324194 0.03742093351489129 2:1.0 3:2.0 4:1.0 5:9.0 6:6.0 7:4.0 12:1.0 251:1.0 252:1.0 253:1.0 
-0.0 1.0 1.0 1.0 1.0 2:1.0 3:2.0 4:2.0 5:11.0 6:10.0 7:1.0 9:1.0 
-0.0 1.0 0.0 0.0 0.0 3:2.0 4:1.0 5:16.0 6:16.0 7:1.0 28:1.0 35:1.0 
-0.0 1.0 0.0 0.0 0.0 2:1.0 3:2.0 4:1.0 5:4.0 6:4.0 7:1.0 9:1.0 
-0.0 1.0 0.0 0.0 1.0 2:1.0 3:2.0 4:1.0 5:7.0 6:7.0 7:1.0 9:1.0 
-0.0 1.0 0.0 1.0 1.0 2:1.0 3:2.0 4:1.0 5:8.0 6:8.0 7:1.0 9:1.0 
-0.0 1.0 0.0 1.0 0.0 2:1.0 3:2.0 4:2.0 5:7.0 6:6.0 7:1.0 9:1.0 
-0.0 1.0 0.0 1.0 1.0 2:1.0 3:2.0 4:1.0 5:9.0 6:9.0 7:1.0 9:1.0 
-0.0 1.0 1.0 0.0 0.0 2:1.0 3:2.0 4:1.0 5:7.0 6:4.0 7:3.0 8:1.0 9:1.0 43:1.0 
-0.0 0.34473227029494025 0.40182627392723275 0.2843337530364264 0.13235189702276465 2:1.0 3:2.0 4:1.0 5:7.0 6:7.0 7:1.0 230:1.0 254:1.0 255:1.0 
-0.0 0.7772854719090649 0.0 0.0 0.0 2:1.0 3:2.0 4:1.0 5:3.0 6:3.0 7:1.0 9:1.0 
-0.0 0.3226218072075824 0.1614269121845596 0.0 0.20682436759782627 2:1.0 3:2.0 4:1.0 5:6.0 6:5.0 7:2.0 12:1.0 256:1.0 257:1.0 
-0.0 1.0 0.0 1.0 0.0 2:1.0 3:2.0 4:2.0 5:7.0 6:6.0 7:1.0 9:1.0 
-0.0 0.647273652134197 0.03237043013901535 0.027357782923084436 0.0 2:1.0 3:2.0 4:1.0 5:7.0 6:7.0 7:1.0 12:1.0 84:1.0 258:1.0 
-0.0 0.6957168578914728 0.0 0.0 0.0 2:1.0 3:2.0 4:1.0 5:3.0 6:3.0 7:1.0 9:1.0 
-0.0 1.0 1.0 1.0 1.0 2:1.0 3:2.0 4:2.0 5:26.0 6:23.0 7:3.0 9:1.0 
-0.0 1.0 0.0 0.0 0.0 2:1.0 3:2.0 4:1.0 5:6.0 6:6.0 7:1.0 9:1.0 
-0.10551759725446785 0.0 0.0 0.0 0.0 2:1.0 3:2.0 4:1.0 5:2.0 6:2.0 7:1.0 9:1.0 
-1.0 1.0 0.0 0.0 0.0 2:1.0 3:2.0 4:1.0 5:5.0 6:4.0 7:1.0 9:1.0 10:1.0 
-0.0 1.0 0.0 0.0 0.0 2:1.0 3:2.0 4:1.0 5:6.0 6:6.0 7:1.0 9:1.0 
-0.0 0.5277009356217475 0.0 0.0 0.0 2:1.0 3:2.0 4:1.0 5:3.0 6:3.0 7:1.0 9:1.0 
-1.0 1.0 1.0 1.0 1.0 2:1.0 3:2.0 4:1.0 5:10.0 6:9.0 7:1.0 9:1.0 11:1.0 
-0.0 0.5205091397911037 0.09999981728396061 0.07198284808651287 0.44515951006962484 2:1.0 3:2.0 4:2.0 5:5.0 6:4.0 7:1.0 12:1.0 259:1.0 260:1.0 
-1.0 1.0 1.0 1.0 1.0 2:1.0 3:2.0 4:1.0 5:11.0 6:10.0 7:1.0 9:1.0 10:1.0 
-0.0 1.0 1.0 1.0 1.0 2:1.0 3:2.0 4:1.0 5:29.0 6:27.0 7:3.0 9:1.0 
-0.0 1.0 0.7248646422419514 0.7116366468809784 0.7460567341191845 2:1.0 3:2.0 4:3.0 5:7.0 6:5.0 7:1.0 261:1.0 262:1.0 263:1.0 
-0.0 1.0 0.0 0.0 0.0 2:1.0 3:2.0 4:1.0 5:3.0 6:3.0 7:1.0 9:1.0 
-0.0 1.0 0.0 0.0 0.0 2:1.0 3:2.0 4:1.0 5:3.0 6:3.0 7:1.0 9:1.0 
-0.0 0.9119348941221975 0.0 0.0 0.0 2:1.0 3:2.0 4:1.0 5:3.0 6:3.0 7:1.0 9:1.0 
-0.0 0.49638894043819787 0.02437165907562661 0.01820666156655084 0.0 2:1.0 3:2.0 4:1.0 5:9.0 6:9.0 7:1.0 12:1.0 84:1.0 264:1.0 265:1.0 
-1.0 0.0 0.0 0.0 0.0 1:1.0 2:1.0 3:2.0 4:1.0 5:3.0 6:3.0 7:1.0 
-0.0 0.9900474850492892 0.159695930327703 0.10397820963716906 0.08943615189101616 2:1.0 3:2.0 4:5.0 5:21.0 6:13.0 7:2.0 12:1.0 21:1.0 37:2.0 72:1.0 148:1.0 149:1.0 215:1.0 266:1.0 267:1.0 
-0.0 0.819338406254813 0.0 0.0 0.0 2:1.0 3:2.0 4:1.0 5:3.0 6:3.0 7:1.0 9:1.0 
-0.0 1.0 1.0 0.0 0.0 2:1.0 3:2.0 4:5.0 5:19.0 6:10.0 7:6.0 9:1.0 
-0.25476677432935 1.0 0.0 0.0 0.0 2:1.0 3:2.0 4:1.0 5:7.0 6:5.0 7:3.0 8:1.0 9:1.0 
-0.0 0.4031343284941593 0.0 0.0 0.0 2:1.0 3:2.0 4:1.0 5:3.0 6:3.0 7:1.0 9:1.0 
-0.36308864493086973 1.0 1.0 0.5318441112755162 0.4438245174975247 3:2.0 4:1.0 5:5.0 6:5.0 7:1.0 8:1.0 16:1.0 268:1.0 
-0.0 1.0 1.0 1.0 0.8876393156007322 3:2.0 4:3.0 5:3.0 6:1.0 7:1.0 8:1.0 269:1.0 
-1.0 1.0 0.0 0.40357891478758195 0.0 2:1.0 3:2.0 4:1.0 5:6.0 6:5.0 7:1.0 9:1.0 10:1.0 
-0.0 1.0 0.0 0.0 0.0 2:1.0 3:2.0 4:1.0 5:5.0 6:5.0 7:1.0 9:1.0 
-0.0 1.0 0.0 0.0 0.0 2:1.0 3:2.0 4:2.0 5:10.0 6:7.0 7:3.0 9:1.0 
-0.0 0.0 0.0 1.0 0.0 2:1.0 3:2.0 4:3.0 5:4.0 6:2.0 7:1.0 9:1.0 
-0.0 0.8398047668259925 0.15932769908548872 0.1291538326074747 0.11304596533424133 2:1.0 3:2.0 4:1.0 5:3.0 6:3.0 7:1.0 12:1.0 270:1.0 
-0.0 0.0 0.0 0.0 0.9977811164179933 3:2.0 4:1.0 5:3.0 6:3.0 7:1.0 28:1.0 271:1.0 
-0.0 1.0 1.0 0.7031259604838836 0.0 2:1.0 3:2.0 4:1.0 5:8.0 6:7.0 7:2.0 12:1.0 84:1.0 
-0.0 0.0 0.0 0.28011318109024935 0.0 3:2.0 4:3.0 5:9.0 6:6.0 7:1.0 11:1.0 28:1.0 36:1.0 
-1.0 0.0 0.0 0.0 0.0 1:1.0 2:1.0 3:2.0 4:1.0 5:6.0 6:6.0 7:1.0 
-0.0 0.8082747409549296 0.0 0.24195897028025487 0.9303567874846259 2:1.0 3:2.0 4:3.0 5:13.0 6:9.0 7:3.0 12:1.0 15:1.0 272:1.0 273:1.0 274:1.0 275:1.0 
-0.0 1.0 0.0 1.0 1.0 2:1.0 3:2.0 4:1.0 5:10.0 6:10.0 7:1.0 9:1.0 
-0.15032282776269723 1.0 0.0 0.0 0.0010973428657285165 3:2.0 4:1.0 5:20.0 6:17.0 7:1.0 10:3.0 28:1.0 35:1.0 
-0.0 1.0 0.0 0.0 0.0 2:1.0 3:2.0 4:1.0 5:6.0 6:6.0 7:1.0 9:1.0 
-0.0 1.0 1.0 1.0 0.0 2:1.0 3:2.0 4:3.0 5:6.0 6:4.0 7:1.0 9:1.0 
-0.0 1.0 0.35317407731153566 0.6110464142337779 0.44673136978523986 2:1.0 3:2.0 4:2.0 5:9.0 6:8.0 7:1.0 12:1.0 276:1.0 277:1.0 
-0.0 1.0 1.0 0.0 1.0 2:1.0 3:2.0 4:1.0 5:10.0 6:8.0 7:2.0 9:1.0 43:1.0 
-0.0 0.13199821610124202 0.3663732682350856 0.16914577752827176 0.0 2:1.0 3:2.0 4:3.0 5:11.0 6:8.0 7:2.0 12:1.0 139:1.0 148:1.0 149:1.0 278:1.0 
-0.0 1.0 0.0 0.0 1.0 2:1.0 3:2.0 4:1.0 5:7.0 6:7.0 7:1.0 9:1.0 
-1.0 0.0 0.0 0.0 0.0 1:1.0 2:1.0 3:2.0 4:2.0 5:5.0 6:4.0 7:1.0 
-0.0 0.29588821505969193 0.0966819259203839 0.23429605460946115 0.09208974582886323 2:1.0 3:2.0 4:5.0 5:9.0 6:4.0 7:2.0 12:1.0 279:1.0 280:1.0 281:1.0 
-0.0 1.0 0.0 0.0 0.0 2:1.0 3:2.0 4:2.0 5:4.0 6:3.0 7:1.0 9:1.0 
-0.0 1.0 0.9818663296053637 0.9359982605279982 0.004534617494557611 2:1.0 3:2.0 4:1.0 5:3.0 6:2.0 7:1.0 9:1.0 43:1.0 
-1.0 0.0 0.0 0.0 0.0 1:1.0 2:1.0 3:2.0 4:1.0 5:3.0 6:3.0 7:1.0 
-0.0 1.0 0.0 0.0 0.0 2:1.0 3:2.0 4:1.0 5:3.0 6:3.0 7:1.0 9:1.0 
-1.0 0.0 0.0 0.0 0.0 2:1.0 3:2.0 4:1.0 5:7.0 6:4.0 7:3.0 9:1.0 10:1.0 
-0.0 1.0 1.0 1.0 0.0 2:1.0 3:2.0 4:3.0 5:6.0 6:4.0 7:1.0 9:1.0 
-1.0 0.0 0.0 0.0 0.0 1:1.0 2:1.0 3:2.0 4:1.0 5:5.0 6:5.0 7:1.0 
-1.0 0.0 0.0 0.0 0.0 1:1.0 2:1.0 3:2.0 4:1.0 5:5.0 6:5.0 7:1.0 
-1.0 0.0 0.024801616372962458 0.43675001432769134 0.0 1:1.0 2:1.0 3:2.0 4:1.0 5:5.0 6:3.0 7:1.0 10:1.0 43:1.0 
-0.0 1.0 0.0 0.0 0.0 2:1.0 3:2.0 4:1.0 5:9.0 6:7.0 7:3.0 9:1.0 
-0.323800564398254 0.0 0.0 0.0 0.0 3:2.0 4:1.0 5:6.0 6:4.0 7:1.0 10:2.0 28:1.0 36:1.0 
-0.0 1.0 0.0 0.0 0.0 2:1.0 3:2.0 4:1.0 5:4.0 6:4.0 7:1.0 9:1.0 
-1.0 1.0 0.0 0.0 0.0 2:1.0 3:2.0 4:1.0 5:5.0 6:4.0 7:1.0 9:1.0 10:1.0 
-0.0 1.0 0.0 0.0 0.0 2:1.0 3:2.0 4:1.0 5:4.0 6:4.0 7:1.0 9:1.0 
-0.0 0.0 0.0 1.0 0.0 3:2.0 4:1.0 5:6.0 6:6.0 7:1.0 9:1.0 29:1.0 
-0.0 0.669216098157638 0.21408051358328373 0.18642292865512333 0.13620927782261294 2:1.0 3:2.0 4:4.0 5:16.0 6:12.0 7:2.0 282:1.0 283:1.0 284:1.0 285:1.0 286:1.0 
-0.0 1.0 0.0 0.0 0.0 3:2.0 4:1.0 5:13.0 6:11.0 7:1.0 21:2.0 28:1.0 35:1.0 
-0.0 1.0 0.0 0.0 0.0 2:1.0 3:2.0 4:1.0 5:3.0 6:3.0 7:1.0 9:1.0 
-0.0 1.0 0.0 0.0 0.0 2:1.0 3:2.0 4:1.0 5:6.0 6:6.0 7:1.0 9:1.0 
-0.0 0.4327663051652541 1.0 0.0 0.0 2:1.0 3:2.0 4:7.0 5:14.0 6:5.0 7:3.0 9:1.0 147:1.0 
-0.0 0.0 1.0 0.0 0.1638608639056969 3:2.0 4:5.0 5:25.0 6:14.0 7:5.0 10:2.0 25:1.0 31:1.0 37:1.0 
-0.0 1.0 0.0 0.0 0.0 2:1.0 3:2.0 4:1.0 5:10.0 6:8.0 7:3.0 9:1.0 
-0.0 1.0 0.8907028359995142 0.6189179362242742 0.15950894206968322 2:1.0 3:2.0 4:1.0 5:7.0 6:6.0 7:1.0 64:1.0 215:1.0 287:1.0 288:1.0 
-0.0 1.0 0.0 0.0 0.0 2:1.0 3:2.0 4:1.0 5:3.0 6:3.0 7:1.0 9:1.0 
-0.0 1.0 0.5497103024956176 0.25327238621554654 0.514104063912191 2:1.0 3:2.0 4:1.0 5:12.0 6:10.0 7:1.0 9:1.0 176:2.0 
-0.0 0.3430641901681987 0.12462628349330676 0.06688918427410663 0.05633966243709461 2:1.0 3:2.0 4:4.0 5:7.0 6:3.0 7:2.0 12:1.0 289:1.0 290:1.0 
-0.0 0.0 0.03680692860807623 0.0 0.9983189928506511 3:2.0 4:1.0 5:8.0 6:8.0 7:1.0 28:1.0 212:1.0 
-0.0 0.6960313447545707 0.18404993991826948 0.13554764815526804 0.11324397515317221 2:1.0 3:2.0 4:2.0 5:3.0 6:2.0 7:1.0 12:1.0 291:1.0 
-0.0 1.0 0.0 0.0 0.0 2:1.0 3:2.0 4:1.0 5:6.0 6:6.0 7:1.0 9:1.0 
-0.0 1.0 0.0 0.0 0.0 2:1.0 3:2.0 4:2.0 5:5.0 6:4.0 7:1.0 9:1.0 
-0.0 1.0 0.0 0.0 1.0 2:1.0 3:2.0 4:1.0 5:7.0 6:7.0 7:1.0 9:1.0 
-0.0 1.0 0.0 0.0 1.0 2:1.0 3:2.0 4:1.0 5:7.0 6:7.0 7:1.0 9:1.0 
-0.0 1.0 0.0 0.0 0.0 2:1.0 3:2.0 4:1.0 5:3.0 6:3.0 7:1.0 9:1.0 
-1.0 1.0 1.0 1.0 1.0 2:1.0 3:2.0 4:2.0 5:10.0 6:7.0 7:2.0 9:1.0 11:1.0 
-0.0 1.0 0.0 0.0 0.9888352493194733 2:1.0 3:2.0 4:1.0 5:4.0 6:3.0 7:1.0 9:1.0 21:1.0 
-0.0 0.667215765021214 0.1514342053955451 0.12484467962803066 0.7128069469141675 2:1.0 3:2.0 4:1.0 5:2.0 6:2.0 7:1.0 12:1.0 292:1.0 
-0.0 0.0 0.0 1.0 0.0 3:2.0 4:1.0 5:9.0 6:7.0 7:3.0 9:1.0 29:1.0 
-0.0 1.0 0.0 0.0 0.0 2:1.0 3:2.0 4:1.0 5:3.0 6:3.0 7:1.0 9:1.0 
-0.0 0.8398170279747966 0.1593269841040036 0.12915127006296245 0.11322459807142492 2:1.0 3:2.0 4:1.0 5:3.0 6:3.0 7:1.0 12:1.0 293:1.0 
-0.1505264339943727 0.0 0.0 0.0 0.0 1:1.0 2:1.0 3:2.0 4:1.0 5:5.0 6:3.0 7:3.0 
-0.0 1.0 0.0 0.0 0.0 2:1.0 3:2.0 4:1.0 5:8.0 6:6.0 7:3.0 9:1.0 
-0.0 0.0 0.0 0.0 0.21272196422676046 2:1.0 3:2.0 4:1.0 5:2.0 6:2.0 7:1.0 9:1.0 
-0.0 1.0 0.0 0.0 0.0 2:1.0 3:2.0 4:1.0 5:3.0 6:3.0 7:1.0 9:1.0 
-0.0 1.0 0.0 1.0 1.0 2:1.0 3:2.0 4:1.0 5:9.0 6:9.0 7:1.0 9:1.0 
-0.0 1.0 0.0 0.0 0.0 2:1.0 3:2.0 4:1.0 5:3.0 6:3.0 7:1.0 9:1.0 
-0.0 0.9043798634362278 0.5466102241417704 0.4840440364582302 0.25015412871811493 2:1.0 3:2.0 4:1.0 5:7.0 6:7.0 7:1.0 294:1.0 295:1.0 296:1.0 
-0.0 1.0 0.0 0.0 0.0 2:1.0 3:2.0 4:1.0 5:6.0 6:6.0 7:1.0 9:1.0 
-0.0 1.0 0.334214036431423 0.9301304013083053 0.0 2:1.0 3:2.0 4:2.0 5:8.0 6:6.0 7:1.0 12:1.0 37:1.0 107:1.0 108:1.0 297:1.0 
-0.0 1.0 0.0 0.0 0.0 2:1.0 3:2.0 4:1.0 5:5.0 6:5.0 7:1.0 9:1.0 
-0.0 1.0 1.0 0.6893569087207361 1.0 2:1.0 3:2.0 4:2.0 5:10.0 6:7.0 7:2.0 76:1.0 133:1.0 
-0.0 1.0 0.0 0.0 0.0 2:1.0 3:2.0 4:1.0 5:3.0 6:3.0 7:1.0 9:1.0 
-0.0 0.1803741944629674 0.0 0.0 0.0 3:2.0 4:2.0 5:6.0 6:5.0 7:1.0 8:1.0 12:1.0 298:1.0 
-1.0 0.0 0.0 0.0 0.0 1:1.0 2:1.0 3:2.0 4:1.0 5:4.0 6:4.0 7:1.0 
-0.0 1.0 1.0 1.0 1.0 2:1.0 3:2.0 4:3.0 5:13.0 6:10.0 7:2.0 9:1.0 
-0.0 0.6672226408392956 0.15143290408673615 0.12484448089667528 0.11323239056814074 2:1.0 3:2.0 4:1.0 5:2.0 6:2.0 7:1.0 12:1.0 299:1.0 
-0.0 0.6672211478387564 0.1514322356990315 0.12484463636029093 0.11323520707319314 2:1.0 3:2.0 4:1.0 5:2.0 6:2.0 7:1.0 12:1.0 300:1.0 
-0.0 0.6356211600971745 0.22466606280411158 0.26221305908745784 0.05677715913734387 2:1.0 3:2.0 4:4.0 5:8.0 6:5.0 7:1.0 12:1.0 301:1.0 302:1.0 
-0.0 0.0 0.0 0.0 0.05548534632229201 2:1.0 3:2.0 4:2.0 5:10.0 6:5.0 7:4.0 12:1.0 56:1.0 76:1.0 303:1.0 
-0.0 0.0 0.0672454719553238 1.0 0.0 2:1.0 3:2.0 4:1.0 5:3.0 6:3.0 7:1.0 12:1.0 84:1.0 
-0.0 0.3959521444900893 0.6897158723537476 0.4897238365468395 0.0764199926285224 3:2.0 4:3.0 5:10.0 6:8.0 7:1.0 8:1.0 65:1.0 304:1.0 305:1.0 
-0.0 1.0 0.0 0.0 0.0 2:1.0 3:2.0 4:1.0 5:4.0 6:4.0 7:1.0 9:1.0 
-0.0 0.7248356353634274 0.21664139017289646 0.14623337647298915 0.113071358773394 2:1.0 3:2.0 4:3.0 5:4.0 6:2.0 7:1.0 12:1.0 306:1.0 
-0.0 1.0 0.0 0.0 0.0 2:1.0 3:2.0 4:2.0 5:4.0 6:3.0 7:1.0 9:1.0 
-0.0 1.0 0.0 1.0 1.0 2:1.0 3:2.0 4:1.0 5:9.0 6:9.0 7:1.0 9:1.0 
-0.0 1.0 1.0 0.0 0.0 2:1.0 3:2.0 4:1.0 5:10.0 6:7.0 7:3.0 9:1.0 43:1.0 
-0.0 1.0 1.0 1.0 1.0 2:1.0 3:2.0 4:1.0 5:12.0 6:12.0 7:1.0 9:1.0 
-0.0 1.0 0.3961293856644564 0.40885601144805 0.0 2:1.0 3:2.0 4:1.0 5:8.0 6:8.0 7:1.0 12:1.0 179:1.0 307:1.0 
-0.0 1.0 0.0 1.0 1.0 2:1.0 3:2.0 4:1.0 5:9.0 6:9.0 7:1.0 9:1.0 
-0.0 0.0 0.0 0.09837687957219891 0.19218608897074607 2:1.0 3:2.0 4:3.0 5:14.0 6:7.0 7:3.0 10:1.0 12:1.0 21:1.0 37:1.0 40:1.0 72:1.0 148:1.0 149:1.0 308:1.0 
-0.0 0.6003202844468646 0.3713685501202363 0.13320948147454328 0.15610722850813877 3:2.0 4:5.0 5:21.0 6:14.0 7:4.0 8:1.0 309:1.0 310:2.0 311:1.0 312:1.0 313:1.0 
-0.0 1.0 0.0 0.0 1.0 2:1.0 3:2.0 4:1.0 5:7.0 6:7.0 7:1.0 9:1.0 
-0.0 1.0 0.0 0.0 0.0 2:1.0 3:2.0 4:1.0 5:3.0 6:3.0 7:1.0 9:1.0 
-0.0 1.0 0.16013598131067516 1.0 0.0 2:1.0 3:2.0 4:3.0 5:5.0 6:3.0 7:1.0 9:1.0 
-0.0 1.0 0.0 0.0 0.0 2:1.0 3:2.0 4:1.0 5:4.0 6:4.0 7:1.0 9:1.0 
-0.0 0.8260420562084367 0.09353106529670076 0.08428982059925602 0.0 2:1.0 3:2.0 4:1.0 5:10.0 6:10.0 7:1.0 12:1.0 314:1.0 315:1.0 316:1.0 
-0.0 0.0 0.0 1.0 0.0 2:1.0 3:2.0 4:3.0 5:4.0 6:2.0 7:1.0 9:1.0 
-0.0 1.0 0.0 0.0 0.0 2:1.0 3:2.0 4:1.0 5:3.0 6:3.0 7:1.0 9:1.0 
-0.0 0.7556631954338298 0.8460848110245919 0.48754364313006393 0.2503469878705187 2:1.0 3:2.0 4:5.0 5:10.0 6:6.0 7:1.0 317:1.0 318:1.0 319:1.0 
-1.0 0.0 0.0 0.0 0.0 1:1.0 2:1.0 3:2.0 4:2.0 5:5.0 6:4.0 7:1.0 
-0.0 1.0 0.0 0.0 0.0 2:1.0 3:2.0 4:1.0 5:8.0 6:6.0 7:3.0 9:1.0 
-0.0 1.0 0.0 1.0 0.0 2:1.0 3:2.0 4:2.0 5:7.0 6:6.0 7:1.0 9:1.0 
-0.0 1.0 0.4836580101337013 0.9028522806767141 0.2418253281410331 2:1.0 3:2.0 4:1.0 5:9.0 6:8.0 7:2.0 88:1.0 213:1.0 237:1.0 320:1.0 
-0.0 1.0 0.0 0.0 0.0 2:1.0 3:2.0 4:1.0 5:3.0 6:3.0 7:1.0 9:1.0 
-0.0 0.901755824019012 0.5040585661144841 0.40240394066072743 0.30884327373754483 2:1.0 3:2.0 4:2.0 5:13.0 6:11.0 7:1.0 37:1.0 322:1.0 323:1.0 324:1.0 325:1.0 
-0.0 0.0 0.03686914393827356 0.0 0.9980510830729351 3:2.0 4:1.0 5:7.0 6:6.0 7:1.0 10:1.0 28:1.0 326:1.0 
-0.0 1.0 0.0 0.0 0.0 2:1.0 3:2.0 4:1.0 5:5.0 6:5.0 7:1.0 9:1.0 
-1.0 0.0 0.0 0.0 0.0 1:1.0 2:1.0 3:2.0 4:1.0 5:3.0 6:3.0 7:1.0 
-0.0 0.592391842146375 0.08769041986961042 0.06879138005986901 0.05654543606633641 2:1.0 3:2.0 4:1.0 5:5.0 6:5.0 7:1.0 12:1.0 327:1.0 328:1.0 
-0.0 0.0 0.0 1.0 0.0 2:1.0 3:2.0 4:3.0 5:4.0 6:2.0 7:1.0 9:1.0 
-0.0 0.0 0.0 0.0 0.4447252827032758 2:1.0 3:2.0 4:1.0 5:2.0 6:2.0 7:1.0 9:1.0 
-1.0 1.0 0.0 1.0 0.5952410354121842 2:1.0 3:2.0 4:1.0 5:7.0 6:6.0 7:1.0 9:1.0 10:1.0 
-0.0 1.0 0.0 0.0 0.8863963824226733 2:1.0 3:2.0 4:1.0 5:7.0 6:7.0 7:1.0 9:1.0 
-0.0 1.0 0.0 0.0 0.0 2:1.0 3:2.0 4:1.0 5:5.0 6:5.0 7:1.0 9:1.0 
-0.0 1.0 0.0 0.0 0.0 2:1.0 3:2.0 4:1.0 5:6.0 6:6.0 7:1.0 9:1.0 
-0.0 1.0 1.0 0.9778050401487605 0.8440632334363359 3:2.0 4:2.0 5:7.0 6:6.0 7:1.0 8:1.0 98:1.0 298:1.0 
-0.0 1.0 1.0 1.0 1.0 2:1.0 3:2.0 4:3.0 5:12.0 6:9.0 7:2.0 9:1.0 
-0.0 0.0 0.0 0.0 0.9982850351326698 3:2.0 4:2.0 5:1.0 6:1.0 28:1.0 68:1.0 
-0.0 0.19512551814692633 0.0 0.0 0.28591268596402086 2:1.0 3:2.0 4:1.0 5:8.0 6:6.0 7:3.0 12:1.0 52:1.0 88:1.0 331:1.0 
-0.0 1.0 1.0 0.9673006873454201 0.09925586598592902 2:1.0 3:2.0 4:2.0 5:8.0 6:6.0 7:2.0 12:1.0 15:1.0 94:1.0 332:1.0 333:1.0 
-0.0 0.30380627083838413 0.0 1.0 0.0 3:2.0 4:1.0 5:7.0 6:7.0 7:1.0 9:1.0 29:1.0 
-0.0 0.0 0.39359440597270695 0.10269484047392424 1.0 3:2.0 4:2.0 5:7.0 6:3.0 7:2.0 25:1.0 31:1.0 37:2.0 
-0.0 0.66938127942762 0.3753069164554336 0.13366843951994395 0.3459459801328555 2:1.0 3:2.0 4:1.0 5:10.0 6:10.0 7:1.0 320:1.0 335:1.0 336:1.0 337:1.0 
-0.0 0.0 0.0 1.0 0.0 2:1.0 3:2.0 4:3.0 5:4.0 6:2.0 7:1.0 9:1.0 
-0.0 0.0 0.02078052027668612 0.0 0.997871095607476 3:2.0 4:1.0 5:5.0 6:4.0 7:1.0 10:1.0 28:1.0 338:1.0 
-0.041885411271772394 0.0 0.0 0.0 0.0 2:1.0 3:2.0 4:1.0 5:2.0 6:2.0 7:1.0 9:1.0 
-0.0 1.0 0.0 0.0 0.0 2:1.0 3:2.0 4:1.0 5:5.0 6:5.0 7:1.0 9:1.0 
-1.0 0.0 0.0 0.0 0.0 1:1.0 2:1.0 3:2.0 4:2.0 5:5.0 6:4.0 7:1.0 
-0.0 1.0 1.0 1.0 1.0 2:1.0 3:2.0 4:1.0 5:17.0 6:17.0 7:1.0 9:1.0 
-0.0 0.48196894212325964 0.46516780559748433 0.14640934554819912 0.46641546807158685 2:1.0 3:2.0 4:1.0 5:7.0 6:4.0 7:4.0 12:1.0 88:1.0 340:1.0 
-0.0 1.0 1.0 1.0 1.0 2:1.0 3:2.0 4:4.0 5:15.0 6:11.0 7:2.0 9:1.0 
-0.0 1.0 0.15932562261537028 0.1291320876484652 0.11304626572522526 2:1.0 3:2.0 4:1.0 5:3.0 6:3.0 7:1.0 12:1.0 341:1.0 
-0.0 0.955744675486593 0.08781411495445933 0.04592712765684158 0.05636086840612099 2:1.0 3:2.0 4:1.0 5:9.0 6:7.0 7:3.0 12:1.0 342:1.0 343:1.0 
-0.0 1.0 1.0 0.0 1.0 2:1.0 3:2.0 4:3.0 5:11.0 6:8.0 7:2.0 9:1.0 
-0.0 1.0 0.7808169860345135 0.576128929813012 0.6114312876148581 2:1.0 3:2.0 4:1.0 5:3.0 6:2.0 7:1.0 9:1.0 43:1.0 
-1.0 0.0 0.0 0.0 0.0 1:1.0 2:1.0 3:2.0 4:2.0 5:3.0 6:2.0 7:1.0 
-0.0 1.0 0.0 0.0 0.0 2:1.0 3:2.0 4:1.0 5:3.0 6:3.0 7:1.0 9:1.0 
-0.0 0.5451073636030347 0.20639990621356166 1.0 0.08987581389704907 2:1.0 3:2.0 4:7.0 5:15.0 6:9.0 7:1.0 12:1.0 344:1.0 345:2.0 346:1.0 
-0.0 0.6672150368289798 0.15142849782710344 0.12484459837948458 0.11323685210563586 2:1.0 3:2.0 4:1.0 5:2.0 6:2.0 7:1.0 12:1.0 347:1.0 
-0.0 1.0 0.15932478684440804 0.1291387823164479 0.11321561515456528 2:1.0 3:2.0 4:1.0 5:3.0 6:3.0 7:1.0 12:1.0 348:1.0 
-0.0 1.0 0.0 0.0 0.0 2:1.0 3:2.0 4:1.0 5:4.0 6:4.0 7:1.0 9:1.0 
-0.0 0.8829712285080238 0.1203152887226261 0.27490598777134023 0.131185562896958 2:1.0 3:2.0 4:3.0 5:7.0 6:5.0 7:1.0 12:1.0 349:1.0 350:1.0 
-0.0 0.0 1.0 0.0 0.0 2:1.0 3:2.0 4:4.0 5:7.0 6:2.0 7:3.0 9:1.0 
-0.0 1.0 0.0 0.0 1.0 2:1.0 3:2.0 4:1.0 5:7.0 6:7.0 7:1.0 9:1.0 
-0.0 0.6672146274941733 0.15143664540776747 0.12484524728763091 0.11323537608170137 2:1.0 3:2.0 4:1.0 5:2.0 6:2.0 7:1.0 12:1.0 351:1.0 
-0.0 0.8398147388423934 0.15932004027506994 0.12914730508477723 0.11305021378888097 2:1.0 3:2.0 4:1.0 5:3.0 6:3.0 7:1.0 12:1.0 352:1.0 
-0.0 0.6099330817819262 0.2955451677491876 0.3183891188541447 0.11328027241100325 2:1.0 3:2.0 4:5.0 5:5.0 6:1.0 7:1.0 12:1.0 353:1.0 
-0.0 1.0 0.3610395745683024 0.20162671410628993 0.4125014118044083 2:1.0 3:2.0 4:3.0 5:16.0 6:8.0 7:4.0 12:1.0 21:2.0 37:1.0 72:1.0 88:1.0 354:1.0 355:1.0 
-0.0 1.0 0.15143600727264958 0.12484537724870923 0.11325368052567288 2:1.0 3:2.0 4:1.0 5:2.0 6:2.0 7:1.0 12:1.0 356:1.0 
-0.0 1.0 0.0 1.0 1.0 2:1.0 3:2.0 4:1.0 5:8.0 6:8.0 7:1.0 9:1.0 
-0.0 1.0 0.0 0.0 0.0 2:1.0 3:2.0 4:1.0 5:6.0 6:6.0 7:1.0 9:1.0 
-0.0 1.0 0.0 0.0 0.0 2:1.0 3:2.0 4:1.0 5:5.0 6:5.0 7:1.0 9:1.0 
-0.0 0.7591782668568042 0.3719925998050737 0.11724251181086749 0.112878666420933 2:1.0 3:2.0 4:1.0 5:2.0 6:1.0 7:1.0 12:1.0 64:1.0 99:1.0 
-0.0 1.0 0.0 0.0 0.0 2:1.0 3:2.0 4:2.0 5:10.0 6:7.0 7:3.0 9:1.0 
-0.0 1.0 0.1678958907838756 0.12152084104006643 0.11335882771719741 2:1.0 3:2.0 4:2.0 5:4.0 6:2.0 7:1.0 12:1.0 21:1.0 357:1.0 
-0.0 1.0 0.0 1.0 1.0 2:1.0 3:2.0 4:1.0 5:8.0 6:8.0 7:1.0 9:1.0 
-0.0 1.0 1.0 1.0 0.7502088644346643 2:1.0 3:2.0 4:1.0 5:3.0 6:3.0 7:1.0 358:1.0 
-0.0 0.0 0.0 1.0 0.0 2:1.0 3:2.0 4:3.0 5:4.0 6:2.0 7:1.0 9:1.0 
-0.0 0.6672188172101546 0.15143477530361057 0.12484533140841873 0.11324959964250521 2:1.0 3:2.0 4:1.0 5:2.0 6:2.0 7:1.0 12:1.0 359:1.0 
-0.0 1.0 0.8321578130880308 0.7150894479259264 0.37520774398586687 2:1.0 3:2.0 4:2.0 5:7.0 6:6.0 7:1.0 360:1.0 361:1.0 
-0.0 1.0 0.0 0.0 1.0 2:1.0 3:2.0 4:1.0 5:7.0 6:7.0 7:1.0 9:1.0 
-0.0 1.0 0.08287404724806556 0.06206340710134444 0.39113974082881003 2:1.0 3:2.0 4:3.0 5:6.0 6:4.0 7:1.0 12:1.0 186:1.0 362:1.0 
-0.0 0.0 0.0 0.0 0.59269964614443 2:1.0 3:2.0 4:3.0 5:3.0 6:1.0 7:1.0 9:1.0 
-0.0 0.8685788969935451 0.1920745051386194 0.1396742054611364 0.11305910719149852 2:1.0 3:2.0 4:2.0 5:4.0 6:3.0 7:1.0 12:1.0 363:1.0 
-0.0 1.0 0.0 0.0 0.0 2:1.0 3:2.0 4:2.0 5:5.0 6:4.0 7:1.0 9:1.0 
-0.0 1.0 0.1673849324254339 0.13327423374165964 0.11304909689209097 2:1.0 3:2.0 4:1.0 5:4.0 6:4.0 7:1.0 12:1.0 364:1.0 
-0.0 1.0 0.09580821542025351 0.07318079251262782 0.0567011552911752 2:1.0 3:2.0 4:1.0 5:7.0 6:7.0 7:1.0 12:1.0 365:1.0 366:1.0 
-0.0 1.0 0.9992800268453302 0.4588452283429372 1.0 2:1.0 3:2.0 4:1.0 5:3.0 6:2.0 7:1.0 9:1.0 43:1.0 
-0.0 0.0 0.0 0.0 0.7204483021780925 2:1.0 3:2.0 4:1.0 5:2.0 6:2.0 7:1.0 9:1.0 
-0.0 0.7075356363173797 0.6239447035675642 0.08170564404973438 0.056778362131070396 2:1.0 3:2.0 4:3.0 5:8.0 6:6.0 7:1.0 12:1.0 367:1.0 368:1.0 
-0.0 0.5343825921192041 0.19445605912800343 0.0 0.0 2:1.0 3:2.0 4:1.0 5:12.0 6:12.0 7:1.0 12:1.0 369:1.0 370:1.0 371:1.0 
-0.0 1.0 1.0 1.0 0.5996623633307281 2:1.0 3:2.0 4:3.0 5:7.0 6:5.0 7:1.0 9:1.0 
-1.0 0.0 0.0 0.0 0.08828442974006862 2:1.0 3:2.0 4:1.0 5:3.0 6:2.0 7:1.0 9:1.0 18:1.0 
-0.0 0.0 0.0 0.18970075025911348 0.0 2:1.0 3:2.0 4:3.0 5:4.0 6:2.0 7:1.0 9:1.0 
-0.0 1.0 0.9632772825329002 1.0 0.0 2:1.0 3:2.0 4:3.0 5:5.0 6:3.0 7:1.0 9:1.0 
-0.0 0.4982782743016996 0.26174555406980643 0.3125903155979027 0.18223367503031354 3:2.0 4:5.0 5:13.0 6:8.0 7:2.0 8:1.0 287:1.0 372:1.0 373:1.0 374:1.0 
-0.0 1.0 0.0 0.0 1.0 2:1.0 3:2.0 4:1.0 5:7.0 6:7.0 7:1.0 9:1.0 
-0.0 1.0 0.0 0.0 1.0 2:1.0 3:2.0 4:1.0 5:7.0 6:7.0 7:1.0 9:1.0 
-0.0 1.0 0.0 0.0 0.0 3:2.0 4:1.0 5:14.0 6:13.0 7:1.0 10:1.0 28:1.0 35:1.0 
-0.0 1.0 0.0 0.0 1.0 2:1.0 3:2.0 4:1.0 5:7.0 6:7.0 7:1.0 9:1.0 
-0.0 0.8698831225998825 0.7699452755894285 0.040005314537372196 0.05638644957168205 2:1.0 3:2.0 4:2.0 5:12.0 6:8.0 7:4.0 12:1.0 375:1.0 376:1.0 
-0.0 0.1660198921714319 0.0 0.0 0.05928917888214341 2:1.0 3:2.0 4:1.0 5:8.0 6:7.0 7:2.0 12:1.0 15:1.0 52:1.0 377:1.0 
-0.403372624913141 1.0 1.0 0.7154730438558379 0.0 2:1.0 3:2.0 4:3.0 5:10.0 6:7.0 7:1.0 10:1.0 12:1.0 246:1.0 308:1.0 
-0.0 1.0 0.0 0.0 0.0 2:1.0 3:2.0 4:1.0 5:10.0 6:8.0 7:3.0 9:1.0 
-0.0 0.0 0.0 0.0 0.06467327111998639 3:2.0 4:3.0 5:16.0 6:11.0 7:3.0 11:1.0 28:1.0 36:1.0 
-0.0 1.0 0.0 1.0 0.0 2:1.0 3:2.0 4:2.0 5:7.0 6:6.0 7:1.0 9:1.0 
-0.0 1.0 0.0 0.0 0.0 2:1.0 3:2.0 4:1.0 5:3.0 6:3.0 7:1.0 9:1.0 
-0.0 1.0 1.0 0.9730527980708992 0.6020027362973677 2:1.0 3:2.0 4:6.0 5:13.0 6:8.0 7:1.0 40:1.0 213:1.0 369:1.0 
-0.0 1.0 0.0 1.0 0.0 2:1.0 3:2.0 4:3.0 5:5.0 6:3.0 7:1.0 9:1.0 
-0.0 1.0 0.5223549128923674 0.5157593363323915 0.0 2:1.0 3:2.0 4:1.0 5:10.0 6:10.0 7:1.0 12:1.0 30:1.0 179:1.0 
-0.0 0.696023338060424 0.1840529230719096 0.13554667161594144 0.11322664775826519 2:1.0 3:2.0 4:2.0 5:3.0 6:2.0 7:1.0 12:1.0 378:1.0 
-0.0 1.0 0.0 0.016936515890716028 1.0 2:1.0 3:2.0 4:1.0 5:7.0 6:7.0 7:1.0 9:1.0 
-0.0 1.0 0.0 0.0 0.0 2:1.0 3:2.0 4:1.0 5:7.0 6:6.0 7:2.0 9:1.0 
-0.0 1.0 1.0 1.0 1.0 2:1.0 3:2.0 4:1.0 5:12.0 6:12.0 7:1.0 9:1.0 
-0.7379668390247666 0.0 0.0 0.0 0.0 1:1.0 2:1.0 3:2.0 4:2.0 5:5.0 6:4.0 7:1.0 
-0.0 1.0 1.0 1.0 0.8876288711860024 3:2.0 4:2.0 5:1.0 7:1.0 8:1.0 379:1.0 
-0.0 0.6672201445629128 0.15143622601648887 0.12484432479249219 0.11324666934691562 2:1.0 3:2.0 4:1.0 5:2.0 6:2.0 7:1.0 12:1.0 380:1.0 
-0.0 1.0 0.0 0.0 0.0 2:1.0 3:2.0 4:1.0 5:3.0 6:3.0 7:1.0 9:1.0 
-1.0 0.0 0.0 0.0 0.0 3:2.0 4:1.0 5:10.0 6:6.0 7:2.0 10:3.0 25:1.0 31:1.0 
-0.0 1.0 0.0 0.0 0.0 2:1.0 3:2.0 4:1.0 5:4.0 6:4.0 7:1.0 9:1.0 
-0.0 0.4001429111053511 0.08927476977630441 0.08210071899953039 0.1770334590152855 2:1.0 3:2.0 4:3.0 5:11.0 6:7.0 7:1.0 12:1.0 37:1.0 147:1.0 187:1.0 188:1.0 381:1.0 
-0.0 1.0 0.0 0.0 0.0 2:1.0 3:2.0 4:1.0 5:4.0 6:4.0 7:1.0 9:1.0 
-0.0 1.0 1.0 1.0 1.0 2:1.0 3:2.0 4:1.0 5:10.0 6:9.0 7:1.0 9:1.0 43:1.0 
-0.0 0.7867152514519244 0.5236451269751674 1.0 0.6376464150373775 2:1.0 3:2.0 4:4.0 5:9.0 6:3.0 7:4.0 12:1.0 382:1.0 383:1.0 
-0.0 0.0 0.0 1.0 0.0 3:2.0 4:1.0 5:6.0 6:6.0 7:1.0 9:1.0 29:1.0 
-0.0 1.0 0.0 0.0 0.0 2:1.0 3:2.0 4:1.0 5:5.0 6:5.0 7:1.0 9:1.0 
-0.0 0.564878866930465 0.16848264883092812 0.37312108757792445 0.15590886485652042 2:1.0 3:2.0 4:1.0 5:8.0 6:7.0 7:2.0 12:1.0 88:1.0 384:1.0 385:1.0 386:1.0 
-0.0 0.2160414690269488 0.1677716352130296 0.08075909709503533 0.11223017792095563 2:1.0 3:2.0 4:2.0 5:5.0 6:2.0 7:3.0 12:1.0 387:1.0 
-0.0 1.0 0.9218260565954672 0.7612944711113013 0.2503764489548569 2:1.0 3:2.0 4:3.0 5:10.0 6:8.0 7:1.0 388:1.0 389:1.0 390:1.0 
-0.0 1.0 0.0 0.0 0.0 2:1.0 3:2.0 4:1.0 5:3.0 6:3.0 7:1.0 9:1.0 
-0.0 0.0 0.0 0.0 0.103695797772808 2:1.0 3:2.0 4:3.0 5:3.0 6:1.0 7:1.0 9:1.0 
-1.0 0.0 0.0 0.0 0.0 1:1.0 2:1.0 3:2.0 4:2.0 5:3.0 6:2.0 7:1.0 
-0.0 1.0 0.0 0.0 0.0 2:1.0 3:2.0 4:1.0 5:3.0 6:3.0 7:1.0 9:1.0 
-0.0 0.35250105750150384 0.07969532438365387 0.04147738954173218 0.05616732126641254 2:1.0 3:2.0 4:1.0 5:7.0 6:5.0 7:3.0 12:1.0 391:1.0 392:1.0 
-0.0 0.0 0.02863785690432986 0.0 0.99805598635214 3:2.0 4:1.0 5:7.0 6:7.0 7:1.0 28:1.0 393:1.0 
-0.0 1.0 0.0 0.0 0.0 2:1.0 3:2.0 4:1.0 5:4.0 6:4.0 7:1.0 9:1.0 
-0.0 1.0 0.0 0.0 0.0 2:1.0 3:2.0 4:1.0 5:3.0 6:3.0 7:1.0 9:1.0 
-1.0 1.0 0.0 0.0 0.09048406125528094 2:1.0 3:2.0 4:1.0 5:6.0 6:4.0 7:1.0 9:1.0 10:1.0 21:1.0 
-0.19768437438665645 0.0 1.0 0.0 0.0 1:1.0 2:1.0 3:2.0 4:1.0 5:5.0 6:2.0 7:3.0 64:1.0 
-0.0 1.0 0.0 0.0 0.0 2:1.0 3:2.0 4:1.0 5:3.0 6:3.0 7:1.0 9:1.0 
-0.12905741603945683 1.0 1.0 1.0 1.0 2:1.0 3:2.0 4:4.0 5:21.0 6:16.0 7:2.0 9:1.0 10:1.0 
-0.0 0.1831713513587784 0.0 0.0 0.0 3:2.0 4:1.0 5:20.0 6:18.0 7:3.0 25:1.0 31:1.0 
-1.0 0.0 0.0 0.0 0.0 1:1.0 2:1.0 3:2.0 4:3.0 5:10.0 6:5.0 7:3.0 10:1.0 
-0.0 0.09683452670863932 0.0 0.0 0.0297356937925065 2:1.0 3:2.0 4:1.0 5:9.0 6:6.0 7:2.0 10:1.0 12:1.0 15:1.0 43:1.0 52:1.0 394:1.0 395:1.0 
-0.0 1.0 0.0 1.0 0.0 2:1.0 3:2.0 4:2.0 5:6.0 6:5.0 7:1.0 9:1.0 
-0.0 1.0 0.0 1.0 0.6009416650919561 3:2.0 4:3.0 5:9.0 6:7.0 7:1.0 9:1.0 29:1.0 
-0.0 1.0 1.0 1.0 1.0 2:1.0 3:2.0 4:4.0 5:9.0 6:6.0 7:1.0 9:1.0 
-1.0 0.0 0.0 0.0 0.0 2:1.0 3:2.0 4:1.0 5:3.0 6:2.0 7:2.0 8:1.0 9:1.0 
-0.0 0.28348742241572433 0.16498486057843412 0.05595684040286438 0.03791174702999821 2:1.0 3:2.0 4:3.0 5:9.0 6:7.0 7:1.0 12:1.0 238:1.0 396:1.0 397:1.0 
-0.0 0.0 0.0 0.016020558171348506 0.0 3:2.0 4:3.0 5:7.0 6:5.0 11:1.0 27:1.0 28:1.0 
-0.0 1.0 0.0 1.0 1.0 2:1.0 3:2.0 4:1.0 5:8.0 6:8.0 7:1.0 9:1.0 
-1.0 1.0 1.0 1.0 1.0 2:1.0 3:2.0 4:2.0 5:10.0 6:7.0 7:2.0 9:1.0 11:1.0 
-0.04317264438340424 0.0 0.0 0.0 0.0 2:1.0 3:2.0 4:1.0 5:2.0 6:2.0 7:1.0 9:1.0 
-0.0 0.6672209919694461 0.15143162379938507 0.12484307112561152 0.11325072367028993 2:1.0 3:2.0 4:1.0 5:2.0 6:2.0 7:1.0 12:1.0 398:1.0 
-0.0 1.0 0.16736903184937024 0.1332791034237504 0.11304762142225667 2:1.0 3:2.0 4:1.0 5:4.0 6:4.0 7:1.0 12:1.0 399:1.0 
-0.0 0.9711423084916391 0.0 0.0 0.0 3:2.0 4:1.0 5:19.0 6:18.0 7:1.0 10:1.0 28:1.0 36:1.0 
-0.0 1.0 1.0 0.0 0.0 2:1.0 3:2.0 4:3.0 5:9.0 6:6.0 7:2.0 9:1.0 
-0.0 1.0 1.0 1.0 1.0 2:1.0 3:2.0 4:5.0 5:9.0 6:5.0 7:1.0 9:1.0 
-0.0 1.0 1.0 0.0 1.0 2:1.0 3:2.0 4:1.0 5:17.0 6:14.0 7:4.0 9:1.0 
-0.0 1.0 0.0 0.0 0.0 2:1.0 3:2.0 4:1.0 5:3.0 6:3.0 7:1.0 9:1.0 
-0.0 1.0 0.3140146282644778 0.18042160251177483 0.11360464923757967 2:1.0 3:2.0 4:3.0 5:8.0 6:5.0 7:1.0 12:1.0 43:1.0 400:1.0 
-0.0 1.0 0.032841688924471035 0.0 0.0 2:1.0 3:2.0 4:4.0 5:6.0 6:3.0 7:1.0 12:1.0 121:1.0 401:1.0 
-0.0 1.0 0.0 1.0 1.0 2:1.0 3:2.0 4:1.0 5:10.0 6:10.0 7:1.0 9:1.0 
-0.0 1.0 0.0 0.0 0.0 2:1.0 3:2.0 4:1.0 5:3.0 6:3.0 7:1.0 9:1.0 
-0.2575243780912541 0.1404802516106937 0.40587372785984127 0.2865363756247621 0.1323464373416634 2:1.0 3:2.0 4:1.0 5:7.0 6:6.0 7:1.0 10:1.0 230:1.0 402:1.0 403:1.0 
-0.0 1.0 0.0 0.0 0.0 2:1.0 3:2.0 4:1.0 5:3.0 6:3.0 7:1.0 9:1.0 
-0.0 0.6755580872347557 0.0 0.0 0.0 2:1.0 3:2.0 4:3.0 5:7.0 6:5.0 7:1.0 12:1.0 158:1.0 230:1.0 
-0.0 1.0 1.0 1.0 1.0 2:1.0 3:2.0 4:3.0 5:8.0 6:6.0 7:1.0 9:1.0 
-0.0 1.0 0.0 0.0 0.0 3:2.0 4:2.0 5:18.0 6:16.0 7:1.0 10:1.0 28:1.0 35:1.0 
-0.0 1.0 1.0 1.0 0.8876402544529337 3:2.0 4:3.0 5:2.0 7:1.0 8:1.0 404:1.0 
-0.0 1.0 1.0 1.0 1.0 2:1.0 3:2.0 4:1.0 5:15.0 6:15.0 7:1.0 9:1.0 
-0.0 1.0 0.0 0.0 0.0 2:1.0 3:2.0 4:1.0 5:3.0 6:3.0 7:1.0 9:1.0 
-0.0 1.0 0.0 0.0 1.0 2:1.0 3:2.0 4:1.0 5:7.0 6:7.0 7:1.0 9:1.0 
-0.0 0.6087212925806205 0.28968898569737334 0.24394779305270425 0.12530667565076878 2:1.0 3:2.0 4:3.0 5:13.0 6:11.0 7:1.0 405:1.0 406:2.0 407:1.0 
-0.0 1.0 0.0 0.0 1.0 2:1.0 3:2.0 4:1.0 5:7.0 6:7.0 7:1.0 9:1.0 
-0.0 1.0 1.0 1.0 1.0 2:1.0 3:2.0 4:3.0 5:9.0 6:7.0 7:1.0 9:1.0 
-0.0 0.0 0.0 0.0 1.0 2:1.0 3:2.0 4:1.0 5:2.0 6:2.0 7:1.0 9:1.0 
-0.0 0.28421020824748183 1.0 0.7180669707004296 0.44381993179139534 3:2.0 4:3.0 5:3.0 6:1.0 7:1.0 8:1.0 121:1.0 408:1.0 
-0.0 0.0 0.0 1.0 0.00992040311701037 3:2.0 4:1.0 5:8.0 6:5.0 7:3.0 9:1.0 29:1.0 138:1.0 
-0.12187113558798703 0.7270158851612585 0.06504441286170369 0.030184143420887655 0.06722982316618208 2:1.0 3:2.0 4:1.0 5:6.0 6:4.0 7:1.0 12:1.0 21:1.0 23:1.0 409:1.0 410:1.0 
-0.0 1.0 0.0 0.0 0.0 2:1.0 3:2.0 4:1.0 5:5.0 6:5.0 7:1.0 9:1.0 
-0.0 0.6672230937293077 0.15143147133022664 0.1248451006455995 0.11324916671566515 2:1.0 3:2.0 4:1.0 5:2.0 6:2.0 7:1.0 12:1.0 411:1.0 
-0.0 1.0 1.0 1.0 1.0 2:1.0 3:2.0 4:2.0 5:9.0 6:8.0 7:1.0 9:1.0 
-0.0 0.5842159613454789 0.026429489399105367 0.12648601767346349 0.0 2:1.0 3:2.0 4:2.0 5:10.0 6:9.0 7:1.0 12:1.0 257:1.0 334:1.0 412:1.0 
-0.0 1.0 0.0 0.0 0.0 2:1.0 3:2.0 4:2.0 5:9.0 6:6.0 7:3.0 9:1.0 
-0.0 1.0 0.0 0.0 0.0 2:1.0 3:2.0 4:1.0 5:3.0 6:3.0 7:1.0 9:1.0 
-0.0 0.0 0.0 1.0 0.0 3:2.0 4:1.0 5:4.0 6:4.0 7:1.0 9:1.0 29:1.0 
-0.0 0.0 0.0 0.0 1.0 2:1.0 3:2.0 4:1.0 5:2.0 6:2.0 7:1.0 9:1.0 
-0.0 1.0 0.0 0.0 0.0 2:1.0 3:2.0 4:1.0 5:5.0 6:5.0 7:1.0 9:1.0 
-0.0 1.0 0.0 0.0 0.0 2:1.0 3:2.0 4:1.0 5:4.0 6:4.0 7:1.0 9:1.0 
-0.0 0.49525625562205583 0.25690535777244744 0.20011345128197136 0.24396947709705075 2:1.0 3:2.0 4:2.0 5:6.0 6:4.0 7:2.0 12:1.0 88:1.0 413:1.0 414:1.0 
-0.0 1.0 0.0 0.0 0.0 2:1.0 3:2.0 4:2.0 5:4.0 6:3.0 7:1.0 9:1.0 
-0.0 1.0 0.0 0.0 0.0 2:1.0 3:2.0 4:2.0 5:4.0 6:3.0 7:1.0 9:1.0 
-0.0 0.0 0.0 0.0 1.0 2:1.0 3:2.0 4:1.0 5:2.0 6:2.0 7:1.0 9:1.0 
-0.0 1.0 0.0 0.0 0.142548398420902 1:1.0 2:1.0 3:2.0 4:1.0 5:15.0 6:13.0 7:3.0 
-0.0 0.0 0.0 1.0 0.0 2:1.0 3:2.0 4:3.0 5:4.0 6:2.0 7:1.0 9:1.0 
-0.0 1.0 0.7189382776547214 1.0 0.11304634743807374 2:1.0 3:2.0 4:1.0 5:4.0 6:4.0 7:1.0 12:1.0 415:1.0 
-0.0 1.0 0.0 0.0 0.0 3:2.0 4:1.0 5:22.0 6:22.0 7:1.0 25:1.0 31:1.0 
-0.0 1.0 0.0 0.0 0.0 2:1.0 3:2.0 4:1.0 5:3.0 6:3.0 7:1.0 9:1.0 
-0.7507373160287362 0.0 0.0 0.0 0.26911535534431646 2:1.0 3:2.0 4:1.0 5:2.0 6:2.0 7:1.0 9:1.0 
-0.0 1.0 0.0 0.0 0.0 2:1.0 3:2.0 4:1.0 5:8.0 6:7.0 7:2.0 9:1.0 
-0.0 1.0 0.0 0.0 0.0 2:1.0 3:2.0 4:1.0 5:3.0 6:3.0 7:1.0 9:1.0 
-1.0 0.0 0.0 0.0 0.0 1:1.0 2:1.0 3:2.0 4:2.0 5:5.0 6:4.0 7:1.0 
-0.0 0.8398156521321742 0.15932741749329393 0.129146380335939 0.11324688262896752 2:1.0 3:2.0 4:1.0 5:3.0 6:3.0 7:1.0 12:1.0 416:1.0 
-0.0 1.0 1.0 1.0 1.0 2:1.0 3:2.0 4:4.0 5:8.0 6:5.0 7:1.0 9:1.0 
-0.0 1.0 0.0 0.0 0.0 2:1.0 3:2.0 4:1.0 5:3.0 6:3.0 7:1.0 9:1.0 
-0.0 1.0 1.0 1.0 1.0 2:1.0 3:2.0 4:1.0 5:15.0 6:15.0 7:1.0 9:1.0 
-0.0 1.0 0.17538033948291878 0.13756907193216036 0.11309519306474548 2:1.0 3:2.0 4:1.0 5:5.0 6:5.0 7:1.0 12:1.0 417:1.0 
-0.0 0.42180259687156196 0.1606229040835874 0.03707832137908732 0.0 2:1.0 3:2.0 4:6.0 5:14.0 6:9.0 7:1.0 12:1.0 113:1.0 418:1.0 419:1.0 420:1.0 
-0.0 0.667222728048299 0.15143642309827715 0.12484436929701774 0.11324961455232536 2:1.0 3:2.0 4:1.0 5:2.0 6:2.0 7:1.0 12:1.0 421:1.0 
-0.0 1.0 0.23268107701440752 0.1546413865256591 0.11328664128470592 2:1.0 3:2.0 4:3.0 5:6.0 6:4.0 7:1.0 12:1.0 422:1.0 
-0.0 1.0 0.6288300633917728 0.0 0.0 2:1.0 3:2.0 4:2.0 5:13.0 6:9.0 7:4.0 8:1.0 9:1.0 
-1.0 1.0 0.0 0.0 0.0 2:1.0 3:2.0 4:1.0 5:5.0 6:4.0 7:1.0 9:1.0 10:1.0 
-0.0 0.7298644284844427 0.7008226868783406 0.6095771073158669 0.543507737642614 2:1.0 3:2.0 4:1.0 5:7.0 6:6.0 7:1.0 21:1.0 282:1.0 423:1.0 
-0.0 1.0 0.0 0.0 0.0 2:1.0 3:2.0 4:1.0 5:5.0 6:5.0 7:1.0 9:1.0 
-0.0 1.0 0.2041668092583282 0.1578498425579899 0.29841952899309726 2:1.0 3:2.0 4:3.0 5:8.0 6:5.0 7:1.0 12:1.0 37:1.0 424:1.0 425:1.0 
-1.0 0.0 0.0 0.0 0.0 1:1.0 2:1.0 3:2.0 4:2.0 5:5.0 6:4.0 7:1.0 
-0.0 0.0 0.0 1.0 0.0 3:2.0 4:3.0 5:9.0 6:6.0 7:1.0 11:1.0 25:1.0 31:1.0 
-0.0 1.0 0.0 0.0 1.0 2:1.0 3:2.0 4:1.0 5:7.0 6:7.0 7:1.0 9:1.0 
-0.0 0.0 0.17597676495177644 0.3043960249865687 1.0 3:2.0 4:4.0 5:12.0 6:7.0 7:1.0 10:1.0 11:1.0 28:1.0 35:1.0 
-0.0 1.0 0.0 0.0 0.0 2:1.0 3:2.0 4:1.0 5:3.0 6:3.0 7:1.0 9:1.0 
-0.981370925358683 0.0 0.0 0.0 0.0 1:1.0 2:1.0 3:2.0 4:1.0 5:5.0 6:3.0 7:3.0 
-0.0 1.0 1.0 1.0 0.0 2:1.0 3:2.0 4:3.0 5:6.0 6:4.0 7:1.0 9:1.0 
-0.0 1.0 0.0 0.0 0.0 2:1.0 3:2.0 4:1.0 5:4.0 6:4.0 7:1.0 9:1.0 
-0.87708128652804 0.0 1.0 1.0 1.0 2:1.0 3:2.0 4:5.0 5:15.0 6:6.0 7:5.0 8:1.0 9:1.0 11:1.0 
-0.0 1.0 0.0 0.0 0.0 2:1.0 3:2.0 4:1.0 5:3.0 6:3.0 7:1.0 9:1.0 
-0.0 0.12340621264471388 0.0 0.27937553528018993 0.0 2:1.0 3:2.0 4:1.0 5:10.0 6:7.0 7:4.0 12:1.0 15:1.0 287:1.0 428:1.0 
-0.0 1.0 0.0 0.0 0.0 2:1.0 3:2.0 4:1.0 5:6.0 6:6.0 7:1.0 9:1.0 
-0.0 0.0 1.0 1.0 0.9970959258972133 2:1.0 3:2.0 4:4.0 5:5.0 6:2.0 7:1.0 9:1.0 
-0.0 1.0 0.0 0.0 0.0 2:1.0 3:2.0 4:1.0 5:11.0 6:9.0 7:3.0 9:1.0 
-0.0 1.0 0.0 0.0 1.0 2:1.0 3:2.0 4:1.0 5:7.0 6:7.0 7:1.0 9:1.0 
-1.0 0.0 0.23993415243526073 1.0 1.0 2:1.0 3:2.0 4:2.0 5:5.0 6:3.0 7:1.0 9:1.0 11:1.0 
-0.0 1.0 0.0 0.0 0.0 2:1.0 3:2.0 4:1.0 5:4.0 6:4.0 7:1.0 9:1.0 
-0.0 1.0 0.0 1.0 0.0 2:1.0 3:2.0 4:2.0 5:6.0 6:5.0 7:1.0 9:1.0 
-0.0 1.0 0.0 0.0 0.0 2:1.0 3:2.0 4:1.0 5:4.0 6:4.0 7:1.0 9:1.0 
-0.0 0.8398185924536352 0.15932750341160198 0.12914152416087346 0.11304620809832307 2:1.0 3:2.0 4:1.0 5:3.0 6:3.0 7:1.0 12:1.0 429:1.0 
-0.0 0.7884649354568889 0.34094500518384924 0.4299850952704142 0.0031282875744759694 2:1.0 3:2.0 4:1.0 5:8.0 6:8.0 7:1.0 12:1.0 167:1.0 430:1.0 431:1.0 
-0.0 0.931976045853245 1.0 1.0 0.19637130846089385 2:1.0 3:2.0 4:5.0 5:10.0 6:7.0 84:1.0 94:1.0 432:1.0 433:1.0 434:1.0 
-0.0 1.0 0.0 1.0 1.0 2:1.0 3:2.0 4:1.0 5:9.0 6:9.0 7:1.0 9:1.0 
-0.0 1.0 0.1514328454803415 0.12484501467515159 0.11325025853716245 2:1.0 3:2.0 4:1.0 5:2.0 6:2.0 7:1.0 12:1.0 132:1.0 
-0.0 1.0 0.5065896682660415 0.13756755745255972 0.11324141959017292 2:1.0 3:2.0 4:1.0 5:5.0 6:5.0 7:1.0 12:1.0 435:1.0 
-0.0 0.77226183813544 0.1593565062020216 0.10593866999385942 0.11262915762349124 2:1.0 3:2.0 4:1.0 5:5.0 6:4.0 7:2.0 12:1.0 436:1.0 
-0.119528917158537 0.9993549880087919 0.9687985503251962 0.7305520306598766 0.2504829294370393 2:1.0 3:2.0 4:2.0 5:11.0 6:9.0 7:1.0 10:1.0 314:1.0 437:1.0 438:1.0 
-0.0 1.0 0.0 1.0 1.0 2:1.0 3:2.0 4:2.0 5:8.0 6:7.0 7:1.0 9:1.0 
-0.0 0.724824408231109 0.21665764293387432 0.14621633646048357 0.11306646378416549 2:1.0 3:2.0 4:3.0 5:4.0 6:2.0 7:1.0 12:1.0 439:1.0 
-1.0 0.0 0.0 0.0 0.0 1:1.0 2:1.0 3:2.0 4:2.0 5:12.0 6:9.0 7:2.0 10:1.0 
-0.0 1.0 0.0 0.0 0.0 2:1.0 3:2.0 4:2.0 5:5.0 6:4.0 7:1.0 9:1.0 
-0.0 1.0 0.0 0.0 0.0 2:1.0 3:2.0 4:1.0 5:6.0 6:6.0 7:1.0 9:1.0 
-0.0 1.0 1.0 1.0 1.0 2:1.0 3:2.0 4:3.0 5:9.0 6:7.0 7:1.0 9:1.0 
-0.0 1.0 0.0 0.0 0.0 2:1.0 3:2.0 4:1.0 5:6.0 6:6.0 7:1.0 9:1.0 
-0.0 1.0 1.0 1.0 0.0 2:1.0 3:2.0 4:5.0 5:9.0 6:4.0 7:2.0 9:1.0 
-0.0 1.0 0.0 0.0 0.0 2:1.0 3:2.0 4:2.0 5:4.0 6:3.0 7:1.0 9:1.0 
-0.0 1.0 1.0 1.0 1.0 2:1.0 3:2.0 4:3.0 5:12.0 6:10.0 7:1.0 9:1.0 
-0.0068930829484438565 -0.22198305666015997 0.08264761253881947 0.0 0.0 2:1.0 3:2.0 4:4.0 5:23.0 6:14.0 7:6.0 8:1.0 10:1.0 12:1.0 113:1.0 308:1.0 313:1.0 440:1.0 441:1.0 442:1.0 443:1.0 
-0.0 -0.0 0.16712797982264402 0.039519869439330446 0.0 2:1.0 3:2.0 4:3.0 5:14.0 6:9.0 7:3.0 21:1.0 444:1.0 445:1.0 446:1.0 447:1.0 
-0.0 -0.0 0.16161070272584319 0.0 0.0 2:1.0 3:2.0 4:1.0 5:10.0 6:7.0 7:2.0 21:1.0 37:1.0 72:1.0 448:1.0 449:1.0 
-0.0 -0.0 1.0 0.0 0.0 2:1.0 3:2.0 4:3.0 5:6.0 6:4.0 7:1.0 450:1.0 451:1.0 
-0.0 -0.6665818969528338 0.03915963716127862 0.027924238852360696 0.0 2:1.0 3:2.0 4:2.0 5:10.0 6:6.0 7:4.0 12:1.0 452:1.0 453:1.0 
-0.0 -1.0 1.0 1.0 1.0 2:1.0 3:2.0 4:4.0 5:8.0 6:4.0 7:2.0 9:1.0 
-0.17293133931964394 -0.4876012522543787 1.0 0.25202133706825425 0.04221363618739999 2:1.0 3:2.0 4:4.0 5:6.0 6:2.0 7:1.0 10:1.0 154:1.0 454:1.0 
-0.0 -0.0 0.16002785212144383 0.714423145733489 0.0 2:1.0 3:2.0 4:2.0 5:8.0 6:6.0 7:1.0 37:1.0 107:1.0 108:1.0 297:1.0 455:1.0 
-0.5432737794241594 -1.0 1.0 1.0 1.0 2:1.0 3:2.0 4:2.0 5:10.0 6:8.0 7:1.0 9:1.0 11:1.0 
-0.0717401300816123 -0.30800666093085555 0.0 0.7596111155895351 0.0 2:1.0 3:2.0 4:1.0 5:7.0 6:5.0 7:2.0 10:1.0 183:1.0 346:1.0 428:1.0 
-0.0 -0.28758818052228496 0.0825264418250456 0.026588556351497723 1.1869778445383568E-4 2:1.0 3:2.0 4:4.0 5:12.0 6:7.0 7:3.0 12:1.0 456:1.0 457:1.0 458:1.0 
-0.0 -0.0 0.0 0.0 0.8022697642662994 2:1.0 3:2.0 4:2.0 5:8.0 6:7.0 7:1.0 109:1.0 388:1.0 459:1.0 
-0.0 -1.0 0.0 0.0 0.0 2:1.0 3:2.0 4:1.0 5:6.0 6:6.0 7:1.0 9:1.0 
-0.0 -0.0 1.0 0.3958687677601371 0.0 2:1.0 3:2.0 4:3.0 5:14.0 6:11.0 7:2.0 40:1.0 150:1.0 215:1.0 460:1.0 
-0.0 -0.0 0.0 0.0 0.08321823443840114 2:1.0 3:2.0 4:3.0 5:17.0 6:13.0 7:2.0 43:1.0 75:1.0 461:1.0 462:1.0 463:1.0 464:1.0 
-0.0 -0.22237730045427095 0.0 0.0 0.09065999980682188 2:1.0 3:2.0 4:2.0 5:13.0 6:8.0 7:2.0 12:1.0 21:2.0 37:1.0 357:1.0 465:1.0 466:1.0 467:1.0 468:1.0 
-1.0 -1.0 0.0 0.0 0.0 2:1.0 3:2.0 4:2.0 5:6.0 6:4.0 7:2.0 9:1.0 
-0.0 -0.17354108727827003 0.16275474158290437 0.03582565239450292 0.0 2:1.0 3:2.0 4:3.0 5:11.0 6:7.0 7:3.0 12:1.0 15:1.0 332:1.0 469:1.0 470:1.0 
-0.0 -0.0 0.10166790989232508 0.0 0.00499927489335379 3:2.0 4:5.0 5:10.0 6:6.0 7:1.0 8:1.0 304:1.0 448:1.0 471:1.0 472:1.0 
-0.0 -0.0 0.0 0.1284612978311037 0.0 2:1.0 3:2.0 4:1.0 5:8.0 6:7.0 7:2.0 460:1.0 473:1.0 474:1.0 
-0.0 -0.18627142687965662 0.0 0.05180557358493965 0.0 2:1.0 3:2.0 4:3.0 5:5.0 6:3.0 7:1.0 475:1.0 480:1.0 
-0.0 -0.0 0.0 0.0 0.10034579192308923 2:1.0 3:2.0 4:7.0 5:13.0 6:6.0 7:2.0 12:1.0 88:1.0 283:1.0 481:1.0 482:1.0 
-0.0 -0.24577890868878385 0.0 0.0 0.0 2:1.0 3:2.0 4:1.0 5:11.0 6:8.0 7:3.0 12:1.0 43:1.0 94:1.0 483:1.0 484:1.0 
-0.0 -0.0 0.034002500174800734 0.0 0.0 2:1.0 3:2.0 4:7.0 5:17.0 6:8.0 7:3.0 37:1.0 485:1.0 486:1.0 487:1.0 488:1.0 489:1.0 
-0.0 -1.0 1.0 0.09734742849809029 2.4736395773616496E-4 2:1.0 3:2.0 4:3.0 5:4.0 6:2.0 7:1.0 12:1.0 490:1.0 
-0.0 -1.0 0.0 0.0 0.0 2:1.0 3:2.0 4:1.0 5:5.0 6:5.0 7:1.0 9:1.0 
-0.0955831931426847 -1.0 1.0 1.0 1.0 2:1.0 3:2.0 4:1.0 5:4.0 6:3.0 7:1.0 10:1.0 308:1.0 382:1.0 
-0.0 -1.0 0.0 0.0 0.0 2:1.0 3:2.0 4:1.0 5:5.0 6:5.0 7:1.0 9:1.0 
-0.11510188665080845 -1.0 1.0 0.0 0.08432911688428195 2:1.0 3:2.0 4:1.0 5:4.0 6:3.0 7:1.0 9:1.0 64:1.0 
-0.0 -0.0 0.0 0.2784638903532797 0.0 2:1.0 3:2.0 4:2.0 5:11.0 6:8.0 7:3.0 12:1.0 139:1.0 460:1.0 491:1.0 492:1.0 
-0.0 -0.0 0.0 0.07089173321084545 0.0 2:1.0 3:2.0 4:1.0 5:6.0 6:6.0 7:1.0 485:1.0 493:1.0 
-0.0 -0.0 0.47797420166973936 0.0 0.0 2:1.0 3:2.0 4:3.0 5:13.0 6:11.0 7:1.0 12:1.0 332:1.0 495:1.0 496:1.0 497:1.0 
-0.0 -1.0 0.0 0.0 0.0 2:1.0 3:2.0 4:1.0 5:5.0 6:5.0 7:1.0 9:1.0 
-0.0 -0.4311227375370582 0.9331218550215776 0.0727928220939147 0.0 2:1.0 3:2.0 4:3.0 5:11.0 6:6.0 7:4.0 12:1.0 498:1.0 499:1.0 500:1.0 
-0.0 -0.20566439188243152 0.4345384988450263 0.19904699256124778 0.04197918034397126 2:1.0 3:2.0 4:4.0 5:6.0 6:3.0 7:1.0 503:1.0 504:1.0 
-0.0 -0.0 0.5188417791459098 0.0 0.0 2:1.0 3:2.0 4:2.0 5:11.0 6:9.0 7:2.0 12:1.0 139:1.0 215:1.0 266:1.0 505:1.0 506:1.0 
-0.0 -0.0 0.013915141585725103 0.0 0.041380875104753134 2:1.0 3:2.0 4:4.0 5:14.0 6:11.0 7:1.0 98:2.0 312:1.0 509:1.0 
-0.0 -1.0 0.0 0.0 0.0 2:1.0 3:2.0 4:1.0 5:7.0 6:7.0 7:1.0 9:1.0 
-0.0 -1.0 0.0 0.0 0.0 2:1.0 3:2.0 4:1.0 5:5.0 6:5.0 7:1.0 9:1.0 
-0.0 -1.0 0.0 0.0 0.0 2:1.0 3:2.0 4:1.0 5:5.0 6:5.0 7:1.0 9:1.0 
-0.0 -0.0 0.6106590275243426 0.44514793154644067 0.0 2:1.0 3:2.0 4:3.0 5:8.0 6:6.0 7:1.0 510:1.0 511:1.0 
-0.0 -0.0 0.14264932960664709 0.0 0.0 2:1.0 3:2.0 4:1.0 5:7.0 6:6.0 7:1.0 21:1.0 114:1.0 215:1.0 512:1.0 
-0.0 -0.0 0.5572634285568594 0.12760532017428053 0.0 3:2.0 4:3.0 5:12.0 6:10.0 7:1.0 8:1.0 513:1.0 514:1.0 515:1.0 
-0.0 -1.0 0.0 0.0 0.0 2:1.0 3:2.0 4:1.0 5:10.0 6:10.0 7:1.0 9:1.0 
-0.09510551660064616 -0.12378015015405794 0.3275892557810427 0.2665481706656994 0.0 3:2.0 4:2.0 5:3.0 6:2.0 7:1.0 8:1.0 477:1.0 
-0.0 -0.0 0.0 0.0 0.3021062967721812 2:1.0 3:2.0 4:1.0 5:16.0 6:13.0 7:2.0 21:2.0 72:1.0 215:1.0 516:1.0 517:1.0 518:1.0 519:1.0 
-0.0 -1.0 1.0 1.0 1.0 2:1.0 3:2.0 4:2.0 5:14.0 6:13.0 7:1.0 9:1.0 
-0.0 -0.0 0.0 0.0 0.08364762847981883 3:2.0 4:2.0 5:5.0 6:4.0 7:1.0 8:1.0 213:1.0 448:1.0 471:1.0 
-0.0 -0.0 0.3648478388387052 0.0 0.0 2:1.0 3:2.0 4:1.0 5:8.0 6:7.0 7:2.0 12:1.0 139:1.0 292:1.0 332:1.0 
-0.0 -0.0 0.08230425702652262 0.04328738560122998 0.009391368000817635 2:1.0 3:2.0 4:3.0 5:14.0 6:12.0 7:1.0 486:1.0 520:1.0 521:1.0 522:1.0 523:1.0 
-0.07175596174021823 -1.0 0.0 0.0 0.0 2:1.0 3:2.0 4:2.0 5:7.0 6:4.0 7:2.0 9:1.0 138:1.0 
-0.0 -0.0 0.8481607168425045 0.10469253545451011 0.36022809965113867 3:2.0 4:1.0 5:10.0 6:8.0 7:3.0 84:1.0 494:1.0 524:1.0 525:1.0 
-0.0 -0.06891593716369619 0.13119891637180814 0.12782696016126158 0.24096037285975 2:1.0 3:2.0 4:1.0 5:11.0 6:10.0 7:2.0 12:1.0 179:1.0 526:1.0 
-0.052730316683869995 -0.48810833468487913 0.0 0.11189813802706162 0.0 2:1.0 3:2.0 4:1.0 5:6.0 6:5.0 7:1.0 10:1.0 101:1.0 527:1.0 
-0.0 -1.0 1.0 0.1095855654092647 5.139738059102545E-4 2:1.0 3:2.0 4:5.0 5:6.0 6:2.0 7:1.0 12:1.0 246:1.0 
-0.0 -0.0 0.0 0.5604488751333582 0.0 2:1.0 3:2.0 4:1.0 5:8.0 6:7.0 7:2.0 12:1.0 139:1.0 237:1.0 528:1.0 
-0.0 -1.0 0.0 0.0 0.0 2:1.0 3:2.0 4:1.0 5:6.0 6:6.0 7:1.0 9:1.0 
-0.0 -1.0 0.0 0.0 0.0 2:1.0 3:2.0 4:1.0 5:8.0 6:8.0 7:1.0 9:1.0 
-0.0 -0.2352028731438882 0.23323182616677746 0.0 0.0 2:1.0 3:2.0 4:3.0 5:7.0 6:5.0 7:1.0 215:1.0 531:1.0 
-0.0 -0.0 0.3628611232262178 0.031924408210916515 0.0 2:1.0 3:2.0 4:5.0 5:8.0 6:4.0 7:1.0 475:1.0 532:1.0 533:1.0 
-0.0 -0.40761327004492204 0.006198864525308898 0.2317445270598293 0.18878522324419705 2:1.0 3:2.0 4:1.0 5:5.0 6:5.0 7:1.0 12:1.0 534:1.0 535:1.0 
-0.0 -0.3811607671134241 0.3525332383393658 0.0 0.15833511182476023 2:1.0 3:2.0 4:1.0 5:8.0 6:6.0 7:2.0 12:1.0 15:1.0 43:1.0 177:1.0 536:1.0 
-0.007758559788412362 -0.14515776488512533 0.0 0.0 2.0206278064411581E-4 3:2.0 4:2.0 5:4.0 6:3.0 7:1.0 8:1.0 450:1.0 537:1.0 
-0.0 -0.0 0.22668745195835313 0.0 0.0 2:1.0 3:2.0 4:1.0 5:8.0 6:8.0 7:1.0 261:1.0 538:1.0 539:1.0 
-0.0 -0.0 0.0412962527642021 0.0 0.0 2:1.0 3:2.0 4:3.0 5:7.0 6:5.0 7:1.0 312:1.0 388:1.0 540:1.0 
-0.0 -0.5788253666414211 0.0839715216867331 0.07156019301324991 0.13300191560581015 3:2.0 4:1.0 5:9.0 6:9.0 7:1.0 8:1.0 12:1.0 27:1.0 541:1.0 
-0.0 -1.0 0.0 0.0 0.04928887581692686 2:1.0 3:2.0 4:1.0 5:13.0 6:11.0 7:3.0 9:1.0 
-0.0 -1.0 0.0 0.0 1.0 2:1.0 3:2.0 4:1.0 5:13.0 6:13.0 7:1.0 9:1.0 
-0.0 -0.4690414373651466 0.0 1.0 0.5086550961108306 2:1.0 3:2.0 4:2.0 5:9.0 6:6.0 7:2.0 12:1.0 15:1.0 21:1.0 72:1.0 542:1.0 
-0.0 -0.3583280279849383 1.0 0.43840473587593504 0.3495524200529722 3:2.0 4:1.0 5:4.0 6:4.0 7:1.0 8:1.0 543:1.0 
-0.0 -0.0 0.09563364207961976 0.0 0.0 2:1.0 3:2.0 4:1.0 5:9.0 6:8.0 7:2.0 544:1.0 545:1.0 546:1.0 547:1.0 
-0.0 -0.3149431537122465 0.0 0.1387805612894211 0.0 2:1.0 3:2.0 4:1.0 5:9.0 6:7.0 7:3.0 12:1.0 548:1.0 549:1.0 
-0.0 -0.012366311874334837 0.010426716371383142 0.0 0.0 2:1.0 3:2.0 4:3.0 5:23.0 6:14.0 7:8.0 8:1.0 215:1.0 266:1.0 550:1.0 551:1.0 552:1.0 
-0.0 -0.04261861609838115 0.0 0.04532022885652826 0.0 2:1.0 3:2.0 4:2.0 5:5.0 6:4.0 7:1.0 475:1.0 553:1.0 
-0.0 -1.0 0.0 0.0 0.0 2:1.0 3:2.0 4:1.0 5:7.0 6:7.0 7:1.0 9:1.0 
-0.0 -0.3468932030710827 0.0 0.0 0.0 2:1.0 3:2.0 4:1.0 5:5.0 6:5.0 7:1.0 73:1.0 388:1.0 555:1.0 
-0.2191352560173316 -1.0 1.0 1.0 0.5520338237013528 2:1.0 3:2.0 4:1.0 5:5.0 6:3.0 7:2.0 12:1.0 15:1.0 43:1.0 556:1.0 
-0.0 -1.0 0.0 0.0 0.0 2:1.0 3:2.0 4:1.0 5:9.0 6:7.0 7:3.0 9:1.0 
-0.0 -1.0 0.0 0.0 0.0 2:1.0 3:2.0 4:1.0 5:6.0 6:6.0 7:1.0 9:1.0 
-0.0 -1.0 0.0 1.0 0.0 2:1.0 3:2.0 4:2.0 5:6.0 6:5.0 7:1.0 9:1.0 
-0.0 -0.0 0.9640528915618106 0.0 0.0 2:1.0 3:2.0 4:4.0 5:7.0 6:4.0 7:1.0 72:1.0 459:1.0 
-0.0 -1.0 1.0 1.0 1.0 2:1.0 3:2.0 4:3.0 5:6.0 6:4.0 7:1.0 9:1.0 
-0.0 -0.0 0.18816247855538734 0.06924553135542924 0.404079457018132 2:1.0 3:2.0 4:1.0 5:8.0 6:6.0 7:1.0 37:2.0 98:1.0 557:1.0 
-0.0 -0.0 1.0 0.0 0.0 2:1.0 3:2.0 4:3.0 5:13.0 6:7.0 7:2.0 10:1.0 21:2.0 72:1.0 88:1.0 98:1.0 308:1.0 
-0.0 -0.0 0.3371631418187118 0.18948710630370297 0.04169307244216348 2:1.0 3:2.0 4:1.0 5:8.0 6:8.0 7:1.0 561:1.0 562:1.0 
-0.0 -1.0 1.0 0.0 0.0 2:1.0 3:2.0 4:2.0 5:11.0 6:9.0 7:2.0 9:1.0 
-0.0 -0.0 0.0 0.6618139522519928 0.0 2:1.0 3:2.0 4:1.0 5:7.0 6:7.0 7:1.0 94:1.0 459:1.0 563:1.0 
-0.0 -0.5701878231370859 0.0 1.0 0.0 2:1.0 3:2.0 4:1.0 5:8.0 6:8.0 7:1.0 12:1.0 92:1.0 
-0.0 -0.25189211295470315 0.7916935438901745 0.0 0.051630446579267436 2:1.0 3:2.0 4:4.0 5:16.0 6:11.0 7:3.0 88:1.0 148:1.0 206:1.0 448:1.0 567:1.0 568:1.0 
-0.0 -1.0 0.0 0.0 0.0 2:1.0 3:2.0 4:1.0 5:5.0 6:5.0 7:1.0 9:1.0 
-0.005078409303672163 -0.6354094217741754 0.9401881287468647 0.0 0.0 2:1.0 3:2.0 4:5.0 5:9.0 6:4.0 7:1.0 10:1.0 12:1.0 115:1.0 154:1.0 572:1.0 
-0.0 -1.0 0.0 1.0 0.0 2:1.0 3:2.0 4:2.0 5:7.0 6:6.0 7:1.0 9:1.0 
-0.0 -0.00131104579979655 0.0 0.0 0.0 2:1.0 3:2.0 4:5.0 5:11.0 6:6.0 7:2.0 98:1.0 574:1.0 575:1.0 576:1.0 
-0.0 -0.0 0.0 1.0 1.0 2:1.0 3:2.0 4:1.0 5:16.0 6:16.0 7:1.0 9:1.0 
-0.0 -1.0 1.0 1.0 1.0 2:1.0 3:2.0 4:6.0 5:12.0 6:6.0 7:2.0 9:1.0 
-0.0 -0.0 0.9617637448294662 0.32035915035640833 0.0 3:2.0 4:5.0 5:9.0 6:5.0 7:1.0 8:1.0 72:1.0 167:1.0 577:1.0 
-0.0 -1.0 0.0 0.08493823562007459 0.46558419391205974 2:1.0 3:2.0 4:1.0 5:6.0 6:5.0 7:2.0 12:1.0 88:1.0 117:1.0 
-0.0 -0.0 0.707123487083216 0.10370941860833852 0.053570521167654116 2:1.0 3:2.0 4:3.0 5:9.0 6:3.0 7:2.0 21:1.0 37:1.0 114:1.0 147:1.0 578:1.0 
-0.0 -0.0 1.0 0.4251295259793922 0.0 2:1.0 3:2.0 4:3.0 5:10.0 6:6.0 7:3.0 12:1.0 332:1.0 549:1.0 
-0.004976099246700969 -0.7270895443109574 0.6367968945339306 0.3094761983356785 0.11665112246463122 3:2.0 4:4.0 5:9.0 6:4.0 7:3.0 8:1.0 92:1.0 424:1.0 579:1.0 
-0.0 -0.011141796578102041 0.0 0.0 0.31313661029653106 2:1.0 3:2.0 4:1.0 5:9.0 6:7.0 7:2.0 12:1.0 37:1.0 88:1.0 580:1.0 581:1.0 
-1.0 -1.0 0.09649578430262985 0.0 0.0 2:1.0 3:2.0 4:1.0 5:11.0 6:1.0 7:2.0 10:8.0 12:1.0 21:1.0 72:1.0 584:1.0 585:1.0 
-0.0 -0.012584563087844737 0.14804026823597055 0.08263254664852149 0.0 2:1.0 3:2.0 4:6.0 5:12.0 6:6.0 7:1.0 10:1.0 241:1.0 586:1.0 587:1.0 588:1.0 
-0.0 -0.0 0.0 0.48665686196897523 0.0 2:1.0 3:2.0 4:1.0 5:9.0 6:8.0 7:2.0 12:1.0 139:1.0 589:1.0 590:1.0 
-0.0 -0.0923611087911217 0.16049977437945645 0.0350003472211291 0.02799394654508842 2:1.0 3:2.0 4:5.0 5:10.0 6:5.0 7:2.0 591:1.0 592:1.0 593:1.0 
-0.0 -0.05370466561750623 0.0 0.11368917314672378 0.0 2:1.0 3:2.0 4:6.0 5:13.0 6:8.0 7:1.0 75:1.0 594:1.0 595:1.0 
-0.0 -1.0 0.7264982214347068 0.024853477849324082 0.0 2:1.0 3:2.0 4:1.0 5:11.0 6:8.0 7:4.0 12:1.0 144:1.0 599:1.0 
-0.0 -0.0 1.0 0.6115419655651336 0.0 2:1.0 3:2.0 4:1.0 5:7.0 6:7.0 7:1.0 283:1.0 433:1.0 
-1.0 -1.0 0.0 0.9955985283858457 0.9769237782382227 2:1.0 3:2.0 4:1.0 5:3.0 6:3.0 7:1.0 9:1.0 
-0.0 -0.0 0.1294822771884203 0.0 0.0 2:1.0 3:2.0 4:3.0 5:9.0 6:6.0 7:1.0 37:1.0 388:1.0 600:1.0 601:1.0 602:1.0 
-0.0 -0.0 0.27031348352238493 0.05489831629124293 0.0 3:2.0 4:1.0 5:4.0 6:4.0 7:1.0 494:1.0 603:1.0 604:1.0 
-0.0 -1.0 1.0 1.0 0.0 2:1.0 3:2.0 4:3.0 5:9.0 6:6.0 7:2.0 9:1.0 
-0.0 -0.0 0.4894497792587709 0.6415258976441338 0.0 2:1.0 3:2.0 4:5.0 5:18.0 6:10.0 7:2.0 11:1.0 21:1.0 37:1.0 114:1.0 229:1.0 388:1.0 605:1.0 606:1.0 
-0.0 -1.0 0.0 0.0 0.0 2:1.0 3:2.0 4:1.0 5:11.0 6:11.0 7:1.0 9:1.0 
-0.0 -0.13155270810140085 0.5878506533144986 0.14800413199291115 0.1165121074105419 3:2.0 4:2.0 5:9.0 6:8.0 7:1.0 8:1.0 317:1.0 607:1.0 608:1.0 
-0.0 -0.23799427873385615 0.0 0.0 0.0 2:1.0 3:2.0 4:3.0 5:7.0 6:5.0 7:1.0 12:1.0 507:1.0 508:1.0 609:1.0 
-0.0 -0.0 1.0 0.9217856477163748 0.0 2:1.0 3:2.0 4:3.0 5:10.0 6:8.0 7:1.0 47:1.0 332:1.0 610:1.0 
-0.0 -0.0 1.0 0.0 0.0 2:1.0 3:2.0 4:5.0 5:8.0 6:4.0 7:1.0 72:1.0 459:1.0 
-0.0 -1.0 0.0 1.0 1.0 2:1.0 3:2.0 4:2.0 5:5.0 6:4.0 7:1.0 9:1.0 
-0.0 -1.0 0.0 0.0 0.0 2:1.0 3:2.0 4:1.0 5:5.0 6:5.0 7:1.0 9:1.0 
-0.0 -0.9876744999039095 0.0 0.0847519845377524 0.0 2:1.0 3:2.0 4:1.0 5:4.0 6:4.0 7:1.0 12:1.0 613:1.0 
-0.0 -1.0 1.0 1.0 0.0 2:1.0 3:2.0 4:3.0 5:10.0 6:7.0 7:2.0 9:1.0 
-0.0 -1.0 0.0 0.0 0.0 2:1.0 3:2.0 4:1.0 5:9.0 6:9.0 7:1.0 9:1.0 
-0.0 -0.0 0.11990324671272898 0.0 0.0 2:1.0 3:2.0 4:3.0 5:5.0 6:3.0 7:1.0 544:1.0 614:1.0 
-0.0 -0.2570907682421281 0.5434290273251857 0.30062171015985656 0.8941660624499841 2:1.0 3:2.0 4:3.0 5:11.0 6:7.0 7:3.0 12:1.0 549:1.0 615:1.0 
-0.0 -0.9876671720770012 0.0 0.08472008710117904 0.0 2:1.0 3:2.0 4:1.0 5:4.0 6:4.0 7:1.0 12:1.0 616:1.0 
-0.0 -0.0 0.29826246188283173 0.06765876429784198 0.0 3:2.0 4:1.0 5:6.0 6:5.0 7:1.0 64:1.0 494:1.0 513:1.0 617:1.0 
-0.0 -0.0 0.0 1.0 0.0 2:1.0 3:2.0 4:1.0 5:8.0 6:8.0 7:1.0 167:1.0 198:1.0 618:1.0 
-0.0 -1.0 0.0 0.0 0.0 2:1.0 3:2.0 4:1.0 5:10.0 6:10.0 7:1.0 9:1.0 
-0.0 -1.0 0.616834296723002 0.0 0.0 2:1.0 3:2.0 4:2.0 5:10.0 6:7.0 7:3.0 9:1.0 
-0.0 -0.22221488289764166 0.7812841200068392 0.4908816826609603 0.0 2:1.0 3:2.0 4:1.0 5:9.0 6:9.0 7:1.0 84:1.0 179:1.0 611:1.0 
-0.0 -0.7601171366537878 0.08290571113984903 0.12789254465945962 0.0 2:1.0 3:2.0 4:1.0 5:7.0 6:6.0 7:2.0 12:1.0 179:1.0 619:1.0 
-0.0 -0.0 0.3071369631868518 0.0 0.0 2:1.0 3:2.0 4:1.0 5:11.0 6:11.0 7:1.0 12:1.0 215:1.0 332:1.0 620:1.0 
-0.0 -0.1717499980661883 0.0 0.0 0.16005124684596758 2:1.0 3:2.0 4:4.0 5:9.0 6:5.0 7:2.0 12:1.0 621:1.0 622:1.0 623:1.0 
-0.0 -0.0 0.6830498390638104 0.0652505467462939 0.29831640190396413 2:1.0 3:2.0 4:4.0 5:11.0 6:7.0 7:1.0 37:1.0 624:1.0 625:1.0 626:1.0 627:1.0 628:1.0 
-0.0 -0.1338351585958864 0.6748102947566553 0.19590885184876466 0.34456097594597973 2:1.0 3:2.0 4:3.0 5:6.0 6:4.0 7:1.0 629:1.0 630:1.0 
-0.0 -1.0 0.0 0.0 1.0 2:1.0 3:2.0 4:1.0 5:12.0 6:12.0 7:1.0 9:1.0 
-0.0 -0.987668880209613 0.0 0.0847304934229301 0.0 2:1.0 3:2.0 4:1.0 5:4.0 6:4.0 7:1.0 12:1.0 631:1.0 
-0.0 -1.0 0.0 0.0 0.0 2:1.0 3:2.0 4:1.0 5:5.0 6:5.0 7:1.0 9:1.0 
-0.0 -0.1038566403587113 0.7590283096697387 0.16486364453570124 0.0 2:1.0 3:2.0 4:1.0 5:17.0 6:14.0 7:4.0 188:1.0 209:1.0 432:1.0 633:1.0 
-0.0 -0.0 0.5673920331828411 0.3011246585558105 0.0 2:1.0 3:2.0 4:2.0 5:7.0 6:5.0 7:1.0 21:1.0 114:1.0 580:1.0 
-1.0 -1.0 0.0 1.0 1.0 2:1.0 3:2.0 4:1.0 5:11.0 6:10.0 7:1.0 9:1.0 10:1.0 
-0.0 -0.0 0.30956858265181614 0.2057535241183823 0.006558178993937742 2:1.0 3:2.0 4:5.0 5:17.0 6:13.0 7:1.0 634:1.0 635:1.0 636:1.0 637:1.0 638:1.0 
-0.0 -1.0 0.0 0.0 0.0 2:1.0 3:2.0 4:1.0 5:6.0 6:6.0 7:1.0 9:1.0 
-0.0 -1.0 0.0 0.0 0.0 2:1.0 3:2.0 4:1.0 5:8.0 6:8.0 7:1.0 9:1.0 
-0.0 -1.0 0.7961353879092294 0.0 1.0 2:1.0 3:2.0 4:3.0 5:6.0 6:4.0 7:1.0 133:1.0 
-0.0 -0.0 0.2839147981324193 0.1431017001301461 0.0830932184340909 2:1.0 3:2.0 4:3.0 5:8.0 6:5.0 7:1.0 23:1.0 98:1.0 640:1.0 
-0.0 -0.0 0.49073444047873804 0.0 0.0 2:1.0 3:2.0 4:3.0 5:9.0 6:7.0 7:1.0 388:1.0 641:1.0 642:1.0 
-0.0 -1.0 0.0 0.0 0.0 2:1.0 3:2.0 4:1.0 5:5.0 6:5.0 7:1.0 9:1.0 
-0.0 -0.10875641894401271 0.0 0.0 0.08438492341117634 2:1.0 3:2.0 4:2.0 5:14.0 6:12.0 7:1.0 12:1.0 21:1.0 313:2.0 314:1.0 645:1.0 
-0.0 -1.0 0.0 0.0 0.0 2:1.0 3:2.0 4:1.0 5:7.0 6:7.0 7:1.0 9:1.0 
-0.0 -1.0 0.19467204220023548 0.0 0.23277464071133164 2:1.0 3:2.0 4:1.0 5:9.0 6:8.0 7:2.0 12:1.0 86:1.0 88:1.0 198:1.0 
-0.1287196875919811 -0.3304602878028545 0.6089481079356283 0.3338435946964934 0.0 3:2.0 4:6.0 5:14.0 6:6.0 7:4.0 8:2.0 229:1.0 646:1.0 647:1.0 
-0.0 -1.0 0.0 0.0 0.0 2:1.0 3:2.0 4:1.0 5:6.0 6:6.0 7:1.0 9:1.0 
-0.0 -1.0 0.0 0.0 0.0 2:1.0 3:2.0 4:3.0 5:6.0 6:4.0 7:1.0 12:1.0 158:1.0 
-0.0 -0.0 0.09864112948080121 0.04412799133662484 0.11078373731788568 2:1.0 3:2.0 4:4.0 5:6.0 6:3.0 7:1.0 558:1.0 648:1.0 
-0.0 -0.10523656158016416 0.22797373025005077 0.0 0.0 2:1.0 3:2.0 4:4.0 5:11.0 6:8.0 7:1.0 12:1.0 649:1.0 650:1.0 
-0.0 -0.0 0.6047069667821169 0.0 0.8127153433643587 2:1.0 3:2.0 4:2.0 5:9.0 6:5.0 7:2.0 21:2.0 109:1.0 332:1.0 651:1.0 652:1.0 
-0.0 -1.0 0.0 0.0 0.0 2:1.0 3:2.0 4:1.0 5:5.0 6:5.0 7:1.0 9:1.0 
-0.0 -0.7394196348555765 0.5097116093069154 0.005922748524186426 0.0 2:1.0 3:2.0 4:2.0 5:8.0 6:3.0 7:4.0 12:1.0 43:1.0 639:1.0 653:1.0 
-0.0 -0.0 1.0 0.0 0.0 3:2.0 4:1.0 5:8.0 6:8.0 7:1.0 215:1.0 494:1.0 
-0.0 -0.0 0.1694255073869925 0.028186573684582546 0.0 2:1.0 3:2.0 4:4.0 5:16.0 6:13.0 7:1.0 91:1.0 440:1.0 655:1.0 656:1.0 657:1.0 658:1.0 
-0.0 -0.0 0.0415406656795687 0.0 0.036026066551794765 2:1.0 3:2.0 4:3.0 5:11.0 6:9.0 7:1.0 162:1.0 215:1.0 232:1.0 659:1.0 
-0.0 -0.0 0.5325053840068089 0.2261133177752689 0.0 2:1.0 3:2.0 4:8.0 5:13.0 6:6.0 7:1.0 167:1.0 241:1.0 660:1.0 
-0.0 -1.0 0.0 0.09735076192049108 2.5047247473887843E-4 2:1.0 3:2.0 4:3.0 5:4.0 6:2.0 7:1.0 12:1.0 614:1.0 
-0.0 -0.0 0.21118188765306378 0.0949591347350099 0.020892105481135605 2:1.0 3:2.0 4:3.0 5:10.0 6:7.0 7:2.0 661:1.0 662:1.0 663:1.0 664:1.0 
-0.0 -1.0 1.0 1.0 0.6179060255083766 2:1.0 3:2.0 4:4.0 5:8.0 6:5.0 7:1.0 9:1.0 
-0.0 -0.04205402330071247 0.02422938938064617 0.0 0.0 2:1.0 3:2.0 4:3.0 5:6.0 6:4.0 7:1.0 261:1.0 665:1.0 666:1.0 
-0.0 -0.0 0.0 0.0 0.0815295272296559 2:1.0 3:2.0 4:6.0 5:11.0 6:6.0 7:1.0 209:1.0 529:1.0 667:1.0 668:1.0 
-0.0 -0.0 0.0 0.2116309118780038 0.025141558847972516 2:1.0 3:2.0 4:3.0 5:12.0 6:7.0 7:2.0 21:1.0 37:1.0 114:1.0 495:1.0 669:1.0 670:1.0 
-0.0 -0.0 0.0 0.18203527547433226 0.0 2:1.0 3:2.0 4:2.0 5:11.0 6:10.0 7:1.0 501:1.0 671:1.0 672:1.0 673:1.0 
-0.11433170663813176 -1.0 0.09618480026872758 1.0 1.0 3:2.0 4:1.0 5:3.0 6:3.0 7:1.0 8:1.0 12:1.0 674:1.0 
-0.0 -0.05822130269564004 0.08445199021910313 0.01207139257747662 0.027753582815004528 2:1.0 3:2.0 4:5.0 5:11.0 6:6.0 7:2.0 98:1.0 574:1.0 575:1.0 576:1.0 
-0.0 -0.0 0.65632054482463 0.0 0.0 2:1.0 3:2.0 4:2.0 5:14.0 6:12.0 7:1.0 12:1.0 176:1.0 201:1.0 675:1.0 676:1.0 
-0.0 -1.0 1.0 1.0 1.0 2:1.0 3:2.0 4:4.0 5:6.0 6:3.0 7:1.0 9:1.0 
-0.0 -0.9876507095406507 0.0 0.084770857094705 0.0 2:1.0 3:2.0 4:1.0 5:4.0 6:4.0 7:1.0 12:1.0 678:1.0 
-0.08313151436390266 -0.2655017275752374 0.6827304349902412 0.279339257593764 0.482340879568603 3:2.0 4:3.0 5:8.0 6:5.0 7:1.0 8:1.0 11:1.0 241:1.0 679:1.0 
-0.0 -0.06082194922094182 0.6211401866976964 0.2395157096747903 0.0 3:2.0 4:5.0 5:7.0 6:3.0 7:1.0 304:1.0 494:1.0 680:1.0 
-0.0 -1.0 0.0 0.0 0.0 2:1.0 3:2.0 4:1.0 5:5.0 6:5.0 7:1.0 9:1.0 
-0.0 -0.0 0.2600240639980969 0.0 0.0 2:1.0 3:2.0 4:3.0 5:14.0 6:10.0 7:3.0 71:1.0 198:1.0 681:1.0 682:1.0 683:1.0 
-0.26746080523096627 -0.41784005703727073 0.0 0.0 0.0 3:2.0 5:6.0 6:6.0 7:1.0 8:1.0 10:1.0 12:1.0 388:1.0 684:1.0 
-0.0 -1.0 0.0 0.0 0.0 2:1.0 3:2.0 4:1.0 5:8.0 6:8.0 7:1.0 9:1.0 
-0.0 -0.0 0.35625045336210653 0.0 0.0 2:1.0 3:2.0 4:3.0 5:11.0 6:9.0 7:1.0 12:1.0 98:1.0 193:1.0 332:1.0 
-0.0 -1.0 1.0 1.0 1.0 2:1.0 3:2.0 4:2.0 5:13.0 6:12.0 7:1.0 9:1.0 
-0.0 -0.9301964183100822 0.10131351656178471 0.09703023665900319 3.1964359436264476E-4 2:1.0 3:2.0 4:3.0 5:6.0 6:4.0 7:1.0 12:1.0 685:1.0 
-0.0 -0.10877804356964996 0.18096372387469753 0.004734952665515664 0.0 2:1.0 3:2.0 4:3.0 5:10.0 6:7.0 7:1.0 37:1.0 309:1.0 314:1.0 355:1.0 686:1.0 
-0.0 -1.0 0.0 0.0 0.0 2:1.0 3:2.0 4:1.0 5:6.0 6:6.0 7:1.0 9:1.0 
-0.0 -1.0 0.0 0.0 0.0 2:1.0 3:2.0 4:1.0 5:8.0 6:8.0 7:1.0 9:1.0 
-0.0 -0.0 0.8879672018174457 0.0 0.0 3:2.0 4:3.0 5:18.0 6:16.0 7:1.0 8:1.0 72:1.0 256:1.0 451:1.0 471:1.0 687:1.0 688:1.0 
-0.0 -1.0 0.927198516476174 0.22468057892500984 0.08312819863102631 2:1.0 3:2.0 4:3.0 5:6.0 6:4.0 7:1.0 98:1.0 158:1.0 
-0.0 -0.0 0.0 0.28416198981160434 0.0 2:1.0 3:2.0 4:1.0 5:10.0 6:8.0 7:2.0 12:1.0 43:1.0 139:1.0 167:1.0 689:1.0 
-0.0 -0.0 0.3597276412168578 0.0 0.0 2:1.0 3:2.0 4:4.0 5:18.0 6:13.0 7:2.0 12:1.0 37:1.0 332:1.0 690:1.0 691:1.0 692:1.0 693:1.0 694:1.0 
-0.0 -0.0 0.3178576887540748 0.0 0.0 2:1.0 3:2.0 4:4.0 5:13.0 6:8.0 7:3.0 88:1.0 179:1.0 215:1.0 595:1.0 695:1.0 
-0.5386165425320854 -1.0 1.0 1.0 1.0 3:2.0 4:1.0 5:12.0 6:10.0 7:3.0 25:1.0 26:1.0 
-0.0 -0.0 0.1974442579031769 0.0 0.0 2:1.0 3:2.0 4:3.0 5:7.0 6:5.0 7:1.0 388:1.0 451:1.0 698:1.0 
-0.0 -0.05852453766423799 1.0 0.4653962525097168 0.0 2:1.0 3:2.0 4:6.0 5:9.0 6:4.0 7:1.0 179:1.0 699:1.0 
-0.0 -0.4075746814772978 0.0 0.042331591798653735 0.0 2:1.0 3:2.0 4:1.0 5:5.0 6:5.0 7:1.0 12:1.0 700:1.0 701:1.0 
-0.0 -0.0 0.0 0.0 0.09887630442606003 2:1.0 3:2.0 4:1.0 5:9.0 6:8.0 7:1.0 37:1.0 388:1.0 702:1.0 703:1.0 704:1.0 
-0.0 -0.11638788538527595 1.0 0.1698788230621245 0.1747787917470418 3:2.0 4:3.0 5:5.0 6:3.0 7:1.0 8:1.0 450:1.0 705:1.0 
-0.0 -0.0 0.0 0.0 0.3112077106547083 3:2.0 4:3.0 5:16.0 6:12.0 7:3.0 8:1.0 88:1.0 448:1.0 498:1.0 499:1.0 558:2.0 
-0.0 -0.23501412270042824 0.0 0.042122660341020905 0.0 2:1.0 3:2.0 4:1.0 5:7.0 6:7.0 7:1.0 12:1.0 706:1.0 707:1.0 
-0.0 -0.987691854088766 0.0 0.08475142357271193 0.0 2:1.0 3:2.0 4:1.0 5:4.0 6:4.0 7:1.0 12:1.0 708:1.0 
-0.007269284295714369 -0.009947209604766449 0.0 0.2749293842913293 0.0 2:1.0 3:2.0 4:1.0 5:10.0 6:7.0 7:4.0 12:1.0 15:1.0 332:1.0 549:1.0 709:1.0 
-0.0 -0.0 1.0 0.0 0.0 3:2.0 4:1.0 5:6.0 6:6.0 7:1.0 8:1.0 332:1.0 598:1.0 
-0.0 -0.2635312270641616 0.0 0.0 0.0 2:1.0 3:2.0 4:1.0 5:5.0 6:3.0 7:3.0 501:1.0 710:1.0 
-0.0 -0.0 0.16104380409078317 0.0 0.0 2:1.0 3:2.0 4:2.0 5:7.0 6:6.0 7:1.0 582:1.0 711:1.0 
-0.0 -1.0 0.0 0.0 0.0 2:1.0 3:2.0 4:1.0 5:7.0 6:7.0 7:1.0 9:1.0 
-0.0 -1.0 1.0 1.0 0.48762018769278614 2:1.0 3:2.0 4:1.0 5:3.0 6:3.0 7:1.0 12:1.0 40:1.0 
-0.0 -0.0 0.006668789331041464 0.0 0.0435684851556365 2:1.0 3:2.0 4:1.0 5:17.0 6:13.0 7:2.0 37:3.0 141:1.0 348:3.0 712:1.0 713:1.0 714:1.0 
-0.0 -0.34970204880552297 0.41848576475812055 0.19454994046721055 0.09325802400497836 2:1.0 3:2.0 4:3.0 5:11.0 6:8.0 7:2.0 84:1.0 554:1.0 715:1.0 
-0.0 -0.0 1.0 0.0 0.0 2:1.0 3:2.0 4:3.0 5:9.0 6:6.0 7:2.0 12:1.0 332:1.0 558:1.0 716:1.0 
-0.021965485455002008 -0.0 1.0 0.3222421021980568 0.0 2:1.0 3:2.0 4:1.0 5:9.0 6:8.0 7:1.0 10:1.0 40:1.0 717:1.0 718:1.0 
-0.0 -1.0 1.0 1.0 0.0 2:1.0 3:2.0 4:3.0 5:11.0 6:9.0 7:1.0 9:1.0 
-0.0 -0.0 0.30100430466568895 0.18893785579431602 0.0 2:1.0 3:2.0 4:3.0 5:13.0 6:11.0 7:1.0 151:1.0 495:1.0 576:1.0 719:1.0 
-0.0 -1.0 0.0 0.0 0.0 2:1.0 3:2.0 4:1.0 5:6.0 6:6.0 7:1.0 9:1.0 
-0.0 -0.14354286722818174 0.3437846589416559 0.17800201269389948 0.0416857484355514 2:1.0 3:2.0 4:1.0 5:9.0 6:7.0 7:3.0 720:1.0 721:1.0 
-0.0 -1.0 1.0 1.0 0.7921661953008543 2:1.0 3:2.0 4:4.0 5:11.0 6:8.0 7:1.0 9:1.0 
-1.0 -1.0 0.0 1.0 1.0 2:1.0 3:2.0 4:1.0 5:4.0 6:4.0 7:1.0 9:1.0 
-0.0 -1.0 1.0 0.0 1.0 2:1.0 3:2.0 4:2.0 5:13.0 6:11.0 7:2.0 9:1.0 
-0.0 -1.0 1.0 1.0 1.0 2:1.0 3:2.0 4:4.0 5:6.0 6:3.0 7:1.0 9:1.0 
-0.0 -0.0 0.0 0.0 1.0 2:1.0 3:2.0 4:1.0 5:15.0 6:14.0 7:2.0 133:1.0 
-0.0 -0.0 0.17332533273781162 0.0 0.0 2:1.0 3:2.0 4:3.0 5:9.0 6:6.0 7:2.0 12:1.0 332:1.0 722:1.0 723:1.0 
-0.0 -1.0 0.0 0.0 0.0 2:1.0 3:2.0 4:1.0 5:6.0 6:6.0 7:1.0 9:1.0 
-0.0 -0.010840099873209354 0.0 0.0 0.7969741781136164 2:1.0 3:2.0 4:3.0 5:9.0 6:4.0 7:4.0 461:1.0 499:1.0 724:1.0 
-0.0 -0.0 0.9024689761669605 0.12634201963926592 0.027799157912009573 2:1.0 3:2.0 4:1.0 5:7.0 6:7.0 7:1.0 727:1.0 728:1.0 729:1.0 
-1.0 -1.0 1.0 1.0 1.0 2:1.0 3:2.0 4:4.0 5:13.0 6:9.0 7:1.0 9:1.0 10:1.0 
-0.0 -0.039149658447655694 0.0 7.639892495757997E-5 0.21611989567592602 2:1.0 3:2.0 4:3.0 5:10.0 6:8.0 7:1.0 12:1.0 730:1.0 731:1.0 732:1.0 
-0.0 -0.41245304508180286 0.0 0.0 0.0 2:1.0 3:2.0 4:1.0 5:9.0 6:8.0 7:1.0 12:1.0 59:1.0 138:1.0 734:1.0 
-0.0 -0.0 0.0 0.1863113451796257 0.0 2:1.0 3:2.0 4:1.0 5:8.0 6:7.0 7:2.0 12:1.0 139:1.0 735:1.0 
-0.0 -1.0 0.0 0.0 0.0 2:1.0 3:2.0 4:1.0 5:7.0 6:7.0 7:1.0 9:1.0 
-0.0 -1.0 0.17078897393019585 1.0 0.055179839065787425 2:1.0 3:2.0 4:2.0 5:8.0 6:6.0 7:1.0 9:1.0 738:1.0 
-0.0 -1.0 0.0 0.0 0.0 2:1.0 3:2.0 4:1.0 5:9.0 6:9.0 7:1.0 9:1.0 
-0.0 -0.8776207243114941 0.5761104554132677 0.05138565018471818 0.5001818059404399 2:1.0 3:2.0 4:4.0 5:10.0 6:7.0 7:1.0 12:1.0 71:1.0 275:1.0 
-0.0 -0.0 0.30502266565559805 0.06801260801640213 0.0 3:2.0 4:1.0 5:8.0 6:8.0 7:1.0 40:1.0 494:1.0 529:1.0 530:1.0 
-0.0 -0.06366635593032144 0.4976242640753124 0.18063482042970155 0.04169189599260779 2:1.0 3:2.0 4:1.0 5:7.0 6:7.0 7:1.0 255:1.0 742:1.0 
-0.0 -1.0 0.0 0.0 0.0 2:1.0 3:2.0 4:1.0 5:10.0 6:10.0 7:1.0 9:1.0 
-0.0 -0.13387394818872836 0.7161317958745671 0.15797093188750047 0.03342441187115168 2:1.0 3:2.0 4:3.0 5:6.0 6:4.0 7:1.0 746:1.0 747:1.0 
-0.0 -0.4747903672291655 0.0 0.0 0.0 2:1.0 3:2.0 4:1.0 5:9.0 6:7.0 7:3.0 12:1.0 748:1.0 749:1.0 
-0.0 -0.3213358665454646 0.3840106786175914 0.0 0.0 2:1.0 3:2.0 4:1.0 5:6.0 6:6.0 7:1.0 12:1.0 750:1.0 751:1.0 
-0.0 -0.9302040981772075 0.10131234109051379 0.0970376183032242 3.6613184423021336E-4 2:1.0 3:2.0 4:3.0 5:6.0 6:4.0 7:1.0 12:1.0 754:1.0 
-0.08140459901101249 -0.22553418788387142 0.9217468466378798 0.11076398592465102 0.04230388444807427 2:1.0 3:2.0 4:4.0 5:9.0 6:3.0 7:2.0 10:1.0 43:1.0 755:1.0 756:1.0 
-0.0 -0.03570689890242011 0.1313279626370367 0.4092871528701124 0.538685459588618 2:1.0 3:2.0 4:5.0 5:15.0 6:9.0 7:1.0 11:1.0 12:1.0 37:1.0 186:1.0 634:1.0 757:1.0 758:1.0 
-0.0 -0.0 0.2233222207869095 0.0 0.0 2:1.0 3:2.0 4:5.0 5:29.0 6:21.0 7:5.0 8:1.0 113:1.0 171:1.0 759:1.0 760:1.0 761:1.0 762:1.0 763:1.0 764:1.0 
-0.0 -1.0 0.0 0.0 0.0 2:1.0 3:2.0 4:1.0 5:5.0 6:5.0 7:1.0 9:1.0 
-0.0 -1.0 1.0 1.0 1.0 2:1.0 3:2.0 4:2.0 5:17.0 6:15.0 7:1.0 9:1.0 10:1.0 
-0.0 -1.0 0.0 0.0 0.0 2:1.0 3:2.0 4:1.0 5:5.0 6:5.0 7:1.0 9:1.0 
-0.0 -0.0 0.22215384782421418 0.0 0.0 2:1.0 3:2.0 4:3.0 5:13.0 6:9.0 7:1.0 21:1.0 64:1.0 215:1.0 765:1.0 766:1.0 767:1.0 
-0.0 -0.05576038383606602 0.0 0.0 0.0 2:1.0 3:2.0 4:2.0 5:17.0 6:13.0 7:4.0 12:1.0 419:1.0 544:1.0 765:1.0 769:1.0 
-0.031531200877987095 -0.5055296482908103 0.08644945300997356 0.0 0.35067689716713585 2:1.0 3:2.0 4:2.0 5:16.0 6:10.0 7:6.0 8:1.0 169:1.0 209:1.0 244:1.0 770:1.0 
-0.0 -0.06411064645826453 0.2413659496927513 0.059704546281850894 0.0 2:1.0 3:2.0 4:1.0 5:5.0 6:5.0 7:1.0 771:1.0 772:1.0 
-0.0 -1.0 1.0 1.0 1.0 2:1.0 3:2.0 4:3.0 5:6.0 6:4.0 7:1.0 9:1.0 
-0.0 -0.0 0.34928057276888314 0.09754790199313111 0.08166198102764816 2:1.0 3:2.0 4:4.0 5:11.0 6:5.0 7:1.0 21:1.0 37:1.0 64:1.0 773:1.0 774:1.0 775:1.0 
-0.0 -1.0 0.0 0.0 0.0 2:1.0 3:2.0 4:1.0 5:9.0 6:9.0 7:1.0 9:1.0 
-0.0 -1.0 0.0 0.0 0.0 2:1.0 3:2.0 4:1.0 5:10.0 6:10.0 7:1.0 9:1.0 
-0.0 -1.0 0.0 0.0 0.0 2:1.0 3:2.0 4:1.0 5:8.0 6:6.0 7:3.0 9:1.0 
-0.0 -1.0 0.0 0.0 0.0 2:1.0 3:2.0 4:1.0 5:6.0 6:6.0 7:1.0 9:1.0 
-0.0 -1.0 0.0 0.0 0.0 2:1.0 3:2.0 4:1.0 5:9.0 6:9.0 7:1.0 9:1.0 
-0.0 -0.9876569231231492 0.0 0.08477734003343326 0.0 2:1.0 3:2.0 4:1.0 5:4.0 6:4.0 7:1.0 12:1.0 776:1.0 
-0.0 -0.0 0.0 0.4640852922284558 0.0 2:1.0 3:2.0 4:1.0 5:9.0 6:8.0 7:2.0 12:1.0 139:1.0 167:1.0 780:1.0 
-0.0 -1.0 0.5547744576161141 0.10371432276533551 0.0 2:1.0 3:2.0 4:6.0 5:10.0 6:4.0 7:2.0 12:1.0 120:1.0 139:1.0 
-0.0 -1.0 0.0 0.0 0.0 2:1.0 3:2.0 4:1.0 5:7.0 6:7.0 7:1.0 9:1.0 
-0.0 -0.0 0.7484464817705063 0.0 0.19295118357208585 3:2.0 4:3.0 5:11.0 6:9.0 7:1.0 8:1.0 209:1.0 471:1.0 782:1.0 
-0.0 -1.0 1.0 0.0 1.0 2:1.0 3:2.0 4:2.0 5:13.0 6:11.0 7:1.0 9:1.0 43:1.0 
-0.0 -0.9876670790514175 0.0 0.08476243605932346 0.0 2:1.0 3:2.0 4:1.0 5:4.0 6:4.0 7:1.0 12:1.0 783:1.0 
-0.0 -0.0 0.0 0.0 0.23087399783851975 2:1.0 3:2.0 4:1.0 5:9.0 6:7.0 7:2.0 12:1.0 37:1.0 88:1.0 513:1.0 784:1.0 
-0.0 -1.0 0.0 0.0 1.0 2:1.0 3:2.0 4:1.0 5:12.0 6:12.0 7:1.0 9:1.0 
-0.0 -1.0 0.0 0.0 0.0 2:1.0 3:2.0 4:1.0 5:5.0 6:5.0 7:1.0 9:1.0 
-0.0 -0.6403862572851154 0.0 0.0 0.0 2:1.0 3:2.0 4:2.0 5:8.0 6:7.0 7:1.0 12:1.0 113:1.0 785:1.0 786:1.0 
-0.0 -0.7114536336602831 1.0 0.11579433362554627 0.02783111415645777 2:1.0 3:2.0 4:2.0 5:8.0 6:5.0 7:3.0 149:1.0 787:1.0 788:1.0 
-0.0 -0.1626411925781164 0.3132826482595637 0.18983087646807553 0.041757152987326844 2:1.0 3:2.0 4:1.0 5:4.0 6:4.0 7:1.0 789:1.0 790:1.0 
-0.0 -0.0 0.15984674583928912 0.0 0.0 2:1.0 3:2.0 4:1.0 5:11.0 6:11.0 7:1.0 177:1.0 281:1.0 791:2.0 
-0.0 -0.0 0.13183311311526072 0.0 0.0 2:1.0 3:2.0 4:3.0 5:6.0 6:4.0 7:1.0 544:1.0 792:1.0 
-0.0 -1.0 0.0 0.0 0.0 2:1.0 3:2.0 4:1.0 5:7.0 6:7.0 7:1.0 9:1.0 
-0.0 -0.4075632131331308 0.0 0.0 0.23861381090459644 2:1.0 3:2.0 4:1.0 5:5.0 6:5.0 7:1.0 12:1.0 529:1.0 793:1.0 
-0.0 -0.0 0.7091211467630151 0.148142889289732 0.0 2:1.0 3:2.0 4:2.0 5:7.0 6:6.0 7:1.0 676:1.0 794:1.0 
-0.10570410635748233 -0.0 1.0 0.0 0.0 3:2.0 4:3.0 5:10.0 6:6.0 7:2.0 8:1.0 10:1.0 151:1.0 154:1.0 461:1.0 
-0.0 -1.0 0.0 0.0 0.0 2:1.0 3:2.0 4:1.0 5:5.0 6:5.0 7:1.0 9:1.0 
-0.0 -1.0 0.0 0.0 0.0 2:1.0 3:2.0 4:1.0 5:5.0 6:5.0 7:1.0 9:1.0 
-1.0 -1.0 0.7961364669516844 0.3918465158280697 0.08384216229618995 1:1.0 2:1.0 3:2.0 4:3.0 5:6.0 6:4.0 7:1.0 
-0.0 -0.0 0.13753610014731718 0.0 0.0 2:1.0 3:2.0 4:1.0 5:10.0 6:10.0 7:1.0 795:2.0 796:1.0 
-0.0 -0.0 0.011399724435478776 0.0 0.0 2:1.0 3:2.0 4:1.0 5:10.0 6:10.0 7:1.0 12:1.0 266:1.0 797:1.0 
-0.0 -0.04545451217590134 0.5133409664008513 0.18985867100724269 0.0023251878366356143 2:1.0 3:2.0 4:1.0 5:3.0 6:3.0 7:1.0 798:1.0 799:1.0 
-0.0 -0.0 0.9314571561933047 0.295232750808969 0.054241025786500634 2:1.0 3:2.0 4:3.0 5:9.0 6:6.0 7:1.0 11:1.0 498:1.0 544:1.0 800:1.0 
-0.0 -0.0 0.0 0.0841459843877522 0.0 2:1.0 3:2.0 4:2.0 5:9.0 6:8.0 7:1.0 506:1.0 801:1.0 802:1.0 
-0.0 -1.0 0.0 0.0 0.0 2:1.0 3:2.0 4:1.0 5:5.0 6:5.0 7:1.0 9:1.0 
-0.0 -0.0 0.2651847341637801 0.09628255458536637 0.17182809876000166 2:1.0 3:2.0 4:2.0 5:7.0 6:6.0 7:1.0 732:1.0 803:1.0 804:1.0 805:1.0 
-0.0 -1.0 0.0 0.0 0.0 2:1.0 3:2.0 4:1.0 5:7.0 6:7.0 7:1.0 9:1.0 
-0.0 -0.0 0.4253574478000672 0.14956303245092453 0.17471897258836527 3:2.0 4:1.0 5:8.0 6:8.0 7:1.0 8:1.0 548:1.0 811:1.0 
-0.0 -0.625479338437471 0.8300206618401397 0.0 0.0 2:1.0 3:2.0 4:3.0 5:9.0 6:5.0 7:3.0 12:1.0 88:1.0 332:1.0 435:1.0 812:1.0 
-0.0 -0.14187447250247012 0.8256272398098417 0.014903336342400148 0.0 2:1.0 3:2.0 4:3.0 5:10.0 6:8.0 7:1.0 149:1.0 813:1.0 814:1.0 
-0.0 -1.0 1.0 0.971640683539352 0.0 2:1.0 3:2.0 4:3.0 5:10.0 6:7.0 7:2.0 9:1.0 
-0.0 -0.0 0.6504155775258258 0.3791804086428221 0.08341435205394931 2:1.0 3:2.0 4:1.0 5:6.0 6:6.0 7:1.0 815:1.0 
-0.0 -0.0 0.04334719545499268 0.0 0.0 2:1.0 3:2.0 4:4.0 5:18.0 6:13.0 7:3.0 12:1.0 88:1.0 272:1.0 816:1.0 817:1.0 818:1.0 819:1.0 
-0.0 -0.41241003930989933 0.36527568886174516 0.3241424093153731 0.07226571528248284 2:1.0 3:2.0 4:1.0 5:4.0 6:4.0 7:1.0 94:1.0 820:1.0 
-0.0 -0.0 0.027952052733551343 0.0 0.0 2:1.0 3:2.0 4:2.0 5:11.0 6:9.0 7:2.0 272:1.0 501:1.0 582:1.0 821:1.0 
-0.0 -1.0 0.9270333958941704 0.0 1.0 2:1.0 3:2.0 4:1.0 5:16.0 6:15.0 7:2.0 9:1.0 
-0.0 -0.0 1.0 0.3463537244112963 0.0 3:2.0 4:1.0 5:7.0 6:7.0 7:1.0 86:1.0 314:1.0 494:1.0 
-0.0 -0.0 0.2609279922585005 0.0 0.08409222269473537 2:1.0 3:2.0 4:2.0 5:8.0 6:6.0 7:1.0 43:1.0 564:1.0 676:1.0 822:1.0 
-0.0 -1.0 0.5878833431029051 0.0 0.012396998795843106 3:2.0 4:3.0 5:8.0 6:4.0 7:3.0 28:1.0 35:1.0 
-0.0 -1.0 0.0 0.0 0.0 2:1.0 3:2.0 4:1.0 5:9.0 6:9.0 7:1.0 9:1.0 
