svm_type c_svc
kernel_type linear
nr_class 6
total_sv 1815
rho 1.9457938593510642 1.3774761100025843 0.5733494062879255 0.5723379480965436 0.3572512235556752 -0.1309234276699656 0.4335631756919356 -0.045308135308024244 0.11916188704637304 0.21339498006856092 -0.07781604384440494 -0.20884932565843362 4.220231421645123E-4 0.1787490033565423 -0.17793639794515118
label 1 2 3 4 5 6
probA -1.4089262573593577 -2.0918350620456434 -1.7276300354703407 -1.8359334984658797 -1.9959901336921217 -1.5977147409433912 -2.8355427465316825 -2.571266981593493 -2.7452018752741343 -1.9552951525415825 -2.4154992524916756 -2.4528382752529887 -2.316763290037062 -2.4295331256218065 -2.402066407011021
probB 0.8064176606836905 0.5889400808100619 0.6537183367723601 0.3981335274305121 0.084869243078168 0.4218034071865194 0.43936223948754094 0.395131827712338 0.6968607149537472 0.11669066543775342 0.27957432669908855 0.5736159090182579 -0.39673256059250034 -0.5135843909115239 -0.4810751083131043
nr_sv 42 388 580 331 274 200
SV
1.0 1.0 0.0 0.0 0.7083001312595155 1:1.0 2:1.0 3:2.0 4:1.0 5:5.0 6:4.0 7:2.0 8:1.0 
1.0 0.3809199687035372 1.0 1.0 1.0 2:1.0 3:2.0 4:2.0 5:10.0 6:6.0 7:2.0 9:1.0 10:2.0 
1.0 0.0 0.0 0.0 0.0 1:1.0 2:1.0 3:2.0 4:1.0 5:4.0 6:3.0 7:1.0 11:1.0 
1.0 0.0 0.0 0.0 0.0 1:1.0 2:1.0 3:2.0 4:1.0 5:4.0 6:3.0 7:1.0 10:1.0 
1.0 1.0 1.0 1.0 1.0 2:1.0 3:2.0 4:3.0 5:6.0 6:4.0 7:1.0 9:1.0 
0.6481327105728304 0.5119358471318115 0.2729227295552344 0.41923349105123003 0.40270148158539987 2:1.0 3:2.0 4:1.0 5:6.0 6:5.0 7:2.0 12:1.0 13:1.0 14:1.0 15:1.0 
1.0 1.0 1.0 1.0 1.0 2:1.0 3:2.0 4:4.0 5:10.0 6:7.0 7:1.0 9:1.0 
1.0 1.0 1.0 1.0 1.0 2:1.0 3:2.0 4:1.0 5:9.0 6:6.0 7:3.0 9:1.0 11:1.0 
1.0 0.39650803810763624 0.0 0.0 0.0 1:1.0 2:1.0 3:2.0 4:1.0 5:4.0 6:3.0 7:1.0 10:1.0 
1.0 1.0 1.0 1.0 1.0 2:1.0 3:2.0 4:4.0 5:9.0 6:6.0 7:1.0 9:1.0 
1.0 0.0 0.0 0.0 0.0 2:1.0 3:2.0 4:1.0 5:2.0 6:1.0 7:1.0 9:1.0 11:1.0 
0.7962700458455401 0.6452214305330284 0.47139963787808714 0.6297332982334795 0.6041475050164989 2:1.0 3:2.0 4:1.0 5:7.0 6:6.0 7:2.0 12:1.0 13:1.0 14:1.0 16:1.0 
0.0 0.0 0.5088565763391856 0.0 0.2996724898499549 3:2.0 5:5.0 6:5.0 7:1.0 8:1.0 11:1.0 12:1.0 14:1.0 17:1.0 
1.0 0.0 0.7784047890904415 0.0 0.0 2:1.0 3:2.0 4:1.0 5:2.0 6:1.0 7:1.0 9:1.0 11:1.0 
1.0 0.0 0.1356188560779158 0.0 0.0 1:1.0 2:1.0 3:2.0 4:1.0 5:6.0 6:3.0 7:3.0 11:1.0 
1.0 1.0 1.0 1.0 1.0 2:1.0 3:2.0 4:1.0 5:5.0 6:5.0 7:1.0 9:1.0 
1.0 0.2808655688113908 1.0 0.9986845702699594 0.0 2:1.0 3:2.0 4:1.0 5:2.0 6:1.0 7:1.0 9:1.0 11:1.0 
1.0 0.0 0.0 0.0 0.0 1:1.0 2:1.0 3:2.0 4:1.0 5:6.0 6:5.0 7:1.0 11:1.0 
0.6428685891520529 0.0 0.0 0.0 0.0 1:1.0 2:1.0 3:2.0 4:1.0 5:3.0 6:2.0 7:1.0 11:1.0 
1.0 0.0 0.1453738822112527 0.19205757770998422 0.009582708784426281 1:1.0 2:1.0 3:2.0 4:1.0 5:9.0 6:7.0 7:1.0 11:1.0 18:1.0 
1.0 0.0 0.0 0.0 0.0 1:1.0 2:1.0 3:2.0 4:1.0 5:6.0 6:5.0 7:1.0 11:1.0 
1.0 0.0 0.0 0.0 0.0 1:1.0 2:1.0 3:2.0 4:1.0 5:4.0 6:3.0 7:1.0 11:1.0 
0.2675452973103693 0.0 0.0 0.0 0.0 1:1.0 2:1.0 3:2.0 4:1.0 5:3.0 6:2.0 7:1.0 11:1.0 
1.0 0.0 0.0 0.0 0.0 1:1.0 2:1.0 3:2.0 4:1.0 5:6.0 6:5.0 7:1.0 11:1.0 
1.0 1.0 1.0 1.0 0.7790185161231529 2:1.0 3:2.0 4:1.0 5:2.0 6:1.0 7:1.0 9:1.0 11:1.0 
1.0 1.0 1.0 1.0 1.0 2:1.0 3:2.0 4:4.0 5:7.0 6:4.0 7:1.0 9:1.0 
0.7090373027629724 0.0 0.7129896133348513 1.0 0.33726473931847006 1:1.0 2:1.0 3:2.0 4:2.0 5:11.0 6:7.0 7:2.0 10:2.0 
1.0 1.0 1.0 1.0 1.0 2:1.0 3:2.0 4:1.0 5:5.0 6:4.0 7:1.0 9:1.0 11:1.0 
1.0 1.0 1.0 1.0 1.0 2:1.0 3:2.0 4:1.0 5:2.0 6:1.0 7:1.0 9:1.0 11:1.0 
1.0 1.0 1.0 1.0 1.0 2:1.0 3:2.0 4:1.0 5:14.0 6:14.0 7:1.0 9:1.0 
1.0 1.0 1.0 1.0 0.9962146804803917 2:1.0 3:2.0 4:1.0 5:2.0 6:1.0 7:1.0 9:1.0 11:1.0 
1.0 0.0 0.0 0.0 0.15606256029648263 1:1.0 2:1.0 3:2.0 4:1.0 5:5.0 6:2.0 7:3.0 10:1.0 
1.0 0.0 0.0 0.0 0.0 1:1.0 2:1.0 3:2.0 4:1.0 5:4.0 6:3.0 7:1.0 11:1.0 
1.0 1.0 1.0 1.0 1.0 2:1.0 3:2.0 4:3.0 5:7.0 6:4.0 7:2.0 9:1.0 
1.0 1.0 1.0 1.0 1.0 2:1.0 3:2.0 4:1.0 5:6.0 6:6.0 7:1.0 8:1.0 9:1.0 
1.0 1.0 0.0 0.2972599697760521 0.19748800710090775 1:1.0 2:1.0 3:2.0 4:1.0 5:4.0 6:3.0 7:1.0 19:1.0 
1.0 0.0 0.0 0.0 0.0 1:1.0 2:1.0 3:2.0 4:1.0 5:4.0 6:3.0 7:1.0 11:1.0 
1.0 0.0 0.0 0.0 0.0 1:1.0 2:1.0 3:2.0 4:1.0 5:4.0 6:3.0 7:1.0 11:1.0 
1.0 0.888017088604322 1.0 1.0 0.9477103949445524 2:1.0 3:2.0 4:1.0 5:2.0 6:1.0 7:1.0 9:1.0 11:1.0 
1.0 1.0 1.0 1.0 1.0 2:1.0 3:2.0 4:4.0 5:10.0 6:7.0 7:1.0 9:1.0 
1.0 1.0 1.0 1.0 1.0 2:1.0 3:2.0 4:1.0 5:7.0 6:6.0 7:1.0 9:1.0 11:1.0 
0.30204843656167 0.0 1.0 0.0 0.0 1:1.0 2:1.0 3:2.0 4:2.0 5:13.0 6:9.0 7:2.0 11:2.0 
-0.0 0.0 0.0 1.0 0.0 3:2.0 4:1.0 5:8.0 6:5.0 7:3.0 9:1.0 21:1.0 22:1.0 
-0.0 1.0 0.0 0.0 0.0 2:1.0 3:2.0 4:1.0 5:9.0 6:7.0 7:3.0 9:1.0 
-0.0 0.0 0.0 0.833218647784714 0.0 2:1.0 3:2.0 4:3.0 5:4.0 6:2.0 7:1.0 9:1.0 
-0.0 0.47631661563035893 0.0 0.19228543962618436 1.0 3:2.0 4:3.0 5:19.0 6:15.0 7:1.0 11:1.0 26:1.0 27:1.0 28:1.0 
-0.0 0.0 0.0 0.0 1.0 2:1.0 3:2.0 4:2.0 5:2.0 6:1.0 7:1.0 9:1.0 
-1.0 0.0 0.0 0.0 0.0 1:1.0 2:1.0 3:2.0 4:2.0 5:3.0 6:2.0 7:1.0 
-0.0 1.0 0.0 0.0 0.0 3:2.0 4:2.0 5:15.0 6:13.0 7:2.0 25:1.0 26:1.0 
-0.0 1.0 0.0 0.0 0.0 2:1.0 3:2.0 4:1.0 5:7.0 6:6.0 7:2.0 9:1.0 
-0.0 1.0 0.0 0.0 0.0 2:1.0 3:2.0 4:1.0 5:7.0 6:7.0 7:1.0 9:1.0 
-0.0 1.0 0.0 0.0 0.0 2:1.0 3:2.0 4:1.0 5:8.0 6:6.0 7:3.0 9:1.0 
-0.0 0.0 1.0 0.0 0.0 2:1.0 3:2.0 4:4.0 5:10.0 6:5.0 7:3.0 9:1.0 
-0.0 0.0 0.1615098700421061 0.21952339574690907 0.0 2:1.0 3:2.0 4:4.0 5:12.0 6:5.0 7:4.0 11:1.0 12:1.0 29:1.0 30:1.0 31:1.0 32:1.0 
-0.0 0.5199940340863932 0.17368480909815665 0.1338719378352709 0.04459441013287083 2:1.0 3:2.0 4:5.0 5:8.0 6:4.0 7:1.0 12:1.0 33:1.0 34:1.0 
-0.0 1.0 0.0 0.0 0.0 2:1.0 3:2.0 4:1.0 5:9.0 6:7.0 7:3.0 9:1.0 
-0.0 1.0 0.0 0.0 0.0 3:2.0 4:2.0 5:17.0 6:16.0 7:1.0 25:1.0 26:1.0 
-0.0 1.0 0.10857443947975431 1.0 0.0 2:1.0 3:2.0 4:3.0 5:5.0 6:3.0 7:1.0 9:1.0 
-0.0 1.0 0.07969226256356118 0.10877823671659159 0.39369307265558195 2:1.0 3:2.0 4:1.0 5:8.0 6:8.0 7:1.0 12:1.0 35:1.0 36:1.0 
-0.0 0.0 0.0 0.23492088513490697 0.0 2:1.0 3:2.0 4:3.0 5:4.0 6:2.0 7:1.0 9:1.0 
-0.0 1.0 0.0 0.0 0.0 2:1.0 3:2.0 4:2.0 5:5.0 6:4.0 7:1.0 9:1.0 
-0.0 0.07052254659904149 0.0 0.17035333382779574 0.03362350294719222 3:2.0 4:3.0 5:9.0 6:5.0 7:1.0 26:1.0 37:1.0 38:2.0 
-0.0 1.0 1.0 1.0 1.0 2:1.0 3:2.0 4:3.0 5:10.0 6:8.0 7:1.0 9:1.0 
-0.96597166306837 0.0 0.0 0.14236089098401325 0.0 1:1.0 2:1.0 3:2.0 4:3.0 5:4.0 6:2.0 7:1.0 
-0.0 0.8319635128668936 0.697627449808151 0.0 0.0 2:1.0 3:2.0 4:2.0 5:9.0 6:6.0 7:1.0 9:1.0 39:2.0 
-0.0 0.7592483084723091 0.5294572482130754 0.39842444796419146 0.32868590900418765 3:2.0 4:3.0 5:10.0 6:8.0 7:1.0 8:1.0 40:1.0 41:1.0 42:1.0 
-0.0 1.0 1.0 0.0 0.0 2:1.0 3:2.0 4:5.0 5:12.0 6:6.0 7:3.0 9:1.0 
-0.0 0.14913033312380383 0.05677546166924274 0.27090196201120803 0.1953376035895787 2:1.0 3:2.0 4:6.0 5:11.0 6:4.0 7:2.0 10:1.0 12:1.0 13:1.0 43:1.0 44:1.0 
-0.0 1.0 1.0 1.0 0.9850116249526129 3:2.0 4:1.0 5:1.0 6:1.0 7:1.0 8:1.0 45:1.0 
-0.0 1.0 0.7780019049544562 0.5506733237007984 0.835663100022789 3:2.0 4:3.0 5:8.0 6:5.0 7:2.0 8:1.0 46:1.0 47:1.0 
-0.0 1.0 0.0 0.0 0.0 2:1.0 3:2.0 4:1.0 5:3.0 6:3.0 7:1.0 9:1.0 
-0.0 1.0 0.0 0.9290778769233382 1.0 2:1.0 3:2.0 4:1.0 5:9.0 6:9.0 7:1.0 9:1.0 
-0.0 0.5243878800102579 0.24476116411554355 0.19989934021167388 0.08845675159217085 2:1.0 3:2.0 4:2.0 5:2.0 6:1.0 7:1.0 12:1.0 51:1.0 
-0.0 0.7942921406800855 0.23127127882707155 0.192417779524004 0.08832552143232666 2:1.0 3:2.0 4:1.0 5:3.0 6:3.0 7:1.0 12:1.0 52:1.0 
-0.07717282777757381 0.23284369098401084 0.21388300766298673 0.174955309886012 0.04421955379455283 2:1.0 3:2.0 4:3.0 5:9.0 6:5.0 7:2.0 10:1.0 12:1.0 53:1.0 54:1.0 
-0.4543386616825114 0.0 0.0 0.0 0.0 1:1.0 2:1.0 3:2.0 4:2.0 5:5.0 6:4.0 7:1.0 
-0.0 0.0 0.0 0.0 1.0 2:1.0 3:2.0 4:2.0 5:2.0 6:1.0 7:1.0 9:1.0 
-0.0 1.0 0.0 0.0 0.0 2:1.0 3:2.0 4:1.0 5:3.0 6:3.0 7:1.0 9:1.0 
-0.0 1.0 0.0 0.0 0.0 2:1.0 3:2.0 4:1.0 5:15.0 6:11.0 7:5.0 9:1.0 
-1.0 0.0 0.0 0.0 0.0 2:1.0 3:2.0 4:1.0 5:5.0 6:4.0 7:1.0 9:1.0 11:1.0 
-0.0 1.0 0.0 0.0 0.0 2:1.0 3:2.0 4:1.0 5:6.0 6:6.0 7:1.0 9:1.0 
-0.0 0.6822271251851929 0.0019788833039266233 0.0 0.0 2:1.0 3:2.0 4:1.0 5:11.0 6:11.0 7:1.0 12:1.0 55:2.0 56:1.0 57:1.0 
-1.0 0.0 0.0 0.0 0.0 2:1.0 3:2.0 4:1.0 5:4.0 6:3.0 7:1.0 9:1.0 11:1.0 
-0.0 0.2726502937445687 0.14602376531512945 0.07011334485585001 0.07500737607733227 2:1.0 3:2.0 4:5.0 5:14.0 6:8.0 7:3.0 12:1.0 58:1.0 59:1.0 60:1.0 61:1.0 62:1.0 
-0.0 1.0 0.0 0.0 0.0 2:1.0 3:2.0 4:1.0 5:4.0 6:4.0 7:1.0 9:1.0 
-0.0 1.0 0.13287213888015623 0.41517922438750704 0.04447395709940134 2:1.0 3:2.0 4:1.0 5:8.0 6:8.0 7:1.0 12:1.0 63:1.0 64:1.0 
-0.0 1.0 0.0 0.0 0.0 2:1.0 3:2.0 4:1.0 5:4.0 6:4.0 7:1.0 9:1.0 
-0.0 1.0 0.0 0.0 0.0 2:1.0 3:2.0 4:1.0 5:9.0 6:7.0 7:3.0 9:1.0 
-0.0 1.0 0.24147150081608262 0.15264059922122208 0.34263192813326965 2:1.0 3:2.0 4:3.0 5:7.0 6:5.0 7:1.0 12:1.0 65:1.0 66:1.0 
-0.0 1.0 1.0 1.0 1.0 2:1.0 3:2.0 4:3.0 5:7.0 6:5.0 7:1.0 9:1.0 
-0.0 1.0 0.0 0.0 0.0 2:1.0 3:2.0 4:1.0 5:6.0 6:6.0 7:1.0 9:1.0 
-0.0 1.0 1.0 0.0 1.0 2:1.0 3:2.0 4:9.0 5:17.0 6:6.0 7:4.0 9:1.0 
-0.004670585838367384 1.0 0.22435828440144834 0.18737789259904306 0.08833031771656794 2:1.0 3:2.0 4:1.0 5:2.0 6:2.0 7:1.0 12:1.0 67:1.0 
-0.0 0.7942853366934522 0.23126644156634207 0.1924155565962905 0.08832673014170787 2:1.0 3:2.0 4:1.0 5:3.0 6:3.0 7:1.0 12:1.0 68:1.0 
-1.0 0.0 0.0 0.03299306031553416 0.2407507432619685 2:1.0 3:2.0 4:1.0 5:8.0 6:5.0 7:2.0 10:2.0 12:1.0 13:1.0 47:1.0 69:1.0 
-0.0 0.7900145028787936 0.5824613088634448 0.12644167541573326 0.04471212349640504 2:1.0 3:2.0 4:3.0 5:10.0 6:8.0 7:1.0 12:1.0 70:1.0 71:1.0 
-0.0 1.0 0.0 0.0 0.0 2:1.0 3:2.0 4:1.0 5:6.0 6:6.0 7:1.0 9:1.0 
-0.0 1.0 0.15213544783108673 0.0 0.8700076897219515 2:1.0 3:2.0 4:1.0 5:10.0 6:9.0 7:1.0 12:1.0 28:1.0 72:1.0 73:1.0 74:1.0 
-0.0 1.0 0.0 0.0 0.0 2:1.0 3:2.0 4:1.0 5:6.0 6:6.0 7:1.0 9:1.0 
-0.23054684679209836 0.0 0.0 0.0 0.0 2:1.0 3:2.0 4:1.0 5:2.0 6:2.0 7:1.0 9:1.0 
-0.0 1.0 0.33382066122927123 0.2602370349144606 0.08923239107208505 2:1.0 3:2.0 4:4.0 5:9.0 6:6.0 7:1.0 12:1.0 75:1.0 
-0.0 1.0 0.0 0.0 0.0 2:1.0 3:2.0 4:1.0 5:7.0 6:7.0 7:1.0 9:1.0 
-0.0 1.0 0.0 1.0 1.0 2:1.0 3:2.0 4:1.0 5:10.0 6:10.0 7:1.0 9:1.0 
-0.0 0.5184263881742401 0.09771464321803885 0.0783998119159149 0.029728319572553022 2:1.0 3:2.0 4:2.0 5:9.0 6:8.0 7:1.0 12:1.0 77:1.0 78:1.0 79:1.0 
-0.0 1.0 1.0 1.0 0.8901345454361046 2:1.0 3:2.0 4:1.0 5:5.0 6:4.0 7:1.0 9:1.0 49:1.0 
-0.004642500367525265 0.6470180404043686 0.22436405039391943 0.18737649605204745 0.0883292360468962 2:1.0 3:2.0 4:1.0 5:2.0 6:2.0 7:1.0 12:1.0 80:1.0 
-1.0 0.0 0.0 0.0 0.0 1:1.0 2:1.0 3:2.0 4:1.0 5:3.0 6:3.0 7:1.0 
-0.0 0.7942791393163386 0.23125800087060153 0.1924199696573587 0.08832876192128644 2:1.0 3:2.0 4:1.0 5:3.0 6:3.0 7:1.0 12:1.0 81:1.0 
-0.0 1.0 0.0 0.0 0.0 2:1.0 3:2.0 4:1.0 5:7.0 6:7.0 7:1.0 9:1.0 
-0.0 1.0 0.25183775761083427 0.2073751392155899 0.08847046346502616 2:1.0 3:2.0 4:1.0 5:6.0 6:6.0 7:1.0 12:1.0 82:1.0 
-0.0 1.0 0.0 1.0 0.0 2:1.0 3:2.0 4:2.0 5:7.0 6:6.0 7:1.0 9:1.0 
-0.0 1.0 0.4723692256461336 0.10119634424933793 0.08718690343743614 2:1.0 3:2.0 4:1.0 5:5.0 6:3.0 7:3.0 12:1.0 83:1.0 
-0.0 1.0 0.0 0.20235362739592902 0.0883626832030885 2:1.0 3:2.0 4:1.0 5:5.0 6:5.0 7:1.0 12:1.0 84:1.0 
-0.0 0.8114236258919085 0.16656499353084148 0.0 0.03052430526766732 2:1.0 3:2.0 4:5.0 5:14.0 6:9.0 7:1.0 12:1.0 85:1.0 86:1.0 87:1.0 88:1.0 
-0.0 1.0 0.6135540658825411 1.0 0.2607286062563531 2:1.0 3:2.0 4:3.0 5:5.0 6:2.0 7:2.0 12:1.0 89:1.0 90:1.0 
-0.0 1.0 0.0 0.0 0.0 2:1.0 3:2.0 4:1.0 5:3.0 6:3.0 7:1.0 9:1.0 
-0.0 0.0 0.0 1.0 0.0 2:1.0 3:2.0 4:3.0 5:4.0 6:2.0 7:1.0 9:1.0 
-0.0 1.0 0.43734312021196525 0.0 0.6902172329500347 2:1.0 3:2.0 4:3.0 5:8.0 6:4.0 7:1.0 9:1.0 22:2.0 
-0.0 0.7977397201237182 0.10794030654890935 0.14609858430924585 0.3741988860496451 2:1.0 3:2.0 4:3.0 5:8.0 6:5.0 7:1.0 12:1.0 28:1.0 91:1.0 92:1.0 
-0.0 0.6179541387840712 0.12592941330310753 0.10368923538132328 0.04427062721949209 2:1.0 3:2.0 4:1.0 5:6.0 6:6.0 7:1.0 12:1.0 93:1.0 94:1.0 
-0.0 0.5651725830544541 0.32239352386896675 0.15696761845467613 0.0 2:1.0 3:2.0 4:4.0 5:16.0 6:12.0 7:2.0 12:1.0 89:1.0 95:1.0 96:1.0 97:1.0 98:1.0 99:1.0 
-0.0 1.0 0.0 0.0 0.0 2:1.0 3:2.0 4:1.0 5:4.0 6:4.0 7:1.0 9:1.0 
-1.0 0.0 0.0 0.0 0.0 1:1.0 2:1.0 3:2.0 4:2.0 5:3.0 6:2.0 7:1.0 
-0.0 1.0 0.0 0.0 0.0 2:1.0 3:2.0 4:2.0 5:7.0 6:5.0 7:2.0 9:1.0 
-0.0 1.0 0.0 0.0 0.0 2:1.0 3:2.0 4:1.0 5:9.0 6:7.0 7:3.0 8:1.0 9:1.0 
-0.0 1.0 0.0 0.0 0.0 2:1.0 3:2.0 4:1.0 5:4.0 6:4.0 7:1.0 9:1.0 
-0.0 1.0 0.5869661645352869 0.4900431044473066 0.21842747597196865 2:1.0 3:2.0 4:3.0 5:12.0 6:10.0 7:1.0 32:1.0 100:1.0 101:1.0 102:1.0 
-0.0 1.0 0.676229980528821 1.0 0.0 2:1.0 3:2.0 4:3.0 5:5.0 6:3.0 7:1.0 9:1.0 
-0.0 0.5443585744250663 0.12248352391789506 0.10117918648044498 0.044180168549213104 2:1.0 3:2.0 4:1.0 5:5.0 6:5.0 7:1.0 12:1.0 103:1.0 104:1.0 
-0.0 1.0 0.0 0.0 0.0 3:2.0 4:1.0 5:12.0 6:12.0 7:1.0 25:1.0 26:1.0 
-0.0 1.0 0.0 0.0 0.0 2:1.0 3:2.0 4:1.0 5:4.0 6:4.0 7:1.0 9:1.0 
-0.0 0.9660936928283366 0.26532529453210957 0.21487896501766826 0.08842798594703803 2:1.0 3:2.0 4:2.0 5:5.0 6:4.0 7:1.0 12:1.0 105:1.0 
-0.0 1.0 0.0 0.0 0.0 2:1.0 3:2.0 4:1.0 5:3.0 6:3.0 7:1.0 9:1.0 
-0.6709442378360966 0.0 0.0 0.0 0.035693999090062885 1:1.0 2:1.0 3:2.0 4:1.0 5:3.0 6:2.0 7:1.0 88:1.0 
-0.0 1.0 0.0 0.0 0.1312167621782961 2:1.0 3:2.0 4:3.0 5:14.0 6:7.0 7:3.0 9:1.0 22:3.0 
-0.0 1.0 0.0 0.0 0.0 2:1.0 3:2.0 4:1.0 5:3.0 6:3.0 7:1.0 9:1.0 
-0.0 0.7209729323907694 0.3632005637361632 0.2401749983964249 0.08880393327874454 2:1.0 3:2.0 4:4.0 5:5.0 6:2.0 7:1.0 12:1.0 106:1.0 
-0.0 1.0 0.0 0.0 0.0 2:1.0 3:2.0 4:2.0 5:4.0 6:3.0 7:1.0 9:1.0 
-0.0 1.0 0.0 0.0 0.0 2:1.0 3:2.0 4:3.0 5:10.0 6:6.0 7:3.0 9:1.0 
-0.0 0.0 0.0 1.0 0.0 3:2.0 4:1.0 5:6.0 6:4.0 7:3.0 9:1.0 21:1.0 
-0.0 1.0 1.0 1.0 1.0 2:1.0 3:2.0 4:2.0 5:9.0 6:8.0 7:1.0 9:1.0 
-0.0 1.0 0.0 1.0 1.0 2:1.0 3:2.0 4:1.0 5:10.0 6:10.0 7:1.0 9:1.0 
-0.0 1.0 1.0 1.0 1.0 2:1.0 3:2.0 4:1.0 5:11.0 6:11.0 7:1.0 9:1.0 
-0.0 1.0 0.0 0.0 0.0 2:1.0 3:2.0 4:1.0 5:7.0 6:7.0 7:1.0 9:1.0 
-0.0 1.0 0.0 0.0 0.0 2:1.0 3:2.0 4:1.0 5:4.0 6:4.0 7:1.0 9:1.0 
-1.0 0.0 0.0 0.0 0.0 1:1.0 2:1.0 3:2.0 4:1.0 5:3.0 6:3.0 7:1.0 
-0.0 0.0 0.18175241730933403 0.11820182174065183 0.0 3:2.0 4:4.0 5:10.0 6:7.0 7:1.0 26:1.0 76:1.0 
-0.0 1.0 0.0 0.0 0.0 2:1.0 3:2.0 4:2.0 5:4.0 6:3.0 7:1.0 9:1.0 
-1.0 1.0 0.8503818227299091 0.0 1.0 2:1.0 3:2.0 4:1.0 5:9.0 6:8.0 7:1.0 9:1.0 11:1.0 
-0.0 1.0 0.0 0.0 0.0 2:1.0 3:2.0 4:1.0 5:4.0 6:4.0 7:1.0 9:1.0 
-0.0 0.6122475082126019 0.08545675639008317 0.04378941427236588 0.3566970246315938 2:1.0 3:2.0 4:3.0 5:6.0 6:3.0 7:2.0 12:1.0 107:1.0 108:1.0 
-0.0 0.0 0.5169209914667902 0.8468521454959886 0.0 3:2.0 4:2.0 5:8.0 6:6.0 7:1.0 10:1.0 23:1.0 24:1.0 
-0.0 1.0 0.37687301219444863 0.6620320405362493 0.39823586970807134 2:1.0 3:2.0 4:1.0 5:9.0 6:8.0 7:2.0 12:1.0 13:1.0 109:1.0 110:1.0 
-0.0 0.35339589355302115 0.10448116800214917 0.07034692508301067 0.0 2:1.0 3:2.0 4:3.0 5:9.0 6:7.0 7:1.0 12:1.0 111:1.0 112:1.0 113:1.0 
-0.0 0.7673768075704892 0.0 0.12401125133048507 0.0 2:1.0 3:2.0 4:2.0 5:5.0 6:3.0 7:2.0 12:1.0 89:1.0 114:1.0 
-0.0 0.19832243397165047 0.0 0.0 1.0 3:2.0 4:1.0 5:10.0 6:10.0 7:1.0 26:1.0 48:1.0 
-0.0 1.0 1.0 0.0 1.0 2:1.0 3:2.0 4:3.0 5:13.0 6:9.0 7:3.0 9:1.0 
-0.0 1.0 0.0 0.0 0.0 2:1.0 3:2.0 4:1.0 5:6.0 6:6.0 7:1.0 9:1.0 
-0.0 1.0 0.0 0.0 0.29787061265599185 2:1.0 3:2.0 4:1.0 5:7.0 6:7.0 7:1.0 9:1.0 
-0.0 0.37516913629038917 0.07907998654081737 0.05315479696789686 0.022318514095738467 2:1.0 3:2.0 4:3.0 5:12.0 6:9.0 7:2.0 12:1.0 115:1.0 116:1.0 117:1.0 118:1.0 
-0.0 1.0 0.0 0.0 0.0 2:1.0 3:2.0 4:1.0 5:5.0 6:5.0 7:1.0 9:1.0 
-0.0 1.0 0.0 0.0 0.0 2:1.0 3:2.0 4:2.0 5:9.0 6:6.0 7:3.0 9:1.0 
-0.0 1.0 0.0 0.0 1.0 2:1.0 3:2.0 4:1.0 5:8.0 6:8.0 7:1.0 9:1.0 
-0.0 1.0 0.5779778263734167 1.0 0.8297414493004854 2:1.0 3:2.0 4:1.0 5:9.0 6:7.0 7:2.0 12:1.0 28:1.0 89:1.0 119:1.0 120:1.0 
-0.29979919598451515 0.0 0.0 0.0 0.0 3:2.0 4:2.0 5:15.0 6:11.0 7:1.0 11:3.0 25:1.0 26:1.0 
-0.0 1.0 1.0 1.0 1.0 2:1.0 3:2.0 4:4.0 5:8.0 6:5.0 7:1.0 9:1.0 
-0.0 0.0 0.0 0.0 0.1365409435809177 3:2.0 4:1.0 5:9.0 6:9.0 7:1.0 26:1.0 37:1.0 
-0.0 1.0 0.0 0.0 0.0 2:1.0 3:2.0 4:1.0 5:4.0 6:4.0 7:1.0 9:1.0 
-0.0 1.0 0.0 1.0 0.0 2:1.0 3:2.0 4:3.0 5:5.0 6:3.0 7:1.0 9:1.0 
-0.0 1.0 0.34771759831755084 1.0 0.08872277731398724 2:1.0 3:2.0 4:1.0 5:7.0 6:7.0 7:1.0 12:1.0 121:1.0 
-0.0 0.3755605462134721 0.014690397609552595 0.11634799840069275 0.163087906236316 2:1.0 3:2.0 4:3.0 5:15.0 6:10.0 7:4.0 12:1.0 13:1.0 66:1.0 109:1.0 122:2.0 
-0.0 0.6290430351424863 0.45797528102415697 0.23496196008655898 0.29873424172000074 2:1.0 3:2.0 4:1.0 5:5.0 6:4.0 7:2.0 12:1.0 59:1.0 123:1.0 
-0.0 0.0 0.0 1.0 0.0 2:1.0 3:2.0 4:3.0 5:4.0 6:2.0 7:1.0 9:1.0 
-0.0 1.0 0.0 0.0 0.0 2:1.0 3:2.0 4:1.0 5:11.0 6:9.0 7:3.0 9:1.0 
-0.0 0.0 0.0 0.0 0.0769655700821902 2:1.0 3:2.0 4:2.0 5:2.0 6:1.0 7:1.0 9:1.0 
-0.0 0.9691023132191668 0.7824930781397008 0.7159761940390661 0.4360889693027022 2:1.0 3:2.0 4:1.0 5:6.0 6:6.0 7:1.0 124:1.0 125:1.0 
-0.0 1.0 0.0 0.0 1.0 2:1.0 3:2.0 4:1.0 5:14.0 6:12.0 7:3.0 9:1.0 
-0.0 0.6290556142728261 0.45796382175069167 0.23496323731519406 0.29872822624666084 2:1.0 3:2.0 4:1.0 5:5.0 6:4.0 7:2.0 12:1.0 59:1.0 126:1.0 
-0.0 1.0 0.8496708259681583 0.1974504502763981 0.08832878512919955 2:1.0 3:2.0 4:1.0 5:4.0 6:4.0 7:1.0 12:1.0 127:1.0 
-0.0 0.34865769313520706 0.10230862195256055 0.12332198694661145 0.37395860560430216 2:1.0 3:2.0 4:3.0 5:9.0 6:5.0 7:2.0 12:1.0 28:1.0 128:1.0 129:1.0 
-0.0 1.0 1.0 1.0 1.0 2:1.0 3:2.0 4:5.0 5:10.0 6:6.0 7:1.0 9:1.0 
-0.0 1.0 0.0 0.0 0.0 2:1.0 3:2.0 4:2.0 5:10.0 6:7.0 7:3.0 9:1.0 
-0.0 1.0 0.0 0.0 0.0 2:1.0 3:2.0 4:2.0 5:7.0 6:5.0 7:1.0 9:1.0 22:1.0 
-0.0 0.0 0.0 0.0 0.16923600849459633 3:2.0 4:1.0 5:5.0 6:5.0 7:1.0 26:1.0 130:1.0 
-0.0 1.0 0.0 0.40356979834833273 1.0 2:1.0 3:2.0 4:1.0 5:9.0 6:9.0 7:1.0 9:1.0 
-0.0 0.0 0.0 0.0 0.9223249582979709 2:1.0 3:2.0 4:1.0 5:2.0 6:2.0 7:1.0 9:1.0 
-0.0 0.0 0.0 0.0 1.0 2:1.0 3:2.0 4:1.0 5:2.0 6:2.0 7:1.0 9:1.0 
-0.0 1.0 0.0 0.0 0.0 2:1.0 3:2.0 4:1.0 5:8.0 6:6.0 7:3.0 9:1.0 
-0.0 1.0 0.0 0.0 0.0 2:1.0 3:2.0 4:1.0 5:4.0 6:4.0 7:1.0 9:1.0 
-0.0 0.7209586991511621 0.30631622279743653 0.24015831568497398 0.08878393391618615 2:1.0 3:2.0 4:4.0 5:5.0 6:2.0 7:1.0 12:1.0 131:1.0 
-0.0 0.2567061201320005 0.0354273626963788 0.1533985564936806 0.7038272984853917 2:1.0 3:2.0 4:1.0 5:6.0 6:4.0 7:1.0 12:1.0 28:2.0 132:1.0 133:1.0 
-0.0 0.3891784505681755 1.0 0.6639981261057504 0.4361137038068747 2:1.0 3:2.0 4:3.0 5:5.0 6:3.0 7:1.0 114:1.0 134:1.0 
-1.0 0.0 0.0 0.0 0.0 2:1.0 3:2.0 4:1.0 5:5.0 6:4.0 7:1.0 9:1.0 11:1.0 
-0.0 0.9357032418129301 0.0 0.0 1.0 3:2.0 4:1.0 5:15.0 6:15.0 7:1.0 26:1.0 76:1.0 
-0.0 0.0 0.0 0.0 0.5761065436524948 2:1.0 3:2.0 4:3.0 5:3.0 6:1.0 7:1.0 9:1.0 
-1.0 1.0 0.0 0.0 0.0 2:1.0 3:2.0 4:1.0 5:6.0 6:5.0 7:1.0 9:1.0 11:1.0 
-0.0 1.0 0.0 0.0 0.0 2:1.0 3:2.0 4:2.0 5:7.0 6:5.0 7:1.0 9:1.0 39:1.0 
-1.0 0.0 0.0 0.0 0.0 1:1.0 2:1.0 3:2.0 4:2.0 5:3.0 6:2.0 7:1.0 
-0.0 1.0 0.0 0.0 1.0 2:1.0 3:2.0 4:1.0 5:8.0 6:8.0 7:1.0 9:1.0 
-0.0 0.0 0.0 0.0 0.1692249380673079 3:2.0 4:1.0 5:4.0 6:3.0 7:1.0 11:1.0 26:1.0 135:1.0 
-0.0 0.07303829976026976 0.07775056346126122 0.041641091262238056 0.02195748359696099 2:1.0 3:2.0 4:5.0 5:8.0 6:2.0 7:3.0 12:1.0 136:1.0 137:1.0 138:1.0 139:1.0 
-0.0 0.0 0.21626380490480074 0.0 1.0 3:2.0 4:5.0 5:12.0 6:8.0 7:1.0 26:1.0 37:1.0 
-0.0 0.591568094027503 0.4565314034109936 0.10542837768548999 0.11603072185963069 2:1.0 3:2.0 4:3.0 5:10.0 6:8.0 7:1.0 12:1.0 140:1.0 141:1.0 142:1.0 
-0.0 1.0 0.0 0.0 0.0 2:1.0 3:2.0 4:1.0 5:9.0 6:7.0 7:3.0 9:1.0 
-1.0 0.0 0.0 0.0 0.0 2:1.0 3:2.0 4:2.0 5:5.0 6:3.0 7:1.0 9:1.0 11:1.0 
-0.0 1.0 0.0 0.0 0.0 2:1.0 3:2.0 4:1.0 5:4.0 6:4.0 7:1.0 9:1.0 
-0.0 1.0 0.24496601704133764 0.2023564170850066 0.08835830117928879 2:1.0 3:2.0 4:1.0 5:5.0 6:5.0 7:1.0 12:1.0 143:1.0 
-0.0 0.0 0.0 0.0 1.0 2:1.0 3:2.0 4:1.0 5:2.0 6:2.0 7:1.0 9:1.0 
-0.0 0.5075539970615844 0.40399778359310073 0.28839552980787364 0.17447235419390836 2:1.0 3:2.0 4:1.0 5:7.0 6:7.0 7:1.0 144:1.0 145:1.0 146:1.0 
-0.0 0.0 0.0 1.0 0.0 3:2.0 4:1.0 5:8.0 6:5.0 7:3.0 9:1.0 21:1.0 22:1.0 
-0.0 1.0 0.0 0.0 0.0 2:1.0 3:2.0 4:1.0 5:3.0 6:3.0 7:1.0 9:1.0 
-0.0 1.0 0.0 0.0 0.0 1:1.0 2:1.0 3:2.0 4:1.0 5:9.0 6:8.0 7:1.0 22:1.0 
-0.0 1.0 1.0 1.0 1.0 2:1.0 3:2.0 4:8.0 5:15.0 6:7.0 7:2.0 9:1.0 
-0.0 0.0 0.0 0.0 1.0 2:1.0 3:2.0 4:1.0 5:2.0 6:2.0 7:1.0 9:1.0 
-0.0 0.0 0.0 1.0 0.0 2:1.0 3:2.0 4:3.0 5:4.0 6:2.0 7:1.0 9:1.0 
-0.0 1.0 0.0 0.0 0.0 2:1.0 3:2.0 4:1.0 5:3.0 6:3.0 7:1.0 9:1.0 
-0.0 0.617939018185716 0.12590243698672907 0.10368880666277956 0.04427453778827814 2:1.0 3:2.0 4:1.0 5:6.0 6:6.0 7:1.0 12:1.0 147:1.0 148:1.0 
-0.0 1.0 1.0 1.0 0.0 2:1.0 3:2.0 4:3.0 5:5.0 6:3.0 7:1.0 9:1.0 
-0.0 1.0 0.0 0.0 0.0 2:1.0 3:2.0 4:1.0 5:3.0 6:3.0 7:1.0 9:1.0 
-0.0 1.0 0.0 0.0 0.7646816596585722 2:1.0 3:2.0 4:3.0 5:6.0 6:2.0 7:1.0 9:1.0 22:2.0 
-0.0 1.0 0.24497015512623674 1.0 0.08836167322790657 2:1.0 3:2.0 4:1.0 5:5.0 6:5.0 7:1.0 12:1.0 149:1.0 
-0.0 0.27091817631022047 0.15946092953790225 0.06876040140629747 0.2492293108603941 2:1.0 3:2.0 4:3.0 5:11.0 6:6.0 7:3.0 12:1.0 28:1.0 150:1.0 151:1.0 152:1.0 
-0.0 0.0 0.0 0.0 1.0 2:1.0 3:2.0 4:3.0 5:3.0 6:1.0 7:1.0 9:1.0 
-1.0 0.0 0.0 0.0 0.0 1:1.0 2:1.0 3:2.0 4:2.0 5:3.0 6:2.0 7:1.0 
-0.0 1.0 0.2343051596133573 0.2645921003983813 0.044789793060703374 2:1.0 3:2.0 4:1.0 5:10.0 6:10.0 7:1.0 12:1.0 153:1.0 154:1.0 
-0.0 0.0 0.0 1.0 0.0 3:2.0 4:1.0 5:10.0 6:8.0 7:3.0 9:1.0 21:1.0 
-0.0 1.0 0.0 1.0 0.0 1:1.0 2:1.0 3:2.0 4:1.0 5:10.0 6:10.0 7:1.0 
-0.0 1.0 0.0 1.0 1.0 2:1.0 3:2.0 4:1.0 5:10.0 6:10.0 7:1.0 9:1.0 
-0.0 0.5184677331599584 0.19362275885471342 0.06149300291846724 0.2719646638708769 2:1.0 3:2.0 4:4.0 5:16.0 6:12.0 7:2.0 12:1.0 155:1.0 156:1.0 157:1.0 158:1.0 
-0.0 1.0 0.0 0.0 0.0 2:1.0 3:2.0 4:1.0 5:5.0 6:5.0 7:1.0 9:1.0 
-0.0 1.0 0.0 0.0 0.0 2:1.0 3:2.0 4:1.0 5:5.0 6:5.0 7:1.0 9:1.0 
-0.0 1.0 1.0 1.0 1.0 2:1.0 3:2.0 4:2.0 5:9.0 6:8.0 7:1.0 9:1.0 
-0.0 0.0 0.0 0.0 0.5318896585732691 2:1.0 3:2.0 4:3.0 5:3.0 6:1.0 7:1.0 9:1.0 
-0.0 0.0 0.06720888995952902 0.001023773514733701 0.590402604150021 3:2.0 4:4.0 5:9.0 6:5.0 7:1.0 26:1.0 159:1.0 160:1.0 
-0.0 0.0 0.19829133655882258 0.0 0.0 3:2.0 4:1.0 5:3.0 6:3.0 7:1.0 8:1.0 12:1.0 35:1.0 
-0.0 1.0 1.0 1.0 1.0 2:1.0 3:2.0 4:2.0 5:11.0 6:10.0 7:1.0 9:1.0 
-0.0 0.15405563675564599 0.0 0.0 0.0 3:2.0 4:1.0 5:11.0 6:11.0 7:1.0 25:1.0 26:1.0 
-0.0 1.0 0.0 0.0 1.0 2:1.0 3:2.0 4:1.0 5:7.0 6:7.0 7:1.0 9:1.0 
-0.0 1.0 0.0 1.0 0.0 2:1.0 3:2.0 4:2.0 5:7.0 6:6.0 7:1.0 9:1.0 
-0.0 1.0 0.1897247584821661 0.0 0.0 2:1.0 3:2.0 4:1.0 5:7.0 6:4.0 7:3.0 8:1.0 9:1.0 49:1.0 
-0.0 0.5075379449272758 0.4039944747338487 0.28839752426951276 0.17448015849180695 2:1.0 3:2.0 4:1.0 5:7.0 6:7.0 7:1.0 144:1.0 161:1.0 162:1.0 
-0.0 1.0 0.0 0.0 0.0 3:2.0 4:1.0 5:11.0 6:11.0 7:1.0 25:1.0 26:1.0 
-0.0 0.578950955540645 0.011437093485053887 0.04568642872407518 4.0110445137666716E-4 2:1.0 3:2.0 4:1.0 5:7.0 6:7.0 7:1.0 12:1.0 55:1.0 163:1.0 
-0.0 1.0 1.0 0.9154608195979179 1.0 2:1.0 3:2.0 4:2.0 5:26.0 6:23.0 7:3.0 9:1.0 
-0.0 1.0 0.0 0.0 0.0 2:1.0 3:2.0 4:1.0 5:6.0 6:6.0 7:1.0 9:1.0 
-1.0 0.0 0.0 0.0 0.0 2:1.0 3:2.0 4:1.0 5:5.0 6:4.0 7:1.0 9:1.0 11:1.0 
-0.0 1.0 0.0 0.0 0.0 2:1.0 3:2.0 4:1.0 5:6.0 6:6.0 7:1.0 9:1.0 
-1.0 1.0 1.0 1.0 1.0 2:1.0 3:2.0 4:1.0 5:10.0 6:9.0 7:1.0 9:1.0 10:1.0 
-0.0 0.0 0.0 0.0 1.0 2:1.0 3:2.0 4:1.0 5:2.0 6:2.0 7:1.0 9:1.0 
-1.0 1.0 1.0 1.0 1.0 2:1.0 3:2.0 4:1.0 5:11.0 6:10.0 7:1.0 9:1.0 11:1.0 
-0.0 1.0 0.6558444950043151 0.48736249257928044 0.6519203426300288 2:1.0 3:2.0 4:3.0 5:7.0 6:5.0 7:1.0 164:1.0 165:1.0 166:1.0 
-0.0 1.0 0.0 0.0 0.0 2:1.0 3:2.0 4:1.0 5:3.0 6:3.0 7:1.0 9:1.0 
-0.0 0.6938264457424245 0.17034205492980337 0.0 0.19400728578796828 2:1.0 3:2.0 4:5.0 5:21.0 6:13.0 7:2.0 12:1.0 22:1.0 28:2.0 95:1.0 96:1.0 167:1.0 168:1.0 169:1.0 170:1.0 
-0.0 1.0 1.0 0.0 0.34270707200906786 2:1.0 3:2.0 4:5.0 5:19.0 6:10.0 7:6.0 9:1.0 
-0.0 0.0 0.0 0.0 1.0 2:1.0 3:2.0 4:1.0 5:2.0 6:2.0 7:1.0 9:1.0 
-0.022289801070829982 0.8901865665246225 0.9837911212833514 0.5723812410265073 0.49250410048621424 3:2.0 4:1.0 5:5.0 6:5.0 7:1.0 8:1.0 14:1.0 171:1.0 
-1.0 1.0 0.0 0.0 0.0 2:1.0 3:2.0 4:1.0 5:6.0 6:5.0 7:1.0 9:1.0 11:1.0 
-0.0 1.0 0.0 0.0 0.0 2:1.0 3:2.0 4:1.0 5:5.0 6:5.0 7:1.0 9:1.0 
-0.0 0.7942746333957862 0.23126617791162027 0.19241628983631912 0.08832424417802784 2:1.0 3:2.0 4:1.0 5:3.0 6:3.0 7:1.0 12:1.0 172:1.0 
-0.0 1.0 0.8321354389159168 0.3815835259753974 0.0 2:1.0 3:2.0 4:1.0 5:8.0 6:7.0 7:2.0 12:1.0 55:1.0 
-0.020338459705614688 0.0 0.0 0.0 1.0 2:1.0 3:2.0 4:1.0 5:2.0 6:2.0 7:1.0 9:1.0 
-0.0 1.0 0.0 1.0 1.0 2:1.0 3:2.0 4:1.0 5:10.0 6:10.0 7:1.0 9:1.0 
-0.0 0.19165335569661576 0.0 0.0 1.0 3:2.0 4:1.0 5:20.0 6:17.0 7:1.0 11:3.0 25:1.0 26:1.0 
-0.0 1.0 1.0 1.0 0.0 2:1.0 3:2.0 4:3.0 5:6.0 6:4.0 7:1.0 9:1.0 
-0.0 1.0 1.0 0.0 0.27985102853946775 2:1.0 3:2.0 4:1.0 5:10.0 6:8.0 7:2.0 9:1.0 49:1.0 
-0.0 1.0 0.0 0.0 1.0 2:1.0 3:2.0 4:1.0 5:7.0 6:7.0 7:1.0 9:1.0 
-0.0 0.2711013430396419 0.11201342501203902 0.40396506564635726 0.02953633011240851 2:1.0 3:2.0 4:5.0 5:9.0 6:4.0 7:2.0 12:1.0 173:1.0 174:1.0 175:1.0 
-0.0 1.0 0.0 0.0 0.0 2:1.0 3:2.0 4:2.0 5:4.0 6:3.0 7:1.0 9:1.0 
-0.0 0.2190021070465197 0.0 0.0028312430661636915 0.9938045997567301 2:1.0 3:2.0 4:1.0 5:3.0 6:2.0 7:1.0 9:1.0 49:1.0 
-1.0 0.0 0.0 0.0 0.0 2:1.0 3:2.0 4:1.0 5:7.0 6:4.0 7:3.0 9:1.0 11:1.0 
-1.0 0.0 0.6154501818395837 0.304834177260405 0.0 1:1.0 2:1.0 3:2.0 4:1.0 5:5.0 6:3.0 7:1.0 11:1.0 49:1.0 
-0.2242187994830363 0.0 0.0 0.0 0.0 3:2.0 4:1.0 5:6.0 6:4.0 7:1.0 11:2.0 26:1.0 27:1.0 
-0.0 1.0 0.0 0.0 0.0 2:1.0 3:2.0 4:1.0 5:4.0 6:4.0 7:1.0 9:1.0 
-0.0 0.8244483184877787 0.33564383117016794 0.2941078530771865 0.26442444578399277 2:1.0 3:2.0 4:4.0 5:16.0 6:12.0 7:2.0 176:1.0 177:1.0 178:1.0 179:1.0 180:1.0 
-0.0 1.0 0.0 0.0 0.0 2:1.0 3:2.0 4:1.0 5:3.0 6:3.0 7:1.0 9:1.0 
-0.0 1.0 0.18142322285125914 0.0 0.0 2:1.0 3:2.0 4:7.0 5:14.0 6:5.0 7:3.0 9:1.0 160:1.0 
-0.0 1.0 0.870156711812053 0.6094348924183531 0.1568572959490946 2:1.0 3:2.0 4:1.0 5:7.0 6:6.0 7:1.0 39:1.0 167:1.0 181:1.0 182:1.0 
-0.0 0.30564777772979507 0.06424767256153573 0.11208862037224762 0.383263835280576 2:1.0 3:2.0 4:1.0 5:12.0 6:10.0 7:1.0 9:1.0 183:2.0 
-0.0 0.0 0.10661300336671496 0.07040679878874477 1.0 3:2.0 4:1.0 5:8.0 6:8.0 7:1.0 26:1.0 130:1.0 
-0.0 1.0 0.0 0.0 0.0 2:1.0 3:2.0 4:1.0 5:6.0 6:6.0 7:1.0 9:1.0 
-0.0 1.0 0.0 0.0 1.0 2:1.0 3:2.0 4:1.0 5:7.0 6:7.0 7:1.0 9:1.0 
-0.0 1.0 0.0 0.0 1.0 2:1.0 3:2.0 4:1.0 5:7.0 6:7.0 7:1.0 9:1.0 
-0.0 1.0 0.0 0.0 0.0 2:1.0 3:2.0 4:1.0 5:3.0 6:3.0 7:1.0 9:1.0 
-1.0 0.8629337507152669 1.0 1.0 0.7051296402167434 2:1.0 3:2.0 4:2.0 5:10.0 6:7.0 7:2.0 9:1.0 10:1.0 
-0.004686708110189378 0.6470145880189415 0.2243639487033666 0.18737612453722283 0.08833351479068031 2:1.0 3:2.0 4:1.0 5:2.0 6:2.0 7:1.0 12:1.0 184:1.0 
-0.0 1.0 0.0 0.0 0.0 2:1.0 3:2.0 4:1.0 5:3.0 6:3.0 7:1.0 9:1.0 
-0.0 0.9053458424699126 0.23126501316762216 0.19241425318672872 0.08832529002766337 2:1.0 3:2.0 4:1.0 5:3.0 6:3.0 7:1.0 12:1.0 185:1.0 
-0.0 0.0 0.0 0.0 0.6867011231967916 2:1.0 3:2.0 4:1.0 5:2.0 6:2.0 7:1.0 9:1.0 
-0.0 1.0 0.0 1.0 1.0 2:1.0 3:2.0 4:1.0 5:9.0 6:9.0 7:1.0 9:1.0 
-0.0 1.0 0.0 0.0 0.0 2:1.0 3:2.0 4:1.0 5:3.0 6:3.0 7:1.0 9:1.0 
-0.0 0.8028542065462171 0.523935342224764 0.5168491834951242 0.29078566579110027 2:1.0 3:2.0 4:1.0 5:7.0 6:7.0 7:1.0 186:1.0 187:1.0 188:1.0 
-0.0 1.0 0.04429754513512771 0.6913404534867291 0.0 2:1.0 3:2.0 4:2.0 5:8.0 6:6.0 7:1.0 12:1.0 28:1.0 72:1.0 73:1.0 189:1.0 
-0.0 1.0 1.0 1.0 1.0 2:1.0 3:2.0 4:2.0 5:10.0 6:7.0 7:2.0 50:1.0 190:1.0 
-0.0 1.0 0.0 0.0 0.0 2:1.0 3:2.0 4:1.0 5:3.0 6:3.0 7:1.0 9:1.0 
-0.0 1.0 1.0 0.0 1.0 2:1.0 3:2.0 4:3.0 5:13.0 6:10.0 7:2.0 9:1.0 
-0.004704934881693127 0.647017107481528 0.2243695911408481 0.18738171625751046 0.08832803664771928 2:1.0 3:2.0 4:1.0 5:2.0 6:2.0 7:1.0 12:1.0 191:1.0 
-0.0 0.0 0.0 0.15394212635637772 0.0 3:2.0 4:4.0 5:9.0 6:4.0 7:1.0 10:1.0 26:1.0 48:1.0 160:1.0 
-0.0 0.5812997852599235 0.27531520987369107 0.19905293897470386 0.0445174146795295 2:1.0 3:2.0 4:4.0 5:8.0 6:5.0 7:1.0 12:1.0 192:1.0 193:1.0 
-0.0 0.0 0.0 1.0 0.3119988075058386 2:1.0 3:2.0 4:1.0 5:3.0 6:3.0 7:1.0 12:1.0 55:1.0 
-0.0 1.0 0.0 0.0 0.0 2:1.0 3:2.0 4:1.0 5:4.0 6:4.0 7:1.0 9:1.0 
-0.0 1.0 0.0 0.0 0.0 2:1.0 3:2.0 4:2.0 5:4.0 6:3.0 7:1.0 9:1.0 
-0.0 1.0 0.0 1.0 1.0 2:1.0 3:2.0 4:1.0 5:9.0 6:9.0 7:1.0 9:1.0 
-0.0 1.0 1.0 0.0 0.0 2:1.0 3:2.0 4:1.0 5:10.0 6:7.0 7:3.0 9:1.0 49:1.0 
-0.0 1.0 0.7369588301714305 0.4330121949838472 0.04449649992675622 2:1.0 3:2.0 4:1.0 5:8.0 6:8.0 7:1.0 12:1.0 194:1.0 195:1.0 
-0.0 0.0 0.01435677284921237 0.04233479899184976 0.0 2:1.0 3:2.0 4:3.0 5:14.0 6:7.0 7:3.0 11:1.0 12:1.0 22:1.0 28:1.0 95:1.0 96:1.0 170:1.0 196:1.0 197:1.0 
-0.0 1.0 0.0 0.0 1.0 2:1.0 3:2.0 4:1.0 5:7.0 6:7.0 7:1.0 9:1.0 
-0.0 1.0 0.0 0.0 0.0 2:1.0 3:2.0 4:1.0 5:4.0 6:4.0 7:1.0 9:1.0 
-0.0 0.25989471814914844 0.0 0.0 0.0 3:2.0 4:1.0 5:12.0 6:12.0 7:1.0 23:1.0 24:1.0 
-0.0 0.6790499160789133 0.558138339184223 0.5008235397800055 0.2910607970144172 2:1.0 3:2.0 4:5.0 5:10.0 6:6.0 7:1.0 198:1.0 199:1.0 200:1.0 
-0.0 1.0 0.0 0.0 0.0 2:1.0 3:2.0 4:1.0 5:8.0 6:6.0 7:3.0 9:1.0 
-0.0 1.0 0.7089560164957315 0.5164709101704718 0.296933716020147 2:1.0 3:2.0 4:1.0 5:9.0 6:8.0 7:2.0 59:1.0 201:1.0 202:1.0 203:1.0 
-0.0 1.0 0.0 0.0 0.0 2:1.0 3:2.0 4:1.0 5:3.0 6:3.0 7:1.0 9:1.0 
-0.0 0.6215083881240165 0.38599908771777913 0.39652000739243753 0.3833988180658185 2:1.0 3:2.0 4:2.0 5:13.0 6:11.0 7:1.0 28:1.0 204:1.0 205:1.0 206:1.0 207:1.0 
-0.0 0.0 0.18961236514138163 0.0 0.17179269268437394 3:2.0 4:1.0 5:16.0 6:14.0 7:1.0 11:2.0 26:1.0 27:1.0 
-0.0 0.544358850884655 0.12248763212337042 0.11956999719710738 0.04418442768460193 2:1.0 3:2.0 4:1.0 5:5.0 6:5.0 7:1.0 12:1.0 208:1.0 209:1.0 
-1.0 1.0 0.0 0.0 0.0 2:1.0 3:2.0 4:1.0 5:7.0 6:6.0 7:1.0 9:1.0 11:1.0 
-0.0 0.0 0.0 0.3381040611616554 0.0 3:2.0 4:1.0 5:10.0 6:9.0 7:2.0 8:1.0 23:1.0 24:1.0 210:1.0 211:1.0 
-0.0 1.0 0.0 0.0 1.0 2:1.0 3:2.0 4:1.0 5:7.0 6:7.0 7:1.0 9:1.0 
-0.0 1.0 0.0 0.0 0.0 2:1.0 3:2.0 4:1.0 5:6.0 6:6.0 7:1.0 9:1.0 
-0.0 0.0 0.09700533213106577 0.09825947362275796 1.0 3:2.0 4:2.0 5:1.0 6:1.0 26:1.0 135:1.0 
-0.0 0.3483757637500282 0.0 0.0 0.14931588036989182 2:1.0 3:2.0 4:1.0 5:8.0 6:6.0 7:3.0 12:1.0 47:1.0 59:1.0 212:1.0 
-0.0 0.0 0.0 1.0 0.0 3:2.0 4:1.0 5:7.0 6:7.0 7:1.0 9:1.0 21:1.0 
-0.0 0.0 0.0 1.0 0.0 2:1.0 3:2.0 4:3.0 5:4.0 6:2.0 7:1.0 9:1.0 
-0.9046450075527129 0.0 0.0 0.0 0.0 1:1.0 2:1.0 3:2.0 4:2.0 5:5.0 6:4.0 7:1.0 
-0.0 0.17547834020424566 0.4352006145071028 0.14369009842324154 0.29764142216851214 2:1.0 3:2.0 4:1.0 5:7.0 6:4.0 7:4.0 12:1.0 59:1.0 214:1.0 
-0.0 1.0 0.23125131743532465 0.19241971318610865 0.08832419261964249 2:1.0 3:2.0 4:1.0 5:3.0 6:3.0 7:1.0 12:1.0 215:1.0 
-0.0 0.6713430657105308 0.11806690042341161 0.060672916236639444 0.04386875436511184 2:1.0 3:2.0 4:1.0 5:9.0 6:7.0 7:3.0 12:1.0 216:1.0 217:1.0 
-0.0 0.0 0.0 0.38726195408300174 0.822036435266275 2:1.0 3:2.0 4:1.0 5:3.0 6:2.0 7:1.0 9:1.0 49:1.0 
-0.0 1.0 0.0 0.0 0.0 2:1.0 3:2.0 4:1.0 5:3.0 6:3.0 7:1.0 9:1.0 
-0.0 0.0 0.16138578525930838 0.0 0.1703069029486735 3:2.0 4:3.0 5:10.0 6:8.0 7:1.0 26:1.0 48:1.0 
-0.0 1.0 0.23127133674839742 0.1924206296685988 0.08832673808185551 2:1.0 3:2.0 4:1.0 5:3.0 6:3.0 7:1.0 12:1.0 218:1.0 
-0.0 1.0 0.0 0.0 0.0 2:1.0 3:2.0 4:1.0 5:4.0 6:4.0 7:1.0 9:1.0 
-0.0 0.9415530484829386 0.14974380665719417 0.11875830628596198 0.0444151785825219 2:1.0 3:2.0 4:3.0 5:7.0 6:5.0 7:1.0 12:1.0 219:1.0 220:1.0 
-0.0 1.0 0.0 0.0 1.0 2:1.0 3:2.0 4:1.0 5:7.0 6:7.0 7:1.0 9:1.0 
-0.0 0.794286118287036 0.23126805594095015 0.19242387974663192 0.08832705433040162 2:1.0 3:2.0 4:1.0 5:3.0 6:3.0 7:1.0 12:1.0 221:1.0 
-0.0 0.7728895279875515 0.3130918352347159 0.0 0.25499059538128105 2:1.0 3:2.0 4:3.0 5:16.0 6:8.0 7:4.0 12:1.0 22:2.0 28:1.0 59:1.0 170:1.0 222:1.0 223:1.0 
-0.0 1.0 0.0 0.0 1.0 2:1.0 3:2.0 4:1.0 5:8.0 6:8.0 7:1.0 9:1.0 
-0.0 1.0 0.0 0.0 0.0 2:1.0 3:2.0 4:1.0 5:5.0 6:5.0 7:1.0 9:1.0 
-0.0 1.0 0.24836200152002788 0.03011062877799657 0.08835186936995117 2:1.0 3:2.0 4:2.0 5:4.0 6:2.0 7:1.0 12:1.0 22:1.0 224:1.0 
-0.00464535735776198 0.6470197192615388 0.2243653807909376 0.18738022760273146 0.08833333002514625 2:1.0 3:2.0 4:1.0 5:2.0 6:2.0 7:1.0 12:1.0 225:1.0 
-0.0 0.9814399264019613 0.7960893895743013 0.7247672068606548 0.43615157574433344 2:1.0 3:2.0 4:2.0 5:7.0 6:6.0 7:1.0 226:1.0 227:1.0 
-0.0 0.9862237231670253 0.1035893775390419 0.09434254191363625 0.35743675639728945 2:1.0 3:2.0 4:3.0 5:6.0 6:4.0 7:1.0 12:1.0 108:1.0 228:1.0 
-0.0 0.8188574082528478 0.2585831129200319 0.2100318350014415 0.08840432064385814 2:1.0 3:2.0 4:2.0 5:4.0 6:3.0 7:1.0 12:1.0 229:1.0 
-0.0 1.0 0.0 0.0 0.0 2:1.0 3:2.0 4:2.0 5:5.0 6:4.0 7:1.0 9:1.0 
-0.0 1.0 0.0 0.0 0.0 2:1.0 3:2.0 4:1.0 5:3.0 6:3.0 7:1.0 9:1.0 
-0.0 0.6915505292736402 0.12934210520344894 0.10623166209509384 0.0443695418843883 2:1.0 3:2.0 4:1.0 5:7.0 6:7.0 7:1.0 12:1.0 230:1.0 231:1.0 
-1.0 0.0 0.0 0.0 0.06729805137638786 2:1.0 3:2.0 4:1.0 5:3.0 6:2.0 7:1.0 9:1.0 18:1.0 
-0.0 1.0 0.9858704510807961 1.0 0.0 2:1.0 3:2.0 4:3.0 5:5.0 6:3.0 7:1.0 9:1.0 
-0.0 0.5165957802927774 0.2551588527374102 0.3856089085085698 0.2073396074299379 3:2.0 4:5.0 5:13.0 6:8.0 7:2.0 8:1.0 181:1.0 232:1.0 233:1.0 234:1.0 
-0.0 1.0 0.0 0.0 1.0 2:1.0 3:2.0 4:1.0 5:7.0 6:7.0 7:1.0 9:1.0 
-0.0 0.437641676348563 0.6941509538165066 0.049380853528334004 0.04389239726310144 2:1.0 3:2.0 4:2.0 5:12.0 6:8.0 7:4.0 12:1.0 235:1.0 236:1.0 
-0.0 1.0 0.0 0.0 0.0 2:1.0 3:2.0 4:1.0 5:10.0 6:8.0 7:3.0 9:1.0 
-0.0 1.0 0.0 1.0 0.1950193714069852 2:1.0 3:2.0 4:2.0 5:7.0 6:6.0 7:1.0 9:1.0 
-0.0 0.0 0.0 0.0 1.0 2:1.0 3:2.0 4:1.0 5:2.0 6:2.0 7:1.0 9:1.0 
-0.0 1.0 0.8910273527503735 0.9567518396316174 0.1923124375998971 2:1.0 3:2.0 4:6.0 5:13.0 6:8.0 7:1.0 196:1.0 202:1.0 237:1.0 
-0.0 0.6716624073288219 0.2516938189805513 0.20499950528943234 0.08840808952360826 2:1.0 3:2.0 4:2.0 5:3.0 6:2.0 7:1.0 12:1.0 238:1.0 
-0.0 1.0 0.0 0.0 0.0 2:1.0 3:2.0 4:1.0 5:7.0 6:6.0 7:2.0 9:1.0 
-1.0 0.0 0.0 0.0 0.0 1:1.0 2:1.0 3:2.0 4:2.0 5:5.0 6:4.0 7:1.0 
-0.004652225954359556 0.6470194774613136 0.2243692082927182 0.18737675438187248 0.08832896837042244 2:1.0 3:2.0 4:1.0 5:2.0 6:2.0 7:1.0 12:1.0 239:1.0 
-0.0 1.0 0.0 0.0 0.0 2:1.0 3:2.0 4:1.0 5:3.0 6:3.0 7:1.0 9:1.0 
-0.8923647403002802 0.0 0.0 0.0 0.0 3:2.0 4:1.0 5:10.0 6:6.0 7:2.0 11:3.0 23:1.0 24:1.0 
-0.0 0.2500011992197905 0.0 0.018329890406112163 0.056528203614490576 2:1.0 3:2.0 4:3.0 5:11.0 6:7.0 7:1.0 12:1.0 28:1.0 111:1.0 112:1.0 160:1.0 240:1.0 
-0.0 1.0 1.0 1.0 1.0 2:1.0 3:2.0 4:1.0 5:10.0 6:9.0 7:1.0 9:1.0 49:1.0 
-0.0 0.9553758923054618 0.2200674935110744 0.0 0.20150973943020745 3:2.0 4:2.0 5:5.0 6:4.0 7:1.0 8:1.0 12:1.0 241:1.0 
-0.0 0.35695913193438594 0.15954657274552278 0.4497802503280363 0.09978006877379796 2:1.0 3:2.0 4:1.0 5:8.0 6:7.0 7:2.0 12:1.0 59:1.0 242:1.0 243:1.0 244:1.0 
-0.0 1.0 1.0 0.668452163794463 0.29103944028849216 2:1.0 3:2.0 4:3.0 5:10.0 6:8.0 7:1.0 245:1.0 246:1.0 247:1.0 
-0.0 0.0 0.2619568915473963 0.0 0.0 2:1.0 3:2.0 4:2.0 5:5.0 6:3.0 7:1.0 12:1.0 39:1.0 84:1.0 
-1.0 0.0 0.0 0.0 0.0 1:1.0 2:1.0 3:2.0 4:2.0 5:3.0 6:2.0 7:1.0 
-0.0 0.0 0.0 0.0 0.17079301129705468 3:2.0 4:2.0 5:12.0 6:10.0 7:1.0 11:1.0 26:1.0 76:1.0 
-0.0 0.0 0.0 0.0 1.0 2:1.0 3:2.0 4:1.0 5:2.0 6:2.0 7:1.0 9:1.0 
-0.0 0.0 0.09959927026784603 0.06527834877704025 1.0 3:2.0 4:1.0 5:7.0 6:7.0 7:1.0 26:1.0 248:1.0 
-1.0 0.8246350702462757 0.0 0.0 0.0 2:1.0 3:2.0 4:1.0 5:6.0 6:4.0 7:1.0 9:1.0 11:1.0 22:1.0 
-0.0 1.0 0.0 0.0 0.0 2:1.0 3:2.0 4:1.0 5:3.0 6:3.0 7:1.0 9:1.0 
-0.0 1.0 1.0 1.0 1.0 2:1.0 3:2.0 4:4.0 5:21.0 6:16.0 7:2.0 9:1.0 11:1.0 
-1.0 0.0 0.0 0.0 0.0 1:1.0 2:1.0 3:2.0 4:3.0 5:10.0 6:5.0 7:3.0 11:1.0 
-0.0 1.0 0.0 0.0 0.0 2:1.0 3:2.0 4:2.0 5:6.0 6:5.0 7:1.0 9:1.0 
-0.0 0.3940841370940883 0.0 1.0 0.4889519806035911 3:2.0 4:3.0 5:9.0 6:7.0 7:1.0 9:1.0 21:1.0 
-1.0 0.0 0.0 0.0 0.0 2:1.0 3:2.0 4:1.0 5:3.0 6:2.0 7:2.0 8:1.0 9:1.0 
-0.0 1.0 0.0 0.0 1.0 2:1.0 3:2.0 4:1.0 5:8.0 6:8.0 7:1.0 9:1.0 
-0.0 0.0 0.0 0.0 1.0 2:1.0 3:2.0 4:1.0 5:2.0 6:2.0 7:1.0 9:1.0 
-0.0 0.9414595373400719 0.23811477142753867 0.19744630116791478 0.08832597613113609 2:1.0 3:2.0 4:1.0 5:4.0 6:4.0 7:1.0 12:1.0 249:1.0 
-0.0 1.0 1.0 0.0 0.0 2:1.0 3:2.0 4:3.0 5:9.0 6:6.0 7:2.0 9:1.0 
-0.0 1.0 0.0 0.0 1.0 2:1.0 3:2.0 4:1.0 5:17.0 6:14.0 7:4.0 9:1.0 
-0.0 1.0 0.3505428741915708 0.27278756371062096 0.08892204677905084 2:1.0 3:2.0 4:3.0 5:8.0 6:5.0 7:1.0 12:1.0 49:1.0 250:1.0 
-0.0 1.0 0.0 1.0 1.0 2:1.0 3:2.0 4:1.0 5:10.0 6:10.0 7:1.0 9:1.0 
-0.16074204613088636 0.28634068872797563 0.4106110106497 0.28344941092708553 0.17441621850453784 2:1.0 3:2.0 4:1.0 5:7.0 6:6.0 7:1.0 11:1.0 144:1.0 251:1.0 252:1.0 
-0.0 0.06751115830522689 0.0 0.0 0.0 2:1.0 3:2.0 4:3.0 5:7.0 6:5.0 7:1.0 12:1.0 101:1.0 144:1.0 
-0.0 1.0 0.0 0.0 0.1723494092624869 3:2.0 4:2.0 5:18.0 6:16.0 7:1.0 11:1.0 25:1.0 26:1.0 
-0.0 1.0 1.0 1.0 1.0 2:1.0 3:2.0 4:1.0 5:15.0 6:15.0 7:1.0 9:1.0 
-0.0 1.0 0.0 0.0 1.0 2:1.0 3:2.0 4:1.0 5:7.0 6:7.0 7:1.0 9:1.0 
-0.0 0.5819765401308902 0.2758156763444337 0.24885205155216222 0.1456780510098479 2:1.0 3:2.0 4:3.0 5:13.0 6:11.0 7:1.0 253:1.0 254:2.0 255:1.0 
-0.0 1.0 1.0 1.0 1.0 2:1.0 3:2.0 4:3.0 5:9.0 6:7.0 7:1.0 9:1.0 
-1.0 0.0 0.0 0.0 0.0 1:1.0 2:1.0 3:2.0 4:2.0 5:5.0 6:2.0 7:3.0 
-0.0 0.0 0.0 0.6288189747212082 0.0 3:2.0 4:1.0 5:8.0 6:5.0 7:3.0 9:1.0 21:1.0 88:1.0 
-0.0 1.0 0.0 0.0 0.0 2:1.0 3:2.0 4:1.0 5:5.0 6:5.0 7:1.0 9:1.0 
-0.0 1.0 0.0 0.0 0.0 2:1.0 3:2.0 4:2.0 5:9.0 6:6.0 7:3.0 9:1.0 
-0.0 0.0 0.0 1.0 0.0 3:2.0 4:1.0 5:4.0 6:4.0 7:1.0 9:1.0 21:1.0 
-0.25417156463096047 0.0 0.0 0.0 0.3288924685714344 2:1.0 3:2.0 4:1.0 5:2.0 6:2.0 7:1.0 9:1.0 
-0.0 1.0 0.0 0.0 0.0 2:1.0 3:2.0 4:1.0 5:4.0 6:4.0 7:1.0 9:1.0 
-0.0 1.0 0.0 0.0 0.8375758050834735 1:1.0 2:1.0 3:2.0 4:1.0 5:15.0 6:13.0 7:3.0 
-0.0 1.0 0.6997650449745516 0.0 0.9979473059855586 3:2.0 4:1.0 5:22.0 6:22.0 7:1.0 23:1.0 24:1.0 
-1.0 0.0 0.0 0.0 0.6194843116619176 2:1.0 3:2.0 4:1.0 5:2.0 6:2.0 7:1.0 9:1.0 
-0.0 1.0 0.0 0.0 0.0 2:1.0 3:2.0 4:1.0 5:3.0 6:3.0 7:1.0 9:1.0 
-0.0 0.7942849673895152 0.23126717497994242 0.19241047833353123 0.08832858356045317 2:1.0 3:2.0 4:1.0 5:3.0 6:3.0 7:1.0 12:1.0 256:1.0 
-0.0 1.0 1.0 1.0 1.0 2:1.0 3:2.0 4:4.0 5:8.0 6:5.0 7:1.0 9:1.0 
-0.0 0.3556776516355823 0.2927428941299879 0.08973483361039272 0.0 2:1.0 3:2.0 4:6.0 5:14.0 6:9.0 7:1.0 12:1.0 141:1.0 257:1.0 258:1.0 259:1.0 
-0.0 0.9905905360958916 0.292636265602822 0.23247520049059817 0.08874020632489157 2:1.0 3:2.0 4:3.0 5:6.0 6:4.0 7:1.0 12:1.0 260:1.0 
-0.0 1.0 0.6681097719453022 0.0 0.07712235870891701 2:1.0 3:2.0 4:2.0 5:13.0 6:9.0 7:4.0 8:1.0 9:1.0 
-1.0 0.0 0.0 0.0 0.0 2:1.0 3:2.0 4:1.0 5:5.0 6:4.0 7:1.0 9:1.0 11:1.0 
-0.0 0.7083001678753894 0.10794506611293589 0.146095841888168 0.37419811896182953 2:1.0 3:2.0 4:3.0 5:8.0 6:5.0 7:1.0 12:1.0 28:1.0 261:1.0 262:1.0 
-1.0 0.0 0.0 0.0 0.0 1:1.0 2:1.0 3:2.0 4:2.0 5:5.0 6:4.0 7:1.0 
-0.0 0.0 0.28807767947729396 0.27140717351034066 0.0 3:2.0 4:4.0 5:12.0 6:7.0 7:1.0 10:1.0 11:1.0 25:1.0 26:1.0 
-0.0 1.0 0.0 0.0 0.0 2:1.0 3:2.0 4:1.0 5:3.0 6:3.0 7:1.0 9:1.0 
-0.0 1.0 1.0 1.0 6.247220489868802E-4 2:1.0 3:2.0 4:3.0 5:6.0 6:4.0 7:1.0 9:1.0 
-0.16035621768005198 0.0 1.0 0.0 0.0 2:1.0 3:2.0 4:5.0 5:15.0 6:6.0 7:5.0 8:1.0 9:1.0 10:1.0 
-0.0 1.0 0.0 0.0 0.0 2:1.0 3:2.0 4:1.0 5:3.0 6:3.0 7:1.0 9:1.0 
-0.0 1.0 0.0 0.0 0.0 2:1.0 3:2.0 4:1.0 5:6.0 6:6.0 7:1.0 9:1.0 
-0.0 1.0 0.0 0.0 0.0 2:1.0 3:2.0 4:1.0 5:11.0 6:9.0 7:3.0 9:1.0 
-1.0 0.0 1.0 1.0 1.0 2:1.0 3:2.0 4:2.0 5:5.0 6:3.0 7:1.0 9:1.0 10:1.0 
-0.0 1.0 0.0 0.0 0.0 2:1.0 3:2.0 4:1.0 5:4.0 6:4.0 7:1.0 9:1.0 
-0.0 1.0 0.0 0.0 0.0 2:1.0 3:2.0 4:1.0 5:4.0 6:4.0 7:1.0 9:1.0 
-0.0 0.6833362084997335 0.3707983108012187 0.4183248533241783 0.0 2:1.0 3:2.0 4:1.0 5:8.0 6:8.0 7:1.0 12:1.0 119:1.0 264:1.0 265:1.0 
-0.0 1.0 0.0 1.0 1.0 2:1.0 3:2.0 4:1.0 5:9.0 6:9.0 7:1.0 9:1.0 
-0.0 1.0 0.37380993659637696 0.20235643546823814 0.08839101075345138 2:1.0 3:2.0 4:1.0 5:5.0 6:5.0 7:1.0 12:1.0 266:1.0 
-0.0 0.7145832196151685 0.22676666246008959 0.15182891214541175 0.08775188898732071 2:1.0 3:2.0 4:1.0 5:5.0 6:4.0 7:2.0 12:1.0 267:1.0 
-0.0 1.0 0.7395820402957208 1.0 1.0 2:1.0 3:2.0 4:2.0 5:8.0 6:7.0 7:1.0 9:1.0 
-1.0 0.0 1.0 0.0 0.0 1:1.0 2:1.0 3:2.0 4:2.0 5:12.0 6:9.0 7:2.0 11:1.0 
-0.0 1.0 1.0 1.0 1.0 2:1.0 3:2.0 4:3.0 5:9.0 6:7.0 7:1.0 9:1.0 
-0.0 1.0 0.0 0.0 0.0 2:1.0 3:2.0 4:2.0 5:4.0 6:3.0 7:1.0 9:1.0 
-0.0 1.0 1.0 1.0 1.0 2:1.0 3:2.0 4:3.0 5:12.0 6:10.0 7:1.0 9:1.0 
-0.0 -0.0 0.15038789481242823 0.0 0.0 2:1.0 3:2.0 4:3.0 5:14.0 6:9.0 7:3.0 22:1.0 268:1.0 269:1.0 270:1.0 271:1.0 
-0.0 -0.0 0.29648766465967996 0.0 0.0 2:1.0 3:2.0 4:3.0 5:6.0 6:4.0 7:1.0 272:1.0 273:1.0 
-0.0 -1.0 1.0 1.0 0.0 2:1.0 3:2.0 4:4.0 5:8.0 6:4.0 7:2.0 9:1.0 
-0.0 -0.7063805794784241 0.2697099767064209 0.5987027574045803 0.05210345768261775 2:1.0 3:2.0 4:2.0 5:8.0 6:6.0 7:1.0 28:1.0 72:1.0 73:1.0 189:1.0 274:1.0 
-0.13485816263578954 -0.011537627579269164 0.0 0.7734457486661399 0.06331457122145272 2:1.0 3:2.0 4:1.0 5:7.0 6:5.0 7:2.0 11:1.0 275:1.0 276:1.0 277:1.0 
-0.0 -0.0 0.0 0.0 0.7287678858981294 2:1.0 3:2.0 4:2.0 5:8.0 6:7.0 7:1.0 74:1.0 245:1.0 278:1.0 
-0.0 -0.12620328229822597 0.854101965486745 0.45603642440350434 0.0 2:1.0 3:2.0 4:3.0 5:14.0 6:11.0 7:2.0 97:1.0 167:1.0 196:1.0 279:1.0 
-0.0 -0.34113080369829907 0.0 0.06538480681999458 0.14937150557719758 2:1.0 3:2.0 4:2.0 5:13.0 6:8.0 7:2.0 12:1.0 22:2.0 28:1.0 224:1.0 280:1.0 281:1.0 282:1.0 283:1.0 
-0.0 -0.17823332229481506 0.2280825568081385 0.035719058517000975 0.04700253783110881 2:1.0 3:2.0 4:3.0 5:11.0 6:7.0 7:3.0 12:1.0 13:1.0 284:1.0 285:1.0 286:1.0 
-0.0 -0.2270492700744829 0.07385471589869874 0.26608621880160305 0.04824892026961164 2:1.0 3:2.0 4:3.0 5:5.0 6:3.0 7:1.0 289:1.0 290:1.0 
-0.0 -0.23518431520846064 0.0 0.0 0.01547250692538523 2:1.0 3:2.0 4:1.0 5:11.0 6:8.0 7:3.0 12:1.0 49:1.0 109:1.0 291:1.0 292:1.0 
-0.0 -1.0 1.0 0.23551982006039482 0.006801035901453285 2:1.0 3:2.0 4:3.0 5:4.0 6:2.0 7:1.0 12:1.0 293:1.0 
-0.3341827791376162 -0.37591730968795695 1.0 1.0 0.4656755512203308 2:1.0 3:2.0 4:1.0 5:4.0 6:3.0 7:1.0 11:1.0 197:1.0 294:1.0 
-0.3716116170345213 -1.0 0.4371604115224885 0.0 0.0 2:1.0 3:2.0 4:1.0 5:4.0 6:3.0 7:1.0 9:1.0 39:1.0 
-0.0 -0.0 0.0 0.05988747582826844 0.0 2:1.0 3:2.0 4:1.0 5:6.0 6:6.0 7:1.0 295:1.0 296:1.0 
-0.0 -0.0 0.40162694140672667 0.07836111772821248 0.0 2:1.0 3:2.0 4:3.0 5:13.0 6:11.0 7:1.0 12:1.0 284:1.0 297:1.0 298:1.0 299:1.0 
-0.0 -0.4649003837865693 0.8433329859493262 0.19526814726401487 0.1108958482444325 2:1.0 3:2.0 4:3.0 5:11.0 6:6.0 7:4.0 12:1.0 300:1.0 301:1.0 302:1.0 
-0.0 -0.2146992558108945 0.4810331620198888 0.29025127014235197 0.048314281754486356 2:1.0 3:2.0 4:4.0 5:6.0 6:3.0 7:1.0 303:1.0 304:1.0 
-0.0 -1.0 0.0 0.0 0.0 2:1.0 3:2.0 4:1.0 5:7.0 6:7.0 7:1.0 9:1.0 
-0.0 -1.0 0.0 0.0 0.0 2:1.0 3:2.0 4:1.0 5:5.0 6:5.0 7:1.0 9:1.0 
-0.0 -1.0 0.0 0.0 1.0 2:1.0 3:2.0 4:1.0 5:10.0 6:10.0 7:1.0 9:1.0 
-0.0 -0.0 0.09336032567273138 0.06986750345290736 0.0 2:1.0 3:2.0 4:3.0 5:14.0 6:12.0 7:1.0 316:1.0 317:1.0 318:1.0 319:1.0 320:1.0 
-0.0 -0.0 0.5391022583524189 0.012436263719920487 0.35440941359947836 3:2.0 4:1.0 5:10.0 6:8.0 7:3.0 55:1.0 321:1.0 322:1.0 323:1.0 
-0.37145378709703086 -0.7520520343506134 0.36260198191656756 0.21804875400849233 0.13070057332397064 2:1.0 3:2.0 4:1.0 5:6.0 6:5.0 7:1.0 11:1.0 67:1.0 324:1.0 
-0.0 -0.10731266241371026 0.0 0.0 0.0 2:1.0 3:2.0 4:1.0 5:8.0 6:7.0 7:2.0 12:1.0 89:1.0 203:1.0 325:1.0 
-0.0 -1.0 0.0 0.0 0.0 2:1.0 3:2.0 4:1.0 5:6.0 6:6.0 7:1.0 9:1.0 
-0.0 -0.2830583981390556 0.3118132936812131 0.0 0.0 2:1.0 3:2.0 4:3.0 5:7.0 6:5.0 7:1.0 167:1.0 326:1.0 
-0.0 -0.45564085621047506 0.07545757518644167 0.06928911235950208 0.3081176341935151 2:1.0 3:2.0 4:1.0 5:5.0 6:5.0 7:1.0 12:1.0 327:1.0 328:1.0 
-0.0 -0.12882443570726518 0.12217905934475883 0.16399472002390608 0.15971272539351555 3:2.0 4:2.0 5:4.0 6:3.0 7:1.0 8:1.0 272:1.0 329:1.0 
-0.0 -0.0 0.1743321196713863 0.0 0.0 2:1.0 3:2.0 4:3.0 5:7.0 6:5.0 7:1.0 245:1.0 330:1.0 331:1.0 
-0.0 -1.0 0.0 0.0 0.0 2:1.0 3:2.0 4:1.0 5:13.0 6:11.0 7:3.0 9:1.0 
-0.0 -0.2392068261757244 0.0 0.9594104290329761 0.0 2:1.0 3:2.0 4:2.0 5:9.0 6:6.0 7:2.0 12:1.0 13:1.0 22:1.0 170:1.0 332:1.0 
-0.0 -0.0 0.3553301603095321 0.09685020609205704 0.017410923970386873 2:1.0 3:2.0 4:1.0 5:9.0 6:8.0 7:2.0 333:1.0 334:1.0 335:1.0 336:1.0 
-0.0 -0.1335659504455484 0.0 0.0 0.0 2:1.0 3:2.0 4:3.0 5:23.0 6:14.0 7:8.0 8:1.0 167:1.0 168:1.0 337:1.0 338:1.0 339:1.0 
-0.0 -0.0 0.016228408282579397 0.0 0.0 2:1.0 3:2.0 4:3.0 5:9.0 6:7.0 7:1.0 110:1.0 167:1.0 340:1.0 
-0.0 -0.48959595849132237 0.08110454910529695 0.0 0.0 2:1.0 3:2.0 4:1.0 5:5.0 6:5.0 7:1.0 45:1.0 245:1.0 341:1.0 
-0.0 -1.0 0.0 0.0 0.0 2:1.0 3:2.0 4:1.0 5:9.0 6:7.0 7:3.0 9:1.0 
-0.0 -1.0 0.0 1.0 0.0 2:1.0 3:2.0 4:2.0 5:6.0 6:5.0 7:1.0 9:1.0 
-0.0 -1.0 1.0 1.0 0.9676235412737729 2:1.0 3:2.0 4:3.0 5:6.0 6:4.0 7:1.0 9:1.0 
-0.0 -0.0 0.3470295475576158 0.2176217451818879 0.04833845780003521 2:1.0 3:2.0 4:1.0 5:8.0 6:8.0 7:1.0 346:1.0 347:1.0 
-0.0 -0.0 0.1320694486488707 0.08152828540545949 0.0 2:1.0 3:2.0 4:1.0 5:7.0 6:7.0 7:1.0 109:1.0 278:1.0 348:1.0 
-0.0 -0.9768298573448345 0.0 0.0 0.0 2:1.0 3:2.0 4:1.0 5:8.0 6:8.0 7:1.0 12:1.0 63:1.0 
-0.0 -0.2826204655314013 0.5943700317474524 0.0 0.06246087943181291 2:1.0 3:2.0 4:4.0 5:16.0 6:11.0 7:3.0 59:1.0 95:1.0 127:1.0 315:1.0 349:1.0 350:1.0 
-0.0 -1.0 0.0 0.0 0.0 2:1.0 3:2.0 4:1.0 5:5.0 6:5.0 7:1.0 9:1.0 
-0.18843901566027674 -0.4183620649362237 0.7957789212771974 0.004309175458960775 0.043097903322771663 2:1.0 3:2.0 4:5.0 5:9.0 6:4.0 7:1.0 11:1.0 12:1.0 351:1.0 352:1.0 353:1.0 
-0.0 -1.0 1.0 1.0 1.0 2:1.0 3:2.0 4:1.0 5:16.0 6:16.0 7:1.0 9:1.0 
-0.0 -0.0 0.9358905150883688 0.28075031120751953 0.0 3:2.0 4:5.0 5:9.0 6:5.0 7:1.0 8:1.0 119:1.0 170:1.0 355:1.0 
-0.0 -0.20008366676312775 0.26901092347835487 0.0 0.1268990109249222 2:1.0 3:2.0 4:3.0 5:9.0 6:3.0 7:2.0 22:1.0 28:1.0 160:1.0 309:1.0 356:1.0 
-0.0 -0.49257971029054604 0.40289579686439536 0.1941498031374155 0.15934964480952052 3:2.0 4:4.0 5:9.0 6:4.0 7:3.0 8:1.0 63:1.0 261:1.0 357:1.0 
-0.0 -0.03420826631810642 0.14234481296558807 0.21230944444607203 0.0 2:1.0 3:2.0 4:2.0 5:6.0 6:5.0 7:1.0 358:1.0 359:1.0 360:1.0 
-0.057517027663619914 -0.12600839172838302 0.5554188485196178 0.16939842482464118 0.06543690937280018 2:1.0 3:2.0 4:6.0 5:12.0 6:6.0 7:1.0 11:1.0 151:1.0 361:1.0 362:1.0 363:1.0 
-0.0 -0.11229889076511394 0.32271531795600655 0.14283511105999278 0.03201581287329232 2:1.0 3:2.0 4:5.0 5:10.0 6:5.0 7:2.0 364:1.0 365:1.0 366:1.0 
-0.0 -0.921904125045138 0.0 0.15298911734718953 0.3894677782800901 3:2.0 4:1.0 5:5.0 6:5.0 7:1.0 8:1.0 12:1.0 367:1.0 
-0.0 -0.0 1.0 1.0 0.0 2:1.0 3:2.0 4:1.0 5:7.0 6:7.0 7:1.0 177:1.0 368:1.0 
-0.0 -0.0 0.0853648499918865 0.05922554191019889 0.0 2:1.0 3:2.0 4:3.0 5:9.0 6:6.0 7:1.0 28:1.0 245:1.0 369:1.0 370:1.0 371:1.0 
-0.0 -1.0 1.0 1.0 0.0 2:1.0 3:2.0 4:3.0 5:9.0 6:6.0 7:2.0 9:1.0 
-0.0 -1.0 0.0 0.0 1.0 2:1.0 3:2.0 4:1.0 5:11.0 6:11.0 7:1.0 9:1.0 
-0.0 -0.28734036421830517 0.0 0.07835978059263381 0.0022947367026291965 2:1.0 3:2.0 4:3.0 5:7.0 6:5.0 7:1.0 12:1.0 305:1.0 306:1.0 372:1.0 
-0.0 -0.07273994182556671 0.14019697816106336 0.0 0.02646082362505536 2:1.0 3:2.0 4:3.0 5:7.0 6:4.0 7:1.0 49:1.0 333:1.0 373:1.0 374:1.0 
-0.0167481143713809 -1.0 0.0 1.0 1.0 2:1.0 3:2.0 4:2.0 5:5.0 6:4.0 7:1.0 9:1.0 
-0.0 -1.0 0.018773699326019817 0.13873745157159204 0.006803756822831129 2:1.0 3:2.0 4:1.0 5:4.0 6:4.0 7:1.0 12:1.0 375:1.0 
-0.0 -1.0 0.0 0.0 0.0 2:1.0 3:2.0 4:1.0 5:9.0 6:9.0 7:1.0 9:1.0 
-0.0 -0.46961574750377894 0.2270279427031087 0.5052731243064984 0.7595447555005005 2:1.0 3:2.0 4:3.0 5:11.0 6:7.0 7:3.0 12:1.0 376:1.0 377:1.0 
-0.0 -0.0 0.20176045906297288 0.025830593668097344 0.0 3:2.0 4:1.0 5:6.0 6:5.0 7:1.0 39:1.0 323:1.0 343:1.0 378:1.0 
-0.0 -1.0 0.0 0.0 1.0 2:1.0 3:2.0 4:1.0 5:10.0 6:10.0 7:1.0 9:1.0 
-0.0 -0.0 0.6087191000706661 0.4915475639817779 0.0 2:1.0 3:2.0 4:1.0 5:9.0 6:9.0 7:1.0 55:1.0 194:1.0 373:1.0 
-0.0 -0.0 0.12221760840808751 0.0 0.0 2:1.0 3:2.0 4:1.0 5:11.0 6:11.0 7:1.0 12:1.0 167:1.0 284:1.0 379:1.0 
-0.0 -0.0 0.6238145192725194 0.06504364410288342 0.3321761409595798 2:1.0 3:2.0 4:4.0 5:11.0 6:7.0 7:1.0 28:1.0 380:1.0 381:1.0 382:1.0 383:1.0 384:1.0 
-0.0 -1.0 0.0 0.0 1.0 2:1.0 3:2.0 4:1.0 5:12.0 6:12.0 7:1.0 9:1.0 
-0.0 -1.0 0.0 0.0 0.0 2:1.0 3:2.0 4:1.0 5:5.0 6:5.0 7:1.0 9:1.0 
-0.0 -0.0 0.4155706861359587 0.029886639947179227 0.0 2:1.0 3:2.0 4:1.0 5:17.0 6:14.0 7:4.0 112:1.0 385:1.0 386:1.0 387:1.0 
-1.0 -1.0 0.0 0.14492396867307789 1.0 2:1.0 3:2.0 4:1.0 5:11.0 6:10.0 7:1.0 9:1.0 11:1.0 
-0.0 -1.0 0.0 0.0 0.0 2:1.0 3:2.0 4:1.0 5:6.0 6:6.0 7:1.0 9:1.0 
-0.0 -1.0 0.8642489840473031 0.5320862030256123 1.0 2:1.0 3:2.0 4:3.0 5:6.0 6:4.0 7:1.0 190:1.0 
-0.0 -0.0 0.28209502258669117 0.09747844708311289 0.11598523750281028 2:1.0 3:2.0 4:3.0 5:8.0 6:5.0 7:1.0 19:1.0 66:1.0 388:1.0 
-0.0 -0.0 0.0 0.0044497798487692425 0.07277130198258758 2:1.0 3:2.0 4:2.0 5:10.0 6:8.0 7:1.0 49:1.0 307:1.0 389:1.0 390:1.0 
-0.0 -0.0 0.05755019584836309 0.0 0.0 2:1.0 3:2.0 4:2.0 5:14.0 6:12.0 7:1.0 12:1.0 22:1.0 391:1.0 392:2.0 393:1.0 
-0.0 -1.0 0.9434921204165371 0.40930586446864464 0.31184503706523464 2:1.0 3:2.0 4:1.0 5:9.0 6:8.0 7:2.0 12:1.0 57:1.0 59:1.0 121:1.0 
-0.0 -1.0 0.0 0.0 0.0 2:1.0 3:2.0 4:1.0 5:6.0 6:6.0 7:1.0 9:1.0 
-0.0 -0.2147153468508518 0.669420154554762 0.29026728047165423 0.048310486984743245 2:1.0 3:2.0 4:4.0 5:6.0 6:3.0 7:1.0 342:1.0 394:1.0 
-0.0 -0.0 0.4163881903184548 0.0 0.3922215425912588 2:1.0 3:2.0 4:2.0 5:9.0 6:5.0 7:2.0 22:2.0 74:1.0 284:1.0 395:1.0 396:1.0 
-0.0 -0.8863017888535465 0.7332363876932053 0.22321705146940407 0.0 2:1.0 3:2.0 4:2.0 5:8.0 6:3.0 7:4.0 12:1.0 49:1.0 397:1.0 398:1.0 
-0.0 -0.0 1.0 0.0 0.0 3:2.0 4:1.0 5:8.0 6:8.0 7:1.0 167:1.0 323:1.0 
-0.0 -1.0 0.21433333007124272 0.2355202140580944 0.006895615869105509 2:1.0 3:2.0 4:3.0 5:4.0 6:2.0 7:1.0 12:1.0 401:1.0 
-0.0 -1.0 1.0 1.0 1.0 2:1.0 3:2.0 4:4.0 5:8.0 6:5.0 7:1.0 9:1.0 
-0.0 -0.0 0.14762926956905195 0.1269798266960441 0.0 2:1.0 3:2.0 4:6.0 5:11.0 6:6.0 7:1.0 386:1.0 402:1.0 403:1.0 404:1.0 
-0.0 -0.0 0.051988412816881845 0.2391457100978487 0.0 2:1.0 3:2.0 4:2.0 5:11.0 6:10.0 7:1.0 405:1.0 406:1.0 407:1.0 408:1.0 
-0.0 -0.050532695178070755 0.19285120317632226 0.0627516948617091 0.0385051707619965 2:1.0 3:2.0 4:5.0 5:11.0 6:6.0 7:2.0 66:1.0 409:1.0 410:1.0 411:1.0 
-0.0 -1.0 1.0 1.0 0.9217124450599733 2:1.0 3:2.0 4:4.0 5:6.0 6:3.0 7:1.0 9:1.0 
-0.0 -1.0 0.018778896293908984 0.1387266283293263 0.006819768247334468 2:1.0 3:2.0 4:1.0 5:4.0 6:4.0 7:1.0 12:1.0 412:1.0 
-0.0 -0.0770301272105724 0.49900599035154003 0.47442151937013655 0.0 3:2.0 4:5.0 5:7.0 6:3.0 7:1.0 323:1.0 413:1.0 414:1.0 
-0.0 -0.0 0.085185147555495 0.017762613365559066 0.0 2:1.0 3:2.0 4:3.0 5:14.0 6:10.0 7:3.0 121:1.0 415:1.0 416:1.0 417:1.0 418:1.0 
-0.0 -1.0 0.0 0.0 0.0 2:1.0 3:2.0 4:1.0 5:8.0 6:8.0 7:1.0 9:1.0 
-0.0 -1.0 1.0 1.0 1.0 2:1.0 3:2.0 4:2.0 5:13.0 6:12.0 7:1.0 9:1.0 
-0.0 -0.03410399919728313 0.4463561343827057 0.0 0.057874959061605585 2:1.0 3:2.0 4:3.0 5:10.0 6:7.0 7:1.0 28:1.0 223:1.0 393:1.0 419:1.0 420:1.0 
-0.0 -1.0 0.0 0.0 0.0 2:1.0 3:2.0 4:1.0 5:8.0 6:8.0 7:1.0 9:1.0 
-0.0 -1.0 0.78455305760582 0.1395343967962232 0.11588627098216535 2:1.0 3:2.0 4:3.0 5:6.0 6:4.0 7:1.0 66:1.0 101:1.0 
-0.0 -0.0 0.13533156540114813 0.0 0.05382719772690849 2:1.0 3:2.0 4:4.0 5:18.0 6:13.0 7:2.0 12:1.0 28:1.0 284:1.0 421:1.0 422:1.0 423:1.0 424:1.0 425:1.0 
-0.0 -0.0 0.34206303619394585 0.0 0.0 2:1.0 3:2.0 4:3.0 5:7.0 6:5.0 7:1.0 245:1.0 273:1.0 428:1.0 
-0.0 -0.4556388951502377 0.01572574755347395 0.06932033590234467 0.0034227870707884142 2:1.0 3:2.0 4:1.0 5:5.0 6:5.0 7:1.0 12:1.0 429:1.0 430:1.0 
-0.0 -0.10410588319121708 0.23255508490006754 0.2121784387497032 0.15914924498878372 3:2.0 4:3.0 5:5.0 6:3.0 7:1.0 8:1.0 272:1.0 431:1.0 
-0.0 -0.3084455891398236 0.0 0.0324596957206239 0.0034691894376824854 2:1.0 3:2.0 4:1.0 5:7.0 6:7.0 7:1.0 12:1.0 432:1.0 433:1.0 
-0.02782237028156856 -0.08151310687105491 0.2279021718338752 0.2928270519315217 0.0 2:1.0 3:2.0 4:1.0 5:10.0 6:7.0 7:4.0 12:1.0 13:1.0 284:1.0 377:1.0 434:1.0 
-0.0 -1.0 0.0 0.0 0.0 2:1.0 3:2.0 4:1.0 5:7.0 6:7.0 7:1.0 9:1.0 
-0.0 -0.002023432595824808 0.021140977681323406 0.0 0.09680729818265676 2:1.0 3:2.0 4:1.0 5:17.0 6:13.0 7:2.0 28:3.0 91:1.0 218:3.0 436:1.0 437:1.0 438:1.0 
-0.0 -0.0 1.0 0.0 0.0 2:1.0 3:2.0 4:3.0 5:9.0 6:6.0 7:2.0 12:1.0 284:1.0 342:1.0 439:1.0 
-0.0 -1.0 1.0 1.0 1.0 2:1.0 3:2.0 4:3.0 5:11.0 6:9.0 7:1.0 9:1.0 
-0.0 -1.0 0.0 0.0 0.0 2:1.0 3:2.0 4:1.0 5:6.0 6:6.0 7:1.0 9:1.0 
-0.0 -1.0 1.0 1.0 1.0 2:1.0 3:2.0 4:4.0 5:11.0 6:8.0 7:1.0 9:1.0 
-0.0 -1.0 1.0 0.79556528966039 0.00925217299277983 2:1.0 3:2.0 4:2.0 5:13.0 6:11.0 7:2.0 9:1.0 
-0.0 -0.0 0.0 0.0 1.0 2:1.0 3:2.0 4:1.0 5:15.0 6:14.0 7:2.0 190:1.0 
-0.0 -1.0 0.0 0.0 0.0 2:1.0 3:2.0 4:1.0 5:6.0 6:6.0 7:1.0 9:1.0 
-0.0 -0.0 0.03298405607480596 0.0 0.0 2:1.0 3:2.0 4:2.0 5:8.0 6:6.0 7:2.0 245:1.0 359:1.0 440:1.0 441:1.0 
-1.0 -1.0 1.0 1.0 1.0 2:1.0 3:2.0 4:4.0 5:13.0 6:9.0 7:1.0 9:1.0 11:1.0 
-0.0 -0.0 0.19794574228801334 0.03377449382072052 0.0 2:1.0 3:2.0 4:3.0 5:8.0 6:6.0 7:1.0 245:1.0 442:1.0 443:1.0 
-0.0 -0.27909282878690217 0.0859709116137833 0.147942610632252 0.035582816546218095 2:1.0 3:2.0 4:1.0 5:8.0 6:7.0 7:2.0 12:1.0 89:1.0 444:1.0 
-0.0 -0.0 0.0 0.03946720616624266 0.0 2:1.0 3:2.0 4:2.0 5:8.0 6:7.0 7:1.0 405:1.0 445:1.0 446:1.0 
-0.0 -1.0 0.0 0.0 0.0 2:1.0 3:2.0 4:1.0 5:9.0 6:9.0 7:1.0 9:1.0 
-0.0 -0.0 0.8139434748828401 0.0 0.0 2:1.0 3:2.0 4:1.0 5:6.0 6:5.0 7:2.0 12:1.0 59:1.0 284:1.0 367:1.0 
-0.0 -0.0 0.37457623929141315 0.13517494329056853 0.0 3:2.0 4:1.0 5:8.0 6:8.0 7:1.0 196:1.0 323:1.0 402:1.0 447:1.0 
-0.0 -0.15343917262613432 0.8767943691765785 0.26598528527802406 0.04825523654775548 2:1.0 3:2.0 4:3.0 5:6.0 6:4.0 7:1.0 451:1.0 452:1.0 
-0.0 -0.38208987728576865 0.42444978218162804 0.06924093391494074 0.00344885018823287 2:1.0 3:2.0 4:1.0 5:6.0 6:6.0 7:1.0 12:1.0 453:1.0 454:1.0 
-0.0 -1.0 0.2398082475744179 0.23509815529360784 0.00691244380407233 2:1.0 3:2.0 4:3.0 5:6.0 6:4.0 7:1.0 12:1.0 455:1.0 
-0.0 -0.29561556514401477 0.2934062004023089 0.36753950207490516 0.7323665029080437 2:1.0 3:2.0 4:5.0 5:15.0 6:9.0 7:1.0 10:1.0 12:1.0 28:1.0 108:1.0 456:1.0 457:1.0 458:1.0 
-0.0 -1.0 0.0 0.0 0.0 2:1.0 3:2.0 4:1.0 5:5.0 6:5.0 7:1.0 9:1.0 
-0.0 -1.0 0.0 0.0 0.0 2:1.0 3:2.0 4:1.0 5:5.0 6:5.0 7:1.0 9:1.0 
-0.0 -0.2851507092577407 0.0 0.0 0.06859324947132706 2:1.0 3:2.0 4:2.0 5:16.0 6:10.0 7:6.0 8:1.0 153:1.0 386:1.0 461:1.0 462:1.0 
-0.0 -1.0 1.0 1.0 1.0 2:1.0 3:2.0 4:3.0 5:6.0 6:4.0 7:1.0 9:1.0 
-0.0 -1.0 0.0 0.0 0.0 2:1.0 3:2.0 4:1.0 5:9.0 6:9.0 7:1.0 9:1.0 
-0.0 -1.0 0.0 0.0 0.0 2:1.0 3:2.0 4:1.0 5:8.0 6:6.0 7:3.0 9:1.0 
-0.0 -1.0 0.0 0.0 0.0 2:1.0 3:2.0 4:1.0 5:9.0 6:9.0 7:1.0 9:1.0 
-0.0 -0.0 0.04484413508074228 0.001624625023193354 0.0 3:2.0 4:1.0 5:20.0 6:19.0 7:2.0 85:1.0 323:1.0 386:1.0 463:2.0 464:1.0 465:1.0 
-0.0 -1.0 0.0 0.0 0.0 2:1.0 3:2.0 4:1.0 5:7.0 6:7.0 7:1.0 9:1.0 
-0.0 -1.0 0.288890560764679 0.0 1.0 2:1.0 3:2.0 4:2.0 5:13.0 6:11.0 7:1.0 9:1.0 49:1.0 
-0.0 -0.5715500075367885 0.0 0.0 0.3958586658755287 2:1.0 3:2.0 4:1.0 5:9.0 6:7.0 7:2.0 12:1.0 28:1.0 59:1.0 343:1.0 467:1.0 
-0.0 -1.0 0.0 0.0 0.0 2:1.0 3:2.0 4:1.0 5:5.0 6:5.0 7:1.0 9:1.0 
-0.0 -0.6138366535641193 0.44142288726949247 0.09578233587619632 0.03182743901208497 2:1.0 3:2.0 4:2.0 5:8.0 6:5.0 7:3.0 96:1.0 468:1.0 469:1.0 
-0.0 -0.0 0.1681143740533191 0.0 0.0 2:1.0 3:2.0 4:1.0 5:11.0 6:11.0 7:1.0 110:1.0 175:1.0 470:2.0 
-0.0 -1.0 0.0 0.0 0.0 2:1.0 3:2.0 4:1.0 5:7.0 6:7.0 7:1.0 9:1.0 
-0.0 -0.0 0.6293531755005929 0.06809317381473554 0.04830149966211099 2:1.0 3:2.0 4:2.0 5:7.0 6:6.0 7:1.0 471:1.0 472:1.0 
-0.0 -1.0 0.0 0.0 0.0 2:1.0 3:2.0 4:1.0 5:5.0 6:5.0 7:1.0 9:1.0 
-1.0 -1.0 0.8642486701091047 0.5321099988135186 0.09650553552479141 1:1.0 2:1.0 3:2.0 4:3.0 5:6.0 6:4.0 7:1.0 
-0.0 -0.3249525567842397 0.0 0.0 0.0 2:1.0 3:2.0 4:1.0 5:10.0 6:10.0 7:1.0 12:1.0 168:1.0 473:1.0 
-0.0 -0.0367621921144995 0.0 0.0 0.0 3:2.0 4:1.0 5:5.0 6:5.0 7:1.0 153:1.0 323:1.0 459:1.0 
-0.0 -0.0 0.1042307729355362 0.14876694609965843 0.0 2:1.0 3:2.0 4:2.0 5:9.0 6:8.0 7:1.0 474:1.0 475:1.0 476:1.0 
-0.0 -0.009283422395165428 0.194751010629356 0.12089188137825944 0.23973153201345201 2:1.0 3:2.0 4:2.0 5:7.0 6:6.0 7:1.0 477:1.0 478:1.0 479:1.0 480:1.0 
-0.0 -0.0 0.15447150991429784 0.059675910077178235 0.0 2:1.0 3:2.0 4:2.0 5:9.0 6:8.0 7:1.0 278:1.0 481:1.0 482:1.0 483:1.0 
-0.0 -0.0 0.44917573382102643 0.2665993626847777 0.2396097475256278 3:2.0 4:1.0 5:8.0 6:8.0 7:1.0 8:1.0 484:1.0 485:1.0 
-0.0 -0.05525398170416551 0.4222062203207673 0.10053761526264997 0.0 2:1.0 3:2.0 4:3.0 5:10.0 6:8.0 7:1.0 96:1.0 486:1.0 487:1.0 
-0.0 -0.06180189928215941 0.6685888257818351 0.4354065774637334 0.0966033294693029 2:1.0 3:2.0 4:1.0 5:6.0 6:6.0 7:1.0 488:1.0 
-0.0 -0.0 0.43525117330318136 0.38655563531150955 0.12118962205118392 2:1.0 3:2.0 4:1.0 5:4.0 6:4.0 7:1.0 109:1.0 489:1.0 
-0.0 -1.0 0.0 0.0 1.0 2:1.0 3:2.0 4:1.0 5:16.0 6:15.0 7:2.0 9:1.0 
-0.0 -0.0 0.12851742213032408 0.34750455078319414 0.0 2:1.0 3:2.0 4:2.0 5:8.0 6:6.0 7:1.0 49:1.0 358:1.0 471:1.0 490:1.0 
-0.0 -1.0 0.0 0.0 0.0 2:1.0 3:2.0 4:1.0 5:9.0 6:9.0 7:1.0 9:1.0 
-0.0 -0.0 0.0 0.08356318670039867 0.0 2:1.0 3:2.0 4:1.0 5:7.0 6:6.0 7:1.0 49:1.0 367:1.0 491:1.0 
-0.0 -0.3042265664798375 0.354718596566295 0.5068871039473334 0.10766582420010262 2:1.0 3:2.0 4:6.0 5:12.0 6:4.0 7:4.0 492:1.0 493:1.0 494:1.0 
-0.0 -1.0 0.11654320985295541 0.1870801425648289 0.00679089699247937 2:1.0 3:2.0 4:2.0 5:4.0 6:3.0 7:1.0 12:1.0 495:1.0 
-0.0 -1.0 1.0 1.0 0.0 2:1.0 3:2.0 4:3.0 5:8.0 6:6.0 7:1.0 9:1.0 
-0.0 -0.5047034385922832 0.6872783586213539 0.1175576178664888 0.1767897655501361 2:1.0 3:2.0 4:3.0 5:6.0 6:4.0 7:1.0 12:1.0 496:1.0 497:1.0 
-0.0 -0.7640656715579757 0.04413950668180236 0.13847390850321264 0.006905865680055621 2:1.0 3:2.0 4:1.0 5:6.0 6:6.0 7:1.0 12:1.0 498:1.0 
-0.0 -0.07920821696803286 0.0 0.0 0.05195765804447302 2:1.0 3:2.0 4:1.0 5:13.0 6:12.0 7:2.0 12:1.0 13:1.0 110:1.0 168:1.0 499:1.0 500:1.0 
-0.05422433051133759 -0.0720267309793752 0.19709809188589403 0.0 0.02059320332493706 2:1.0 3:2.0 4:4.0 5:14.0 6:5.0 7:7.0 8:1.0 501:1.0 502:1.0 503:1.0 
-0.0 -1.0 1.0 1.0 0.965022633380587 2:1.0 3:2.0 4:4.0 5:9.0 6:6.0 7:1.0 9:1.0 
-0.0 -0.33780404420655646 0.22850304158386395 0.0 0.0 3:2.0 4:1.0 5:10.0 6:9.0 7:2.0 140:1.0 254:1.0 314:1.0 323:1.0 504:1.0 
-0.03780955641816268 -0.3998143235454276 0.5849855957851493 0.16749737819056362 0.09431914610991769 2:1.0 3:2.0 4:4.0 5:9.0 6:5.0 7:2.0 12:1.0 13:1.0 284:1.0 505:1.0 
-0.0 -0.5489364278482991 0.17099665211177228 0.19632424278525853 0.03549233715964925 2:1.0 3:2.0 4:2.0 5:7.0 6:5.0 7:2.0 12:1.0 89:1.0 506:1.0 
-0.0 -0.6693923142919433 0.14318138570018227 0.11731784806049309 0.0 2:1.0 3:2.0 4:2.0 5:9.0 6:5.0 7:3.0 49:1.0 91:1.0 507:1.0 
-0.0 -1.0 0.0 0.0 1.0 2:1.0 3:2.0 4:1.0 5:13.0 6:13.0 7:1.0 9:1.0 
-0.0 -0.21256604156700493 0.6917879300958566 0.0 0.0 2:1.0 3:2.0 4:2.0 5:13.0 6:9.0 7:4.0 98:1.0 109:1.0 141:1.0 508:1.0 509:1.0 510:1.0 
-0.0 -0.0 0.2931080435364046 0.10515217370824081 0.0 3:2.0 4:3.0 5:9.0 6:7.0 7:1.0 323:1.0 511:1.0 512:1.0 513:1.0 
-0.0 -1.0 1.0 1.0 1.0 2:1.0 3:2.0 4:2.0 5:11.0 6:10.0 7:1.0 9:1.0 
-0.0 -0.0 0.0 0.07621778208416095 0.14506565544325584 2:1.0 3:2.0 4:1.0 5:5.0 6:5.0 7:1.0 307:1.0 514:1.0 
-0.0 -1.0 0.0 0.0 0.0 2:1.0 3:2.0 4:1.0 5:5.0 6:5.0 7:1.0 9:1.0 
-0.0 -0.0 0.0013347993786700825 0.03950197902467663 0.0 2:1.0 3:2.0 4:2.0 5:9.0 6:8.0 7:1.0 147:1.0 405:1.0 515:1.0 
-0.0 -0.0 0.33366721987302833 1.0 0.3034932095290231 2:1.0 3:2.0 4:3.0 5:9.0 6:7.0 7:1.0 516:1.0 517:1.0 
-0.0 -1.0 0.11654280277219502 0.18702550989841668 0.006788437208346561 2:1.0 3:2.0 4:2.0 5:4.0 6:3.0 7:1.0 12:1.0 519:1.0 
-0.08633180928773265 -0.0 0.43428734552639103 0.0 0.0 2:1.0 3:2.0 4:4.0 5:20.0 6:10.0 7:7.0 8:1.0 11:1.0 197:1.0 314:1.0 333:1.0 520:1.0 521:1.0 
-0.0 -1.0 0.0 0.0 0.9075273860983897 3:2.0 4:1.0 5:12.0 6:8.0 7:4.0 11:1.0 25:1.0 26:1.0 
-0.0 -1.0 1.0 0.411418754096937 0.43641805564275243 2:1.0 3:2.0 4:1.0 5:4.0 6:4.0 7:1.0 12:1.0 522:1.0 
-1.0 -1.0 0.0 1.0 1.0 2:1.0 3:2.0 4:1.0 5:4.0 6:4.0 7:1.0 9:1.0 
-0.0 -0.0 0.9247844934253978 0.0986519803093136 0.0 2:1.0 3:2.0 4:1.0 5:8.0 6:8.0 7:1.0 523:1.0 524:1.0 525:1.0 
-0.0 -0.0 0.6672839135642574 0.39771615375788494 0.0 2:1.0 3:2.0 4:5.0 5:13.0 6:5.0 7:2.0 22:1.0 28:1.0 49:1.0 170:1.0 277:1.0 526:1.0 
-0.0 -0.0 1.0 0.483524143672243 0.0 2:1.0 3:2.0 4:2.0 5:6.0 6:5.0 7:1.0 284:1.0 527:1.0 
-0.0 -0.12764610082491748 0.0 0.041911805088846565 0.0 2:1.0 3:2.0 4:3.0 5:8.0 6:6.0 7:1.0 112:1.0 272:1.0 528:1.0 
-0.0 -0.3378249796707281 0.0 0.0 0.0 2:1.0 3:2.0 4:2.0 5:14.0 6:9.0 7:5.0 8:1.0 55:1.0 334:1.0 529:1.0 530:1.0 
-0.0 -0.0 0.23528049040378293 0.2557265278409964 0.03221609977966111 2:1.0 3:2.0 4:2.0 5:8.0 6:7.0 7:1.0 532:1.0 533:1.0 534:1.0 
-0.0 -0.0 0.04081394404028674 0.18524962185656169 0.2210216807696326 2:1.0 3:2.0 4:1.0 5:11.0 6:10.0 7:1.0 28:1.0 343:1.0 371:1.0 535:1.0 536:1.0 
-0.0 -0.07834654468958409 0.6038129990970618 0.9046753008810026 0.5419169350845544 2:1.0 3:2.0 4:1.0 5:7.0 6:7.0 7:1.0 119:1.0 537:1.0 
-0.0 -0.21931313084024764 0.0 0.0 0.0 2:1.0 3:2.0 4:2.0 5:7.0 6:4.0 7:2.0 12:1.0 49:1.0 89:1.0 471:1.0 538:1.0 
-0.0020526499466518577 -0.36229337641884646 0.4189156579551741 0.6780080526514429 0.4749380996544296 2:1.0 3:2.0 4:1.0 5:9.0 6:7.0 7:2.0 10:1.0 12:1.0 89:1.0 539:1.0 540:1.0 
-0.0 -1.0 0.0 1.0 0.0 2:1.0 3:2.0 4:2.0 5:7.0 6:6.0 7:1.0 9:1.0 
-0.0 -0.0 1.0 1.0 1.0 2:1.0 3:2.0 4:2.0 5:19.0 6:18.0 7:1.0 9:1.0 
-0.0 -0.5980938650152806 0.0 0.0 0.0 2:1.0 3:2.0 4:1.0 5:8.0 6:7.0 7:2.0 12:1.0 89:1.0 202:1.0 541:1.0 
-0.0 -0.0 0.6343252306077787 0.0 0.0 3:2.0 4:1.0 5:6.0 6:5.0 7:2.0 282:1.0 314:1.0 323:1.0 
-0.0 -1.0 0.07569170197184868 1.0 0.0 2:1.0 3:2.0 4:2.0 5:8.0 6:7.0 7:1.0 9:1.0 
-0.0 -0.4246804055948821 0.08650336411603325 0.05356579774982056 0.0 2:1.0 3:2.0 4:5.0 5:9.0 6:4.0 7:1.0 12:1.0 160:1.0 542:1.0 543:1.0 
-0.0 -0.6127265035820537 0.380079528634726 0.0 0.19012519793392593 3:2.0 4:2.0 5:4.0 6:3.0 7:1.0 8:1.0 167:1.0 544:1.0 
-0.0 -0.0 0.0 0.009616062135075919 0.0 2:1.0 3:2.0 4:1.0 5:10.0 6:9.0 7:2.0 507:1.0 545:1.0 546:1.0 
-0.0 -0.08437312362074013 0.2563775386088263 0.25826504413902485 0.20241386346981874 2:1.0 3:2.0 4:1.0 5:13.0 6:10.0 7:2.0 10:1.0 12:1.0 28:1.0 547:1.0 548:1.0 549:1.0 550:1.0 
-0.0 -1.0 0.0 0.0 0.0 2:1.0 3:2.0 4:1.0 5:9.0 6:7.0 7:3.0 9:1.0 
-0.0 -1.0 0.0 0.0 0.0 2:1.0 3:2.0 4:1.0 5:8.0 6:8.0 7:1.0 9:1.0 
-0.0 -0.4351413848882945 1.0 1.0 0.022250364550535917 2:1.0 3:2.0 4:4.0 5:5.0 6:2.0 7:1.0 189:1.0 551:1.0 
-0.0 -0.49494540310577745 0.3644922981497008 0.0 0.0 3:2.0 4:3.0 5:10.0 6:6.0 7:2.0 8:1.0 12:1.0 22:1.0 32:1.0 59:1.0 170:1.0 552:1.0 
-0.0 -0.0 0.0 0.07639597619566292 0.14515515796960546 2:1.0 3:2.0 4:1.0 5:4.0 6:4.0 7:1.0 307:1.0 553:1.0 
-0.0 -0.15330580390161636 0.08935181687576756 0.15795459165516185 0.15971687628752976 3:2.0 4:1.0 5:4.0 6:4.0 7:1.0 8:1.0 295:1.0 554:1.0 
-0.0 -1.0 0.0 0.0 0.0 2:1.0 3:2.0 4:1.0 5:5.0 6:5.0 7:1.0 9:1.0 
-0.0 -0.0 0.47468897568082596 0.0827842290374223 0.0 2:1.0 3:2.0 4:1.0 5:8.0 6:7.0 7:1.0 11:1.0 109:1.0 197:1.0 555:1.0 
-0.0 -1.0 0.0 0.0 0.0 2:1.0 3:2.0 4:1.0 5:5.0 6:5.0 7:1.0 9:1.0 
-0.0 -0.0 0.39589221859825485 0.6201944871808642 0.048318492709733825 2:1.0 3:2.0 4:2.0 5:8.0 6:7.0 7:1.0 556:1.0 557:1.0 
-0.0 -0.0 0.5668053023430722 0.0 0.0 2:1.0 3:2.0 4:2.0 5:19.0 6:17.0 7:2.0 146:1.0 295:1.0 558:1.0 
-0.0 -0.0060349217378489655 0.10193334108128434 0.15780023845105626 0.1597176060955979 3:2.0 4:1.0 5:5.0 6:5.0 7:1.0 8:1.0 295:1.0 559:1.0 
-0.0 -0.9865179992232721 0.0 0.13872560133724007 0.0 2:1.0 3:2.0 4:1.0 5:4.0 6:4.0 7:1.0 12:1.0 502:1.0 
-0.0 -0.0 0.21253681247259182 0.07345692271242539 0.0 2:1.0 3:2.0 4:2.0 5:6.0 6:5.0 7:1.0 278:1.0 432:1.0 560:1.0 
-0.0 -0.0 1.0 0.0 0.17342987341508917 2:1.0 3:2.0 4:3.0 5:8.0 6:5.0 7:1.0 49:1.0 196:1.0 448:1.0 561:1.0 
-0.0 -0.005879706509560665 0.11555312427714977 0.05903720743783565 0.0 3:2.0 4:1.0 5:8.0 6:8.0 7:1.0 8:1.0 42:1.0 168:1.0 507:1.0 562:1.0 
-0.0 -0.4556411375384014 0.01574933849720175 0.06929426800448986 0.003422039183930639 2:1.0 3:2.0 4:1.0 5:5.0 6:5.0 7:1.0 12:1.0 566:1.0 567:1.0 
-0.0 -0.0 1.0 0.5919526238590892 0.0 2:1.0 3:2.0 4:4.0 5:9.0 6:5.0 7:2.0 194:1.0 415:1.0 
-0.0 -0.5109301462388652 0.5579488808379713 0.039728596328867175 0.798814591040407 2:1.0 3:2.0 4:2.0 5:7.0 6:5.0 7:1.0 74:1.0 88:1.0 568:1.0 
-0.36694910656617413 -0.6711160483665808 0.044066642380748436 0.0 0.05422000675225081 2:1.0 3:2.0 4:1.0 5:5.0 6:4.0 7:1.0 11:1.0 12:1.0 276:1.0 569:1.0 
-0.0 -0.22863525501573081 0.0 0.13735195667291666 0.03158313614948648 2:1.0 3:2.0 4:2.0 5:8.0 6:7.0 7:1.0 12:1.0 109:1.0 570:1.0 
-0.0 -0.7452247636544758 0.0 0.011757335997993234 0.0841234942988558 2:1.0 3:2.0 4:2.0 5:7.0 6:5.0 7:2.0 12:1.0 89:1.0 219:1.0 307:1.0 
-0.0 -0.0 0.0 0.4851431537350197 0.0 2:1.0 3:2.0 4:4.0 5:9.0 6:5.0 7:1.0 12:1.0 28:1.0 189:1.0 245:1.0 315:1.0 419:1.0 
-0.0 -0.0 0.09077000266885954 0.0 0.43761615359358097 3:2.0 4:3.0 5:16.0 6:12.0 7:3.0 8:1.0 12:1.0 74:1.0 562:1.0 571:1.0 572:1.0 573:1.0 
-0.0 -0.9113270479067614 0.031493965643238836 0.13861551303548802 0.00683431829902755 2:1.0 3:2.0 4:1.0 5:5.0 6:5.0 7:1.0 12:1.0 574:1.0 
-0.0 -0.0 0.0 0.11472272651233678 0.14506599519591368 2:1.0 3:2.0 4:1.0 5:5.0 6:5.0 7:1.0 307:1.0 575:1.0 
-0.0 -0.32291678306095567 0.00909618437067173 0.03982009486483948 0.0 2:1.0 3:2.0 4:3.0 5:7.0 6:4.0 7:2.0 188:1.0 405:1.0 576:1.0 
-0.0 -0.0 0.2974402027021316 0.095003210327215 0.2039975760831108 2:1.0 3:2.0 4:1.0 5:16.0 6:15.0 7:2.0 12:1.0 89:1.0 525:1.0 535:1.0 577:1.0 578:1.0 
-0.0 -1.0 0.0 0.0 0.0 2:1.0 3:2.0 4:1.0 5:5.0 6:5.0 7:1.0 9:1.0 
-0.0 -0.9190522966748363 0.0 0.0 0.3728509003696307 3:2.0 4:1.0 5:7.0 6:7.0 7:1.0 8:1.0 12:1.0 177:1.0 
-0.0 -0.13950714875672954 0.0 0.0 0.001975205602225394 2:1.0 3:2.0 4:1.0 5:8.0 6:7.0 7:2.0 12:1.0 89:1.0 579:1.0 580:1.0 
-0.0 -1.0 1.0 1.0 0.0 2:1.0 3:2.0 4:5.0 5:12.0 6:7.0 7:2.0 9:1.0 
-0.0 -0.030866273046630158 0.334289429039262 0.21769350099369716 0.04831056797469362 2:1.0 3:2.0 4:1.0 5:6.0 6:6.0 7:1.0 581:1.0 582:1.0 
-0.0 -0.1030302356928508 0.2248788665414495 0.06793563771358407 0.01910143261566654 2:1.0 3:2.0 4:1.0 5:8.0 6:6.0 7:3.0 583:1.0 584:2.0 
-1.0 -1.0 1.0 1.0 0.6651953496696901 2:1.0 3:2.0 4:3.0 5:4.0 6:2.0 7:1.0 9:1.0 
-0.0 -1.0 0.0 0.0 0.0 2:1.0 3:2.0 4:1.0 5:8.0 6:8.0 7:1.0 9:1.0 
-0.01021388398210741 -0.06718118117771539 1.0 1.0 1.0 2:1.0 3:2.0 4:4.0 5:14.0 6:9.0 7:2.0 11:1.0 190:1.0 
-0.0 -0.0022859004559732964 0.0 0.0 0.19201388600955935 2:1.0 3:2.0 4:1.0 5:11.0 6:10.0 7:2.0 12:1.0 13:1.0 110:1.0 586:1.0 587:1.0 
-0.0 -0.0 0.024289702800055216 0.0 0.0 3:2.0 4:2.0 5:17.0 6:9.0 7:5.0 22:3.0 170:2.0 309:1.0 314:1.0 323:1.0 588:1.0 589:1.0 
-1.0 -1.0 0.0 1.0 0.9376060938163716 2:1.0 3:2.0 4:2.0 5:4.0 6:3.0 7:1.0 9:1.0 
-0.0 -0.0 1.0 0.0 0.0 3:2.0 4:1.0 5:10.0 6:10.0 7:1.0 8:1.0 170:1.0 315:1.0 590:1.0 
-0.0 -0.03339921382895864 0.6291809094431806 0.20294656778476505 0.0 2:1.0 3:2.0 4:1.0 5:18.0 6:18.0 7:1.0 12:1.0 35:1.0 119:1.0 591:1.0 592:1.0 
-0.0 -0.0 0.4920090115995721 0.03720961063454375 0.09695800789388125 2:1.0 3:2.0 4:3.0 5:16.0 6:13.0 7:1.0 28:1.0 141:1.0 474:1.0 593:1.0 594:1.0 595:1.0 
-0.0 -0.0 0.9545973306153448 0.0 0.0 2:1.0 3:2.0 4:1.0 5:9.0 6:6.0 7:3.0 49:1.0 167:1.0 377:1.0 
-0.0 -0.0 0.161166448044646 0.0 0.0590488190593822 3:2.0 4:2.0 5:16.0 6:14.0 7:1.0 28:1.0 314:1.0 323:1.0 596:1.0 597:1.0 598:1.0 599:1.0 600:1.0 
-0.0 -1.0 0.0 0.0 0.0 2:1.0 3:2.0 4:1.0 5:7.0 6:6.0 7:1.0 9:1.0 22:1.0 
-0.0 -0.2808928266727371 0.40136139162571877 0.07302535131059525 0.3949770819851523 2:1.0 3:2.0 4:3.0 5:12.0 6:8.0 7:1.0 28:1.0 49:1.0 165:1.0 601:1.0 602:1.0 
-0.0 -0.07993735774003537 0.3852251245707942 0.057341198108787066 0.6173061099678095 3:2.0 4:2.0 5:13.0 6:11.0 7:2.0 8:1.0 12:1.0 383:1.0 603:1.0 604:1.0 
-0.0 -1.0 1.0 1.0 0.0 2:1.0 3:2.0 4:4.0 5:8.0 6:4.0 7:2.0 12:1.0 194:1.0 
-0.0 -1.0 0.0 0.0 0.0 2:1.0 3:2.0 4:1.0 5:5.0 6:5.0 7:1.0 9:1.0 
-0.0 -0.0 0.7656809305194049 0.07779643841600009 0.0942545244074856 2:1.0 3:2.0 4:3.0 5:18.0 6:13.0 7:4.0 605:1.0 606:1.0 607:1.0 608:1.0 609:1.0 
-0.0 -0.0 0.0 0.0 0.00221536430735753 3:2.0 4:1.0 5:8.0 6:6.0 7:3.0 8:1.0 177:1.0 314:1.0 610:1.0 
-0.0 -0.0 0.20213535761553095 0.17511452817275613 0.09875961840817479 3:2.0 4:1.0 5:16.0 6:13.0 7:1.0 49:1.0 183:1.0 323:1.0 407:1.0 611:1.0 612:1.0 613:1.0 614:1.0 615:1.0 
-0.2311031815453797 -0.14170182104649823 0.02698996283743122 0.0 0.0 3:2.0 4:3.0 5:10.0 6:7.0 7:1.0 8:1.0 11:1.0 12:1.0 170:1.0 616:1.0 
-0.0 -0.0 0.5965498714829711 0.0 0.007935980568635042 3:2.0 4:3.0 5:13.0 6:9.0 7:3.0 8:1.0 315:1.0 617:1.0 618:1.0 619:1.0 
-0.0 -0.10910890686655948 0.8129264448492232 0.18257840273339404 0.12029016269267098 2:1.0 3:2.0 4:3.0 5:7.0 6:4.0 7:1.0 49:1.0 620:1.0 621:1.0 
-0.0 -1.0 0.0 0.0 1.0 2:1.0 3:2.0 4:1.0 5:11.0 6:11.0 7:1.0 9:1.0 
-0.0 -1.0 0.0 0.0 0.0 2:1.0 3:2.0 4:1.0 5:9.0 6:9.0 7:1.0 9:1.0 
-0.0 -1.0 0.0 0.0 0.0 2:1.0 3:2.0 4:2.0 5:12.0 6:10.0 7:1.0 9:1.0 22:1.0 
-0.0 -1.0 0.0 0.0 0.0 2:1.0 3:2.0 4:1.0 5:7.0 6:7.0 7:1.0 9:1.0 
-0.0 -0.1814970224087975 0.1086216578505085 0.0 0.1352557275563686 2:1.0 3:2.0 4:5.0 5:8.0 6:4.0 7:1.0 66:2.0 622:1.0 
-0.0 -0.0 0.0 0.0 5.696088086512543E-4 3:2.0 4:2.0 5:8.0 6:7.0 7:1.0 8:1.0 272:1.0 431:1.0 
-0.0 -1.0 0.01876427626536082 0.13875851793738556 0.006816977129021996 2:1.0 3:2.0 4:1.0 5:4.0 6:4.0 7:1.0 12:1.0 623:1.0 
-0.0 -0.027465486793198695 0.0 0.0 0.0 2:1.0 3:2.0 4:3.0 5:5.0 6:3.0 7:1.0 202:1.0 315:1.0 
-0.0 -1.0 0.0 0.0 0.0 2:1.0 3:2.0 4:1.0 5:7.0 6:7.0 7:1.0 9:1.0 
-0.0 -0.9112980006112624 0.03149727500035302 0.13858591003771056 0.006825226659680595 2:1.0 3:2.0 4:1.0 5:5.0 6:5.0 7:1.0 12:1.0 624:1.0 
-0.0 -1.0 0.0 0.0 0.0 2:1.0 3:2.0 4:1.0 5:7.0 6:7.0 7:1.0 9:1.0 
-0.0 -1.0 0.0 0.0 0.0 2:1.0 3:2.0 4:2.0 5:5.0 6:3.0 7:2.0 12:1.0 86:1.0 625:1.0 
-0.0 -1.0 0.21433251896977637 0.23551949950528905 0.006791420008119972 2:1.0 3:2.0 4:3.0 5:4.0 6:2.0 7:1.0 12:1.0 626:1.0 
-0.0 -1.0 0.0 0.0 0.0 2:1.0 3:2.0 4:1.0 5:7.0 6:7.0 7:1.0 9:1.0 
-0.0 -1.0 1.0 1.0 1.0 2:1.0 3:2.0 4:1.0 5:16.0 6:16.0 7:1.0 9:1.0 
-0.0 -0.018570363593290944 0.3915571208620019 0.24177504335533775 0.04830842266908797 2:1.0 3:2.0 4:2.0 5:7.0 6:6.0 7:1.0 627:1.0 628:1.0 
-0.13973301057936938 -0.0 1.0 0.0 1.0 3:2.0 4:3.0 5:10.0 6:7.0 7:1.0 8:1.0 11:1.0 74:1.0 170:1.0 629:1.0 
-0.0 -0.5630974621742448 0.0 0.058575372073571684 0.0 2:1.0 3:2.0 4:1.0 5:9.0 6:9.0 7:1.0 12:1.0 55:1.0 630:1.0 631:1.0 
-0.0 -0.8084111493806377 0.0 0.06921256331284079 0.003475434436972691 2:1.0 3:2.0 4:1.0 5:7.0 6:7.0 7:1.0 12:1.0 46:1.0 632:1.0 
-0.0 -1.0 1.0 1.0 0.1905850093232462 2:1.0 3:2.0 4:2.0 5:10.0 6:9.0 7:1.0 9:1.0 
-0.0 -0.0 0.787376434785487 0.6525402634424151 0.7287624141899295 2:1.0 3:2.0 4:3.0 5:8.0 6:6.0 7:1.0 74:1.0 634:1.0 635:1.0 
-0.0 -0.10175975840582896 0.38843507722461035 0.14550099348360412 0.0 3:2.0 4:3.0 5:5.0 6:3.0 7:1.0 323:1.0 636:1.0 637:1.0 
-0.0 -0.09889204152563358 0.1615836750782008 0.0 0.0 2:1.0 3:2.0 4:5.0 5:14.0 6:8.0 7:3.0 12:1.0 202:1.0 284:1.0 638:1.0 639:1.0 640:1.0 
-0.0 -0.0 0.2516630174105116 0.0 0.0 2:1.0 3:2.0 4:2.0 5:9.0 6:6.0 7:3.0 302:1.0 307:1.0 393:1.0 
-0.0 -1.0 0.0 0.0 0.0 2:1.0 3:2.0 4:1.0 5:4.0 6:4.0 7:1.0 12:1.0 108:1.0 
-0.0 -0.0 0.09342756533283064 0.20069089557565897 0.2285853235876083 3:2.0 4:1.0 5:15.0 6:11.0 7:5.0 8:2.0 59:1.0 168:1.0 507:1.0 641:1.0 642:1.0 
-0.0 -0.0 0.0 0.07593391817765366 0.14508999164551045 2:1.0 3:2.0 4:1.0 5:6.0 6:6.0 7:1.0 307:1.0 643:1.0 
-0.0 -0.0 0.0 0.5026493419347076 0.0 2:1.0 3:2.0 4:1.0 5:12.0 6:11.0 7:2.0 12:1.0 89:1.0 110:1.0 644:1.0 645:1.0 
-1.0 -1.0 0.0 0.5668718254811423 0.9982126176931401 2:1.0 3:2.0 4:1.0 5:4.0 6:4.0 7:1.0 9:1.0 
-0.0 -0.08771400893624003 0.09289385526215338 0.03606671004902497 0.0 2:1.0 3:2.0 4:5.0 5:14.0 6:9.0 7:2.0 12:1.0 575:1.0 638:1.0 647:1.0 648:1.0 
-0.0 -0.3422128827790425 0.12486619263282857 0.044709467045748935 0.13133634690681562 2:1.0 3:2.0 4:5.0 5:10.0 6:5.0 7:1.0 12:1.0 28:1.0 649:1.0 650:1.0 651:1.0 
-0.0 -0.8620859876550104 0.2523625663512291 0.23496522385483432 0.006915709508215088 2:1.0 3:2.0 4:3.0 5:7.0 6:5.0 7:1.0 12:1.0 652:1.0 
-0.0 -0.0 0.4028021409187841 0.0 0.0 2:1.0 3:2.0 4:1.0 5:15.0 6:12.0 7:3.0 8:1.0 22:1.0 109:1.0 194:1.0 275:1.0 
-0.0408524994507555 -0.0 0.38195779026717824 0.0 0.0 2:1.0 3:2.0 4:3.0 5:7.0 6:4.0 7:1.0 11:1.0 170:1.0 616:1.0 653:1.0 
-0.0 -1.0 0.0 0.0 0.0 2:1.0 3:2.0 4:1.0 5:5.0 6:5.0 7:1.0 9:1.0 
-0.0 -0.0 0.5155465296092266 0.1412002588868549 0.0 2:1.0 3:2.0 4:3.0 5:11.0 6:9.0 7:1.0 393:1.0 507:1.0 654:1.0 655:1.0 
-0.0 -0.1808798634487904 0.1295413789779779 0.25468111875061883 0.0023435158834467 2:1.0 3:2.0 4:4.0 5:10.0 6:7.0 7:1.0 12:1.0 656:1.0 657:1.0 658:1.0 
-0.0 -1.0 0.0 0.0 0.0 2:1.0 3:2.0 4:1.0 5:9.0 6:9.0 7:1.0 9:1.0 
-0.0 -1.0 0.0 0.0 0.0 2:1.0 3:2.0 4:1.0 5:5.0 6:5.0 7:1.0 9:1.0 
-0.0 -0.3025277841878987 0.0 0.2716936774851978 0.0 2:1.0 3:2.0 4:2.0 5:5.0 6:4.0 7:1.0 12:1.0 170:1.0 659:1.0 
-0.0 -1.0 0.0 0.0 0.0 2:1.0 3:2.0 4:1.0 5:7.0 6:7.0 7:1.0 9:1.0 
-0.0 -1.0 0.0 0.0 0.24081632796479147 2:1.0 3:2.0 4:1.0 5:5.0 6:5.0 7:1.0 9:1.0 
-0.0 -0.0 0.4129361927282736 0.09352080487646229 0.0 2:1.0 3:2.0 4:3.0 5:11.0 6:8.0 7:2.0 12:1.0 284:1.0 661:1.0 662:1.0 
-0.0 -1.0 0.018767542480515098 0.13871694362304 0.006804091650377241 2:1.0 3:2.0 4:1.0 5:4.0 6:4.0 7:1.0 12:1.0 663:1.0 
-0.0 -0.0 0.07480409136037112 0.0 0.0 3:2.0 4:1.0 5:7.0 6:7.0 7:1.0 323:1.0 393:1.0 448:1.0 
-0.04654083486352578 -0.42759330965194964 0.0 0.0 0.0 3:2.0 4:1.0 5:12.0 6:7.0 7:4.0 8:1.0 11:1.0 12:1.0 22:1.0 245:1.0 664:1.0 665:1.0 666:1.0 
-0.0 -0.03085616878288204 0.3343017758825287 0.21771933936420854 0.5163089537158375 2:1.0 3:2.0 4:1.0 5:6.0 6:6.0 7:1.0 667:1.0 668:1.0 
-0.0 -0.0 0.058178697068331786 0.0 0.01448874470708492 2:1.0 3:2.0 4:4.0 5:10.0 6:6.0 7:1.0 28:1.0 315:1.0 558:1.0 669:1.0 
-0.0 -1.0 0.0 0.0 0.0 2:1.0 3:2.0 4:1.0 5:9.0 6:8.0 7:1.0 9:1.0 22:1.0 
-0.0 -0.06871417982781364 0.07281408093670477 0.0 0.09215147058852939 2:1.0 3:2.0 4:5.0 5:18.0 6:11.0 7:2.0 12:1.0 22:1.0 28:1.0 152:1.0 670:1.0 671:1.0 672:1.0 673:2.0 
-0.0 -1.0 0.2839314350088664 0.5945458868998769 0.3981572986955081 2:1.0 3:2.0 4:1.0 5:7.0 6:5.0 7:3.0 47:1.0 149:1.0 
-0.0 -0.2961062365752038 0.5511304498939728 0.09330587778971416 0.0034842390568117824 2:1.0 3:2.0 4:2.0 5:8.0 6:7.0 7:1.0 12:1.0 674:1.0 675:1.0 
-1.0 -1.0 0.0 1.0 1.0 2:1.0 3:2.0 4:1.0 5:3.0 6:3.0 7:1.0 9:1.0 
-0.0 -0.0 1.0 0.1344432233993953 0.16103955399137238 2:1.0 3:2.0 4:3.0 5:10.0 6:7.0 7:2.0 59:1.0 487:1.0 676:1.0 677:1.0 
-0.0 -0.9110214113753471 0.0 0.0 0.0 2:1.0 3:2.0 4:3.0 5:9.0 6:7.0 7:1.0 12:1.0 119:1.0 170:1.0 
-0.0 -0.3084220788548895 0.028410062611464823 0.1925829600859004 0.0034505266854946612 2:1.0 3:2.0 4:1.0 5:7.0 6:7.0 7:1.0 12:1.0 678:1.0 679:1.0 
-0.0 -0.0 0.3311756524681046 0.10884662430524461 0.0 2:1.0 3:2.0 4:1.0 5:12.0 6:12.0 7:1.0 255:1.0 284:1.0 681:1.0 682:1.0 683:1.0 
-0.0 -1.0 0.0 0.0 1.0 2:1.0 3:2.0 4:1.0 5:5.0 6:5.0 7:1.0 9:1.0 
-0.03151093052888032 -0.0 0.4278859921833284 0.09105219927023028 0.059272527064517556 3:2.0 4:1.0 5:10.0 6:8.0 7:2.0 8:1.0 11:1.0 197:1.0 684:1.0 685:1.0 
-0.0 -0.0 1.0 0.0 0.0 2:1.0 3:2.0 4:1.0 5:9.0 6:9.0 7:1.0 12:1.0 170:1.0 522:1.0 
-0.0 -0.0 0.0 0.015359720368329647 0.0 2:1.0 3:2.0 4:1.0 5:8.0 6:8.0 7:1.0 405:1.0 686:1.0 687:1.0 
-0.0 -1.0 0.0 1.0 1.0 2:1.0 3:2.0 4:1.0 5:14.0 6:14.0 7:1.0 9:1.0 
-0.1782857139650862 -0.7236693758560345 0.6890457297963047 0.24710086117279728 0.06437101286884273 2:1.0 3:2.0 4:6.0 5:14.0 6:5.0 7:3.0 11:1.0 12:1.0 49:1.0 194:1.0 688:1.0 
-0.0 -0.11110031617920262 0.0 0.0 0.10545049915016672 2:1.0 3:2.0 4:1.0 5:15.0 6:14.0 7:2.0 12:1.0 13:1.0 110:1.0 185:1.0 386:1.0 689:1.0 
-0.0 -1.0 0.0 0.0 1.0 2:1.0 3:2.0 4:1.0 5:5.0 6:5.0 7:1.0 9:1.0 
-0.0 -1.0 1.0 0.0 0.0 2:1.0 3:2.0 4:2.0 5:9.0 6:5.0 7:3.0 9:1.0 39:1.0 
-0.0 -1.0 0.0 0.0 1.0 2:1.0 3:2.0 4:1.0 5:5.0 6:5.0 7:1.0 9:1.0 
-0.0 -1.0 0.0 0.0 1.0 2:1.0 3:2.0 4:1.0 5:5.0 6:5.0 7:1.0 9:1.0 
-0.0 -0.21992241821428787 0.2949227844790423 0.04305364455194848 0.2135822687868 2:1.0 3:2.0 4:5.0 5:14.0 6:6.0 7:2.0 28:2.0 39:1.0 310:1.0 690:1.0 691:1.0 692:1.0 
-0.0 -0.0 0.2258871408695625 0.14510636609445937 0.01077798077462935 2:1.0 3:2.0 4:4.0 5:12.0 6:9.0 7:1.0 423:1.0 693:1.0 694:1.0 695:1.0 
-0.0 -1.0 0.0601094459090163 0.007241711050158129 0.13997559496762202 2:1.0 3:2.0 4:1.0 5:12.0 6:10.0 7:2.0 9:1.0 696:1.0 
-0.0 -0.0 0.3810491510936962 0.517238139734932 0.0 2:1.0 3:2.0 4:1.0 5:15.0 6:14.0 7:1.0 11:1.0 167:1.0 196:1.0 697:1.0 698:1.0 
-0.0 -1.0 0.0 0.0 0.0 2:1.0 3:2.0 4:1.0 5:7.0 6:7.0 7:1.0 9:1.0 
-0.0 -1.0 1.0 1.0 0.0 2:1.0 3:2.0 4:3.0 5:7.0 6:4.0 7:2.0 9:1.0 
-0.0 -0.0 0.6216287788291109 0.06969280921615925 0.3234727806827386 2:1.0 3:2.0 4:3.0 5:8.0 6:6.0 7:1.0 66:1.0 699:1.0 700:1.0 
-0.8506091590443302 -1.0 1.0 0.0 1.0 2:1.0 3:2.0 4:4.0 5:15.0 6:9.0 7:2.0 9:1.0 11:1.0 22:1.0 
-0.0 -0.058767764214577176 0.03715139132405308 0.0 0.0023392826347849115 2:1.0 3:2.0 4:2.0 5:10.0 6:9.0 7:1.0 12:1.0 591:1.0 701:1.0 702:1.0 
-0.0 -0.0 0.0388282331410372 0.0 0.0 2:1.0 3:2.0 4:1.0 5:10.0 6:8.0 7:1.0 10:1.0 22:1.0 170:1.0 405:1.0 548:1.0 703:1.0 
-0.0 -0.0 0.40233653369980804 0.44166192783391955 0.048314619657070304 2:1.0 3:2.0 4:2.0 5:9.0 6:8.0 7:1.0 704:1.0 705:1.0 
-0.0 -0.029765151123973415 0.12298568764133594 0.0 0.009054170108440665 2:1.0 3:2.0 4:3.0 5:13.0 6:10.0 7:2.0 12:1.0 89:1.0 97:1.0 325:1.0 706:1.0 707:1.0 
-0.0 -0.0 0.8933957478126655 0.12921189919463053 0.032200038385596465 2:1.0 3:2.0 4:1.0 5:12.0 6:11.0 7:2.0 470:1.0 708:1.0 709:1.0 
-0.0 -0.6168802005132179 0.6035644577311303 0.3338974397106662 0.0 2:1.0 3:2.0 4:1.0 5:7.0 6:7.0 7:1.0 12:1.0 572:1.0 
-0.0 -1.0 0.0 0.0 1.0 2:1.0 3:2.0 4:1.0 5:5.0 6:5.0 7:1.0 9:1.0 
-0.0 -0.0 0.3531745390211697 0.15522330357240607 0.0 2:1.0 3:2.0 4:5.0 5:8.0 6:4.0 7:1.0 419:1.0 713:1.0 714:1.0 
-0.0 -0.0 0.0 0.0 1.0 2:1.0 3:2.0 4:1.0 5:9.0 6:9.0 7:1.0 190:1.0 
-0.0 -0.0 0.0 0.0 0.10869882595309939 2:1.0 3:2.0 4:2.0 5:15.0 6:11.0 7:4.0 12:1.0 59:1.0 268:1.0 419:1.0 715:1.0 
-0.0 -1.0 0.0 0.0 0.9455987660216171 2:1.0 3:2.0 4:1.0 5:7.0 6:6.0 7:1.0 9:1.0 49:1.0 
-0.0 -1.0 0.0 0.0 0.0 2:1.0 3:2.0 4:1.0 5:6.0 6:6.0 7:1.0 9:1.0 
-0.0 -0.2334895196310318 0.25548517632005785 0.0 0.0 2:1.0 3:2.0 4:1.0 5:7.0 6:7.0 7:1.0 202:1.0 716:1.0 
-0.0 -1.0 1.0 0.3720597925496282 0.0 2:1.0 3:2.0 4:2.0 5:5.0 6:4.0 7:1.0 12:1.0 717:1.0 
-0.0 -0.0 0.2777421160357585 0.24461011551157313 0.0 3:2.0 4:1.0 5:9.0 6:7.0 7:3.0 323:1.0 377:1.0 718:1.0 719:1.0 
-0.0 -0.0 0.34061922791943156 0.21285442001424856 0.0 2:1.0 3:2.0 4:1.0 5:7.0 6:7.0 7:1.0 545:1.0 720:1.0 
-0.0 -0.0467384757353004 0.0 0.7911335190226554 0.27062688973601245 2:1.0 3:2.0 4:1.0 5:8.0 6:8.0 7:1.0 12:1.0 294:1.0 721:1.0 
-0.0 -0.09911019009444615 0.2795557361043667 0.031043449429110567 0.002342971659076487 2:1.0 3:2.0 4:2.0 5:10.0 6:9.0 7:1.0 12:1.0 722:1.0 723:1.0 724:1.0 
-0.0 -0.1263236916442015 0.14944719250430286 0.0 0.0 2:1.0 3:2.0 4:1.0 5:4.0 6:4.0 7:1.0 245:1.0 725:1.0 
-1.0 -1.0 0.0 1.0 1.0 2:1.0 3:2.0 4:1.0 5:3.0 6:3.0 7:1.0 9:1.0 
-0.0 -1.0 1.0 1.0 1.0 2:1.0 3:2.0 4:3.0 5:6.0 6:4.0 7:1.0 9:1.0 
-0.0 -0.5997584037824828 0.9324347104426708 0.5820617841995612 0.4790846320087139 3:2.0 4:2.0 5:3.0 6:2.0 7:1.0 8:1.0 459:1.0 
-0.0 -1.0 0.0 0.0 1.0 2:1.0 3:2.0 4:1.0 5:5.0 6:5.0 7:1.0 9:1.0 
-0.0 -1.0 0.0 0.0 0.0 2:1.0 3:2.0 4:2.0 5:7.0 6:5.0 7:1.0 9:1.0 22:1.0 
-0.0 -0.0 0.0 0.0 0.3290013687662739 2:1.0 3:2.0 4:4.0 5:13.0 6:9.0 7:1.0 28:1.0 315:1.0 482:1.0 561:1.0 726:1.0 
-0.0 -1.0 1.0 1.0 1.0 2:1.0 3:2.0 4:2.0 5:11.0 6:10.0 7:1.0 9:1.0 
-0.0 -0.19713064207461 0.10665763193224212 0.0 0.0 2:1.0 3:2.0 4:3.0 5:11.0 6:8.0 7:2.0 12:1.0 487:1.0 727:1.0 728:1.0 
-0.0 -1.0 0.0 0.0 0.0 2:1.0 3:2.0 4:1.0 5:10.0 6:8.0 7:3.0 9:1.0 
-0.0 -0.0 0.24566694167560307 0.04014982847904398 0.4859208297847929 2:1.0 3:2.0 4:4.0 5:11.0 6:8.0 7:1.0 74:1.0 729:1.0 730:1.0 731:1.0 
-0.0 -0.0 1.0 0.0 0.02392368918038867 2:1.0 3:2.0 4:1.0 5:10.0 6:8.0 7:3.0 392:1.0 475:1.0 717:1.0 
-0.0 -0.05672354755819741 0.20265193686566355 0.027966752745573486 0.0013972757084472162 2:1.0 3:2.0 4:3.0 5:16.0 6:12.0 7:3.0 12:1.0 590:1.0 732:1.0 733:1.0 734:1.0 735:1.0 
-0.0 -1.0 0.0 0.0 1.0 2:1.0 3:2.0 4:1.0 5:5.0 6:5.0 7:1.0 9:1.0 
-0.0 -1.0 0.0 0.0 0.0 2:1.0 3:2.0 4:1.0 5:8.0 6:8.0 7:1.0 9:1.0 
-0.0 -1.0 0.0 0.0 0.0 3:2.0 4:2.0 5:10.0 6:7.0 7:3.0 25:1.0 26:1.0 
-0.0 -1.0 0.0 0.13857957329942955 0.0 2:1.0 3:2.0 4:1.0 5:5.0 6:5.0 7:1.0 12:1.0 218:1.0 
-0.0 -1.0 1.0 1.0 1.0 2:1.0 3:2.0 4:4.0 5:6.0 6:3.0 7:1.0 9:1.0 
-0.0 -1.0 0.0 0.0 1.0 2:1.0 3:2.0 4:1.0 5:5.0 6:5.0 7:1.0 9:1.0 
-0.0 -1.0 0.0 0.09085046188884893 0.006278506830463705 2:1.0 3:2.0 4:1.0 5:5.0 6:4.0 7:2.0 12:1.0 736:1.0 
-0.0 -0.0 0.0 0.11321531050603525 0.02388555712503799 2:1.0 3:2.0 4:1.0 5:9.0 6:7.0 7:3.0 392:1.0 529:1.0 737:1.0 
-0.0 -1.0 0.0 0.0 1.0 2:1.0 3:2.0 4:1.0 5:5.0 6:5.0 7:1.0 9:1.0 
-0.04052276725163856 -0.0 0.4002117325732323 0.9144707959815547 0.2491475142204078 2:1.0 3:2.0 4:1.0 5:9.0 6:6.0 7:2.0 10:1.0 12:1.0 49:1.0 89:1.0 548:1.0 738:1.0 
-0.0 -0.0 0.0 0.0 0.058075952323671756 2:1.0 3:2.0 4:3.0 5:11.0 6:9.0 7:1.0 66:1.0 739:1.0 740:1.0 
-0.0 -1.0 0.0 0.0 0.0 2:1.0 3:2.0 4:1.0 5:6.0 6:6.0 7:1.0 9:1.0 
-0.0 -1.0 0.0 0.0 0.7232344410633724 2:1.0 3:2.0 4:1.0 5:5.0 6:5.0 7:1.0 9:1.0 
-0.0 -0.0 0.34199289266238114 0.1934579183148879 0.031632244267077336 2:1.0 3:2.0 4:4.0 5:11.0 6:8.0 7:1.0 579:1.0 741:1.0 742:1.0 
-0.0 -0.0 0.2691516042486986 0.0 0.0 2:1.0 3:2.0 4:1.0 5:11.0 6:10.0 7:1.0 49:1.0 202:1.0 278:1.0 372:1.0 744:1.0 
-0.0 -0.0 0.21675799133624826 0.01749733374639835 0.0 2:1.0 3:2.0 4:3.0 5:8.0 6:6.0 7:1.0 300:1.0 315:1.0 745:1.0 
-0.0 -1.0 0.6429932905701228 0.0 1.0 2:1.0 3:2.0 4:3.0 5:17.0 6:13.0 7:1.0 9:1.0 22:1.0 28:1.0 
-0.0 -0.0 0.49565952105376065 0.16054546712665813 0.16131938565305654 2:1.0 3:2.0 4:3.0 5:12.0 6:9.0 7:1.0 28:1.0 746:1.0 747:1.0 748:1.0 
-0.0 -1.0 0.0 0.7900337474453746 1.0 2:1.0 3:2.0 4:1.0 5:13.0 6:13.0 7:1.0 9:1.0 
-0.22313629515686983 -0.0 0.33914974167146683 0.0 0.0 2:1.0 3:2.0 4:1.0 5:9.0 6:8.0 7:1.0 8:1.0 11:1.0 197:1.0 575:1.0 749:1.0 750:1.0 
-0.0 -1.0 0.0 0.0 1.0 2:1.0 3:2.0 4:1.0 5:11.0 6:11.0 7:1.0 9:1.0 
-0.0 -0.0 1.0 0.36653252119919566 0.04242813290019192 2:1.0 3:2.0 4:1.0 5:11.0 6:10.0 7:1.0 11:1.0 194:1.0 352:1.0 751:1.0 
-0.0 -0.0 0.27450879052148486 0.051546216535621525 0.03984258060457681 2:1.0 3:2.0 4:3.0 5:16.0 6:11.0 7:4.0 620:1.0 752:1.0 753:1.0 754:1.0 
-0.0 -0.0 0.0 0.045556491726543503 0.0033934901214562247 3:2.0 4:2.0 5:16.0 6:14.0 7:2.0 8:1.0 279:1.0 407:1.0 625:1.0 755:1.0 756:1.0 757:1.0 
-0.0 -0.46303023960538947 0.0 0.0 0.0 2:1.0 3:2.0 4:3.0 5:7.0 6:4.0 7:2.0 12:1.0 315:1.0 418:1.0 
-0.0 -0.5139159376364048 0.0124197837900586 0.0 0.4422805551495378 3:2.0 4:1.0 5:3.0 6:3.0 7:1.0 8:1.0 287:1.0 
-0.0 -0.0 0.46572679824941093 0.002345274780906489 0.0 2:1.0 3:2.0 4:3.0 5:10.0 6:8.0 7:1.0 12:1.0 284:1.0 386:1.0 760:1.0 
-0.0 -0.11648869120968561 0.3499442649985064 0.0 0.31289321138089593 2:1.0 3:2.0 4:3.0 5:8.0 6:4.0 7:2.0 12:1.0 49:1.0 59:1.0 273:1.0 761:1.0 
-0.0 -0.28511466010405706 0.2720456926744271 0.11890348622867625 0.24173076203923283 2:1.0 3:2.0 4:1.0 5:5.0 6:4.0 7:1.0 28:1.0 762:1.0 763:1.0 
-0.0 -1.0 0.0 0.0 1.0 2:1.0 3:2.0 4:1.0 5:11.0 6:11.0 7:1.0 9:1.0 
-0.0 -0.0 0.1929339573459774 0.05310582135727946 0.00976472577263694 2:1.0 3:2.0 4:1.0 5:10.0 6:10.0 7:1.0 764:2.0 765:1.0 766:1.0 
-0.0 -0.5443914910989051 0.12030785079129482 0.0442803952750603 0.0031320122597213894 2:1.0 3:2.0 4:3.0 5:8.0 6:5.0 7:2.0 12:1.0 523:1.0 767:1.0 
-0.0 -0.0 0.16736970300162893 0.0 0.0 2:1.0 3:2.0 4:3.0 5:7.0 6:5.0 7:1.0 245:1.0 769:1.0 770:1.0 
-0.0 -1.0 0.0 0.0 0.024985764549920377 2:1.0 3:2.0 4:1.0 5:9.0 6:9.0 7:1.0 9:1.0 
-0.0 -0.08732694435467837 0.0477200162308842 0.09260594785625027 0.0035930518576246114 2:1.0 3:2.0 4:1.0 5:10.0 6:10.0 7:1.0 12:1.0 771:1.0 772:1.0 
-0.0 -1.0 0.0 0.0 0.0 2:1.0 3:2.0 4:1.0 5:6.0 6:6.0 7:1.0 9:1.0 
-0.0 -1.0 0.018777590122896547 0.13872538188139286 0.006912568575101809 2:1.0 3:2.0 4:1.0 5:4.0 6:4.0 7:1.0 12:1.0 773:1.0 
-0.0 -0.0 1.0 0.0 0.0 2:1.0 3:2.0 4:3.0 5:5.0 6:3.0 7:1.0 167:1.0 273:1.0 
-0.0 -0.14496662632808816 0.4403087974686723 0.17728582193880774 0.011398061109660882 2:1.0 3:2.0 4:3.0 5:10.0 6:8.0 7:1.0 127:1.0 774:1.0 775:1.0 
-0.0 -0.6057351418243067 0.15311372905557435 0.11778382901263346 0.003132953086502091 2:1.0 3:2.0 4:4.0 5:8.0 6:4.0 7:2.0 12:1.0 776:1.0 777:1.0 
-0.0 -1.0 0.0 0.0 0.0 2:1.0 3:2.0 4:1.0 5:8.0 6:6.0 7:3.0 9:1.0 
-0.0 -1.0 0.0 0.0 1.0 2:1.0 3:2.0 4:1.0 5:5.0 6:5.0 7:1.0 9:1.0 
-0.0 -0.0540722396405662 0.0 0.0 0.0 2:1.0 3:2.0 4:1.0 5:5.0 6:4.0 7:1.0 49:1.0 295:1.0 778:1.0 
-0.0 -1.0 0.0 0.0 0.0 2:1.0 3:2.0 4:1.0 5:6.0 6:6.0 7:1.0 9:1.0 
-0.0 -1.0 0.0 0.0 1.0 2:1.0 3:2.0 4:1.0 5:5.0 6:5.0 7:1.0 9:1.0 
-0.0 -1.0 0.0 0.0 0.8638702160370355 2:1.0 3:2.0 4:1.0 5:5.0 6:5.0 7:1.0 9:1.0 
-0.04506702988709477 -0.08170326330928422 0.17784134658733258 0.04478036204287921 0.5048143510407455 2:1.0 3:2.0 4:1.0 5:11.0 6:9.0 7:2.0 11:1.0 12:1.0 89:1.0 358:1.0 779:1.0 780:1.0 
-0.0 -0.22374119650527427 0.13233307514589607 0.0 0.0 2:1.0 3:2.0 4:1.0 5:7.0 6:6.0 7:1.0 39:1.0 167:1.0 781:1.0 782:1.0 
-0.0 -1.0 0.0 0.0 0.0 2:1.0 3:2.0 4:1.0 5:5.0 6:5.0 7:1.0 9:1.0 
-0.0 -1.0 0.0 0.0 0.0 2:1.0 3:2.0 4:1.0 5:7.0 6:6.0 7:1.0 9:1.0 22:1.0 
-0.0 -0.0 0.22525766936516967 0.0 0.0 3:2.0 4:3.0 5:9.0 6:7.0 7:1.0 164:1.0 323:1.0 783:1.0 784:1.0 
-0.0 -0.0 0.06968293614574703 0.0 0.0 3:2.0 4:2.0 5:7.0 6:6.0 7:1.0 167:1.0 323:1.0 785:1.0 786:1.0 
-0.0 -0.13398316678326067 0.0 0.0 0.09852262617559047 2:1.0 3:2.0 4:1.0 5:10.0 6:9.0 7:1.0 12:1.0 28:1.0 545:1.0 787:1.0 788:1.0 789:1.0 
-0.0 -0.0 0.48238725153009854 0.0 0.0 2:1.0 3:2.0 4:5.0 5:17.0 6:11.0 7:3.0 12:1.0 168:1.0 284:1.0 790:1.0 791:1.0 792:1.0 793:1.0 
-0.0381319451268138 -0.0 0.0 0.0 0.510185413339857 2:1.0 3:2.0 4:1.0 5:11.0 6:10.0 7:1.0 11:1.0 405:1.0 461:1.0 
-0.0 -1.0 0.9032447448725867 0.0 0.0 2:1.0 3:2.0 4:3.0 5:8.0 6:4.0 7:3.0 12:1.0 110:1.0 794:1.0 
-0.0 -0.025083823438242326 0.27070611968477326 1.0 0.016631998662830272 2:1.0 3:2.0 4:1.0 5:6.0 6:6.0 7:1.0 277:1.0 795:1.0 
-0.0 -0.0 0.14263799614368208 0.5096129966127285 0.0 2:1.0 3:2.0 4:2.0 5:7.0 6:6.0 7:1.0 245:1.0 796:1.0 797:1.0 
-0.1594000912815776 -0.3762603556322156 0.8080054869513547 0.8175784340071871 0.5054066136050543 2:1.0 3:2.0 4:3.0 5:7.0 6:4.0 7:1.0 10:1.0 798:1.0 799:1.0 
-0.0 -0.0 0.4352562319397929 0.3865209031629736 0.12117816873869224 2:1.0 3:2.0 4:1.0 5:4.0 6:4.0 7:1.0 109:1.0 800:1.0 
-0.23822105578615538 -0.10475362160835898 0.32866378411944447 0.18302767975944698 0.1307200629307452 2:1.0 3:2.0 4:1.0 5:8.0 6:7.0 7:1.0 11:1.0 316:1.0 801:1.0 
-0.0 -0.0 1.0 0.0 0.0 3:2.0 4:1.0 5:6.0 6:6.0 7:1.0 46:1.0 98:1.0 307:1.0 802:1.0 
-0.0 -0.091581827381503 0.3181348674031276 0.13899622914781912 0.024233590647982802 2:1.0 3:2.0 4:4.0 5:11.0 6:8.0 7:1.0 253:1.0 803:1.0 804:1.0 
-0.0 -0.0 1.0 1.0 0.0 2:1.0 3:2.0 4:4.0 5:12.0 6:8.0 7:2.0 32:1.0 284:1.0 739:1.0 
-0.0 -1.0 0.0 0.0 0.0 2:1.0 3:2.0 4:1.0 5:8.0 6:7.0 7:2.0 9:1.0 
-0.0 -0.0 0.17179272718900757 0.0 0.0 2:1.0 3:2.0 4:7.0 5:14.0 6:7.0 7:2.0 272:1.0 273:1.0 318:1.0 805:1.0 
-0.0 -0.0 0.7096980110677663 0.0 0.0 2:1.0 3:2.0 4:5.0 5:15.0 6:10.0 7:1.0 11:1.0 170:1.0 343:1.0 806:1.0 807:1.0 
-0.0 -0.0 0.3217263791342848 0.0 0.21158887486769912 2:1.0 3:2.0 4:2.0 5:17.0 6:16.0 7:1.0 74:1.0 808:1.0 809:1.0 810:1.0 811:1.0 
-0.0 -0.0 0.204353581216672 0.3765834153101586 0.0 2:1.0 3:2.0 4:3.0 5:9.0 6:7.0 7:1.0 245:1.0 812:1.0 813:1.0 
-0.0 -0.10870449818653594 0.5788665742666712 0.0 0.0 2:1.0 3:2.0 4:1.0 5:16.0 6:8.0 7:5.0 22:3.0 170:1.0 183:1.0 814:1.0 815:1.0 
-0.0 -0.06272889465072828 0.0 0.0989077002268987 0.06024693837620744 2:1.0 3:2.0 4:1.0 5:7.0 6:6.0 7:2.0 12:1.0 89:1.0 109:1.0 816:1.0 
-0.0 -1.0 1.0 1.0 0.06377868972778913 2:1.0 3:2.0 4:3.0 5:8.0 6:6.0 7:1.0 9:1.0 
-0.0 -0.36086849288091843 1.0 0.4833903131400963 0.4798424100037926 3:2.0 4:3.0 5:7.0 6:3.0 7:2.0 59:1.0 98:1.0 160:1.0 802:1.0 817:1.0 
-0.0 -0.24466131766454083 1.0 1.0 0.18522199842385192 3:2.0 4:2.0 5:4.0 6:3.0 7:1.0 8:1.0 268:1.0 818:1.0 
-0.0 -0.2516703987066815 0.3151985363251895 0.21793730338714876 0.04830268689067897 2:1.0 3:2.0 4:1.0 5:3.0 6:3.0 7:1.0 819:1.0 820:1.0 
-0.0 -1.0 1.0 1.0 0.0 2:1.0 3:2.0 4:4.0 5:9.0 6:5.0 7:2.0 9:1.0 
-1.0 -1.0 0.0 0.0 0.024155369425756815 2:1.0 3:2.0 4:1.0 5:5.0 6:4.0 7:1.0 9:1.0 19:1.0 
-0.0 -0.0 0.32463191704066235 0.0 0.0 2:1.0 3:2.0 4:2.0 5:9.0 6:8.0 7:1.0 405:1.0 821:1.0 822:1.0 
-0.0 -1.0 1.0 1.0 1.0 2:1.0 3:2.0 4:3.0 5:6.0 6:4.0 7:1.0 9:1.0 
-0.0 -1.0 0.0 0.0 0.0 2:1.0 3:2.0 4:2.0 5:8.0 6:5.0 7:3.0 9:1.0 
-0.0 -1.0 0.0 0.0 0.0 2:1.0 3:2.0 4:1.0 5:8.0 6:8.0 7:1.0 9:1.0 
-0.0 -0.0 0.3702860983437314 0.20953379418694126 0.03225343496250647 2:1.0 3:2.0 4:5.0 5:10.0 6:6.0 7:1.0 823:1.0 824:1.0 825:1.0 
-0.0 -0.0 0.2263683521471876 0.06977114193264186 0.058207658274571174 2:1.0 3:2.0 4:3.0 5:12.0 6:10.0 7:1.0 66:1.0 826:1.0 827:1.0 
-0.0 -1.0 0.0 0.0 0.0 2:1.0 3:2.0 4:1.0 5:7.0 6:7.0 7:1.0 9:1.0 
-0.0 -0.0 0.8564630292111678 0.5128003244767606 0.0 2:1.0 3:2.0 4:1.0 5:7.0 6:7.0 7:1.0 194:1.0 828:1.0 
-1.0 -1.0 0.0 1.0 1.0 2:1.0 3:2.0 4:1.0 5:4.0 6:4.0 7:1.0 9:1.0 
-0.0 -0.48655621842853863 0.0 0.0 0.0 2:1.0 3:2.0 4:3.0 5:7.0 6:4.0 7:2.0 12:1.0 419:1.0 829:1.0 
-0.0 -0.0 0.1900521976706043 0.02958355641600515 0.1187872006858959 2:1.0 3:2.0 4:5.0 5:15.0 6:9.0 7:1.0 28:1.0 49:1.0 830:1.0 831:1.0 832:1.0 833:1.0 
-0.0 -0.08774544917148375 0.0 0.0 0.0 2:1.0 3:2.0 4:1.0 5:9.0 6:9.0 7:1.0 12:1.0 475:1.0 702:1.0 834:1.0 
-0.0 -0.22894959902954456 0.0 0.0 0.05637495039457222 2:1.0 3:2.0 4:3.0 5:9.0 6:4.0 7:2.0 12:1.0 28:1.0 160:1.0 419:1.0 817:1.0 
-0.0 -0.0 0.15675809375890695 0.09982634456168835 0.02421538659284907 2:1.0 3:2.0 4:1.0 5:10.0 6:10.0 7:1.0 647:1.0 835:1.0 836:1.0 837:1.0 
-0.0 -1.0 0.0 0.0 0.0 3:2.0 4:2.0 5:8.0 6:5.0 7:3.0 25:1.0 26:1.0 
-0.0 -1.0 0.0 0.0 7.986629411751E-4 2:1.0 3:2.0 4:1.0 5:29.0 6:22.0 7:8.0 9:1.0 
-0.0 -0.0 1.0 0.10101919174411095 0.026004379754635733 2:1.0 3:2.0 4:3.0 5:11.0 6:7.0 7:1.0 22:1.0 49:1.0 309:1.0 809:1.0 840:1.0 
-0.0 -0.0 0.3068151990064099 1.0 0.30939467276432375 2:1.0 3:2.0 4:1.0 5:12.0 6:11.0 7:1.0 10:1.0 64:1.0 625:1.0 779:1.0 843:1.0 
-0.0 -1.0 0.018769359262392888 0.13873104484284132 0.006807196922557574 2:1.0 3:2.0 4:1.0 5:4.0 6:4.0 7:1.0 12:1.0 844:1.0 
-0.0 -0.0 0.9993641644519596 0.45098092024048897 0.0 2:1.0 3:2.0 4:5.0 5:13.0 6:8.0 7:2.0 109:1.0 119:1.0 258:1.0 551:1.0 
-0.0 -0.6303586282528214 0.0 0.0695451849270269 0.4762049050735872 2:1.0 3:2.0 4:2.0 5:6.0 6:4.0 7:2.0 12:1.0 421:1.0 845:1.0 
-0.0 -1.0 1.0 0.0 1.0 2:1.0 3:2.0 4:3.0 5:22.0 6:17.0 7:4.0 9:1.0 
-0.0 -0.16884465960127235 0.0 0.0 0.0 2:1.0 3:2.0 4:1.0 5:14.0 6:10.0 7:5.0 75:1.0 279:1.0 330:1.0 471:1.0 846:1.0 847:1.0 
-0.0 -0.17182289269308718 0.3668911666497795 0.3716281821543157 0.0 2:1.0 3:2.0 4:3.0 5:6.0 6:3.0 7:1.0 160:1.0 848:1.0 849:1.0 
-0.0 -0.4630064048018978 0.23854834065823835 0.1976828995192248 0.009388121020036748 2:1.0 3:2.0 4:1.0 5:4.0 6:3.0 7:1.0 12:1.0 38:1.0 830:1.0 850:1.0 
-0.0 -0.21279150020025525 0.0 0.0 0.0 2:1.0 3:2.0 4:3.0 5:9.0 6:7.0 7:1.0 12:1.0 203:1.0 851:1.0 852:1.0 
-0.0 -1.0 1.0 1.0 0.9206647051933718 2:1.0 3:2.0 4:4.0 5:8.0 6:5.0 7:1.0 9:1.0 
-0.0 -0.0 0.8281075991695417 0.31075775805568073 0.0 2:1.0 3:2.0 4:5.0 5:14.0 6:9.0 7:1.0 10:1.0 12:1.0 284:1.0 315:1.0 853:1.0 854:1.0 
-0.0 -0.0 0.0 0.08937306610665745 0.0 2:1.0 3:2.0 4:1.0 5:11.0 6:11.0 7:1.0 12:1.0 203:1.0 243:1.0 314:1.0 855:1.0 
-0.0 -1.0 1.0 1.0 1.0 2:1.0 3:2.0 4:3.0 5:15.0 6:12.0 7:2.0 9:1.0 
-0.0 -0.0 0.0 0.0 0.014164011768535482 2:1.0 3:2.0 4:2.0 5:9.0 6:6.0 7:2.0 28:1.0 315:1.0 856:1.0 857:1.0 
-0.0 -0.0 0.15200389482681462 0.035231479635257544 0.030665602445022696 2:1.0 3:2.0 4:1.0 5:7.0 6:7.0 7:1.0 164:1.0 858:1.0 859:1.0 
-0.01138280683574731 -1.0 0.0 1.0 0.958324643406354 2:1.0 3:2.0 4:2.0 5:5.0 6:4.0 7:1.0 9:1.0 
-0.0 -0.0 0.19165587578322205 0.0 0.0 2:1.0 3:2.0 4:5.0 5:21.0 6:15.0 7:2.0 11:1.0 59:1.0 170:1.0 764:1.0 861:1.0 862:1.0 863:1.0 864:1.0 
-0.0 -0.15100914905510807 0.8337758332015044 0.29448614383733285 0.2395807444650678 3:2.0 4:4.0 5:7.0 6:4.0 7:1.0 8:1.0 203:1.0 865:1.0 
-0.0 -0.10612024233773977 0.6968303592804366 0.8469886110613171 1.0 2:1.0 3:2.0 4:1.0 5:10.0 6:9.0 7:1.0 22:1.0 119:1.0 157:1.0 855:1.0 
-0.0 -1.0 0.0 0.0 1.0 2:1.0 3:2.0 4:1.0 5:5.0 6:5.0 7:1.0 9:1.0 
-0.0 -1.0 1.0 1.0 1.0 2:1.0 3:2.0 4:3.0 5:10.0 6:8.0 7:1.0 9:1.0 
-0.0 -0.505230024622611 0.04274896314557066 0.0 0.8774213989035875 2:1.0 3:2.0 4:5.0 5:10.0 6:5.0 7:1.0 12:1.0 28:1.0 74:1.0 435:1.0 866:1.0 
-0.0 -0.0 0.0 0.058126269359986577 0.047755154675376665 2:1.0 3:2.0 4:1.0 5:8.0 6:6.0 7:3.0 398:1.0 867:1.0 
-0.0 -0.0 0.2715299394504693 0.08982302324497148 0.0 2:1.0 3:2.0 4:3.0 5:12.0 6:9.0 7:2.0 278:1.0 868:1.0 869:1.0 
-0.0 -0.17500164774778862 0.1131308459279235 0.24065973402621527 0.098883751464343 2:1.0 3:2.0 4:1.0 5:8.0 6:7.0 7:2.0 59:1.0 167:1.0 641:1.0 870:1.0 
-0.0 -1.0 0.28695419082029555 1.0 0.0 2:1.0 3:2.0 4:2.0 5:8.0 6:7.0 7:1.0 9:1.0 
-0.0 -0.2984628278624836 0.15376171692302237 0.02758066660846938 0.0 2:1.0 3:2.0 4:5.0 5:14.0 6:8.0 7:3.0 108:1.0 144:1.0 399:1.0 587:1.0 871:1.0 872:1.0 
-0.0 -0.0 0.08601586037807295 0.15225142451725254 0.0 3:2.0 4:2.0 5:9.0 6:8.0 7:1.0 323:1.0 364:1.0 532:1.0 
-0.0 -0.4129086532041638 0.03456011916832535 0.07830466741724887 0.002318523902302515 2:1.0 3:2.0 4:3.0 5:9.0 6:7.0 7:1.0 12:1.0 217:1.0 331:1.0 873:1.0 
-0.0 -0.6133093971187598 0.29824970956552405 0.4665536303135583 0.0 2:1.0 3:2.0 4:2.0 5:8.0 6:6.0 7:2.0 12:1.0 196:1.0 874:1.0 875:1.0 
-0.0 -0.0 0.7038272401814716 0.0 0.0 2:1.0 3:2.0 4:5.0 5:10.0 6:6.0 7:1.0 98:1.0 289:1.0 299:1.0 876:1.0 
-0.0 -0.8973526965968719 0.3460838867100185 0.2846988262812175 0.389444036301026 3:2.0 4:2.0 5:6.0 6:5.0 7:1.0 8:1.0 12:1.0 711:1.0 
-0.0 -0.0 0.013636087343811732 0.05836417102019386 0.01912707284435595 2:1.0 3:2.0 4:1.0 5:12.0 6:10.0 7:3.0 565:1.0 764:1.0 877:1.0 878:1.0 
-0.0 -0.0 0.06534322183261011 0.0 0.0 2:1.0 3:2.0 4:3.0 5:9.0 6:6.0 7:2.0 12:1.0 284:1.0 342:1.0 879:1.0 
-0.0 -1.0 0.0 0.07715829132975145 0.0 2:1.0 3:2.0 4:1.0 5:9.0 6:5.0 7:5.0 83:1.0 215:1.0 321:1.0 
-0.0 -0.0 0.5883366443695859 0.043592828176914435 0.0 3:2.0 4:2.0 5:8.0 6:7.0 7:1.0 323:1.0 343:1.0 880:1.0 881:1.0 
-0.0 -0.6708068248738482 0.12848367763237778 0.0 0.0 2:1.0 3:2.0 4:5.0 5:9.0 6:5.0 7:1.0 12:1.0 203:1.0 882:1.0 
-0.0 -0.0 0.0 0.0 0.014412160272072717 2:1.0 3:2.0 4:3.0 5:8.0 6:5.0 7:1.0 28:1.0 315:1.0 883:1.0 884:1.0 
-0.0 -1.0 0.0 0.0 0.5026238315495002 2:1.0 3:2.0 4:1.0 5:5.0 6:5.0 7:1.0 9:1.0 
-0.0 -0.19030960807379618 0.00922591199939735 0.0 0.2877920880636041 2:1.0 3:2.0 4:1.0 5:9.0 6:8.0 7:1.0 12:1.0 49:1.0 607:1.0 885:1.0 
-0.0 -1.0 0.0 0.0 0.0 2:1.0 3:2.0 4:1.0 5:8.0 6:7.0 7:2.0 9:1.0 
-0.0 -0.5064800286239105 0.22435052911294215 0.029609702366283193 0.46708246822599986 2:1.0 3:2.0 4:3.0 5:12.0 6:7.0 7:2.0 28:2.0 36:1.0 886:1.0 887:1.0 
-0.0 -1.0 0.0 0.0 0.0 2:1.0 3:2.0 4:2.0 5:7.0 6:5.0 7:2.0 9:1.0 
-0.0 -1.0 1.0 0.23551803800585536 0.0 2:1.0 3:2.0 4:3.0 5:4.0 6:2.0 7:1.0 12:1.0 273:1.0 
-0.0 -0.0 0.3544965076488402 0.0935368059270505 0.0 3:2.0 4:3.0 5:11.0 6:8.0 7:1.0 8:1.0 160:1.0 722:1.0 890:1.0 891:1.0 892:1.0 
-0.0 -0.22703651152255 0.9257658511853669 1.0 0.0482542748326059 2:1.0 3:2.0 4:3.0 5:5.0 6:3.0 7:1.0 893:1.0 894:1.0 
-0.0 -1.0 1.0 1.0 1.0 2:1.0 3:2.0 4:3.0 5:10.0 6:8.0 7:1.0 9:1.0 
-0.0 -1.0 0.0 0.0 0.0 2:1.0 3:2.0 4:1.0 5:7.0 6:7.0 7:1.0 9:1.0 
-0.0 -1.0 1.0 0.0 0.0 2:1.0 3:2.0 4:1.0 5:7.0 6:6.0 7:1.0 9:1.0 39:1.0 
-0.0 -0.1044409505397646 0.04834561595660294 0.24599472229417288 0.027007441342736895 2:1.0 3:2.0 4:1.0 5:5.0 6:5.0 7:1.0 751:1.0 769:1.0 
-0.0 -0.7230096622891082 0.2652228639538692 1.0 0.2493801234281961 2:1.0 3:2.0 4:1.0 5:11.0 6:8.0 7:2.0 10:1.0 12:1.0 49:1.0 89:1.0 202:1.0 548:1.0 
-0.0 -1.0 1.0 1.0 0.9910544957708035 2:1.0 3:2.0 4:4.0 5:8.0 6:5.0 7:1.0 9:1.0 
-0.0 -1.0 0.0 0.0 1.0 2:1.0 3:2.0 4:1.0 5:13.0 6:13.0 7:1.0 9:1.0 
-0.0 -0.0 0.36062116068864447 0.16321774296351796 0.024168035147356094 2:1.0 3:2.0 4:5.0 5:10.0 6:6.0 7:1.0 803:1.0 896:1.0 897:1.0 
-0.0 -1.0 1.0 1.0 1.0 2:1.0 3:2.0 4:3.0 5:10.0 6:8.0 7:1.0 9:1.0 
-0.0 -1.0 0.0 0.0 0.0 2:1.0 3:2.0 4:1.0 5:6.0 6:6.0 7:1.0 9:1.0 
-0.0 -0.0 0.14933848006631495 0.0 0.0 2:1.0 3:2.0 4:4.0 5:12.0 6:9.0 7:1.0 245:1.0 268:1.0 898:1.0 899:1.0 900:1.0 
-0.0 -1.0 1.0 1.0 0.7093449365733121 2:1.0 3:2.0 4:3.0 5:7.0 6:5.0 7:1.0 9:1.0 
-0.0 -0.0 0.0 0.08972066042330439 0.1727475395810888 2:1.0 3:2.0 4:1.0 5:11.0 6:11.0 7:1.0 461:1.0 703:1.0 902:1.0 
-0.0 -0.0 0.0 0.0715434071614102 0.0 3:2.0 4:3.0 5:7.0 6:5.0 7:1.0 323:1.0 636:1.0 760:1.0 903:1.0 
-0.0 -0.0 0.0 0.0 0.012262209088237275 3:2.0 4:5.0 5:9.0 6:5.0 7:1.0 8:1.0 315:1.0 413:1.0 904:1.0 
-0.0 -0.5872123192622082 0.37457956441627194 0.07254997297112288 0.2323165499607111 2:1.0 3:2.0 4:3.0 5:8.0 6:5.0 7:2.0 12:1.0 59:1.0 676:1.0 905:1.0 
-0.0 -0.0 1.0 0.0 0.0 2:1.0 3:2.0 4:1.0 5:11.0 6:8.0 7:4.0 284:1.0 529:1.0 591:1.0 
-0.0 -1.0 0.0 0.0 1.0 2:1.0 3:2.0 4:1.0 5:5.0 6:5.0 7:1.0 9:1.0 
-0.0 -0.3390255711281578 0.0 0.0 0.2442375497927608 2:1.0 3:2.0 4:1.0 5:10.0 6:8.0 7:3.0 12:1.0 13:1.0 906:1.0 907:1.0 908:1.0 
-0.0 -0.0 0.0 0.0 0.08721738669147625 2:1.0 3:2.0 4:1.0 5:6.0 6:6.0 7:1.0 307:1.0 393:1.0 
-0.0 -0.0 0.3723514615264518 0.11060808596784134 0.0 2:1.0 3:2.0 4:5.0 5:14.0 6:10.0 7:1.0 12:1.0 284:1.0 910:1.0 911:1.0 912:1.0 
-0.0 -1.0 0.0 0.0 0.48119579369341203 2:1.0 3:2.0 4:1.0 5:5.0 6:5.0 7:1.0 9:1.0 
-0.0 -0.9113203406740121 0.03149320235847426 0.13860607663324784 0.006930404829551302 2:1.0 3:2.0 4:1.0 5:5.0 6:5.0 7:1.0 12:1.0 913:1.0 
-0.0 -0.01624008275927672 0.38668284064575426 0.0 0.0 2:1.0 3:2.0 4:8.0 5:13.0 6:5.0 7:1.0 160:1.0 167:1.0 914:1.0 915:1.0 916:1.0 
-0.0 -1.0 1.0 1.0 1.0 2:1.0 3:2.0 4:1.0 5:4.0 6:4.0 7:1.0 12:1.0 
-0.0 -1.0 0.0 0.0 0.0 2:1.0 3:2.0 4:1.0 5:6.0 6:6.0 7:1.0 9:1.0 
-0.0 -0.020024537750404418 0.32796024050932254 0.21778239882026726 0.048308602322961254 2:1.0 3:2.0 4:1.0 5:5.0 6:5.0 7:1.0 846:1.0 918:1.0 
-0.5482285733248506 -1.0 0.0 0.0 0.0 2:1.0 3:2.0 4:1.0 5:7.0 6:5.0 7:3.0 9:1.0 
-0.0 -0.0 0.37615794466652996 0.0 0.0 2:1.0 3:2.0 4:1.0 5:12.0 6:12.0 7:1.0 194:1.0 405:1.0 591:1.0 
-0.0 -0.0 0.20854189998117176 0.24326724163784313 0.03223458537403723 2:1.0 3:2.0 4:4.0 5:9.0 6:6.0 7:1.0 447:1.0 919:1.0 920:1.0 
-0.0 -0.5782775210939558 0.11355261260208684 0.11768898073098176 0.0033970009663080373 2:1.0 3:2.0 4:3.0 5:5.0 6:3.0 7:1.0 12:1.0 921:1.0 922:1.0 
-0.0 -0.0 0.0797677161617727 0.0 0.0 2:1.0 3:2.0 4:1.0 5:11.0 6:11.0 7:1.0 55:2.0 625:1.0 923:1.0 
-1.0 -1.0 0.0 0.8967863783110319 0.9403696574615991 2:1.0 3:2.0 4:1.0 5:3.0 6:3.0 7:1.0 9:1.0 
-0.0 -0.23831574899119085 0.0 0.0 0.0 2:1.0 3:2.0 4:1.0 5:6.0 6:6.0 7:1.0 55:1.0 177:1.0 924:1.0 
-0.0 -1.0 0.5927912768485684 0.4302528455055637 1.0 3:2.0 4:2.0 5:8.0 6:6.0 7:1.0 11:1.0 25:1.0 26:1.0 
-0.0 -1.0 0.0 0.0 1.0 2:1.0 3:2.0 4:1.0 5:10.0 6:10.0 7:1.0 9:1.0 
-0.0 -0.11953872389102538 0.7221195123015581 0.0 0.0 2:1.0 3:2.0 4:2.0 5:8.0 6:6.0 7:2.0 59:1.0 245:1.0 890:1.0 
-1.0 -1.0 0.0 1.0 0.9864153787137728 2:1.0 3:2.0 4:1.0 5:4.0 6:4.0 7:1.0 9:1.0 
-0.0 -1.0 0.0 0.0 1.0 2:1.0 3:2.0 4:1.0 5:5.0 6:5.0 7:1.0 9:1.0 
-0.0 -0.2945668463124106 0.0 0.0 0.014417996778119299 3:2.0 4:1.0 5:26.0 6:8.0 7:10.0 8:1.0 12:1.0 22:9.0 177:1.0 309:1.0 925:1.0 926:1.0 
-0.0 -0.0 0.19172239026901064 0.015199875350473489 0.14308092119870763 3:2.0 4:1.0 5:10.0 6:7.0 7:3.0 8:2.0 22:1.0 927:1.0 928:1.0 929:1.0 
-0.0 -1.0 0.0 0.32963607280650603 0.36002423419247026 2:1.0 3:2.0 4:1.0 5:6.0 6:6.0 7:1.0 55:1.0 109:1.0 164:1.0 
-0.0 -0.06676037147417214 0.043813545500518934 0.0 0.0 2:1.0 3:2.0 4:5.0 5:11.0 6:5.0 7:3.0 245:1.0 278:1.0 930:1.0 931:1.0 932:1.0 933:1.0 
-0.007786078633303763 -0.0 0.0 0.0 0.0 2:1.0 3:2.0 4:1.0 5:11.0 6:10.0 7:1.0 11:1.0 272:1.0 358:1.0 614:1.0 934:1.0 
-0.0 -0.0695188813834295 0.0503129222650729 0.0 0.0 2:1.0 3:2.0 4:2.0 5:11.0 6:9.0 7:1.0 12:1.0 49:1.0 392:1.0 935:1.0 936:1.0 
-0.0 -0.36781298745161284 0.0 0.0 0.0 2:1.0 3:2.0 4:1.0 5:4.0 6:4.0 7:1.0 12:1.0 405:1.0 937:1.0 
-0.0 -1.0 0.0 1.0 0.0 2:1.0 3:2.0 4:2.0 5:6.0 6:5.0 7:1.0 9:1.0 
